{
    "layer_1_bias": [
        [
            -0.9650102500117147
        ], 
        [
            -0.2682234766215749
        ], 
        [
            -1.1103057387614628
        ], 
        [
            0.21280959213047246
        ], 
        [
            -0.3550166703376056
        ], 
        [
            0.4723631099322058
        ], 
        [
            1.0578781618485038
        ], 
        [
            0.14335241487892386
        ], 
        [
            0.2926722082635149
        ], 
        [
            -0.19357291173352809
        ], 
        [
            -1.4977767718318482
        ], 
        [
            1.1390359910923542
        ], 
        [
            -1.4507534816281134
        ], 
        [
            0.609715366573757
        ], 
        [
            0.7928330814052835
        ], 
        [
            -1.0404271227690254
        ], 
        [
            -1.1241953992746625
        ], 
        [
            -0.6384803272109819
        ], 
        [
            -1.161700187112581
        ], 
        [
            0.7626873206933633
        ]
    ], 
    "layer_1_weight": [
        [
            -0.17206815488875823, 
            1.1894075152055028, 
            0.49555932493253246, 
            -1.7677109981974932, 
            1.1992964520866631, 
            -1.1106410392995978, 
            0.404932724898485, 
            0.055342497854938125, 
            -0.8859534340466596, 
            0.08690653161602577, 
            0.0381218921983699, 
            -0.6155582367433191, 
            1.034787745289619, 
            0.04682960087825803, 
            0.5801971664489645, 
            0.39286871104990834, 
            -0.534882287722016, 
            1.1600044049328886, 
            -0.8356962208479813, 
            -0.5180669879734348, 
            0.30733032668283855, 
            0.16026945151514116, 
            2.0748312840382015, 
            -0.9869695512862335, 
            2.7278773735576527, 
            0.8280189337922251, 
            2.403626304948549, 
            -2.2638659833244303, 
            -0.6056050798159265, 
            -0.10203188914949661, 
            -1.1678835396271503, 
            0.44529101264803794, 
            0.934250804281477, 
            0.7333073959619157, 
            0.8930521213395602, 
            -0.8632420593915079, 
            -0.7234439477434075, 
            0.14816151039567538, 
            -0.802360427809485, 
            0.10727679331760728, 
            -1.0883249098760912, 
            0.8351135386028959, 
            -0.12332846253277016, 
            2.4373135946365054, 
            -0.20657599345583133, 
            -0.32227463839028003, 
            -1.0410250718453598, 
            -1.344768946753403, 
            0.14563277035438923, 
            1.4865485716784181, 
            0.6576021158963125, 
            -0.084329073063908, 
            0.4688458526445358, 
            -1.1181283787862764, 
            0.48581324863483627, 
            0.8517891405469639, 
            1.2704119169688382, 
            -0.017299363687637934, 
            1.5581952726844337, 
            -0.7126125130265193, 
            -0.915462583403213, 
            1.3442431769799954, 
            -1.2526684600437605, 
            -0.10731107772042608, 
            -1.091998642023394, 
            0.4768771440695952, 
            0.02308554469108123, 
            0.03583949997138131, 
            0.6241995460204633, 
            -0.6101567746815143, 
            -0.5286296359775717, 
            1.504556461926481, 
            -0.35579017246103845, 
            1.9914832892978653, 
            -0.17610651613197945, 
            1.5234632173837546, 
            0.8907069069509629, 
            0.022294257953527803, 
            -0.015830983258410865, 
            0.051816007080276415, 
            -1.081596004171952, 
            -0.9142345548716541, 
            1.121563175569534, 
            -0.7853589987024172, 
            0.7128215500240369, 
            0.3385276638593659, 
            -0.5517130459086647, 
            0.7958600043762754, 
            -0.5026759129385464, 
            1.4348185064054182, 
            1.6141790838796182, 
            1.1826004339185219, 
            0.02981529098556718, 
            -2.0359290714571583, 
            -0.05737080468023501, 
            0.4518179272377478, 
            0.9126381488474071, 
            2.4556825619737386, 
            1.0194828064128787, 
            0.18375207199579258, 
            0.46556046196688183, 
            1.6672621937967396, 
            1.3612714194629236, 
            0.1099008557764693, 
            -0.9908997701156533, 
            0.3919277413922615, 
            0.43499940795634173, 
            0.24096901203518517, 
            -0.2990499603492189, 
            -0.3540876200950223, 
            -0.14680112592379932, 
            -0.8820437811128686, 
            1.9948396376656627, 
            -0.5813449587794085, 
            -1.5761979473508874, 
            0.47391278736965403, 
            -3.1814071449882335, 
            0.12947487788966877, 
            0.22506102800120473, 
            0.7210829887262201, 
            0.49154667367638066, 
            1.5584271698644057, 
            -2.4714076602282904, 
            0.1503475602543936, 
            0.6830405123285539, 
            -1.2798507139529653, 
            -1.4480194016347443, 
            -0.095452813798857, 
            0.7207729655583311, 
            -0.2786269200135848, 
            -1.780551604434653, 
            -0.13294177353351344, 
            -0.5253534672782895, 
            0.8575570817642808, 
            0.8418204482945383, 
            2.234386531841243, 
            -0.5009263028423613, 
            0.7647657632624058, 
            -0.48591472160320287, 
            0.6292467331632428, 
            0.012688270535280158, 
            -0.15000932045541757, 
            -0.4333386976059435, 
            0.7537057699392951, 
            -1.331289763296647, 
            -0.8870445482091969, 
            0.8560877351953136, 
            -0.2922965763642794, 
            1.2647852598929328, 
            -0.2993847334063615, 
            1.9659636816683674, 
            1.8001097983384826, 
            -1.0711853631609527, 
            -0.3188092535056801, 
            1.3597567158769786, 
            1.9974693907490215, 
            -0.4992364269065176, 
            -1.515914559056572, 
            -0.6891148397785191, 
            0.19087820236957292, 
            0.662049851200733, 
            -1.7165012949447136, 
            -0.40612880995738954, 
            -2.522428313543409, 
            0.9958825229727281, 
            0.3356466650384929, 
            0.3724668064721007, 
            -1.5140035436892132, 
            -0.8943273416263062, 
            -0.9154901551908514, 
            0.5250716818845454, 
            0.9049362723659671, 
            1.3050086036889805, 
            -1.3823102600701953, 
            -1.1595796378199172, 
            0.6435166809724902, 
            0.14076421090633362, 
            -1.0833542817728503, 
            0.1842185166677883, 
            -1.1573036369660663, 
            -0.41341268357958116, 
            0.9950360916263331, 
            -0.9643607654103622, 
            -0.6698124580801704, 
            -0.10025487344608625, 
            0.9144350683342544, 
            0.17159282506908488, 
            0.05392283487203194, 
            0.8532539047727782, 
            0.3763455306141797, 
            0.5168935689250097, 
            -0.3380984969090416, 
            -1.541107626766112, 
            -1.5024890548593295, 
            -1.408585659884478, 
            0.43019413116572935, 
            0.6134239781711197, 
            0.23475385376092858, 
            -0.10736078387585729, 
            2.309725165373992, 
            0.7696995952322918, 
            -0.6301381028389882, 
            0.4970801228056339, 
            0.7833726692214494, 
            -1.021972437269671, 
            1.648019978960318, 
            -0.2768878265471215, 
            1.9376753684643175, 
            -1.9140650377884534, 
            -2.835017281364462, 
            -1.066215875519471, 
            0.01229756340891723, 
            1.2691636255025427, 
            -0.7887508810316756, 
            0.4931931445188117, 
            1.9743746854220596, 
            -0.5363034722765394, 
            -0.9465849719697055, 
            1.752908031067054, 
            -0.5132313520439754, 
            0.21963528700452586, 
            -0.28496336836129554, 
            0.27740624907799605, 
            1.7736312115240387, 
            0.022888254462604656, 
            -0.43239033332040155, 
            -0.6860748361432502, 
            -0.21122820240237564, 
            0.8912159126964745, 
            -0.04590157877596352, 
            -1.1080954614707839, 
            -0.2813676089070979, 
            -0.11863465817616324, 
            0.42956865195346744, 
            0.8387571957103982, 
            2.263171070202169, 
            -1.0290483011842662, 
            1.1604058482020798, 
            0.8623808492737451, 
            0.47376560068443585, 
            -0.013160243074414735, 
            1.452476104853416, 
            0.6008829716334734, 
            -0.5664502096558669, 
            0.8047620965789649, 
            0.686081018468951, 
            -0.5708754606852744, 
            0.40806081326486787, 
            -0.4660649130142314, 
            1.5202532719349018, 
            0.20048456980697865, 
            -0.7484006713827536, 
            0.5792022176804726, 
            -2.5348584727810954, 
            1.0039306146058222, 
            2.9356190370405963
        ], 
        [
            -0.4429472487258677, 
            0.7322471741753713, 
            -0.03163745144712064, 
            1.1061735404630388, 
            1.2044524114161008, 
            0.004552719327283747, 
            -0.06322247988200996, 
            0.7497242307705979, 
            -0.4720343429053272, 
            1.1517782244811265, 
            0.39088547476157215, 
            -0.72609192196262, 
            -0.27899510082490886, 
            0.5451164452744436, 
            -0.6104866102913236, 
            -0.39269397912305043, 
            0.5196900008386539, 
            0.5273516941511067, 
            0.15139972387935458, 
            0.5469562107090218, 
            0.8764308669396976, 
            -0.5351297576409025, 
            -1.8350088873241834, 
            1.4572752307291417, 
            -0.43517857177572183, 
            2.0580732268535233, 
            -0.49179576930384117, 
            0.651403701704267, 
            -0.0729919658936989, 
            0.9365774133201762, 
            -0.608099362867862, 
            1.8598860192905982, 
            1.3427781006032125, 
            0.8966724947872072, 
            -1.6880407744889991, 
            -1.7982770538121864, 
            0.8148220713261297, 
            0.6530639041401336, 
            -0.17537342165807351, 
            -1.3699096081377722, 
            -1.8293404492625291, 
            -1.6791817226085008, 
            -0.4631738219767659, 
            -0.1615773908720625, 
            0.5717354093798794, 
            0.4025266708779688, 
            1.122985286918661, 
            -0.9470564969999529, 
            -0.3853834653026985, 
            0.9887072316608794, 
            1.1428391045455282, 
            0.4346103387502947, 
            0.4448511580152683, 
            1.2411768199360655, 
            2.0342541291427207, 
            1.3356290826869297, 
            0.1751083207800651, 
            0.5732737786845377, 
            -0.3978621185113752, 
            1.577781655188771, 
            -0.058654125352051306, 
            0.523660777046296, 
            1.243272126649318, 
            -1.7544457877413056, 
            -0.0638784435140312, 
            -0.8271122475780259, 
            -1.3558595034015715, 
            -1.3052072185850494, 
            0.8151853756688808, 
            1.153383508718343, 
            0.9447312596289326, 
            0.10217208303489164, 
            0.017816866163893313, 
            -0.12043304248252495, 
            0.9981561710753319, 
            1.4666072991773715, 
            0.38980578332579313, 
            -0.5499873915149078, 
            0.09489615936608745, 
            0.6655756071970559, 
            0.35875335743196746, 
            1.7368373517885933, 
            1.4125314830281368, 
            1.051790530192223, 
            1.0906602658791147, 
            1.4352621151402376, 
            -0.5166770445481468, 
            -1.0413423182258272, 
            -0.6269923911007433, 
            2.0437906496705422, 
            1.165547177255879, 
            -0.3433548728314513, 
            -0.5806215579240964, 
            -0.7457709993587931, 
            -0.09408817773820748, 
            -0.002151875986540103, 
            -0.9061725711598939, 
            -1.177961068252399, 
            -1.1366009082007786, 
            0.5231232251817038, 
            -0.10809252567803217, 
            -0.22490720257456182, 
            -1.2952837673747706, 
            -0.18023656546558958, 
            -0.2499685487227838, 
            -0.2845421709837586, 
            1.1955351658355444, 
            -1.2091992107766323, 
            0.5944600064909995, 
            -0.47909592827412667, 
            -0.33258438772575316, 
            1.8057828369586844, 
            -0.3846425866588559, 
            -1.8007185101827785, 
            0.4371628971788838, 
            -0.7770126332325014, 
            -0.9661163839049618, 
            -1.4046872185869252, 
            2.026656345179663, 
            1.3886375035811676, 
            0.2501214817426756, 
            -0.037782745505392706, 
            2.2742320437618453, 
            -0.7123346381627453, 
            1.0249500351634984, 
            0.49931024465521795, 
            0.5366122843129733, 
            -0.5920399432425884, 
            -0.020864871230558787, 
            -0.5457280133787505, 
            -0.7553091582383231, 
            -0.990350974424923, 
            -0.7051581856233209, 
            1.4753594580813159, 
            -1.230488263910222, 
            1.3004370753928236, 
            -0.32023024912584797, 
            1.598324695675891, 
            -0.18566679466893354, 
            -1.012399841123262, 
            0.2127028891819521, 
            1.2299152376248035, 
            -0.3557370094714262, 
            0.8469079691143209, 
            2.734642271022303, 
            0.7973156593500679, 
            -0.18068016616311922, 
            -0.42496556316109113, 
            0.09716630628110716, 
            -0.15002218301605197, 
            -0.4450249420669836, 
            0.3916943370290592, 
            0.181996241689475, 
            0.03369297270961413, 
            -0.010442384990124658, 
            1.1006047161187773, 
            -0.5302758070616871, 
            0.29964258154432466, 
            0.7453484979378179, 
            0.35975494806960673, 
            -0.10885556654153476, 
            0.007680131024410271, 
            -0.8024847832554761, 
            -0.367595206510726, 
            0.07608317243928053, 
            -0.07435810725293429, 
            -0.9944278281077389, 
            -1.8721362865093367, 
            -0.3563386753977109, 
            -1.1812288453757602, 
            1.125149261980793, 
            0.132399552381158, 
            0.7934556984267155, 
            -0.43972361711822233, 
            0.04159081465292566, 
            0.0629927598851351, 
            2.5075017608178243, 
            0.46870882290201227, 
            0.1432619011549489, 
            1.01778791645284, 
            0.8931694764562809, 
            0.9446525800078771, 
            -0.20623522728489152, 
            1.275673531492501, 
            -1.8778878570910265, 
            1.6200898226949898, 
            -2.5832446427562012, 
            -0.8624300459387672, 
            0.9905235415410547, 
            -0.3116285014065849, 
            0.45453572580198337, 
            0.9457620360098459, 
            -0.04075738321955223, 
            0.6493736692508456, 
            -0.1613389326680448, 
            1.6787438511027581, 
            0.6951290444113759, 
            -0.2256385673213217, 
            2.3075608962326637, 
            0.8583426182788733, 
            -0.5842345880005309, 
            0.2159542949319893, 
            -0.20214068641456104, 
            0.6611150638330573, 
            0.567055008714507, 
            0.41247956961593735, 
            0.5095302357743959, 
            1.3315944065304224, 
            1.053342276893002, 
            0.6234162821422303, 
            0.17643335511039326, 
            -0.5534645603406465, 
            -1.3788632673950851, 
            -0.5156440958100807, 
            -0.9161492054856005, 
            -0.2476797026275166, 
            0.026141215553914774, 
            0.4480898068359161, 
            1.3322570463373615, 
            -1.8973973262341803, 
            -1.5257828534216653, 
            1.0523252885220087, 
            -0.6436911566440265, 
            -0.5371188618466219, 
            -0.2551395836073339, 
            -1.5499694342475676, 
            1.5317714082875544, 
            -0.7283524704520891, 
            0.716151129194907, 
            -0.07152889171706124, 
            1.7117597738317714, 
            0.5895405385612773, 
            -0.10977934230836502, 
            0.9018732312815694, 
            -0.21739652620992062, 
            0.5570605105188043, 
            -0.13382352807478926, 
            0.6892648986656268, 
            0.3797880653699024, 
            1.03433555263391, 
            0.5253119348988823, 
            1.8618582224107139, 
            -0.30680846895781294, 
            1.7930704088114156, 
            -0.8989305118360069, 
            1.921568255156565, 
            -0.9906429931596462, 
            -0.9091793760191393, 
            0.7036702697137566, 
            2.0531531109409267, 
            -0.578206996738147, 
            -0.4353694471194929, 
            -0.5643060638086564, 
            -1.638807239926582, 
            -0.34117707284029936, 
            0.052234197260829354
        ], 
        [
            0.13859836098667583, 
            1.9821216001737976, 
            0.7620380933170204, 
            1.6705973199604185, 
            -1.7621779791353873, 
            -1.452203674465659, 
            -1.6336958383746916, 
            1.8744567676732415, 
            -0.4281517835382607, 
            1.4910435078055757, 
            -0.43960322804949037, 
            -0.11999310569030058, 
            1.6754712595305672, 
            0.32171228431189236, 
            -0.4022831576443139, 
            1.5108644023810314, 
            1.8951515077020218, 
            -0.12727816562844999, 
            1.7277880902744673, 
            -0.6744376204561833, 
            0.023852678147967425, 
            0.8450038681827757, 
            -0.9114330250807893, 
            -0.568152399489275, 
            -0.6617388185131023, 
            0.14692732252308974, 
            0.6627282940353693, 
            -0.7804785951135034, 
            -0.40473280623669844, 
            3.388472432410463, 
            -0.5128573340530642, 
            0.6656855178332225, 
            -0.49206417310656453, 
            0.35840877508622104, 
            1.5984292980117873, 
            1.341634996218568, 
            -1.859241601485584, 
            0.4620264492966739, 
            -0.1636029985241244, 
            0.7533754025366987, 
            -0.9104368388457406, 
            0.7710783792765665, 
            -0.35435446925600655, 
            0.30231756751316735, 
            -0.5217284674633135, 
            -0.9278663867570047, 
            0.7633416731479166, 
            1.9768818426067107, 
            0.29951633564452945, 
            2.91234666126641, 
            0.9552495683332667, 
            -0.31958215034246834, 
            -0.32552451009429123, 
            -0.0515971584213827, 
            -0.2374363271265146, 
            1.464131897028837, 
            0.5502841859912209, 
            1.2286694688105202, 
            -0.2557381961133536, 
            -1.569288955271166, 
            0.192727248449459, 
            1.456416077851041, 
            0.40594629206116234, 
            -0.5004484895375552, 
            2.039428018896176, 
            0.21397618371437838, 
            0.9320217081394311, 
            1.576867960750407, 
            1.14252384205531, 
            0.7423508811024996, 
            0.5882460297053321, 
            1.070522625626203, 
            0.30404625676113245, 
            -0.00796166499626623, 
            0.17558597451338442, 
            0.7336363170741859, 
            1.0808677153453592, 
            0.7294153110866721, 
            -0.7104195369543914, 
            -0.059325302965040946, 
            0.31898134984375903, 
            -0.050393751371748764, 
            0.8855352498508339, 
            -1.1246518130827332, 
            0.5117108115129202, 
            0.15242481933752566, 
            1.6237160335664433, 
            0.648143091206382, 
            -0.22612176710106757, 
            -1.5088893867278212, 
            -0.742330250737488, 
            -0.3758630493931924, 
            0.44459943420634995, 
            -1.314941861940822, 
            0.403907483804366, 
            -0.1285446066860315, 
            -1.1054760199161218, 
            -0.09500058578522047, 
            -0.020189988623189294, 
            -1.6905276566084655, 
            0.1130191785609374, 
            -0.2678003125572549, 
            0.02694848615008923, 
            0.6460673225896685, 
            -0.20184671347924962, 
            0.7951807439113827, 
            -0.7000579745699677, 
            -0.016844674282106512, 
            1.5492467251378361, 
            -0.2177177250603278, 
            -0.06559786586441894, 
            -0.9038929109742462, 
            0.8792479042693264, 
            0.5948219777781195, 
            0.5131573488541956, 
            -1.344586107372045, 
            1.6836048271820339, 
            1.117369993520184, 
            -0.3839417072848703, 
            0.9129267667777092, 
            1.6208106571011347, 
            1.3546819837702406, 
            -1.1258780837614282, 
            0.5723323530652206, 
            0.3756545884479258, 
            0.021193815103397094, 
            1.0775521671118424, 
            0.4699479707400825, 
            0.6771433283304019, 
            0.7397768800514417, 
            -0.043094774071081234, 
            0.02828140879696878, 
            0.2688682707200228, 
            0.44436385424209657, 
            -0.8506135426494773, 
            -1.5621163461348377, 
            -1.398470113214412, 
            0.44681589814951056, 
            0.5397532609155349, 
            -0.020787166985754058, 
            -0.4648072026824737, 
            2.479120377573721, 
            0.7203671693816768, 
            -1.449507682343531, 
            -0.18996272823743593, 
            1.1324053426399388, 
            0.46348415326621467, 
            3.023735043368705, 
            -0.2653343842918646, 
            -0.15346160282893767, 
            -0.26007607030731494, 
            0.24600681509064357, 
            0.13235520299310427, 
            0.16143825457326744, 
            0.7067686161944178, 
            1.594047604377744, 
            0.28148660681738974, 
            0.9201116328471257, 
            -1.5428260983176427, 
            0.07453044994770987, 
            1.3034676883989824, 
            -0.773262552799766, 
            0.9197045254402386, 
            -0.5686265111383899, 
            0.03496530368203794, 
            -0.0014662070309297292, 
            -1.0546764108395645, 
            -0.29825934735543075, 
            -0.4833728644651487, 
            0.2513131997699098, 
            0.8528154141490458, 
            0.6952391965170096, 
            -0.2680252040743527, 
            -1.125938071972773, 
            1.0920398759909646, 
            -1.285921825472386, 
            0.465741668912727, 
            0.8949511879894283, 
            1.893566314216561, 
            -2.1031792756937175, 
            0.4745896870711819, 
            0.2638545338200173, 
            -0.7973943974616509, 
            -0.6190820267334972, 
            1.031521505736133, 
            0.4183368723104984, 
            -1.2691974642631159, 
            0.13639414346908257, 
            0.22531941009491005, 
            -0.972061226562966, 
            -0.5554163035912063, 
            1.0200585901722956, 
            -1.1023508446373649, 
            -1.9635047481034402, 
            1.8642149698445158, 
            0.10688407772955726, 
            1.2384096304125283, 
            -0.21649860522042433, 
            -0.528347022685241, 
            0.7339582021578966, 
            -1.2560926154589973, 
            -0.2807011612071366, 
            2.2723039941291785, 
            0.6376844312488896, 
            -0.6127493779642628, 
            0.028034518942644922, 
            -0.14133981624462882, 
            -1.0481526852987941, 
            0.15656928693486433, 
            -0.07078854590336639, 
            -0.9922304173340762, 
            -1.1455933911208462, 
            -1.321903904420662, 
            0.7990133704966285, 
            -1.8327172011892061, 
            1.7053437564371356, 
            0.43307987644419366, 
            -1.259456483545957, 
            -0.8966791940944777, 
            0.4264384852716103, 
            1.6087798979932495, 
            -0.5631506463245881, 
            -0.563649962074969, 
            1.6757420483520196, 
            -0.7745894458671116, 
            -1.4722952626828354, 
            -0.5295919900796268, 
            -1.9142185882030962, 
            0.8620489070380336, 
            -1.2965410067677516, 
            0.3028270650980189, 
            -0.1838492178572054, 
            1.3384464079722191, 
            -0.6472726586434348, 
            -0.14858827670943947, 
            -0.3279605344919029, 
            1.7076268747564023, 
            -1.7800664587765866, 
            -0.8119939235449666, 
            -1.173535685469684, 
            -0.7907193604735184, 
            0.6769683872657639, 
            0.5623073319321821, 
            0.17654214368090146, 
            1.6154963081634708, 
            -0.4849296654292827, 
            0.2973332942777081, 
            1.3866784307324416, 
            -0.9612665305300242, 
            0.2732220295796385, 
            0.6726713692796727, 
            1.040957811209527, 
            -0.8452562431383103, 
            0.022752378619730066, 
            -0.4328504346380251, 
            0.8919741583725598
        ], 
        [
            0.7936727628393228, 
            -1.215001646364844, 
            -1.3465892957681334, 
            -0.667530446666554, 
            -1.0586349111318547, 
            -0.8341840250266778, 
            0.899633298423547, 
            1.0883380545337527, 
            -0.51332662947866, 
            -1.0944332140052173, 
            1.5477533198912345, 
            0.3553115344044148, 
            0.20413605679454888, 
            0.9086474227282751, 
            -0.11073639162145364, 
            -0.7813887458079021, 
            -1.0683221539511918, 
            0.6628926556702682, 
            0.9900295030278298, 
            -0.9856593297882208, 
            -0.25363453529066654, 
            0.17107879124904113, 
            0.37385583003945067, 
            -0.5829445541619344, 
            1.6418712210552853, 
            0.9997759833429525, 
            -1.2386198663721322, 
            -0.4021202652499589, 
            0.08840256677986802, 
            0.2804934612584219, 
            2.725603767567909, 
            -2.7137838403725896, 
            -0.9683040093747977, 
            -0.5757783024053327, 
            2.569430312360612, 
            0.7658927403531184, 
            0.9815315658908235, 
            -0.26376589998990374, 
            0.18686221887703325, 
            -1.3268209234074013, 
            0.00031307331990976874, 
            -0.1078518745845079, 
            -2.4308718217153373, 
            1.5729759940578383, 
            -2.005597669243026, 
            -0.18530173178914047, 
            0.8401729357101921, 
            1.1035560713269927, 
            0.548569341930399, 
            -0.595034797282099, 
            -1.6353564361539736, 
            0.09562244064415751, 
            0.3843429315943774, 
            0.42608096724197925, 
            -0.2167546697638816, 
            -0.2832361192815093, 
            -1.9116956858030985, 
            0.9184730633483235, 
            -0.7918502673388033, 
            -0.08962104890517483, 
            -1.1514557126519356, 
            1.7125585389772011, 
            -0.03604646925672853, 
            1.0762743768189231, 
            1.1613554615021453, 
            1.347445180094126, 
            -0.14232861739559974, 
            0.004953947685453708, 
            -0.4792753204039299, 
            0.2137826103287538, 
            -0.16243330791164717, 
            -0.5133390940466525, 
            -0.9004388092963418, 
            -1.3456997641951405, 
            -0.6740351686837063, 
            1.0635380859425263, 
            -1.3888356439096612, 
            0.2323702726599563, 
            1.1327381893181678, 
            -0.07400058424485194, 
            1.8104801575699911, 
            1.469234703471659, 
            1.7437272508583546, 
            2.4508597554813125, 
            2.05790136616041, 
            -0.51705072985261, 
            0.38397647182161493, 
            0.0015945862706064381, 
            -1.5058363936549657, 
            1.6897386100665288, 
            -0.02954705361424641, 
            -0.39391552083957804, 
            1.6674961964409016, 
            0.7442977171986063, 
            1.7305967876833763, 
            1.6116287259620319, 
            -0.6264904910974637, 
            -0.1921548153328066, 
            -1.7536050900067617, 
            0.6719324392159184, 
            -0.4147606319719455, 
            0.46526242163001796, 
            -1.1457517864721412, 
            0.28601324203672934, 
            0.624822451074678, 
            0.2945327818011443, 
            -0.18999778102364942, 
            -0.10447697288570006, 
            -0.9771488629148158, 
            0.016500629084643496, 
            -0.014716547945513414, 
            0.21079118516280865, 
            -1.1820702394048386, 
            -0.7391263644860154, 
            0.2600821746561569, 
            -0.6819916508335496, 
            -0.02792793277509774, 
            0.874719535170667, 
            -0.48041476688700346, 
            -0.27323374934113376, 
            -0.17420545632686768, 
            -1.3888780201958915, 
            1.3818139071749789, 
            -0.7987239327380622, 
            -0.12637351868932967, 
            1.0247707437332811, 
            1.0736480304705114, 
            -0.902514478276113, 
            -2.4439137858260915, 
            -1.8190265779024524, 
            0.9229887700745616, 
            -0.32874146327598003, 
            1.8281234776156305, 
            0.499818432124441, 
            0.14623925825523015, 
            1.3431140245744229, 
            2.543040326220685, 
            1.517200591279166, 
            2.222039784433698, 
            -0.3279120955950721, 
            -1.336670209343726, 
            0.5939495846745061, 
            0.27648819958038706, 
            1.2179759038925702, 
            -0.8119019235839589, 
            -0.5222910738442449, 
            -0.526985277760254, 
            0.28292894218455344, 
            0.952578299374805, 
            1.7893462273549887, 
            1.7875470616950853, 
            0.684250712616178, 
            1.0339422070066753, 
            0.04918214512173063, 
            1.454576432984181, 
            -1.4414822846281958, 
            -0.2805444878104946, 
            -1.0675647075428116, 
            0.22178867306782873, 
            -0.018294605643033104, 
            0.09305223149646097, 
            0.37516378834145037, 
            0.9934228186344082, 
            0.11479894237224011, 
            0.3969478887334035, 
            1.2914609704911701, 
            1.0529833372741466, 
            1.6815477131107113, 
            -0.22381368908356875, 
            0.5389809903994387, 
            1.1515650393481571, 
            -0.2702940693796655, 
            -1.175268072178026, 
            0.501498223757847, 
            -1.6146125655153014, 
            -0.04504211677589751, 
            -0.19317779520614914, 
            -0.6081701648889278, 
            0.9797123618415673, 
            -2.0298891940969055, 
            -0.36278952509657136, 
            -1.2692415761708056, 
            0.7022711238536715, 
            -0.2232804729394179, 
            -0.6211923210010248, 
            -0.8280212541618367, 
            -1.0777168563256, 
            -0.22716357561418835, 
            -1.7367353808548929, 
            -0.17297606527658752, 
            -1.0567276584154282, 
            -2.675862321218485, 
            1.4121965900328257, 
            -1.0270031767358698, 
            -0.8472851605838416, 
            0.5052359921163827, 
            0.09464552921862829, 
            0.08820829692815331, 
            1.462459498000234, 
            -0.505496049208925, 
            -1.4452644225033335, 
            -0.33338902007135496, 
            -1.4450336441181497, 
            0.2274142506980573, 
            0.186084794591711, 
            -0.797872683655269, 
            -0.6701734016374367, 
            -1.0763647685287878, 
            0.7853325602217419, 
            -1.516102610093825, 
            -1.3273984122533937, 
            -0.7392723655507324, 
            0.46239985503231135, 
            1.6599724068405475, 
            0.7822069380475545, 
            -0.5764630012469781, 
            1.1246939500217699, 
            0.6625638765465979, 
            1.6063252881852763, 
            -0.2756785889353795, 
            -1.48960533828274, 
            0.6673153394388539, 
            0.3363873857243227, 
            -2.185466449666469, 
            -0.9345558841994733, 
            -1.0336544245753676, 
            -0.3105654474226231, 
            1.8769313445859135, 
            -0.5491777706399156, 
            1.3476213193580333, 
            2.283814986527479, 
            -0.5941000047732697, 
            -0.38043751167061596, 
            -0.3547579805877556, 
            -0.5894485632684329, 
            -0.3025027091225111, 
            -0.2727459598560819, 
            1.3966116986275372, 
            -0.5420065972790005, 
            1.9373247976833277, 
            -1.6584646836875863, 
            0.9630939971678866, 
            -0.09907100718705598, 
            -0.5560250909684561, 
            0.6674420361085232, 
            -0.17410499540323354, 
            -0.4813954695184628, 
            -0.09895241278808654, 
            -0.4711986738346546, 
            0.7718469875811408, 
            1.5577986895386116, 
            -1.272474375457278, 
            0.1911269857885271, 
            1.416186749034457, 
            0.8517898067638456, 
            0.5328184434674326
        ], 
        [
            -1.1035100965525146, 
            0.9701304199433591, 
            -1.3602133697545937, 
            -0.4776408596160203, 
            -1.3247873803928252, 
            -0.9896103072849446, 
            -0.35640755331446045, 
            -2.5403285465939915, 
            0.30009234482486175, 
            -0.36553064111952926, 
            -0.5448137403226683, 
            -0.3845826157308632, 
            -1.2055701210379441, 
            -0.2371248436809028, 
            -0.7130651946396278, 
            -0.9636097541737415, 
            -0.5441733100707694, 
            -1.6548812056326905, 
            0.012538853895627467, 
            -0.14853681973569843, 
            -0.43795658670814336, 
            -1.2474793149618357, 
            -0.7395279741181846, 
            -1.2143143354620825, 
            -1.2060761388578514, 
            0.8936936229059356, 
            -1.0480452348156846, 
            0.3950639503899552, 
            -1.850864570728333, 
            1.349392580578046, 
            0.04574730849208946, 
            -1.0170975170974825, 
            -0.0123126043001979, 
            0.6756388004772417, 
            0.9276532149821667, 
            -0.3685086998498893, 
            0.32483645251769344, 
            -1.0942491236926781, 
            0.13982613801734137, 
            0.3414615041482422, 
            -0.2680635529903301, 
            0.4249166741418324, 
            -0.04298057455418959, 
            0.5643483680678877, 
            0.277235668911602, 
            0.8676285734145788, 
            -0.2258179946428772, 
            -0.20266507350821183, 
            -1.6997894244734673, 
            1.8774261812422441, 
            -0.09174152016617784, 
            1.4961475245271612, 
            -0.8920230331318343, 
            0.1899220205037798, 
            -0.6370603947510758, 
            1.3970048246721, 
            0.930339015141497, 
            -0.24132240172614752, 
            0.31798963998929725, 
            0.25733904081501535, 
            -1.0944986940032622, 
            0.4869102604746788, 
            1.1057614105306783, 
            -0.02679107609532321, 
            0.7912353926593917, 
            -1.8717836127602423, 
            0.8109767344989997, 
            0.47774743443148254, 
            -0.21423717994313204, 
            1.3930958259811357, 
            -3.0563856532059446, 
            0.2383000066096119, 
            0.04791766038044591, 
            -0.5142264852756073, 
            -0.5267906562243776, 
            -1.9425761473208352, 
            -0.4530984417605354, 
            -1.4034026436523839, 
            0.48868696705342973, 
            0.6953861111805506, 
            0.69716539247009, 
            0.4402912858541869, 
            0.5668833207045684, 
            0.24403977679698094, 
            -0.43110089088491577, 
            -0.34138109270222733, 
            0.1824131337931365, 
            1.2714141431763515, 
            -0.35048678181666765, 
            0.8511221031982513, 
            -0.17887342382458535, 
            1.014076221498336, 
            -1.596546492242007, 
            0.37903254806023823, 
            -0.9857652650728015, 
            0.5622895351886888, 
            -0.957092867256068, 
            1.8332943324120266, 
            2.5732276817142163, 
            -1.4914129101865516, 
            -0.37377281655080524, 
            -0.12073816543920371, 
            -0.08337576588987809, 
            -0.44169402149413445, 
            -0.8691851354698942, 
            1.5211560790049323, 
            0.1660443838461779, 
            -0.2768128618795991, 
            0.40468338236348217, 
            0.8786327016476021, 
            0.9602088115273305, 
            -0.07570331167355283, 
            0.06208392788753934, 
            -0.8584178230844974, 
            -0.796155738247, 
            0.13639531623762632, 
            -0.9971908689235546, 
            -1.8354045336046398, 
            0.3601894612547384, 
            1.7116618370331842, 
            0.370624610816175, 
            2.5223428676450474, 
            0.6365446413128871, 
            0.006568667425229203, 
            0.13111183083475855, 
            -0.6827965959829216, 
            0.9457805649613152, 
            0.3276159198898725, 
            1.6872921886181402, 
            -0.705743827594627, 
            0.32431949539366334, 
            -2.283828891496458, 
            -1.800023567692798, 
            -0.09361825396608946, 
            -0.20324175019866503, 
            -0.3042597571426507, 
            -1.2877025305477947, 
            -0.5306124206725497, 
            1.0193995645471206, 
            -0.1705287562477193, 
            0.4439609290539326, 
            -0.6349886617487888, 
            -1.0584199389345825, 
            1.7529485675202172, 
            0.7843714783006817, 
            -0.011630500556112927, 
            -1.2887635783683908, 
            -0.013759809802246656, 
            -2.1063039431330117, 
            0.8048886866493877, 
            -0.11285613811802722, 
            -1.2209251371386363, 
            -1.2542850734469817, 
            -1.020684651670877, 
            -0.9184754907315895, 
            -1.3121260956780205, 
            0.05115717567941251, 
            -0.32580478621341424, 
            0.9690707322651074, 
            -0.15925981407912143, 
            0.6920181389937712, 
            -0.8341237597976596, 
            0.4820199278627153, 
            -0.6320088327317174, 
            -0.32082238073029523, 
            -0.7942286163023128, 
            -2.001347869691111, 
            -0.33137274961194185, 
            -0.15883311534830152, 
            -0.0049822141067091714, 
            -0.9062539469751292, 
            -0.9235342692530109, 
            -0.030117651046322875, 
            1.5291130962366584, 
            -0.5871786844004089, 
            0.25280820692398426, 
            -1.2072520467127585, 
            -0.484577985791994, 
            -1.4110419844933946, 
            -1.1732930260516772, 
            0.316337616259925, 
            -0.9874380734414256, 
            -0.9688041890931537, 
            -2.495903798456242, 
            -1.1959420100006088, 
            0.8643387244244102, 
            -1.0363165758502102, 
            -1.3789169689414973, 
            -1.0700132665685966, 
            2.857283178520835, 
            0.4599005521182076, 
            -0.6065960928614628, 
            -0.1382791906431344, 
            0.927668580569602, 
            -0.03940415169807003, 
            -0.5433021824938324, 
            -0.4880992105007723, 
            -1.70346866913914, 
            -1.201178792586703, 
            1.575894156974807, 
            1.0559466895541576, 
            -0.8004039327633623, 
            -2.2721112773745613, 
            -1.483131786687642, 
            1.3296598602844076, 
            -0.4905960179267812, 
            -0.9264165862069337, 
            -0.15954855022433603, 
            0.31657031732421825, 
            2.6057539274139385, 
            0.0641893347750417, 
            -0.3929727364561052, 
            1.7386448484106738, 
            1.1252780366265724, 
            -0.2448519810602371, 
            -0.09104139700805636, 
            0.09392587023534384, 
            -0.09706602660368302, 
            0.4177731819262813, 
            2.5745833639831686, 
            0.558847529731779, 
            -0.20172752030825625, 
            0.82524962504221, 
            0.42583529091220723, 
            -0.7969279288158652, 
            1.1057972402927254, 
            0.859169814610656, 
            1.400192762875311, 
            1.9062972895959027, 
            -1.5372619661319493, 
            0.933318399286047, 
            1.62441691754551, 
            3.7289809720966165, 
            1.594260679871643, 
            -0.8267499855614765, 
            2.6248162056209132, 
            1.0398255891733486, 
            0.04654784442417938, 
            2.454013115900565, 
            2.1580038057221205, 
            -0.8164458172839779, 
            2.5271198286035346, 
            0.5702956726116954, 
            0.4405308313805189, 
            0.9521101178883867, 
            0.6107077278946339, 
            -0.021689515886021332, 
            -1.8346175576468797, 
            0.6069441336865111, 
            0.5566894010664869, 
            -1.262353851352709, 
            0.6927155371088304, 
            -1.3380452881569858, 
            2.135054693940195, 
            1.3275810533018784, 
            0.13452325925947234
        ], 
        [
            0.30926135297651264, 
            -1.1332808023819727, 
            1.0975829000190709, 
            0.42173516195578536, 
            -1.1101160836225232, 
            -1.0302074919035467, 
            -0.2172178114175775, 
            1.412541203116722, 
            -0.41645038154803404, 
            0.7898712398589243, 
            -0.15518901993080858, 
            1.1721073016270351, 
            1.8575669764033067, 
            -0.3840466612699829, 
            -1.7359614118229434, 
            1.7794659990625814, 
            -1.2943035312103077, 
            0.32019512194020305, 
            1.3154822464798974, 
            -0.9172486622739119, 
            0.7062318775167133, 
            -0.6987035122703507, 
            0.23871895348711647, 
            1.12502248130683, 
            -1.1988027529136993, 
            -1.48020687736191, 
            -0.4737853947203152, 
            0.11353442481380284, 
            1.021635337750751, 
            -0.45758549389672354, 
            0.6574179012980156, 
            -1.3096680793457633, 
            -0.24857567085692786, 
            0.7548274966439712, 
            -0.6561822356663615, 
            -0.5629436764067471, 
            2.2752574625077853, 
            -0.9435465696520742, 
            1.0215702716180834, 
            1.4643463961179233, 
            -0.9952181963721697, 
            -0.22686442522681438, 
            -0.1922925280077743, 
            -1.7167562703334291, 
            -0.31217470658578633, 
            0.24750834575852382, 
            -2.162622234237354, 
            1.1506695967947445, 
            0.25329076879947915, 
            0.643063778343132, 
            -0.3426816367047946, 
            -0.6475559896475266, 
            -0.5602756333381066, 
            -0.6990683740804104, 
            0.23201906976106867, 
            1.527311309717497, 
            0.4078830663449287, 
            0.17961424730185002, 
            -0.9088084084548823, 
            -0.21964872744263042, 
            -0.6533843413747927, 
            -0.21861641616521885, 
            -0.19423302901788983, 
            -0.5738240132553107, 
            1.5953419899979622, 
            -0.6633473015737732, 
            -0.9796921888641377, 
            0.9892815387306266, 
            -0.0977437294515407, 
            -1.0987677502728308, 
            -0.27329775485204977, 
            2.3847678689578466, 
            -0.7591428602711495, 
            0.5421367521497165, 
            0.41055851475141675, 
            -0.7449637530215321, 
            -0.24436087190843261, 
            0.9604045723943897, 
            0.20999131492386794, 
            -1.1863241983038941, 
            0.23603246058087735, 
            -0.39432060792031226, 
            -0.3645311689299445, 
            -0.666172339128312, 
            -0.557395359518851, 
            0.3960938594705648, 
            1.1865582576138078, 
            -1.2027536662797504, 
            -0.39100713311779806, 
            0.9302130785185518, 
            0.18154349577505557, 
            -0.46988738818656106, 
            0.5225672869322221, 
            -0.4251533385789864, 
            3.6108717188355763, 
            -0.7109379118567676, 
            -0.7227962033556219, 
            0.14123319603212772, 
            -2.134316267762397, 
            0.8859994636468556, 
            1.2967604956942618, 
            -1.2205930817761446, 
            -0.08934757070297744, 
            3.1101787758869106, 
            -1.8996199926508932, 
            -1.452857916918252, 
            0.7591484323507786, 
            0.33311205158731616, 
            -0.3504967443703473, 
            -0.05404392528946222, 
            -1.166323087393383, 
            -1.4446649818159487, 
            1.2615320488047457, 
            -1.091502629592394, 
            0.8381044509878101, 
            0.9390981193069684, 
            -1.0451526254119456, 
            0.14814177731122502, 
            1.7016177012945088, 
            -0.5262525898730219, 
            0.9219070169100616, 
            0.9424450208893606, 
            0.7612218200662131, 
            -1.0860001246141555, 
            1.540234775404062, 
            -0.11617846286137334, 
            -0.6115570506780619, 
            0.17897213652203603, 
            1.3005100274382277, 
            -0.7611716465848056, 
            -1.6404346989008074, 
            0.22592144617984036, 
            1.8276436101953286, 
            -0.4670493579612555, 
            0.8407751154006291, 
            -0.10700466162063002, 
            -1.0988712390585447, 
            -0.13154875476063732, 
            0.35019383940440296, 
            1.5302197641601307, 
            0.3051710888799419, 
            -1.6946253742684836, 
            -1.0519389310784322, 
            2.41265393647581, 
            -1.0528573961604397, 
            1.7118839173964457, 
            -2.323858541864233, 
            0.8031702866775032, 
            -1.155840906622592, 
            0.24978350476266023, 
            0.9117325142868362, 
            -0.3844046410944346, 
            0.6049985544996921, 
            -1.116912222379094, 
            -0.09893556486671165, 
            0.6184419960668827, 
            -0.7256443226275086, 
            -0.38396216061728344, 
            0.44270752672787805, 
            -1.4622966746318686, 
            -1.3425063705301663, 
            -0.9910458439890353, 
            -1.3237903683849306, 
            1.6214818901633463, 
            0.2792126793013543, 
            0.28588723252438564, 
            0.9715727372106528, 
            1.3269106263148316, 
            -0.055154350043794195, 
            0.408249633056443, 
            1.1819182578841294, 
            0.9891258958336744, 
            -0.4532885170882487, 
            -1.0224361659249368, 
            -0.08359995310291711, 
            -0.1821762589688326, 
            0.9554901688027013, 
            -0.6914520710156091, 
            2.015057757251133, 
            0.8846922361436023, 
            -0.9462831269983882, 
            0.04861593257467544, 
            -0.28817999650397674, 
            1.9638990903758873, 
            0.6746880678052135, 
            0.6980743822821399, 
            -0.5045070632337596, 
            0.4758785637046005, 
            1.286284792435306, 
            0.5048345732068925, 
            0.07673429804961152, 
            0.4391874718191972, 
            1.680332157119851, 
            0.5220180786262222, 
            -0.30332695858696285, 
            -0.27649486899090026, 
            0.25023303150270987, 
            -0.9201215104418244, 
            0.20446324357794407, 
            1.3749845369613818, 
            -1.0909414578308432, 
            -0.32063432951769305, 
            -1.017594580848532, 
            -0.850641450724224, 
            -0.6664045419353487, 
            0.36355906259431936, 
            1.415686994792338, 
            -1.4026891361067777, 
            0.502035040014373, 
            0.3168286239582016, 
            0.8702077341003627, 
            0.9395677534740254, 
            -0.29897419307823475, 
            -0.606181328904564, 
            0.500620470706518, 
            0.405572291092018, 
            1.0677426224805227, 
            3.7534377386268027, 
            -0.8247587490655762, 
            -0.3265688637781981, 
            -1.0311672102889247, 
            -0.2998069698119628, 
            -0.22673599105484632, 
            -0.5004293402403595, 
            -0.9831349772093317, 
            -1.0776712297891606, 
            0.40458428173368693, 
            0.5616430077512622, 
            -0.846905602459229, 
            -0.7347954778491422, 
            0.13076103386062474, 
            1.108219857877339, 
            -0.5033235573672213, 
            0.5457732653322239, 
            0.06087932160403097, 
            0.6486818953925242, 
            1.4165280695239835, 
            -0.1282144626206626, 
            -0.23059941039827156, 
            1.0068494158122434, 
            0.6615705424237908, 
            0.8750039507037807, 
            1.2376676133198332, 
            0.23608835329181033, 
            0.44044276578283087, 
            1.0544453996180463, 
            -0.0582035964356122, 
            0.8451099168921266, 
            -1.3271707297282702, 
            -1.1027654601222177, 
            0.6115594242188185, 
            0.23116860797209152, 
            0.4510362791124837, 
            0.9247677025241389, 
            0.41182642634240507, 
            0.5992814900000153
        ], 
        [
            0.27797973957297323, 
            -0.15082781558117292, 
            0.4730303030937229, 
            0.6814840231436328, 
            0.8944313459288202, 
            0.31222356404156, 
            -0.3240082626563786, 
            1.4440018694657983, 
            -0.0345666581872966, 
            1.0091581746186793, 
            0.0414677761613872, 
            0.8777331241631476, 
            0.6836592605907019, 
            -0.07448050846565947, 
            0.38696544974784985, 
            -0.9800536119926131, 
            2.560134989545602, 
            1.179333589452031, 
            0.5186903568736403, 
            0.12564364950988055, 
            3.30258370412595, 
            0.3445880330323113, 
            2.4042529265774553, 
            -0.8887100363642402, 
            0.912735776567833, 
            1.7583642389680656, 
            0.9274693414139757, 
            -0.5354901845507509, 
            0.6205947010496468, 
            0.7223492925437179, 
            0.2381071460335576, 
            0.2855600290286857, 
            -2.0392087466977995, 
            -0.5212747166091014, 
            1.0006603473880964, 
            0.16844581474549172, 
            0.3668311497870906, 
            0.3707780741097704, 
            0.2619346492083404, 
            0.6884357073407971, 
            -0.3586392557489561, 
            -1.255261673357063, 
            -0.27597071841498827, 
            1.3680664683895516, 
            0.2951846661216669, 
            0.6335433788446255, 
            -1.4683298337454043, 
            -0.46517186944826244, 
            -0.1719738912204759, 
            -0.3885220312392007, 
            -1.745590761705565, 
            -0.48160647955069774, 
            -2.001736893290972, 
            0.46441026679610237, 
            0.34702191471964106, 
            0.5417271180224844, 
            0.3593569495827895, 
            -1.097888578970902, 
            1.0994131978389217, 
            0.8248576225422372, 
            1.2041198711434231, 
            0.5120099627171052, 
            0.19244006844823422, 
            2.03658307993263, 
            -0.6385101598697841, 
            0.08163925977225114, 
            -0.6139642573213351, 
            0.20358949833342985, 
            -0.07229005297731464, 
            -0.45004755649698863, 
            -0.2793635329215974, 
            0.0437799763385172, 
            1.028645575627487, 
            -0.7164981518033005, 
            0.4269027803011817, 
            0.5629128589079336, 
            2.062601825847656, 
            1.7978150204626135, 
            1.1104897428090577, 
            0.3749420335349555, 
            1.308402909552796, 
            -0.8576054891625814, 
            -0.7768282739901486, 
            0.8406971029637325, 
            -1.399996120347565, 
            -1.5464543889743534, 
            -0.49100000547498246, 
            0.5210762386604094, 
            -0.10008082963549533, 
            0.39113261837822705, 
            0.893304639966716, 
            0.961611200873987, 
            -0.2058854208985939, 
            -1.0263926279646451, 
            0.07477177055429109, 
            0.00990150284251249, 
            1.4017564130971865, 
            -1.1612604414770895, 
            0.19251770614831487, 
            -0.14101257986677906, 
            -1.5825066378225565, 
            1.3480599008198253, 
            1.0148689196629475, 
            2.589043246521928, 
            -1.679507151955332, 
            -1.494906491579154, 
            0.8624373836781842, 
            -1.88592062142633, 
            -0.5297422762695518, 
            0.016021306755889947, 
            -2.093371636537025, 
            -1.3677214672407467, 
            0.5271235365155806, 
            0.3711001521752985, 
            -1.960439046051432, 
            -1.4963421574180307, 
            0.42980742135455796, 
            0.6655125721323996, 
            0.4411230525705585, 
            -0.23675863382597714, 
            -0.028137648289202885, 
            -0.7329117261955864, 
            -0.7252638079786987, 
            -1.2097385533329814, 
            -1.7720785837103823, 
            -1.2583595936052485, 
            -0.7057119859339801, 
            -1.1068466162490256, 
            -0.6469825348261586, 
            -0.3524454920283548, 
            0.19301465802964143, 
            0.695835351772761, 
            -1.5920087382315333, 
            -0.2505251889667859, 
            1.5020449105249094, 
            0.397926441667189, 
            1.227018313566309, 
            -0.4814186261254192, 
            0.7953361899829038, 
            -0.6405065499473933, 
            -0.15393880964313514, 
            0.9773061429236571, 
            1.9960703343553916, 
            1.1767001100053733, 
            1.2894684390633, 
            0.6198992417102314, 
            -3.2144684063187885, 
            -0.7848738540503243, 
            -1.738687394953424, 
            -0.5501583310520887, 
            0.6159273635499076, 
            -0.16923927510508907, 
            -1.5583734576051702, 
            -1.825598124128681, 
            0.10631552815016361, 
            0.2268284833639741, 
            0.9381995791317961, 
            -2.0027645150968154, 
            1.2454565273878158, 
            0.49045844099881764, 
            0.7339039941312383, 
            -0.5198108273927166, 
            -0.5336237801416726, 
            -2.0451844254338103, 
            -1.1503409204297348, 
            -1.491414963852449, 
            3.334373943790493, 
            -1.1851760495041745, 
            -1.7850791156678254, 
            1.0568310302354358, 
            -0.9673990418276208, 
            -1.805876343780782, 
            0.883152076338432, 
            0.03573209877390298, 
            0.643523710430673, 
            0.5890897358911282, 
            -0.9956549968074343, 
            1.9919165793203442, 
            0.9620952975586288, 
            -0.42512535054360895, 
            -1.0696958123772191, 
            -0.19174991977545636, 
            -0.23515569382696805, 
            -0.11470313731894786, 
            2.066400969081091, 
            -1.390532122611124, 
            1.5254657712408606, 
            -1.1907708360734262, 
            0.868632766287287, 
            -0.19009716924244136, 
            -0.34696524882029256, 
            0.7741934712132811, 
            1.449283905900427, 
            0.31424583414001034, 
            0.6912685648577102, 
            0.6825051954986672, 
            0.6757528793530162, 
            1.986038745272892, 
            -0.25304540662024017, 
            -0.14921055379840256, 
            1.3422323230976083, 
            0.15033874619610385, 
            0.24126086388895415, 
            1.4209431979918006, 
            -0.35140129842720474, 
            -0.728293600450719, 
            0.14915603653705126, 
            -0.6981785103444522, 
            1.1814656397835495, 
            0.7218388534687579, 
            -1.0806262536138447, 
            0.19578201119786354, 
            -0.4189244574405362, 
            1.286323299438943, 
            -0.6167929816799796, 
            0.0991367405845754, 
            0.16329185006034144, 
            -0.4563131738666635, 
            2.0097393015634246, 
            0.022893496675208364, 
            -0.7593328145856741, 
            0.02586751154005572, 
            -1.2722588825460548, 
            0.8423696402201557, 
            1.246613975843638, 
            1.027710319553334, 
            -0.5551941425444205, 
            -0.2017023559934873, 
            -0.5417042962343942, 
            1.6139813585760128, 
            0.244944539515817, 
            1.1063531814099785, 
            0.5519337085736542, 
            -1.4754553083125836, 
            -0.7552183358870965, 
            -0.9351876089697243, 
            -0.3826659844234068, 
            -1.2177860612344915, 
            0.17576366745162095, 
            -0.14751772312808517, 
            0.9234033817053409, 
            0.4493214306967227, 
            -0.5619799297546496, 
            0.6134397946408393, 
            -1.7952710983290703, 
            -0.803386275023316, 
            -0.033708068940491547, 
            -2.26266277862953, 
            -0.8820422360380966, 
            0.6634015884731485, 
            -1.1935501961914843, 
            0.2856587468868422, 
            -1.2951500020548607, 
            -1.4510634844269557, 
            -0.12191164848125113, 
            -0.17892254346032502
        ], 
        [
            -1.5888627757798395, 
            -0.295223634001841, 
            2.1143264719901143, 
            1.0586183568218237, 
            0.7661085555923948, 
            -1.0564097594659858, 
            -0.6744602484602574, 
            1.254846779287763, 
            0.22576179637937593, 
            -0.3381987747552604, 
            1.3897175377230537, 
            -0.5273754037791145, 
            1.2178711473798003, 
            0.7240426551158351, 
            -0.16768816244042622, 
            0.10362530038329375, 
            -0.7700896809960499, 
            -0.25826652013162005, 
            -0.25896575206818107, 
            0.5871943032140104, 
            -1.1982989560267534, 
            -0.7244114820028491, 
            -0.2505315088783207, 
            -0.6110501463037964, 
            0.4495861570121523, 
            0.492676514249148, 
            -0.14641207261271794, 
            -1.4211714561069604, 
            0.3025462159397811, 
            -0.6815294354755798, 
            0.4204136315554378, 
            0.08866823961042707, 
            0.4486687832996761, 
            -1.9660234620675963, 
            -0.19881127182420888, 
            0.7334734520094996, 
            0.3807271873358398, 
            0.6034298254255969, 
            0.23169572170844455, 
            -0.16972337627480721, 
            0.5512139303322896, 
            -0.5045695726481692, 
            0.28637368038057287, 
            0.9120771047540821, 
            -0.6127526130127331, 
            -1.1540265665142564, 
            0.9244391830811695, 
            0.6516953817321086, 
            -0.6561419890974541, 
            0.15697289026270936, 
            -0.5509522249215947, 
            1.8931235133545783, 
            -0.5555186204756365, 
            0.4057527206774391, 
            -1.1797609333527366, 
            -1.797823597198586, 
            0.17807426542066793, 
            -0.1858095736785753, 
            -2.261331225870179, 
            -0.9019006487318115, 
            1.0145714584707193, 
            -0.22296092111818447, 
            0.8840910141192252, 
            0.7496908193553647, 
            -0.03698887385099241, 
            -1.1550482698391613, 
            -0.9691080636200328, 
            0.835752061261557, 
            0.6275295092371371, 
            -0.6985941337429856, 
            0.5211321910184848, 
            -0.5088811301214808, 
            -0.9593070197409929, 
            -1.905061439153039, 
            -1.1702001692251107, 
            -1.0875630491677843, 
            -0.42700840688774794, 
            -0.1428806678561383, 
            -0.1433457483178947, 
            0.32946602983544887, 
            -0.26219344429594327, 
            0.3882674816023178, 
            0.35893549413560244, 
            1.6704013310504273, 
            1.1878675494311481, 
            0.6094356758987123, 
            -0.985806915692055, 
            0.023235254795337713, 
            -0.8658585619899279, 
            -0.30840226611178984, 
            -3.3207114569625213, 
            -1.61090398143667, 
            -0.6314513335198643, 
            -1.9673684166320464, 
            -0.2614155407870186, 
            -0.8030531493437818, 
            -1.6437728395870546, 
            1.0435272257594246, 
            -0.519730845261213, 
            2.4320196745296574, 
            1.6498584164973158, 
            -0.27148914024648296, 
            -0.23409873257698915, 
            0.9843933193109379, 
            -0.5608317835007035, 
            1.896010149262962, 
            0.7812711892720384, 
            -0.47107639959565945, 
            0.6862868309141515, 
            -0.2265911591855858, 
            1.0071198302477757, 
            2.3043365163221177, 
            0.7649265846758038, 
            -0.6429996034052285, 
            1.673241832555268, 
            0.36659249898813967, 
            2.1629027929315177, 
            0.7511650624972902, 
            0.14163669492939354, 
            -1.081091212086037, 
            -1.102920482810058, 
            1.0719801521411847, 
            -0.3373721676831181, 
            -0.9951641892640658, 
            0.8424240072089543, 
            0.4890547412779711, 
            -0.09419538104027544, 
            1.1075104289641962, 
            -0.8169252627155091, 
            1.7906128229695581, 
            1.3944490630942514, 
            1.87084831881411, 
            0.3800131511373168, 
            0.14774538325969494, 
            -0.12603071630781207, 
            -1.0533095977918836, 
            -0.6901660789099543, 
            -0.5487716038403224, 
            0.12631606151138225, 
            0.3946981647786654, 
            -0.0021152124544058224, 
            0.07957540627468748, 
            0.9574523495938576, 
            -0.0061529201959408695, 
            0.46623551660374807, 
            -0.8928101314649389, 
            1.1180854151193158, 
            0.25316988957507264, 
            2.1969033169656864, 
            1.7305396871127223, 
            0.6496127829271274, 
            -0.5338644415208985, 
            2.3240637742787107, 
            -1.5306804580503217, 
            -0.6610644001182419, 
            -2.3906935390888386, 
            -0.05199308917370198, 
            -0.6596685948542012, 
            0.4989241402475105, 
            0.8218668037124185, 
            -2.2955753773333902, 
            -0.4839545655008016, 
            0.594176766850796, 
            0.6469373042359994, 
            0.0383813651625079, 
            -0.2965047513465737, 
            -0.9097939764673444, 
            -3.0480832786219425, 
            0.5843311710211816, 
            -1.322307278908522, 
            0.6718257231594862, 
            0.686781950892449, 
            1.3267330713337704, 
            -0.24345768674655857, 
            1.2623555209430595, 
            -0.0887558355947621, 
            0.0720905541883078, 
            0.13954736339330306, 
            -0.5211315819047576, 
            0.21841155062358966, 
            0.2786177071230739, 
            -0.85020345984974, 
            -2.248909198295218, 
            0.31657807698409185, 
            1.7725845218855827, 
            -0.02091018426597775, 
            0.25565243336937693, 
            1.3082589615064497, 
            0.198835646849734, 
            -0.29759718775237526, 
            -2.3478224140271635, 
            0.16057882425901362, 
            -1.047158208205037, 
            0.0969454704493746, 
            0.27861206725941967, 
            0.3906875634455816, 
            -0.11569679631851693, 
            -0.09569708968302652, 
            -2.435386321169836, 
            0.4355529651722145, 
            0.5941106448255097, 
            0.2047239154534414, 
            1.2562751813512156, 
            1.3029025938203624, 
            -0.3473706880851422, 
            0.7985178181237388, 
            -0.34784872062754135, 
            -0.3779217889156943, 
            1.135354133371363, 
            1.4498696205615902, 
            1.7470452057799104, 
            0.7320512858168515, 
            0.016774247214819956, 
            0.4918398559548829, 
            0.1339037051164502, 
            -0.423410628317079, 
            1.455496453317772, 
            -0.12961753658416345, 
            0.011160847277103113, 
            0.24017576390056739, 
            -0.6864488960415053, 
            -0.7334715012871916, 
            0.019354640654876056, 
            0.3332538129411963, 
            -1.2356265742624777, 
            -1.3112263626928853, 
            -1.1022458210180772, 
            -0.12137545470917978, 
            -1.372967107848499, 
            0.5017349282828462, 
            0.9959392560057906, 
            1.278578272216486, 
            1.528125822197039, 
            0.614984771722625, 
            -0.7700586668129835, 
            0.3729124661206623, 
            -0.4285209147748428, 
            -1.2499931129487039, 
            -0.169360137985267, 
            -0.4139989207617372, 
            -0.40139955997412086, 
            -0.018107192633364924, 
            0.7887879009499974, 
            0.3558598002791061, 
            0.0936618046776627, 
            -0.062262456629223265, 
            1.6666714195526329, 
            1.3128205085431777, 
            -0.4097125525621527, 
            -0.5453800302609747, 
            -0.1411705352849618, 
            1.155766864352207, 
            -0.23120654667404977, 
            0.08310643286718744, 
            -0.280720439889567, 
            0.8265583277286012
        ], 
        [
            0.7696102214200123, 
            0.3645428777830797, 
            1.715345728130142, 
            0.4400819204782365, 
            1.7744438330204468, 
            0.39250855101369414, 
            -0.20805463100388624, 
            -0.6758315090068092, 
            -1.9652197514142666, 
            -0.13810510506544482, 
            1.437069231885044, 
            1.0950755799720098, 
            -0.38643504544380064, 
            1.4345333382053413, 
            0.6856317958031061, 
            2.3833809487687936, 
            0.3558182895304265, 
            0.5089008731076204, 
            0.6203415221954725, 
            0.6764206078286763, 
            1.6944551085975377, 
            0.4728633441587637, 
            0.4339430005332952, 
            1.016077064959113, 
            -0.4994151729929266, 
            -0.7871462374357171, 
            0.6049560805464359, 
            0.1526620612105946, 
            0.21384528112316845, 
            0.9183676416491822, 
            0.2552435631227617, 
            0.7978837805261745, 
            -0.4917124122065392, 
            0.05807666334063977, 
            -0.08652129063655754, 
            1.0301211740859315, 
            -0.4731890106120133, 
            1.135439874422364, 
            0.5296841372460271, 
            0.6436869195188163, 
            -0.006531706991782015, 
            1.56362310634426, 
            -0.0388567311251026, 
            0.6493832395779063, 
            -0.8634949310054079, 
            2.538961728611234, 
            -0.5552801398434407, 
            0.35639889963584565, 
            -1.463022766512625, 
            0.17895355534573343, 
            0.1445809741512313, 
            1.2715103218005495, 
            0.1631806008488475, 
            -0.787760416273502, 
            0.12458471580982147, 
            -1.2691304827961007, 
            1.3428473949691668, 
            0.2342488442068482, 
            1.8081409319863644, 
            1.3857027366960666, 
            -0.5268919650718491, 
            -0.9250214633463675, 
            -0.08389163045307525, 
            1.2696453076816376, 
            -0.8192461128243074, 
            -1.3724960735474163, 
            -0.1926619954868747, 
            -0.9129459652812137, 
            0.19246879622924687, 
            0.9404605739148453, 
            -0.31091617042458836, 
            -0.16850621149461298, 
            1.6186639590548497, 
            -0.46368954314487165, 
            -0.35432578988696894, 
            -0.8581207979336761, 
            1.0967585448417665, 
            1.152435761651797, 
            -0.4781113228172227, 
            0.4322855095087184, 
            0.471825249596494, 
            -1.354158123102631, 
            -1.6114466697237069, 
            -0.9940351532299885, 
            -0.9533605412273242, 
            -1.2482343517691596, 
            0.8612008257901216, 
            0.7519497909238687, 
            1.6829516360980137, 
            0.11086832731193262, 
            -0.10759416003504697, 
            0.280352308940209, 
            -0.6925313674311916, 
            0.38849342004118337, 
            -0.8892587689195518, 
            1.220141590597324, 
            -0.020478679254853225, 
            0.17407224849053973, 
            -0.4907101767295907, 
            0.49791476852082306, 
            -0.342246375382198, 
            -1.807550786211922, 
            0.16478884378368067, 
            -0.3813835496560258, 
            1.4252979844209033, 
            0.744369332118581, 
            0.6737937485737694, 
            1.6734056067576286, 
            -0.28035828331609797, 
            -0.7743030111657945, 
            -0.13894686176229842, 
            -0.6648654741608298, 
            0.29314527822673486, 
            -0.8604333951654763, 
            0.51357465484977, 
            -2.8594694263276415, 
            1.4497760459287783, 
            0.1525011765585637, 
            -2.5486411529014044, 
            -0.13710324427423368, 
            -1.3699532009347206, 
            0.4714337937676138, 
            -0.05235398072728931, 
            -1.5403767953156036, 
            2.2377340541470447, 
            -1.5396652234037569, 
            -0.18792718556273275, 
            -0.18372368920838847, 
            0.2959681637882091, 
            0.5642480955435385, 
            -0.823153824051857, 
            -1.3344536664112308, 
            -1.5219353483477867, 
            -2.4625401642497797, 
            -0.9921305606978656, 
            0.43205953824135435, 
            0.2164925676396536, 
            1.6467995520144918, 
            0.21093316809937618, 
            -0.9665575369434677, 
            -0.07507485165117446, 
            0.1037262941800997, 
            -1.0779102145349275, 
            0.054375742801409, 
            0.3774764291727513, 
            -0.6607911058555382, 
            0.08073306699275247, 
            -1.3004961474151182, 
            -2.373375210778772, 
            -2.193220081846884, 
            -1.6984569209172231, 
            -0.8295763079166545, 
            -1.0710355961866205, 
            -0.7770627750063789, 
            -1.5030228980179037, 
            0.4228798509805616, 
            -0.5583944570606799, 
            -0.9649914252850896, 
            0.5716591073874802, 
            1.2542507405597, 
            1.538835258073101, 
            -0.35855720065334384, 
            -2.586376568476078, 
            -1.1127171063969836, 
            1.5168742143901552, 
            0.35663259772358397, 
            1.9414595015911236, 
            -0.722550680738452, 
            -0.05964020532160507, 
            0.5329068949645223, 
            -0.9128852326014476, 
            -1.5172441978465463, 
            -1.4115958581060244, 
            -2.794742872758139, 
            0.9924128561355212, 
            -0.36865134253365855, 
            0.15646205349702447, 
            -0.8624287373160924, 
            -0.7015190523669029, 
            -2.5248419404859916, 
            -0.613530438666211, 
            -1.397571933922024, 
            0.017827931349984175, 
            -0.7752560779509052, 
            2.367511058580577, 
            0.7004000929341104, 
            -1.1275621510998612, 
            -0.1840202319679311, 
            0.6716299669405474, 
            -1.38320400798378, 
            -0.20365238840052363, 
            -1.1271428933723606, 
            -0.09152757905887707, 
            0.49519982285796893, 
            -0.9270924663677071, 
            -0.26476020699064723, 
            -0.5392821907495513, 
            -2.3523609715608926, 
            -0.3345143515059691, 
            -0.5217068434382978, 
            0.3982037983623507, 
            -1.020963764250589, 
            0.22737007919510768, 
            1.3494994397332387, 
            1.0526213075887423, 
            -0.5141698665186225, 
            -1.3575725030229258, 
            0.07736130594649651, 
            -1.6697643304477805, 
            -2.898850419541821, 
            -0.5610635212042518, 
            1.1728531140643608, 
            1.8417050210934487, 
            -0.17008901449543148, 
            0.29827434848544376, 
            0.6257721759209824, 
            0.2383455601849036, 
            -0.3527677401423277, 
            0.7886702244249206, 
            -1.500877233712455, 
            -0.46941690914107337, 
            0.24422227644109348, 
            1.0030837728059687, 
            -1.0510018905311955, 
            1.1188513713424058, 
            2.001798614630511, 
            -0.4039473718193515, 
            0.20658263920509365, 
            1.5888208984899916, 
            -0.15955925168047652, 
            -1.1446139488231777, 
            0.09931242355955727, 
            0.03157576060834224, 
            -0.25613675381165596, 
            -0.5182922840909848, 
            1.3295518012382739, 
            1.30903053339318, 
            1.0210808729344432, 
            1.0499414606688395, 
            1.110328742669185, 
            -0.12407245853100551, 
            0.5960320702340385, 
            0.6393783630024054, 
            1.130069401894507, 
            0.31664494842954366, 
            -1.9908729052539056, 
            0.6341175342638753, 
            0.33202357967071267, 
            0.7825468057259157, 
            -0.4170149575744462, 
            -0.8595095965744656, 
            -0.10782505134486316, 
            -1.2091271419321499, 
            1.9100471493644153, 
            0.9209616255926775, 
            1.4038488521110741
        ], 
        [
            -0.30325937598389874, 
            0.8514099873168374, 
            -0.5985470090803316, 
            -1.7553221085937945, 
            0.9122600782820109, 
            0.17690212070681305, 
            -1.0158506395248725, 
            -0.8018886861028204, 
            0.148694083877539, 
            1.448369658502391, 
            -0.9306290102658877, 
            -0.16432511216568968, 
            -0.564359304912709, 
            -0.2483072857879709, 
            -0.5996914386552762, 
            0.27130716814244527, 
            -0.7533123066382895, 
            -0.020142030269522545, 
            -0.573111557277101, 
            -0.11138824738408573, 
            -0.6611249791807653, 
            0.14803035299339842, 
            0.969699434225463, 
            -0.9022766381402261, 
            -0.37373973910581976, 
            1.0948507332205828, 
            -1.535734738212496, 
            0.21592340783972921, 
            0.2964284827440817, 
            0.849473725317984, 
            -0.18578843067681497, 
            1.2073464975913824, 
            -0.49940719535634104, 
            0.4529458685819792, 
            -2.128197922911614, 
            -1.7839641158474235, 
            1.2396630971903657, 
            -0.04004780806431928, 
            -0.4185781056565462, 
            0.34685654378662406, 
            -1.790738128743045, 
            -1.0091072394310185, 
            2.190751797511308, 
            0.17580690254104345, 
            -0.8613239161734032, 
            -0.43410550944216886, 
            0.32594832182013145, 
            0.28424117494970413, 
            -0.5164406192338472, 
            -0.26196838536742734, 
            -0.6660017805777977, 
            -0.6703801742096218, 
            0.7593024704496913, 
            0.5787989073288368, 
            2.0887312662867354, 
            0.16886099506834812, 
            -0.9468298931610643, 
            0.9057658020747641, 
            0.6812120834544949, 
            0.3216835981940862, 
            -0.4018134976772412, 
            -0.5347722967990871, 
            0.9370847415744455, 
            -1.006405785442691, 
            1.1264261540563498, 
            1.2256801834281157, 
            -1.699992993676012, 
            -0.5135455405496507, 
            -0.06565638809160673, 
            0.3036369589435041, 
            -0.7846333106752185, 
            -0.5392045840050843, 
            0.28670936761284255, 
            -1.1674480812767383, 
            0.251647567196633, 
            -2.026776746055056, 
            0.28690742964839366, 
            -0.7295999077378179, 
            -0.6161381242705466, 
            -1.2605568916496555, 
            -1.0133228969857797, 
            1.1466318167132707, 
            -0.5022673261578077, 
            0.5956737377852803, 
            1.4749569605423218, 
            -1.5817697270054316, 
            -1.668996488838596, 
            -0.8851125809868408, 
            2.690870478087436, 
            -2.0302012551243056, 
            1.2671090711246003, 
            1.1101209371372254, 
            1.2864568081809389, 
            1.0249745705899844, 
            -0.2980991113739297, 
            0.6146428401262494, 
            -0.0403073773863666, 
            0.6566515287545287, 
            0.17012361945286042, 
            -0.0482268945884309, 
            -0.546623174117652, 
            -0.047094071718473164, 
            -0.7145269832915607, 
            -0.4010857825002734, 
            1.5643150143181301, 
            0.34947016618602966, 
            0.06377983280650992, 
            -0.15765566849687093, 
            0.5486410530857647, 
            0.26785549699166206, 
            0.8799449043476187, 
            0.5024346587545682, 
            -1.0873496886778364, 
            -0.6281775424035233, 
            -0.9234654833292011, 
            1.7276791454962919, 
            -0.6313041692415046, 
            -0.062310935555901746, 
            0.8895235039538192, 
            -0.13744437062322265, 
            -0.08358230401996221, 
            -1.3024928110488376, 
            1.1808975017914385, 
            -1.4038463296259414, 
            -1.5929797231334897, 
            -0.18287923827296199, 
            -1.2536014317420452, 
            0.7821072697521717, 
            -1.0005851391220466, 
            -0.1876318559992996, 
            -1.2617700603517519, 
            -0.3301481834591865, 
            -0.5191173005218109, 
            -0.7047794949273998, 
            -0.630326611049233, 
            0.7173274325459873, 
            0.10562015254194612, 
            0.23044650191400076, 
            -0.4676943093703664, 
            -0.5128711787656356, 
            -0.7722509547879061, 
            -1.3451590591980487, 
            -2.1092902078604254, 
            0.7315330211035985, 
            1.0833891291149556, 
            -0.664821857171723, 
            1.5393973272472703, 
            -0.46736210054303734, 
            -1.1348073351281383, 
            0.006869740704259833, 
            -0.5638702607051336, 
            -0.06430923645763331, 
            0.5615003081871415, 
            -0.9865393467796769, 
            0.3470331371825304, 
            0.33855429940933, 
            -0.8640636073176097, 
            -0.8137044490999196, 
            -0.5646054976124032, 
            0.5332511808387229, 
            0.06879906722577527, 
            -1.4563372874490719, 
            0.42930010285484876, 
            0.14268062849624363, 
            -1.4906772628685425, 
            -2.47790604103744, 
            -0.5599238682351763, 
            -0.4361045458013136, 
            -0.4284963006544339, 
            -0.36792387233764645, 
            2.002612452154844, 
            -0.09140519490360363, 
            1.4937449711307398, 
            2.616798110670015, 
            -0.7326923851935492, 
            -0.027704995805212712, 
            -2.1089395391753274, 
            0.8782467523950125, 
            0.4331624014148924, 
            -1.9605524815949409, 
            -2.845836121257644, 
            -0.4647198055979933, 
            -0.21551014799171966, 
            0.789678391483676, 
            -0.6097013238284723, 
            -2.716626659697581, 
            -0.12323387008257733, 
            -0.21408057368929734, 
            0.025063706123327034, 
            -1.374002590717726, 
            1.4219544785276181, 
            -1.1592753978088701, 
            -0.6219901742929321, 
            -0.8204495359938128, 
            -1.1436664746600589, 
            -0.217977041216566, 
            0.3426324463888663, 
            1.0158335943098304, 
            1.2900545938698975, 
            -0.06836476032521241, 
            -0.9212885378030593, 
            0.1044119367021338, 
            -1.6486604913097422, 
            -0.9687382171479444, 
            -0.15886435810610222, 
            -0.03171224507587281, 
            -0.2827236684385269, 
            -0.6955991636063301, 
            -0.3353919086778988, 
            -1.997496333675507, 
            -0.11832379683835817, 
            -0.20623720507393792, 
            -0.26666178951127034, 
            -0.3682352900124862, 
            -0.14710159636572973, 
            -0.49759435226706655, 
            0.6676689113075911, 
            -0.6221199347896561, 
            0.035122902700496346, 
            -1.1176016977880814, 
            0.15586634077340522, 
            -1.2747542708656852, 
            -1.4891688685941995, 
            0.022500869231195757, 
            0.41578530676299813, 
            0.4129147283980121, 
            -0.7376659303079605, 
            0.9984069319140945, 
            0.7326674796744452, 
            -0.21631239967202914, 
            -0.8219432962158558, 
            1.8047683021680219, 
            0.6989098198804702, 
            2.0428893383014177, 
            0.04714408729566872, 
            0.12440852344204063, 
            0.005380766401416369, 
            -0.0454312220806793, 
            0.45293232196571154, 
            -0.5524702596148392, 
            0.22561467385260878, 
            0.7476894646478257, 
            0.36263909401014044, 
            -0.6549010731149616, 
            1.548329557876855, 
            -1.1788544730754131, 
            0.12246194592638304, 
            -0.5438903248930638, 
            -1.644513294756473, 
            -0.5730363994539122, 
            -0.23916042288974743, 
            -1.1220848658058524, 
            1.0287621258126938, 
            1.0076164819208286, 
            -0.7190507798726117, 
            -1.1160719701146458
        ], 
        [
            -0.12150356268566388, 
            0.7879715618384534, 
            -0.18304200521118874, 
            -0.6072519849436505, 
            0.5931065831539675, 
            -1.3555395986102445, 
            0.49832749790386727, 
            2.4081837314740735, 
            -1.758139468994108, 
            0.459245598948856, 
            0.9686282671984804, 
            2.0376146023678388, 
            -1.502488641427949, 
            -0.951424042454087, 
            0.7778783902631207, 
            1.6703687670002918, 
            -0.3251474185220392, 
            1.1681343437939027, 
            -0.04682204828805469, 
            -0.4205184222667952, 
            -0.4369671041081004, 
            -0.18479071236524286, 
            1.5679895529543997, 
            0.9434036666933617, 
            0.1601372007619469, 
            1.5965447245029947, 
            -0.7033137591455549, 
            1.4405943870448739, 
            -0.8668747828516227, 
            0.9242379984512588, 
            -0.060750326136748474, 
            -0.12368570188065169, 
            0.9153651623291502, 
            -1.4064075049612226, 
            -1.5571436983783007, 
            0.7544317727984687, 
            0.4854446524916051, 
            -1.5239856867604595, 
            0.21456646876714777, 
            -0.6224583435749257, 
            -0.3639664852160764, 
            -0.06105963732975935, 
            0.2555406475766699, 
            0.4817379314121046, 
            0.14606883454347122, 
            0.2021005502025592, 
            -0.8923389266024085, 
            -1.2086161130930788, 
            -1.479288438353262, 
            -0.2868189595198251, 
            0.3861030453934924, 
            1.3603560108950308, 
            -1.2540792985629892, 
            -0.2285953177811212, 
            1.4385397068984245, 
            0.8249964404714978, 
            0.01612999562716886, 
            0.20074321422353816, 
            0.5499304762656316, 
            -0.3841304990297321, 
            -1.4861330939447277, 
            0.007135731486548632, 
            0.3340097523580333, 
            -0.8723913707249087, 
            -0.8364771751548993, 
            0.07192644741284548, 
            0.8634114920303985, 
            -0.4095962094735472, 
            0.7500538041390801, 
            -0.7968816945218258, 
            -0.6239940113050337, 
            -0.13501272597287461, 
            -0.0028852835320026774, 
            -0.5206662603463734, 
            -0.19802643242755602, 
            -0.253130892050162, 
            1.147002470042394, 
            0.07820882747403016, 
            0.348940871604367, 
            1.6355005865980394, 
            -1.0467490127645263, 
            1.1220686181656478, 
            0.2612356561033544, 
            -0.4550168013255736, 
            -1.5982554092531702, 
            -0.7605323839297057, 
            0.8159301131433757, 
            1.909455211943036, 
            0.11438464348519935, 
            0.4692200563119323, 
            0.7843845743582762, 
            1.127676749710333, 
            -1.0963982270664474, 
            0.893161114394277, 
            -1.0184915377146233, 
            -0.4353303807015355, 
            1.3886459757601182, 
            0.04058129074380629, 
            -1.0833870649818156, 
            -0.9629228249807608, 
            -1.3774173566055181, 
            0.35979363172889794, 
            -1.1184912562149467, 
            1.1531977219704026, 
            0.2981668199850043, 
            -0.6562589242793805, 
            0.5890650292975826, 
            0.625538159683843, 
            1.6652393633224891, 
            -2.0283994965898904, 
            -1.6868612981806146, 
            -1.2305323380754551, 
            -0.6840975481297513, 
            -0.4589430790327151, 
            -0.8759018212500355, 
            -1.6502100495784882, 
            -0.6999931660045868, 
            -0.3234083862487812, 
            0.7391224023500601, 
            0.7345685917435428, 
            -0.9239375876004109, 
            2.5123022424194743, 
            0.044546996645262106, 
            -0.46920427415790195, 
            0.8095908309007345, 
            -0.6731336382259908, 
            -0.33242605241144135, 
            -0.48487922673936823, 
            0.12272117972567047, 
            0.15995680499674658, 
            0.4377533282442848, 
            0.032283872777491784, 
            -1.4559290401838827, 
            -0.8027313575364434, 
            -0.2897185828288843, 
            2.1019619752828875, 
            0.8920247369901301, 
            0.5719283501532327, 
            1.5628260851464586, 
            -0.381864229640349, 
            -0.5364944183268388, 
            -1.008057187128434, 
            -1.180179008774904, 
            -2.3313066751191966, 
            -1.0945746771258253, 
            2.5775893828974366, 
            1.4740183515903125, 
            0.10907056293798896, 
            -0.41913677795156196, 
            -0.12362846125425392, 
            1.6536683638528162, 
            -2.776937424440209, 
            -0.3306020210367692, 
            -0.8885769758541712, 
            -0.060973112902994536, 
            -1.5698272674062173, 
            0.5445561971013516, 
            -1.0523978191041279, 
            -2.4540937519278305, 
            -2.391890569733576, 
            -0.2239773453438102, 
            0.6730685756791172, 
            -1.0781878447194972, 
            -0.8343702400194127, 
            -1.1790722482730374, 
            0.8003409031114679, 
            -2.548925276638773, 
            0.5583929536225581, 
            -0.6947478074211613, 
            0.40594516576486894, 
            0.7159963190257715, 
            0.09812709641489062, 
            -0.04216663392518773, 
            -1.7390872801179869, 
            -0.7266529322314818, 
            -1.219071650087664, 
            0.09372097607949287, 
            1.2684899097013584, 
            0.14974010663210766, 
            1.158385294895116, 
            -0.46118948120679265, 
            -0.39968301184380345, 
            -1.3678335596131588, 
            1.482959075370537, 
            0.9300698427231473, 
            2.6427839608308306, 
            -0.4499614937134128, 
            0.6017936379593104, 
            0.0009534123654753384, 
            0.10722157840691231, 
            -1.1674838101378997, 
            1.3246292623964855, 
            1.4303057903768388, 
            -0.42925787383461067, 
            -0.14147678175259054, 
            0.303084454740627, 
            0.3969409118896564, 
            0.48549833654028585, 
            -0.8939782164592869, 
            -0.4388401423080539, 
            0.15302852873385728, 
            -0.769378373335232, 
            0.7806281511891615, 
            0.4147779424751767, 
            -1.0367244674246614, 
            -0.7227008215602165, 
            -0.4289833005215115, 
            -0.0937293256624579, 
            0.41874208015772296, 
            1.3079929731676354, 
            -1.1554706632474019, 
            0.7122761096450781, 
            0.2513766451080397, 
            -0.3807997639419976, 
            -0.1959238724686421, 
            -1.1557230992138479, 
            1.064166115687065, 
            -0.052979493850901546, 
            0.3123589168856815, 
            0.1354058260619134, 
            0.2660470479774865, 
            -0.32024687689877757, 
            -0.2245412021699068, 
            0.987619504208503, 
            -0.7820570740453996, 
            -0.21077931562271587, 
            -0.6320419926470231, 
            0.10551733880710285, 
            1.1867975765511358, 
            0.5048762000026674, 
            0.29601695207345774, 
            -0.5773557977812146, 
            1.4810462885426101, 
            -0.5873376652259258, 
            -0.6926063667370946, 
            -0.11595823195428229, 
            0.181716774422915, 
            0.07495542088752725, 
            -1.4721877055139538, 
            1.1679860599834564, 
            1.0620246472147565, 
            -1.0393623873364903, 
            -0.5577425616575815, 
            1.7517965478841324, 
            -0.7031782788688105, 
            0.28201490719128797, 
            1.4714681982415792, 
            -0.8759600341438806, 
            -0.37399161550942134, 
            0.6632300577831469, 
            0.8169053171088575, 
            0.20442982535066914, 
            -1.076336732083079, 
            -0.41988285949390547, 
            -0.5123189483106053, 
            -0.2669354646345101
        ], 
        [
            -1.072268575123201, 
            0.5295582844338536, 
            -1.4979893675025242, 
            0.11226563075337884, 
            -0.03782111452413474, 
            -1.3341502570405388, 
            -0.3173400779697975, 
            -0.29864432407257774, 
            -0.46321821320248535, 
            -0.7481858677492775, 
            1.4301167813552773, 
            0.470438917519039, 
            -1.738854633245888, 
            -0.04045448780388251, 
            -0.20954834599996985, 
            -0.30268048111820606, 
            0.5342111824560407, 
            0.9537522787134391, 
            -1.7445379144440802, 
            0.061956177460515335, 
            1.789762389923888, 
            -1.7375601706929713, 
            1.2340454539910648, 
            -1.4496879038801147, 
            1.352711430703852, 
            -1.4493209836749723, 
            -0.27136392082771865, 
            -0.7874247043193995, 
            0.24868347601175075, 
            -1.0583179788580703, 
            -1.3176661457792491, 
            -1.2413268750836937, 
            0.23305888040270528, 
            -0.435863326344821, 
            -1.1591032603481273, 
            1.2781794215057551, 
            -0.03939786616822911, 
            -1.1342952074647232, 
            -1.9532980156688295, 
            -0.37667512864219244, 
            -0.38479021074475284, 
            -0.2542743130450425, 
            -0.9825572277469267, 
            0.45836777756781105, 
            -0.5352568638424141, 
            -0.1166229435450908, 
            0.5399716796994015, 
            -0.039418966125740945, 
            -0.815775000027242, 
            0.0011882327453705038, 
            -1.3263864210883194, 
            0.2676272893286839, 
            -0.8401484992201642, 
            0.7364415069054298, 
            -0.45408233397272346, 
            -0.20865803585568643, 
            -0.5070620928790771, 
            3.0384321472615055, 
            1.6981772654909812, 
            -0.6587154779258273, 
            1.1490314086577862, 
            0.6488772910105618, 
            -0.5448437525120813, 
            -0.01428729816998628, 
            -1.1255571789810082, 
            0.23026633220854514, 
            0.7229206514365905, 
            -0.7660010081400644, 
            -1.7953617401403124, 
            -0.42054392280351555, 
            0.4032805238328654, 
            -1.416074766504584, 
            -0.05726648513774673, 
            0.6117230797788346, 
            0.05540650499836653, 
            -0.4569063685726482, 
            -0.07658792066811128, 
            -1.0711848206360535, 
            0.29252098395616977, 
            0.49081114027575257, 
            -0.46903161123977416, 
            -0.6895949966198124, 
            0.5015208316934006, 
            -1.4866571622195748, 
            0.45462327673995107, 
            -0.22763595967072706, 
            -0.6212044875670113, 
            0.12314966844225997, 
            0.52425851981881, 
            -0.4783515911902283, 
            1.190932152736692, 
            0.38888462819360786, 
            -1.5028255365726475, 
            -0.828715302140429, 
            -1.2780823251621933, 
            -0.6557366290520339, 
            2.0237628597403154, 
            0.1312912648651101, 
            -2.1621709605008745, 
            1.0524076197440717, 
            0.11471437142858566, 
            0.6439742624026522, 
            -0.739051637942421, 
            -1.0051028812298282, 
            -1.5213413402578353, 
            -0.502122404512215, 
            0.5251162653002502, 
            1.3587920498178134, 
            0.8661992757779943, 
            0.47429628672121654, 
            1.6069828119860408, 
            0.7161884779536177, 
            -1.074647787901409, 
            0.5364616676066484, 
            -1.8515924626394655, 
            0.038544163564508425, 
            -2.024818340748, 
