{
    "layer_1_bias": [
        [
            -0.284530556504573
        ], 
        [
            0.6429839988466334
        ], 
        [
            -0.7691956647637931
        ], 
        [
            -0.5600289426623153
        ], 
        [
            -1.232276940875598
        ], 
        [
            0.500592457066523
        ], 
        [
            0.6556591912335952
        ], 
        [
            0.21286539616086228
        ], 
        [
            0.44991495533252057
        ], 
        [
            0.19274793062216639
        ], 
        [
            0.6855457707497229
        ], 
        [
            0.33783556419056143
        ], 
        [
            -0.48614866155439923
        ], 
        [
            1.4835833739629587
        ], 
        [
            -0.5819453873811526
        ], 
        [
            0.5700671817720022
        ], 
        [
            0.4843894799045373
        ], 
        [
            0.24335567455706314
        ], 
        [
            0.10632225299136322
        ], 
        [
            -1.899034077271022
        ]
    ], 
    "layer_1_weight": [
        [
            -1.6698106816396163, 
            1.3106198964482059, 
            0.6222723566257663, 
            -0.11752108416029583, 
            1.2798026559337718, 
            1.03094785457536, 
            1.0094895306585687, 
            -0.9770248516219732, 
            0.37832800649411574, 
            -0.1318592301334863, 
            1.2741476338499267, 
            -0.5186415470316339, 
            -1.5511001151658441, 
            0.2598857467350337, 
            2.7201557102353977, 
            -1.0274904320847105, 
            -1.5485553742098228, 
            0.17618832988136712, 
            -0.5356034609581278, 
            0.6121133476843386, 
            0.4987345780307185, 
            -0.5608695090121287, 
            -0.7393015551592873, 
            -0.6692068665489289, 
            1.084601574033332, 
            -1.473353426653192, 
            0.5417906701793848, 
            -1.3832351704781833, 
            0.050858318064357574, 
            0.8480966922262461, 
            0.24509169439149048, 
            -1.7054151565829172, 
            -0.6263590237755741, 
            1.469612790541337, 
            -0.3353217789351476, 
            -0.26892988155360753, 
            -0.408032251362593, 
            -0.4203068327596727, 
            -0.7788272867465929, 
            -1.1214925893663397, 
            -0.5097727369804513, 
            -0.7818073159677357, 
            -0.8382129067406816, 
            -0.4526684829290042, 
            -1.0319667112726847, 
            -0.837371885378724, 
            0.6366808230202963, 
            -0.7508639948486533, 
            0.20171247003511508, 
            -0.333709414486116, 
            -0.3854436261106791, 
            0.459752882162535, 
            -1.693348699236097, 
            -0.3415851293002308, 
            -0.5621007710566166, 
            -0.09464858303664694, 
            0.6941258960433635, 
            0.02917546182285553, 
            -0.1586178935807899, 
            0.2190404149176929, 
            -2.1107145843597084, 
            -0.5854240364615123, 
            0.6121873374329018, 
            -1.527342027524325, 
            -0.4668871349290634, 
            1.8960658177766347, 
            -0.2449308488599403, 
            2.3806796127045358, 
            0.08542659592537033, 
            1.2412008099033531, 
            -0.88705581527798, 
            -2.1969907248668217, 
            0.09495360338222628, 
            -0.3200661979026547, 
            -1.0439486595987495, 
            -0.5578116459780833, 
            -0.6533846573080971, 
            0.6096678923493132, 
            -1.5428689656535095, 
            -1.141297972745337, 
            0.24476809921144604, 
            -0.09109388441551901, 
            -0.5571704051904564, 
            1.744844572507387, 
            -1.0711242019158784, 
            -1.2747323373446693, 
            0.08043956718473975, 
            -0.16194891886566862, 
            0.8224838493283373, 
            -0.15371938382354192, 
            -1.4950518528058414, 
            -0.6533302054170617, 
            -1.0531034111691333, 
            0.9567364713177275, 
            -1.3575400463262866, 
            1.291101058251146, 
            0.3291106600134726, 
            -0.39758790303647334, 
            -0.9751685032653332, 
            -0.060138982240284765, 
            1.40697292593552, 
            0.6355255499933787, 
            -1.4219955785203129, 
            0.019706045184252126, 
            -1.059499824202418, 
            1.2415899694233634, 
            1.3914561174340094, 
            1.5019203854887413, 
            1.1342310356166372, 
            0.10086860895316459, 
            -0.986358808495395, 
            1.4557422167187755, 
            0.09518600409360506, 
            0.7128121298319443, 
            -1.055472253296989, 
            -0.9165109038736834, 
            -0.8558168133647264, 
            -0.21942375011984389, 
            1.3633512822283465, 
            0.380977866063138, 
            -0.4315004640257971, 
            0.14926234955093018, 
            1.4687554272440726, 
            1.3287646520542202, 
            0.463299825742809, 
            0.29126931799718586, 
            -1.6850381774904877, 
            -0.2026211440264356, 
            -1.5303405421733087, 
            0.10544155218374794, 
            -1.7835537811506212, 
            -0.5564504520664827, 
            0.6429454622115138, 
            0.15463029559304223, 
            0.5612987285055399, 
            1.25251246215725, 
            -1.0901374021761099, 
            -1.4349702024590016, 
            1.0015098230014585, 
            -1.0433120195432566, 
            2.3350509998448765, 
            -0.24920369698220785, 
            0.03635415274110581, 
            -0.20697028280329058, 
            1.2047023933500451, 
            -0.1519358204354091, 
            0.13778137304199797, 
            0.6698327907676412, 
            0.05092066234227917, 
            0.990469845445228, 
            -1.120396707968486, 
            -0.40135748016272677, 
            -0.981438739326451, 
            1.3567974050591383, 
            -0.3609547629533645, 
            0.43123852519333966, 
            -0.025634271549056526, 
            1.2020595531961262, 
            -1.5767831837708322, 
            0.9339657079812205, 
            -1.3353510764624335, 
            1.4285634065786714, 
            -1.7556526815007538, 
            -1.7199396790106765, 
            -0.09328099104276945, 
            0.5892883197846756, 
            -2.2356828993697304, 
            -0.1164772161341283, 
            1.6072412444309658, 
            1.1651979507780519, 
            0.25646548885763343, 
            -0.0011008419921646772, 
            -0.28730293160281745, 
            -0.1622449871426572, 
            -0.680065245770469, 
            -0.8430341145283622, 
            -1.0302986986609088, 
            1.063198838206553, 
            -1.7912827104194742, 
            -0.2839636650211727, 
            -0.10004193739267142, 
            0.7896594466812488, 
            0.4506388401623845, 
            -0.4303367572704854, 
            0.30524313490961547, 
            0.08765945807504842, 
            1.1962471396792922, 
            0.37302825443712656, 
            -0.22988213276090955, 
            0.5499307842234058, 
            -0.012887713134321969, 
            0.17060253972854095, 
            1.1947200920657968, 
            0.5117699234121454, 
            -1.799438994875878, 
            -1.4840898271841614, 
            -0.00802985292079929, 
            -1.6836603194028674, 
            -1.4926713176512667, 
            -1.4996771014003265, 
            1.3642318420005406, 
            -0.4417668370473008, 
            -1.3232092729147822, 
            0.5568352821397562, 
            -0.5479372176479973, 
            0.8124028797840432, 
            0.23970486244225017, 
            0.7197235258774628, 
            -0.21267963601320156, 
            -0.2549711167440518, 
            1.4035373449500155, 
            1.6917827976290194, 
            0.661679377784975, 
            -0.7410410424358744, 
            -0.7589003082468622, 
            -1.004495785137545, 
            2.5535697456508277, 
            0.30201092801179913, 
            0.018768339709554653, 
            -0.39598113760102505, 
            1.2007898344944614, 
            -0.5937866315015612, 
            -0.13236366004667818, 
            1.3955683423944643, 
            -0.7033288564544325, 
            1.5852584976783228, 
            1.276231727791654, 
            -1.2797144861189982, 
            -0.923421006483279, 
            0.22613090921573337, 
            0.4849138798458898, 
            0.40654211914044475, 
            -0.057565172275954916, 
            0.14352906896533016, 
            2.829892484894593, 
            -0.2789681620029226, 
            1.0808058367463618, 
            -0.4856604329968575, 
            1.337513741505821, 
            -0.8205155283354271, 
            -1.2244367612283154, 
            -0.6377684141408503, 
            0.48801085302629105, 
            -0.5714194476516156, 
            0.7097579947722676, 
            0.33306772643295146, 
            0.5889645026921079, 
            0.5655911825022444, 
            1.222495845407196, 
            -2.0088395751657697, 
            1.6177713722213123, 
            1.9630146292751092, 
            -0.46035252969693685, 
            -0.4217163355720629, 
            1.4349812436504674, 
            -1.885016770828157
        ], 
        [
            1.238312631164577, 
            1.3246526616774037, 
            -0.5977398535270046, 
            -0.8000596907781363, 
            -0.9212230519948602, 
            -0.3744781597187753, 
            -3.014793955282179, 
            -0.7022398859596382, 
            0.1703903256889837, 
            -0.8485598772954724, 
            -1.0712720348977804, 
            -2.170159900994286, 
            0.5148706909036074, 
            -0.8961626620209981, 
            0.11961252957901214, 
            -0.3248266790874929, 
            -0.34124141137227393, 
            -0.9949950987001029, 
            -0.9581904876760836, 
            1.4431217704233874, 
            0.5885595642144787, 
            -0.2194385885345958, 
            -0.5948651013514636, 
            -1.6583398368610673, 
            -0.1390218414864809, 
            -0.1556614636146931, 
            0.37067457087344513, 
            1.9351567252286788, 
            -0.3910951130366817, 
            1.3000844902038793, 
            -0.0630883906717027, 
            0.7713225162531806, 
            -2.7797056687578237, 
            0.39551072406381316, 
            -0.6302255389215233, 
            0.17376685333909705, 
            -0.7914974779670052, 
            1.6511537032590646, 
            0.11279761488485203, 
            -0.2740247584245461, 
            -0.37066121184651907, 
            -0.538173124262634, 
            1.7546477996754677, 
            -0.2742497272172178, 
            0.11103558090286977, 
            -1.0907243242279945, 
            0.2805499135587112, 
            -2.003433741867447, 
            -1.1414922793590967, 
            -0.663718206700233, 
            -1.6905098248580754, 
            0.36920184590380073, 
            -1.4157393760317747, 
            -1.6504349608670392, 
            -0.6620119692931467, 
            0.4812244960974779, 
            2.4107787152251703, 
            -0.7788823965174334, 
            -0.017713447885113125, 
            0.6707747421038546, 
            -0.3461700242381058, 
            -0.028828980703681922, 
            0.1308692882895534, 
            -0.08650486724909309, 
            0.01951644205633632, 
            0.778392638310844, 
            -3.244965449307223, 
            -0.59956012537382, 
            -1.124280210426847, 
            1.0902083857484324, 
            -0.39018984064048146, 
            -2.625370438702747, 
            -0.749822959301329, 
            0.6757153224971291, 
            1.3857629103087754, 
            0.23396448886805543, 
            0.9361546324034474, 
            -2.3616787486066095, 
            -1.298093017674009, 
            0.5354541174858275, 
            -0.7940844249727771, 
            -1.3893733155945034, 
            0.7398309897793005, 
            1.8415747123660786, 
            0.036692775631462164, 
            -1.5076080875758555, 
            -0.04730541981899871, 
            -0.8950632955463995, 
            1.2636870058414837, 
            0.46598909909051056, 
            0.2578207062225377, 
            2.292185512170673, 
            1.3686313655100992, 
            1.3155129325801795, 
            1.921778999608149, 
            1.798562809833155, 
            -2.768228165113382, 
            0.41961413496061306, 
            0.2628748832668558, 
            2.2659667330064694, 
            0.865812406491177, 
            -1.8301992955061837, 
            1.5270221352850355, 
            -0.20701459600052607, 
            -0.12087658481794869, 
            -0.34511511539722944, 
            0.041793597110061594, 
            0.9447555897218547, 
            -0.8606817705743283, 
            0.3112804258917148, 
            -0.8949433385314344, 
            -0.23775590049900105, 
            0.3865416679354557, 
            0.37853139473487024, 
            -0.2035473147715489, 
            -1.014134228516998, 
            -0.7302547185876149, 
            0.22083904284824904, 
            0.1422013561125476, 
            1.3239428694686153, 
            0.9119599799183529, 
            -1.3761874652606376, 
            -0.09744998632034033, 
            0.12397476257083245, 
            -0.48104996873060873, 
            0.8930725088499021, 
            0.6993642615215091, 
            -0.6429906877345771, 
            1.9572341621838956, 
            0.8071059496597822, 
            -0.5412352838613721, 
            -0.035635597986060544, 
            -0.42010669556683594, 
            1.010126902151969, 
            0.2665369426183343, 
            0.22447910329845125, 
            3.2929029418173648, 
            -0.3643167565107321, 
            -0.6414044550824104, 
            -0.5664199524303595, 
            -1.8482218743454693, 
            -0.4886660980947325, 
            0.32321373561467387, 
            0.2470801658594207, 
            -0.17451286516240525, 
            0.1673256311106826, 
            -0.1446004843474039, 
            2.4592696806192405, 
            -1.64524814509723, 
            -0.5521602440915986, 
            -0.3625640875426452, 
            0.2587051475359875, 
            0.018886799529139436, 
            0.889827111438974, 
            0.6698345983391664, 
            -0.23325619294005742, 
            -2.573402156440361, 
            -0.9793332070770614, 
            -0.7787355607972124, 
            -0.9827745614921228, 
            -0.08160045787815846, 
            -1.38891215723133, 
            -0.9559545952996108, 
            0.21087374210509896, 
            1.8838754691659945, 
            0.4906160546097927, 
            -0.6498420390211225, 
            -2.1188783948322896, 
            1.042902370740303, 
            0.582252264114196, 
            -0.21426741390776388, 
            -0.4662583173591092, 
            0.2729780739872584, 
            -0.05177787975400399, 
            0.36582322528430755, 
            0.071778916379803, 
            -0.4577889318386179, 
            0.705513198275387, 
            -1.3609328453098495, 
            0.6379036762267083, 
            1.3370819115649102, 
            1.1328714715219927, 
            0.9140394512152727, 
            0.5901358296653156, 
            -1.1951088699035035, 
            -0.6829344382488883, 
            1.71106857209269, 
            0.6872354175988967, 
            1.0928609421829685, 
            -1.3617423671947202, 
            -0.13418177064610634, 
            2.0434446167261244, 
            0.19395857406703412, 
            -0.24370138206321462, 
            0.14081234292410227, 
            0.08477673157160862, 
            1.8512244209876687, 
            -1.1432489145847329, 
            -2.2240206981182364, 
            0.8687842205521393, 
            0.01691300342307841, 
            -0.5691939491918279, 
            -0.4847971304758272, 
            -1.2435365547773582, 
            -0.050601979611988764, 
            -1.2555480707879272, 
            -1.0902134627186277, 
            -0.23577735579980805, 
            -0.06699559143630317, 
            -0.18865118664476693, 
            -0.16143199338551847, 
            1.8687573388886056, 
            0.16773633057222403, 
            -1.092595142444344, 
            -0.3088093409353439, 
            0.3551278249501739, 
            -0.04915015220763171, 
            -1.5515379728817025, 
            -0.14288283322822518, 
            0.6060916973665887, 
            0.40789257934622075, 
            0.32086501018730906, 
            0.142972351529424, 
            -1.68008020538608, 
            1.2564842781488124, 
            1.1966697589810282, 
            -0.916228396242609, 
            -1.4322182540832313, 
            0.7268719050529245, 
            0.3717581178830758, 
            -1.0866164434257957, 
            0.29608719352675233, 
            -1.4462744268671204, 
            -0.13839904812734005, 
            0.13215654907347404, 
            0.12045865579077814, 
            -0.3457172788022777, 
            0.9100467096381059, 
            -1.048651522863124, 
            -0.4679379250747885, 
            -0.6767385155433223, 
            1.3199961743577022, 
            0.29575649774077156, 
            0.9210756034317062, 
            -0.8208231127682006, 
            -2.7404482860865196, 
            -1.1346342023309095, 
            1.4802006469274585, 
            -0.4670631221642659, 
            0.0523200875672165, 
            2.1195889590963173, 
            0.8713843835376018, 
            1.813852522657243, 
            0.6900557266436289, 
            1.3237653521067658, 
            0.9461270989442835
        ], 
        [
            -0.4511795086325127, 
            -0.5882960893392833, 
            0.26775148896416584, 
            -1.9363815548577679, 
            -0.26551777622898515, 
            0.20473904435460866, 
            0.9198261446299961, 
            0.6211721720192586, 
            0.051213044935482385, 
            -0.8061923549610182, 
            0.4435021539225322, 
            -1.0955932493298488, 
            0.5593662813769396, 
            -1.0795891105944475, 
            1.3208741467703011, 
            0.210059055531352, 
            -0.7125315541593881, 
            1.177007874951444, 
            -0.9364545500220693, 
            0.014898067931738762, 
            0.9893350149989627, 
            -0.0628974801842326, 
            0.3159388305798854, 
            -0.040958321663717184, 
            -0.7291884332783377, 
            -1.21934502451367, 
            1.1576840158633754, 
            0.4016366712355063, 
            -0.06985046280410648, 
            1.2484572841087123, 
            0.47798775260501736, 
            0.1950345342693447, 
            0.8297777404150073, 
            1.346065810637038, 
            0.46178708723391637, 
            0.5530421421629308, 
            -0.7214931650696431, 
            -0.20878094636522454, 
            -0.38316753629270783, 
            1.158569618471693, 
            1.0793315434717978, 
            -1.2654839293781055, 
            -1.4744110656469913, 
            0.9239674859740041, 
            -2.565649041047271, 
            0.0022935708732682992, 
            0.5884192720716062, 
            2.26012590124228, 
            -0.5981109035522495, 
            1.5140096151919906, 
            -0.4172848040223098, 
            0.7710448526308262, 
            -0.7948536098795981, 
            1.2747824857897592, 
            1.3064237666120335, 
            -0.976059652331195, 
            -0.781741208895745, 
            0.3774899274346765, 
            -1.0291818693162937, 
            0.6854378880301065, 
            -0.11966182577224291, 
            0.3475776275816382, 
            -0.19877793364184934, 
            0.9599995635345182, 
            -0.09877235516461831, 
            -0.007487667429112127, 
            -0.9645455673382818, 
            -1.370031531329033, 
            0.8101131897915452, 
            -0.30488196712985294, 
            2.3093558024270044, 
            -1.7599278881421936, 
            -0.5021295073900824, 
            1.2047597935034033, 
            0.5488273890301445, 
            0.33672822011936454, 
            0.48117017362140413, 
            0.253834431904463, 
            0.5877199836428639, 
            0.6066816749877106, 
            -0.1317495133348868, 
            -0.41682682532230714, 
            -0.5424854245463526, 
            -0.015619930870238972, 
            1.3506449031429848, 
            0.39021252923642463, 
            -0.8012306216012238, 
            1.66470351709883, 
            0.5286352986088588, 
            0.2251181519651634, 
            -0.6144408955661427, 
            0.8202866480804022, 
            -0.10994656749066228, 
            -0.7310853047160645, 
            1.5217927058632066, 
            1.451873207604771, 
            0.38983645172714615, 
            1.2415363227753236, 
            1.8550662780561578, 
            0.16833714164030528, 
            0.05226553445391169, 
            -1.1099963764992382, 
            1.0655354966180681, 
            0.5218672317939836, 
            1.5311048198007868, 
            -0.6469165763650445, 
            -0.3152237993413573, 
            0.3669897945789205, 
            0.20069904303383512, 
            0.20168501495572552, 
            1.3217230868282999, 
            -0.3008888320724402, 
            0.0211162546040932, 
            0.9786034133930989, 
            0.6982591428339793, 
            -2.51921262535608, 
            0.2582345405977937, 
            -0.9377349605077174, 
            -1.2353657524991934, 
            0.73543611448553, 
            0.3232519330782912, 
            -0.7272911578302023, 
            0.9532977255108832, 
            0.32117461829581573, 
            1.1562196900467558, 
            0.9458351116827103, 
            0.39650746800168823, 
            1.0970450576520838, 
            1.549558546072595, 
            0.13165841922256608, 
            1.6438492245165428, 
            0.820690758306624, 
            -0.11054548215517969, 
            0.5744771555606136, 
            -1.73230413074538, 
            -0.18010476239559228, 
            -1.46404857180759, 
            0.5003562103473406, 
            0.12278343703551166, 
            -1.3940570580306366, 
            1.2837670100065022, 
            0.9965092075556089, 
            0.2991984897769293, 
            0.8690816828452435, 
            1.2245941621639433, 
            -0.3810712834713779, 
            -0.23737237362661598, 
            0.8917795743249585, 
            1.4326568736797898, 
            -0.2006308617589628, 
            -1.5641859651341712, 
            1.4968181521312913, 
            -0.3002874110085298, 
            1.2880156109360128, 
            0.41366981819819054, 
            2.8400571518798152, 
            -0.7103155167724273, 
            0.3735606989985795, 
            0.6720060013208292, 
            0.43791522066124094, 
            -1.101781500297764, 
            1.4952772594781396, 
            -1.0061405150973701, 
            -0.1444885691060294, 
            -0.5838134759518374, 
            0.11316697790088555, 
            -0.7695776520213868, 
            0.8533083761844482, 
            -0.21337746505878785, 
            -0.78555080637543, 
            0.8800071228067299, 
            -1.2048793484550804, 
            0.5113261826786962, 
            -0.5808766550558864, 
            -0.3882142929498532, 
            0.7052668640580444, 
            -0.31628597919760476, 
            -0.8415557914977755, 
            1.600969677958462, 
            1.7270380797208433, 
            -0.9481120219137754, 
            -0.6795090519446786, 
            0.6510069897523868, 
            -1.251965401069536, 
            -0.37802358523962626, 
            -0.4173189937613092, 
            0.7128915260634315, 
            0.5407077284997996, 
            1.9526940196701543, 
            0.28221635192668376, 
            -0.08764446993274984, 
            -0.07551108323981026, 
            0.15629431640413552, 
            -0.7717228953197286, 
            -0.38154784346238263, 
            -0.5500706552220007, 
            0.8571646734689001, 
            -0.14467293901310924, 
            -0.6690076957268635, 
            -0.6748069371114582, 
            -0.29139795574453575, 
            -0.21985703012957541, 
            -0.22588314222914924, 
            0.8651433889808371, 
            -1.2560412427612282, 
            -0.5704389322187318, 
            0.32336606107258814, 
            1.8851405783411257, 
            0.035528484414853456, 
            0.6778713354788645, 
            0.7365585255944879, 
            0.46215408944694986, 
            0.6801728157412248, 
            0.18466668738088363, 
            -0.38826132701899935, 
            -0.7588194817783358, 
            0.9598518983463411, 
            2.3030658271857893, 
            -0.021525577724820645, 
            -0.7020383496414748, 
            0.27189022088601095, 
            -0.24553983952672212, 
            -0.3745649700188475, 
            1.381156751528441, 
            -1.874169427079561, 
            0.10066266716101326, 
            1.7403987806498926, 
            1.4784287577696793, 
            0.5218479410229587, 
            0.3046639586288928, 
            1.1488100884573247, 
            0.7921124261374172, 
            0.007919084202691487, 
            1.455530626057014, 
            -0.45276057040925444, 
            0.797236819586824, 
            -1.1962779902366156, 
            0.8023263712368658, 
            0.551436346021328, 
            2.2597523487844655, 
            0.5020260797769314, 
            0.2913155854402087, 
            -0.9319521102972436, 
            -1.1682319994339652, 
            -0.2686636276578227, 
            1.0489440973921356, 
            -0.10529767712793688, 
            -0.3098242105739418, 
            0.9961871746454198, 
            -0.34141117488099854, 
            -1.0366752268990342, 
            -0.2387894771179539, 
            0.46199640480796417, 
            1.6453544232006678, 
            -0.23428784257558466, 
            -0.4722090932079736
        ], 
        [
            0.06976091970233451, 
            1.7568799537421058, 
            0.5464613549259897, 
            2.0733879332043257, 
            -0.8944740587157344, 
            0.19410303175035715, 
            -1.7985289677817635, 
            0.9798929212957194, 
            0.8658668231476664, 
            -0.05295682084562136, 
            -1.1568054911917374, 
            -0.02714143600105735, 
            0.6674684255544481, 
            0.7601573181302473, 
            -0.9486174251509953, 
            1.8294479473512932, 
            1.6736505181718246, 
            -0.33660112801456554, 
            0.4205497513082949, 
            0.3897111634637635, 
            1.3075939943089434, 
            -1.2683459311751806, 
            0.9360441514809344, 
            0.07361598365110471, 
            0.050708788762444015, 
            -0.22072335710106694, 
            -1.1666751275730909, 
            -1.3772501714053647, 
            -0.3720586648478362, 
            -1.357077930386224, 
            -1.5698036238690602, 
            1.105305300187044, 
            0.33926727616013125, 
            0.4946491782666243, 
            0.7707901727958153, 
            -0.9393906130390441, 
            0.9186009358913255, 
            1.2926559863634444, 
            -0.2361595038987266, 
            0.5249462562522503, 
            0.3841071704327206, 
            0.16945268997041615, 
            -1.5591229090378913, 
            0.3514022440507583, 
            -0.062050402060228944, 
            -0.3544542211159992, 
            0.9187898294148311, 
            -0.11753336966458745, 
            0.051909534383361426, 
            0.9739561366542074, 
            1.0612467565214347, 
            0.5574684285440601, 
            -0.1422021936623513, 
            -1.3951564706563213, 
            1.1693279151664717, 
            -0.34834562293099497, 
            -0.8726398073493986, 
            0.4137023892935579, 
            -2.1491349378946816, 
            2.017012794345404, 
            -0.05294344787351096, 
            1.7557603723856572, 
            -0.07681423260392127, 
            0.2611326150065377, 
            0.7628054118971501, 
            0.5001860316060972, 
            -0.6613913494908743, 
            0.3117364258420173, 
            -0.7000450345159033, 
            0.36980714783859664, 
            -0.5049726839509332, 
            -0.046769071554838976, 
            -0.8714193524205276, 
            -0.55888081469093, 
            0.17331364199340882, 
            1.1539512462214152, 
            -1.0696536842419286, 
            -1.7889567585092498, 
            -0.22755315325312647, 
            0.4814160407562159, 
            -1.1459033405448111, 
            -1.661528274036043, 
            -1.2599996000767364, 
            0.672707500444041, 
            -2.0578133479636147, 
            -0.2749486067051116, 
            0.27580612632181384, 
            -1.2294899066077238, 
            -1.292443372631766, 
            1.486103497154687, 
            1.157011807975276, 
            2.273524660208521, 
            0.06631238236651067, 
            0.9999849455659036, 
            -0.19110727615511552, 
            1.7497667835015491, 
            1.4336022552996734, 
            -0.6122449722103982, 
            -0.9015745750310725, 
            0.19633849470472592, 
            0.7020832815178489, 
            -1.4788629226728316, 
            -1.2585977784594387, 
            -2.0435793406745435, 
            0.48218008252296973, 
            -1.1125581588194007, 
            1.0011507061151579, 
            0.6844445409282968, 
            -0.22586357372606874, 
            0.4063344551536953, 
            -1.8193663838639802, 
            1.2550945945475396, 
            1.3001781478283745, 
            0.07896817216024074, 
            0.6929491992493964, 
            0.32618653024558275, 
            0.11828269253188563, 
            -0.3505564499310186, 
            -1.4125781739024512, 
            0.18619633625735219, 
            1.669624407871892, 
            -1.2984962764545018, 
            0.8041219190836245, 
            -1.9635328561121197, 
            1.1600273681086184, 
            0.7040262037607092, 
            1.7152254258208948, 
            -0.031614965116041456, 
            -0.762130795540239, 
            -1.3573043894133558, 
            0.8778981880213439, 
            -1.2253939123930944, 
            1.0663908994295506, 
            -0.18158338755091308, 
            -0.17849517934413844, 
            0.25291782655695233, 
            1.4544685928023238, 
            0.26613011775811146, 
            -0.3074011898953143, 
            0.8033304229713217, 
            2.1906768820979177, 
            1.1900689736319614, 
            -0.29167462432284563, 
            -0.08220379247903091, 
            -0.2149506771061723, 
            -0.42476879263375106, 
            0.42228161784042934, 
            -0.2594011470647038, 
            0.9008766139952995, 
            0.35692596882537897, 
            0.019358231495793996, 
            -1.1801318275798398, 
            0.6504720218543633, 
            0.8056269287411304, 
            -0.9797764478020919, 
            -2.847387318208251, 
            0.6847088845984494, 
            -0.7380236738617972, 
            0.0934631755122508, 
            -0.7262810889877023, 
            -0.37828091436248407, 
            0.18309863831653195, 
            0.32963620344184846, 
            1.7726400706656265, 
            -0.894821205653762, 
            0.07528633319062901, 
            -0.9197957611210281, 
            0.41635484114594795, 
            -0.9983060658071767, 
            -0.22125242657150393, 
            0.9533205207021266, 
            -0.11611671066275035, 
            1.6325622811705005, 
            0.38066470574593025, 
            0.34703865547498497, 
            -1.4874907247636941, 
            -1.0202570220957046, 
            -0.0913437252077322, 
            -0.038232100544213575, 
            1.0647763341552228, 
            0.9470088330588236, 
            0.7271933261194297, 
            1.2385038883902022, 
            1.3193264836020864, 
            0.44606392046017246, 
            1.02037467866359, 
            -0.17325701923263348, 
            0.3666466336736304, 
            -0.540934816952104, 
            2.3556702185260114, 
            1.1696263969441034, 
            1.240634510452751, 
            -0.4023565665430122, 
            0.48294021798283027, 
            -0.015232473258593237, 
            -0.6456598286392953, 
            2.2505744674372328, 
            -0.7500083289881555, 
            0.20536988539738743, 
            1.4351739911771477, 
            -0.8953145232747489, 
            -0.18831650120991025, 
            1.1524394176884631, 
            -0.4382821285143691, 
            0.21197048192693937, 
            -1.7815790216570402, 
            0.8336830811293379, 
            -1.934741732130671, 
            0.8035015254370036, 
            0.5860792655039897, 
            2.61629656344426, 
            -0.042449954891532075, 
            -0.8904778978896805, 
            2.098139609053027, 
            -0.007932916642631583, 
            1.641455505691862, 
            0.26972371566178416, 
            -0.22956650932783648, 
            2.8588581301624223, 
            -1.7648405442691757, 
            0.24850680211436602, 
            -0.6930099814314901, 
            -1.5602242941879356, 
            -0.09960399727392982, 
            0.21648795004532473, 
            -0.3103235554339803, 
            0.6592733506547558, 
            1.417395606991923, 
            -0.41742690489410744, 
            -1.2978698703912324, 
            1.5020745178103094, 
            -1.6856303856460786, 
            -0.478904170054217, 
            -1.010316516960183, 
            0.015911066925795317, 
            0.0830236163674244, 
            -1.6152863444911982, 
            0.4329605362019495, 
            1.2180184322614929, 
            0.519260592983731, 
            -1.234828047976495, 
            -0.03189113388135916, 
            -1.5026778660523206, 
            -0.7365827419509733, 
            -0.5147851961530561, 
            -0.4868567697346761, 
            -0.3950139111026297, 
            0.8669606886986863, 
            0.4829769152630223, 
            -0.6390868666435627, 
            1.2392588955411057, 
            0.32957140559947723, 
            1.4498728491747646, 
            0.61480756738664, 
            0.1439650961496141, 
            2.0899843915087453
        ], 
        [
            -0.253695252041391, 
            -0.38108374086168106, 
            -0.2218823310012821, 
            -0.5888250063043342, 
            -0.4701401745117211, 
            0.42887743466212763, 
            -0.5621481350402903, 
            -0.6586638875721111, 
            -0.6371045082230246, 
            0.5565465576590278, 
            0.05091537326631614, 
            0.27698236055066566, 
            0.661658688828705, 
            1.130970417008788, 
            -0.3916884497800866, 
            0.9886140646233271, 
            0.3108826155654817, 
            -0.01999414943391542, 
            0.6510972912550057, 
            1.494644480713123, 
            0.7489416175222992, 
            0.6899108859129547, 
            -0.20244340891610357, 
            0.11128825503902087, 
            -1.7099880642491767, 
            0.5077477134817787, 
            -0.31757937520821244, 
            -0.22998799592819436, 
            0.2904955349991627, 
            -0.06958666474305947, 
            0.8039619865940454, 
            0.9326255023266958, 
            -0.28921026246689874, 
            -0.2554431122857877, 
            -2.6914715229827304, 
            0.8152247546911866, 
            1.4848621003330822, 
            0.6252454057591218, 
            2.3861600720667013, 
            0.49288345166077124, 
            0.662206495696355, 
            0.4626622341911846, 
            0.4345258789404288, 
            0.9327962434275522, 
            0.5225080701116414, 
            0.6231722184789845, 
            -0.4375138387683573, 
            -0.2352954723316455, 
            -2.2016145087026304, 
            0.4819345203215842, 
            -0.7694973769203833, 
            -1.1294572956705111, 
            -1.1448952737082765, 
            -0.13034186269254672, 
            0.41129243704740776, 
            -0.5540168600269956, 
            1.3300317946585374, 
            0.6000716724330034, 
            -0.5781738678014084, 
            -0.42953519454915967, 
            -1.0444372103690276, 
            -0.6455516260944182, 
            -0.44086875218797833, 
            -0.19681051280364056, 
            -0.9727216787618254, 
            0.6690895899802216, 
            -1.2760160325593173, 
            -0.8319201457201002, 
            -0.7640772966499337, 
            0.3063249384932716, 
            1.100245063726174, 
            0.3330233880463219, 
            -0.8057486904422633, 
            -0.4316084183427541, 
            -0.9633077195299276, 
            -0.9941623201312907, 
            1.2188506410657838, 
            -0.6719550674747882, 
            -2.53439337323753, 
            0.5225172888870738, 
            -0.31443368628103263, 
            -0.8610003319548325, 
            1.4365438237151746, 
            -1.774369352294918, 
            -0.8330509008266104, 
            0.6036820064707203, 
            1.0248068679257134, 
            0.5845616886605961, 
            0.5482524699960227, 
            -0.3966833087592432, 
            -0.25015346136747557, 
            -1.1269470159971218, 
            -0.1957762951540066, 
            0.15790610414239717, 
            0.7801654732278547, 
            0.0023856040122879852, 
            0.5842911332479396, 
            -0.9803462775043981, 
            -0.041737603131099775, 
            0.23286646909179082, 
            -1.2022637955936455, 
            -1.4482741390615042, 
            0.15534460020942922, 
            1.075165674003132, 
            0.12617572448174444, 
            0.277076358101764, 
            -1.1272690845243667, 
            0.3275371537397545, 
            0.30286302726549635, 
            -1.1551353869015093, 
            -1.7003150125383844, 
            0.49271328095622186, 
            -1.3435960957356552, 
            0.33038215923824577, 
            -0.5943582674546158, 
            -1.0770718581042467, 
            -2.0499762753190605, 
            0.4076663131533877, 
            1.7887055377271153, 
            0.012561771450169634, 
            0.38466925849022965, 
            -0.7938858730895828, 
            1.6999262334379157, 
            -0.6467800355260548, 
            1.2946415672115237, 
            -2.204695804480894, 
            -0.9716800286665378, 
            -0.9040176400044122, 
            -0.4947893848551142, 
            -0.4831134099151187, 
            1.474438164214121, 
            -0.0028580967921870127, 
            -1.0005110029760316, 
            0.4916949558410487, 
            3.7357446401074714, 
            -0.08359539896542129, 
            -2.0817646930142484, 
            2.1522739331610983, 
            0.19641856435651725, 
            -1.031159743326781, 
            0.8200282146124916, 
            -0.06276256900685359, 
            0.8315793844834883, 
            -0.3835998862860238, 
            -1.0063485724913175, 
            0.8537034421809605, 
            -0.5391691627763281, 
            -0.10241633052632249, 
            0.5951564597068586, 
            -2.5207954531801064, 
            -0.5636334701076411, 
            -1.364958356723436, 
            -0.10373324232393207, 
            0.6794267320499581, 
            0.3325415741553913, 
            -0.4764376096567327, 
            -0.7466039749327363, 
            0.9230600299211574, 
            -0.09888650215547795, 
            0.09648398809786564, 
            -0.08744568254706281, 
            0.4087095422852204, 
            -0.3314438336875314, 
            1.1501563264042276, 
            -0.06525640695451729, 
            -2.020357631187604, 
            -0.978625500952169, 
            -1.8006331557801825, 
            1.2250203250474296, 
            0.8915427783076961, 
            -1.7064823692342057, 
            0.9424794679823707, 
            -0.5823476089266836, 
            0.31252352838321873, 
            -0.6382376051871816, 
            1.7394870525305437, 
            -0.3094392657459402, 
            0.11885448615523317, 
            -0.5138230991186489, 
            0.5841705782710409, 
            -0.527474129971194, 
            -0.6917414470366313, 
            0.8973846519059935, 
            0.6519020674189472, 
            0.19132203965888006, 
            -0.20885845377908874, 
            0.6791054051350028, 
            -1.0807186048194704, 
            0.6361756523542016, 
            0.08107408326995083, 
            0.6976762395174606, 
            -0.38847971518291363, 
            0.9862533645483473, 
            0.3362581730184374, 
            1.0848390684088454, 
            1.381741474241672, 
            0.01714409995290917, 
            0.050245422787298086, 
            -0.39156824673822127, 
            0.9674313716615536, 
            0.11081463639341024, 
            0.29625283013777065, 
            0.004301173383109243, 
            0.6747634290114011, 
            -0.31019429148588235, 
            -1.7948728687478024, 
            1.5195899192801212, 
            -1.0851953356900075, 
            1.362109030022254, 
            0.6424436900616274, 
            1.2232872807528938, 
            0.17530632202353966, 
            -0.9515403506431566, 
            0.4288240149529854, 
            0.7185999133847379, 
            2.405816714808844, 
            1.1840508554349842, 
            -0.5091408283455408, 
            -1.3641442575702247, 
            -0.5878852081713949, 
            -0.9607508056872824, 
            1.1596463313458676, 
            -2.5347976412512776, 
            -0.6945808719820115, 
            -1.3654891758743695, 
            -1.41155283674151, 
            -1.4038267778698144, 
            -0.41945416067186686, 
            -1.1135776186583461, 
            -0.9240197512759154, 
            0.2003165787249452, 
            -1.266623695633815, 
            -0.6632587485959515, 
            0.7527712231807746, 
            -1.8874643645025566, 
            -0.3160507509192552, 
            0.4945568979412356, 
            0.5585532358647475, 
            -0.26499917239756493, 
            2.5680364709497483, 
            0.5790673989340467, 
            1.864989790270154, 
            0.8503797356051486, 
            -0.8241844550489876, 
            2.8526805682504506, 
            0.15544035159605837, 
            1.2767815089771555, 
            0.03598477855702012, 
            0.8759856525323396, 
            0.4388198798583988, 
            -0.731861199793467, 
            0.033959928189933694, 
            0.21351159278389925, 
            0.8354830557741876, 
            -0.4754940459192904, 
            1.3529058936493905
        ], 
        [
            -0.5772927131154219, 
            -2.002136706636772, 
            -0.871238448787719, 
            0.9171103709950895, 
            -0.30129277226600476, 
            0.6606313037464592, 
            -0.3744670243428379, 
            0.5323308690250043, 
            -1.0273913002263921, 
            -1.13210846449795, 
            2.2975834846196888, 
            0.5779634013911943, 
            0.9173463127546487, 
            -0.7377386480198795, 
            -0.0547740147958852, 
            -0.34774097849082536, 
            -1.3280787896233304, 
            0.9788182576092511, 
            -1.388985949211995, 
            0.18535308749021384, 
            2.1634333578991223, 
            0.3201575985366619, 
            1.4061227646527708, 
            -0.856972465227371, 
            0.3110879336740495, 
            1.142799408051286, 
            1.8287004360937997, 
            1.1951482008148286, 
            0.963394130664803, 
            -0.33534432128133296, 
            -1.3709406758592062, 
            -0.42772875819401573, 
            1.4854792599683184, 
            -0.5473899518678765, 
            -1.7428423794603078, 
            -0.5575992656028183, 
            0.23644938159666185, 
            -0.3900785323394244, 
            0.43538122411931907, 
            -1.6343457025870207, 
            -1.1494248940908458, 
            1.5483279073775147, 
            1.6773876746067338, 
            -0.5570589658843275, 
            0.3469032925034678, 
            0.08056778149030804, 
            -0.05159665186421141, 
            0.355325669041334, 
            0.8930011306192398, 
            -1.0612134975029262, 
            -1.1936161258448197, 
            -0.8495951280489383, 
            0.9840187919006413, 
            -0.18227920265820802, 
            0.8968347326011, 
            -1.9519206539553653, 
            0.2992595199305404, 
            -0.012567841064561634, 
            0.030363378497232616, 
            0.6690534606302356, 
            0.49858020305743056, 
            2.1542139025753833, 
            -1.8718375303478483, 
            -0.3546707333295127, 
            1.783171464524402, 
            -2.1734546423850687, 
            -0.18958775531148775, 
            -0.8241182912707281, 
            -1.3212328642468822, 
            -0.09848521206401828, 
            0.9624361965516551, 
            0.6833412859338507, 
            -0.21506920394183573, 
            1.9149404932520635, 
            -0.8836633653242861, 
            0.32549199739200607, 
            -1.239566245187597, 
            -1.4123307695664742, 
            0.8340040460293123, 
            0.03637747280024198, 
            -0.10346695553004635, 
            -0.5126902782065454, 
            -0.6605666229875615, 
            -1.3044943546995085, 
            0.33739007859997255, 
            0.9438599520486092, 
            1.0524398624133329, 
            -0.6677639271671797, 
            -0.5100401979946912, 
            0.254197343041203, 
            0.967244301700527, 
            -1.5890298264932339, 
            -0.16059030234421007, 
            0.4586397201256017, 
            -0.8684167099717922, 
            0.6275935851201476, 
            -1.4309382725731057, 
            0.06125786084696225, 
            -1.3535723487425233, 
            -1.3028231992642316, 
            -0.8592509267565941, 
            0.1707396128303428, 
            -0.27650975740641215, 
            0.20480838330219456, 
            0.46156183524646527, 
            0.4807414960971519, 
            -0.7461036706315908, 
            -1.4667375510236689, 
            0.2012267840026274, 
            0.5818887951351407, 
            -0.22069052921542984, 
            -0.44100530108243774, 
            0.364593848421211, 
            -0.5428082961447682, 
            0.0445409371360015, 
            1.140269047749934, 
            -0.9104959114790117, 
            -2.7943258667975375, 
            0.5921511809298956, 
            0.4730784102587061, 
            -0.3069121775485135, 
            0.6218317872657778, 
            0.8889800408536183, 
            1.489548946779379, 
            -1.232940651752701, 
            -0.04123977771749064, 
            0.5576420225331606, 
            -0.3340604229135012, 
            -1.2355993812556838, 
            -0.26058530488640863, 
            -2.460486934803246, 
            0.14972096297759827, 
            -0.40962515104693287, 
            1.655381223213476, 
            -1.7222236742075028, 
            0.47783019386325204, 
            2.959594552317793, 
            0.4261964392168113, 
            0.5718293580291985, 
            0.06182792342153235, 
            -0.24003435092773617, 
            1.012730076393308, 
            -1.592158343419592, 
            0.1002253003728544, 
            -0.052858882810894056, 
            -0.4695277451044649, 
            1.13304211717181, 
            -1.778208571269545, 
            -0.468584642435913, 
            -0.7327748984551038, 
            0.20278714179320614, 
            -1.0008954454385444, 
            0.5431208333005985, 
            0.9661808703705556, 
            0.632576368627625, 
            -0.3022663983491335, 
            1.3989724639250651, 
            -0.5671278219133883, 
            0.05685228768214339, 
            0.6710782619458906, 
            -0.6628117556835217, 
            1.5554279171074996, 
            -0.5019270987867901, 
            -0.6407296813212936, 
            -0.7430169171609718, 
            0.41612336248075543, 
            -0.16920543152994302, 
            1.0914962195897548, 
            -0.08602799257823063, 
            0.8654625594338595, 
            1.2722510932406437, 
            -0.2550789690097345, 
            0.41415446362563957, 
            1.4298700703968925, 
            -0.7637134861100783, 
            0.3998363408655768, 
            -1.0294964744313935, 
            -1.0140676162226938, 
            -0.055969308937104875, 
            -0.15587168416233058, 
            1.821772790117292, 
            -2.435550268407631, 
            -1.3250780265676558, 
            -0.44860146091124187, 
            0.8774593087128804, 
            0.08963061569459777, 
            1.0728452092666578, 
            -0.22568427043197645, 
            0.629183198906482, 
            -0.6397848265478253, 
            1.4408266272863557, 
            1.5763903156997836, 
            0.9318193034019688, 
            0.6367042935549563, 
            -0.8957343718753145, 
            -1.133419095198956, 
            -0.5516147424780502, 
            0.32693425162674866, 
            1.2213007438034345, 
            -0.10002214632889488, 
            0.660111060244401, 
            -0.39352474396957776, 
            0.087270605210132, 
            -0.5139346249329718, 
            -0.9399928950443651, 
            1.184219310101544, 
            -0.9362381161493482, 
            -1.2814166513344074, 
            -0.3123553013095583, 
            1.8337051989429194, 
            0.6157920538775665, 
            -1.6849225741266085, 
            2.2647247322603996, 
            -1.6447629421120638, 
            -1.052496779905974, 
            -1.2198114858095086, 
            0.9105895353711884, 
            1.2209555743881748, 
            -0.5198902910339213, 
            0.61385258331137, 
            1.4350370240649903, 
            0.3502146693188318, 
            0.10619830499107528, 
            0.12881375554980168, 
            0.3810517443760625, 
            -0.7547068406144365, 
            -1.1144268857875106, 
            -0.1952588960847577, 
            0.023748361972722995, 
            -0.28956681191582173, 
            -0.9779063882110482, 
            0.942014089030312, 
            -0.3255193653806393, 
            -0.24962749134793955, 
            -0.9215965911078999, 
            1.2590331464170352, 
            -0.08984096885818316, 
            0.6895244759368482, 
            0.17510320621209696, 
            -1.3527583596327681, 
            -1.3995592060745334, 
            0.358607719514368, 
            0.05578446244391644, 
            -0.8032413997624235, 
            -0.996043065031868, 
            -2.553781805422933, 
            1.3329319858510962, 
            -2.654291772960353, 
            -0.578557949641766, 
            0.5391364074256901, 
            -0.2943854801595766, 
            -2.6481761240811172, 
            0.25347957767129126, 
            0.02239982050874633, 
            2.0386466769769895, 
            0.6100180521302692
        ], 
        [
            -0.1607733980580355, 
            0.3011191179577934, 
            -1.1768150462468947, 
            0.9052006447240576, 
            -0.562201015515084, 
            1.1291727241820002, 
            0.2801542383363195, 
            0.32127582279202754, 
            -1.374826792040199, 
            -0.7724092246033799, 
            0.4077430699774687, 
            0.43479934501464834, 
            -0.08498280447870481, 
            -0.950044650682743, 
            -0.0625442639210246, 
            -1.194017941100593, 
            -0.7331830274022753, 
            1.5201158294461397, 
            1.906200067318166, 
            0.018727029786567477, 
            1.6121991752433564, 
            -0.5576639889578978, 
            0.39196825454993245, 
            0.8694095928675074, 
            0.606182987734295, 
            -1.1871846535357218, 
            1.7104424214031946, 
            1.7655664281363148, 
            -0.170444302171102, 
            1.8772158492452142, 
            1.1060837579133478, 
            1.1603751813731435, 
            0.8671394820127368, 
            -0.20040437056900565, 
            -0.1745403826323917, 
            0.19177337286517682, 
            -1.4828842037099068, 
            1.771539054944472, 
            2.6373313481453984, 
            -0.3103840318677819, 
            0.21889483109445226, 
            0.33656254761714605, 
            -0.8074075804029879, 
            0.655304422751075, 
            -0.32039975761057066, 
            -0.9428367930581387, 
            -1.0988037688911085, 
            1.737336679221148, 
            -0.2939085983147368, 
            0.176148679255833, 
            0.6923940448897057, 
            2.2373541852779466, 
            0.09398842109463984, 
            1.1665217518732744, 
            -1.0807533263712406, 
            -0.5315613458593146, 
            0.3906300693329568, 
            -0.5255466122549278, 
            -0.2500587563523338, 
            -1.3040981896803787, 
            -0.8352546398611645, 
            -0.08663364791110827, 
            -1.1449890698276992, 
            0.23284140508916792, 
            -0.2795263666569388, 
            1.7658926147709528, 
            -0.9548240508821577, 
            -0.17124141196923012, 
            -1.1604352704034613, 
            0.5321528706232961, 
            -0.6460841492811505, 
            0.8223784218932803, 
            1.5208612520068934, 
            -0.11380895334386806, 
            0.8605915601138054, 
            0.9058834988559575, 
            -0.42250342777050237, 
            0.19584658780139164, 
            -0.28657372380843577, 
            0.5544197448988264, 
            0.5243228062252322, 
            -0.08634319551952449, 
            1.2910555000959398, 
            -0.8659992992779723, 
            -0.4914515916421487, 
            -0.2029111020859175, 
            2.299940832624422, 
            -1.3321220204799709, 
            1.7215816155208934, 
            0.3540126240642261, 
            -0.32966370981278514, 
            -0.38489004854371056, 
            -1.6352243133180684, 
            0.5442264186150586, 
            0.4665267713295419, 
            -0.8649471048388616, 
            0.7370012743148443, 
            0.42345612520620146, 
            0.26787604550473415, 
            1.092434447666214, 
            0.10657978304781278, 
            -1.0351442357152063, 
            -0.2655765827140682, 
            0.009303163503153826, 
            -1.4113784633069704, 
            0.9512647116010806, 
            -0.24374901090334875, 
            -0.09708065232128307, 
            1.2089143451428177, 
            0.6195197244689991, 
            0.5061937501980028, 
            -1.849284721029341, 
            -0.2414343823896601, 
            0.43307956650970364, 
            -0.22537916614913606, 
            1.4956919418954377, 
            -1.9950344835744933, 
            -0.7419428354662709, 
            1.353541945640718, 
            1.4870452751910317, 
            0.9750022700749735, 
            -0.29208901238042595, 
            -0.6920695244458325, 
            1.9973515544519866, 
            1.540112907358907, 
            0.16296592064912144, 
            0.6349893338407727, 
            -0.46208553315074297, 
            0.7905164504346818, 
            -0.11134514565066528, 
            0.14679201743288067, 
            0.1692824612245762, 
            -0.7082500464853542, 
            1.969371720851594, 
            1.7869174145535829, 
            -0.43171913925899685, 
            0.3295443329251228, 
            1.8791145248225176, 
            -1.4304350081927666, 
            -0.5460264973207093, 
            0.28267454916642204, 
            0.5097809616893559, 
            1.2387779010310696, 
            1.3278878974867767, 
            -1.1012999416616116, 
            -0.6181218765568187, 
            -0.49448998901735713, 
            -1.4511349134921945, 
            -0.659906891138748, 
            -1.3887599742167527, 
            -0.1503704211978587, 
            0.8815125741196881, 
            0.2079612584717456, 
            -1.3922887908069592, 
            -0.9670609140142329, 
            -0.28497545300990595, 
            1.5487589442787468, 
            -1.2300466684197244, 
            -0.42743137204430903, 
            -0.7206854671637168, 
            0.3999803021770737, 
            -0.8992615054246211, 
            1.5024639596009337, 
            -1.3532620405321858, 
            -0.05048011114731192, 
            1.6082879624912862, 
            -0.18323794993105066, 
            0.6213244413684179, 
            0.41504383271439255, 
            -0.3990915678445302, 
            1.0850210094444515, 
            -0.9603006196539011, 
            -0.290517923416286, 
            0.8843008342720856, 
            1.9178278926227275, 
            -0.5431830925571973, 
            -0.7309141250726344, 
            0.9066933079454637, 
            -0.7712745277247063, 
            -0.583406688130225, 
            0.2533645515276603, 
            -0.9859771132075558, 
            -1.388329933367091, 
            -0.23226433667139582, 
            -1.8173256094554364, 
            -1.453520058136237, 
            -0.8243178189579824, 
            0.3279588753196186, 
            -1.0930258326798774, 
            0.13708419772725747, 
            1.1114583047354463, 
            -1.3829049996778129, 
            0.3190116356794051, 
            1.3088426641680257, 
            -0.8961934186575645, 
            -1.030727699409333, 
            2.3719733367230673, 
            1.5688029311886924, 
            -1.3499326671406855, 
            0.2915789094502689, 
            0.4683316928386499, 
            0.875404061904269, 
            -1.4149637448925927, 
            -0.43308756834026463, 
            -0.9184205428350857, 
            0.44372370336633044, 
            -1.180672192882108, 
            -0.39871340122169135, 
            0.7949637471958083, 
            -0.7473212194134379, 
            -1.3800380594353014, 
            0.046369352415800834, 
            -1.573576744250955, 
            0.05901369630003531, 
            0.4449723397948321, 
            0.6439478903874072, 
            0.9699771331213816, 
            -0.3037897337794797, 
            0.21868574369674315, 
            0.33350022734929285, 
            0.36612789752241937, 
            0.2634113468704689, 
            1.5128246459476644, 
            -0.6519642433218451, 
            1.1811243384142454, 
            0.5585473419125258, 
            -0.9892426577573654, 
            -1.5355684718323779, 
            0.30904927580590846, 
            -1.114640528231211, 
            0.06689036143875948, 
            1.2763828169889766, 
            1.1403268119045178, 
            -0.6652282212414161, 
            0.7826995738897903, 
            -0.1571910615545585, 
            0.44401310933721133, 
            -0.7126426362420621, 
            1.5843643499615978, 
            -0.8543729791603114, 
            -0.7226343517638312, 
            0.26225259775841686, 
            0.43032236550674036, 
            0.3884959950785461, 
            0.3160306781393641, 
            0.2954709003549194, 
            -1.8410900790056177, 
            0.26855070504583, 
            0.8625532473850129, 
            -1.0981871307646036, 
            1.2056918302632225, 
            0.20339120340288622, 
            0.9883666093080373, 
            1.3989781480482433, 
            0.35045736819526674, 
            0.7788365462773287
        ], 
        [
            1.9243491326349897, 
            0.39002348510596924, 
            0.18188263084991005, 
            1.7775434500421388, 
            -0.9180629910637174, 
            0.37348052247260155, 
            0.18417516371404796, 
            -0.823276765663915, 
            -2.564688523063357, 
            -1.2906577418734362, 
            -2.35984120498025, 
            -1.4111346495491872, 
            -2.587044094978591, 
            0.41251764049181644, 
            -1.0270509927252636, 
            -1.6874238375400699, 
            1.0626880239405145, 
            0.087793034365453, 
            -0.18017757912206625, 
            -0.24796382140726372, 
            -0.4906659153043218, 
            0.6247785885104254, 
            0.302045416189331, 
            -1.5365524206275976, 
            0.7775863256406931, 
            1.5765413739819023, 
            -0.7391003441014732, 
            0.2761203937870103, 
            -0.6054254119558435, 
            0.2746501589624049, 
            -0.733956293573314, 
            0.09745196639785543, 
            1.0018708432869876, 
            0.12655021928849344, 
            -1.5989019217598108, 
            -1.1910683351476248, 
            -2.3786332308756895, 
            -0.633383064062928, 
            0.8895233790293275, 
            -1.690676063598733, 
            1.6985626335118056, 
            0.8144973157104405, 
            -2.0417906763148603, 
            0.9906558396147663, 
            -1.0004776333584127, 
            0.04572018888293027, 
            -1.2883469753088987, 
            -0.9480883031435707, 
            -1.1213904741555498, 
            2.533312068271229, 
            -0.19516794036892957, 
            0.6310691148460217, 
            0.03152249976464002, 
            0.8326110684169167, 
            1.7286467578627953, 
            0.8828840633181793, 
            1.1886901879755996, 
            -2.466241179374786, 
            0.7350752255490594, 
            0.9271443524948478, 
            -0.025198504621637207, 
            -0.20795421330857009, 
            1.0345158032192365, 
            0.1323716020126102, 
            -0.5450725499971683, 
            -2.3961552774851906, 
            0.014696459044481495, 
            0.16588219512770008, 
            0.5365930211510765, 
            0.08666951933048288, 
            0.25680111789955934, 
            0.337613366111805, 
            1.1337595911769238, 
            0.1321567541713639, 
            -1.081532874759678, 
            -0.7116830489301849, 
            -1.1528263524500937, 
            -1.3279538260202177, 
            -1.678322442377696, 
            -0.24012398981975017, 
            1.9172697497720055, 
            1.5456348578541597, 
            0.4049842222862403, 
            -0.32415947393905326, 
            -1.0510282718920616, 
            0.15779491069710144, 
            1.5821621938356787, 
            -0.13021971435974256, 
            1.2037129686642436, 
            0.15234754357154578, 
            1.646151726448944, 
            -0.6771758046932002, 
            -0.4079982323559391, 
            -0.46591156072915474, 
            -0.5170327388493443, 
            0.49232369433321066, 
            -1.1516658342272328, 
            -1.5945172594010368, 
            -0.34872541444900257, 
            -0.00783617756484526, 
            1.5054015817359159, 
            -0.3670100815573023, 
            0.11356317164655502, 
            -0.6788493465577546, 
            2.6179827863835885, 
            0.8207151603739042, 
            -0.3822320040890649, 
            0.5242816068092274, 
            -0.6005574406065392, 
            0.029168819487460265, 
            1.6929189009667316, 
            0.536975151461132, 
            0.3845747664041845, 
            0.24137949606496922, 
            -0.08724607187566903, 
            -0.06738375566963811, 
            -0.8544672537397394, 
            1.2024008279795606, 
            -0.661302889564989, 
            0.8536547922310341, 
            1.2258879976218822, 
            1.4862029275026125, 
            -1.325235079770156, 
            -0.005894482262271833, 
            0.49406571491534673, 
            -1.7613202558971288, 
            0.27743240896748006, 
            -0.7038166924701891, 
            1.2976387277786559, 
            2.022346708288987, 
            -0.0873914465557934, 
            -0.19592349155653116, 
            0.4839999890852113, 
            1.0318277711648045, 
            -1.036380942913778, 
            0.40711436844740356, 
            1.896800495547054, 
            0.8541877144562743, 
            -1.9131809695947952, 
            -2.3856583173990984, 
            -0.8317708340065972, 
            0.3041749283520856, 
            -0.9690030149471917, 
            1.6362919480284381, 
            1.313702515813687, 
            -0.20043161999800194, 
            -0.7851828109816954, 
            0.41667850413614965, 
            1.5185618741576279, 
            -1.733985850946257, 
            0.24250749800242447, 
            -0.04884356588485975, 
            0.3928449536912211, 
            -0.6116484636506943, 
            -1.3525867728767114, 
            0.8584386717737665, 
            -1.720447478958887, 
            0.5683710489386686, 
            -0.4712997955055751, 
            0.42788823635738277, 
            0.11977403135152272, 
            -0.10358857582696801, 
            1.4297303154678591, 
            -1.3481467053596308, 
            0.41805846792083834, 
            0.06641553734265512, 
            -0.379954548655483, 
            1.0492771715686344, 
            0.8726521246189547, 
            0.33081460503026794, 
            0.6789512700689373, 
            1.3602335012564115, 
            0.8889094618707521, 
            0.16666521439590065, 
            0.8267555961694893, 
            -0.0974885270063453, 
            0.8140482314809846, 
            0.15645514765386417, 
            0.31901946296863015, 
            0.39708471348664276, 
            -0.19701187620093819, 
            -0.5343924382006391, 
            0.5211216169664968, 
            0.12466559268394024, 
            0.01777356352682425, 
            -0.6364678397987233, 
            0.28139381149319753, 
            -0.3133162728726419, 
            -0.5532992291294861, 
            -0.8321058655549014, 
            -0.4094184916993098, 
            1.2638358814606308, 
            0.16352730207540186, 
            -0.5384562025909979, 
            0.41925343856677033, 
            1.6276776756202185, 
            1.0787041378915763, 
            -0.6126594483232881, 
            1.009686582414874, 
            -1.0250502395714403, 
            -1.037968607716674, 
            0.07471113228980392, 
            -0.8469620875260386, 
            0.33620090347014114, 
            -0.8114775531034183, 
            0.5121374232496136, 
            -0.3701247803525159, 
            -0.9425224730343, 
            -0.49253765635110175, 
            -0.7529537518109884, 
            0.2888333771714163, 
            1.68051728694096, 
            0.9815432615888555, 
            0.263853377482268, 
            -0.7680825318255027, 
            0.729057297784444, 
            0.1138557193181783, 
            0.7545767610623633, 
            -0.733725585917736, 
            -0.17713897254284625, 
            -0.5198217278728988, 
            -0.22220223908669037, 
            -0.4612163766229513, 
            0.1769321858671125, 
            -0.6488094786925738, 
            -1.6424538979895975, 
            -0.1985998024400246, 
            -1.0780395522628798, 
            -0.047465991865329876, 
            1.1885462705587175, 
            0.5909163464546154, 
            0.22820150629778677, 
            1.4351025818248826, 
            0.7716785776631536, 
            0.011143368029879343, 
            1.247175390438015, 
            -0.9031176127773942, 
            -0.99129698902202, 
            -0.16515935261857376, 
            -0.28916823772936534, 
            -0.14609538468881367, 
            2.054644829885941, 
            0.9074897937404257, 
            -0.7406166115958421, 
            1.658479258003244, 
            0.35435222837627683, 
            -0.1311308933839993, 
            1.565975810989453, 
            -0.07355388744580105, 
            0.6872849479668827, 
            0.2861370626237921, 
            0.38849044735874716, 
            1.7600080197600683, 
            -0.0271796551026744, 
            1.3575075083274946, 
            0.4295617013064323
        ], 
        [
            1.027847712878353, 
            -0.5252031938601138, 
            1.3451566937232677, 
            -1.1834138656625435, 
            0.5518516414140732, 
            1.1395308552579564, 
            0.8155761136936, 
            0.35330217427662247, 
            -0.1700981598910523, 
            0.2709741467743413, 
            -1.2838323747178435, 
            0.5968429099274319, 
            -0.39161629185900676, 
            -0.670024595630823, 
            -0.3861272233175792, 
            -0.41790691596613366, 
            0.47849264237715683, 
            1.0254643496501525, 
            -1.939281120774862, 
            -0.4799378750628459, 
            1.1754152311255515, 
            0.4500031270174044, 
            0.7875620156638159, 
            -0.5251061861597646, 
            -0.9701313585086602, 
            -0.03385774946418722, 
            -0.3033487781279276, 
            -0.8706440176018787, 
            0.7672106542505185, 
            0.6356388808487602, 
            -0.4196852068482816, 
            1.8502303124146176, 
            0.44816782205533345, 
            1.5371759292039753, 
            0.7835127963376917, 
            -1.696025380161366, 
            -0.22788211177980489, 
            0.8902421777128935, 
            -0.8900795252303536, 
            -1.651767064922979, 
            0.5239142075238816, 
            -1.2355202351554964, 
            0.6730515576043383, 
            -0.08971595194519989, 
            -0.11503004375463749, 
            -0.18845558137134902, 
            -0.865049141447104, 
            1.398526190002348, 
            0.08037356973406469, 
            -0.27730434957278943, 
            -0.6363176595388297, 
            -0.7339105414527116, 
            -0.6545075464164292, 
            0.2299812306830002, 
            0.30750173872385456, 
            0.34345821442782415, 
            -0.5971093842478825, 
            0.20654086059584725, 
            0.09314526267117802, 
            0.368556894767381, 
            1.39164582529749, 
            1.1239626977794643, 
            1.567821671040847, 
            0.10580183180803111, 
            -1.432418189968783, 
            -1.5644805972133409, 
            2.290165220351416, 
            0.5280953036740035, 
            -1.6096399623495823, 
            -0.7545913177955442, 
            0.7904202571953425, 
            0.42977879925373713, 
            -0.7538771690132503, 
            0.009307638872163203, 
            0.6157578494942823, 
            -0.7194951271299843, 
            -0.48596890480692834, 
            1.3109277657359841, 
            -0.535631734775969, 
            -0.8965611210068695, 
            -0.16180200906605718, 
            -0.7512662038252127, 
            0.6771769569015943, 
            1.788644035563499, 
            0.024478799109046982, 
            0.9290232927528129, 
            0.34517222583450213, 
            1.7047642072100408, 
            -1.3899258133610997, 
            0.10652628492772259, 
            -0.28066721204973066, 
            -1.2420443383704254, 
            -1.3576603438930255, 
            -0.1587403760128452, 
            -0.722193028505838, 
            -0.23176027886797076, 
            -0.5923867906963536, 
            1.1356950969217043, 
            -0.24894075881586925, 
            -0.6855176178756931, 
            1.558819800254163, 
            0.8067835565197274, 
            1.1987472493418283, 
            0.40281274710782866, 
            -0.17786235884160737, 
            -1.5577568428095412, 
            0.928936647782831, 
            -0.0697702872261972, 
            0.4987772321216246, 
            -0.10178081546679393, 
            -1.4967834086119964, 
            -0.6379986325064112, 
            -2.2245553866887975, 
            -1.2671250359274884, 
            -1.5969291284668612, 
            -0.619042797452653, 
            -0.8945468570780173, 
            1.057708012578692, 
            0.6929940958264469, 
            0.8525524938773152, 
            1.5177766191540065, 
            0.961268204995116, 
            0.3010434624252436, 
            -0.10895100246894791, 
            0.7783452919943323, 
            1.4074779392616643, 
            -0.2429180188229377, 
            -0.611191465503751, 
            -1.2067636148988596, 
            0.14992579855334595, 
            0.24287916846133936, 
            -0.4357990159991761, 
            0.7400669059317787, 
            1.1878466587272147, 
            -1.5362172774355731, 
            -1.6174876445179749, 
            -0.3239444723378116, 
            -0.5541267725763767, 
            -0.20932985042821886, 
            -0.23727634702575992, 
            -0.48214034946188944, 
            0.013684278092318198, 
            -0.9655155104229053, 
            -1.1682346686689742, 
            -1.5684575253374853, 
            1.0736713393399495, 
            -0.730410766942058, 
            -0.29526985918392473, 
            0.4463076114482273, 
            0.9429452874137313, 
            0.5936407282811089, 
            -0.4251505771534086, 
            -2.221604372674519, 
            0.9151618882760966, 
            -0.45209654374216024, 
            -1.4242441910314443, 
            -1.1413610250703672, 
            0.18142293627941608, 
            0.3238561057002477, 
            0.1117385794376383, 
            -0.4247452761596245, 
            -0.4432210371927548, 
            -0.1717427094515858, 
            -1.5628235719468713, 
            0.25570122685735774, 
            -1.0137787063912418, 
            0.17220291999045917, 
            0.5137776963721089, 
            -0.8952309892646998, 
            -0.9567643276678304, 
            -0.6249529267110279, 
            -2.0683529060806674, 
            0.4911040314065558, 
            0.3339129342309263, 
            0.45711352280074946, 
            0.6067600142315867, 
            2.4101983278371764, 
            0.5553637798499351, 
            -0.98767719735199, 
            0.028116166604813357, 
            0.9173651446903759, 
            0.06609437506848752, 
            -1.2635409552703172, 
            -1.239331553658958, 
            -0.12262896292765331, 
            0.5646644536821295, 
            1.5300557557220689, 
            -0.01592125409113617, 
            -1.5378357060375152, 
            -1.4916582903507463, 
            -0.895471412515747, 
            1.3877276627778337, 
            0.6323616332400487, 
            0.5929312161960829, 
            -1.4641711800312533, 
            1.7034306068968714, 
            -0.8188740565935176, 
            1.623926808474088, 
            1.5265706996463482, 
            -0.2316918248878841, 
            0.11463565818343732, 
            -1.6003085099581784, 
            1.3524204748373654, 
            1.361217690572992, 
            -0.18103178193731106, 
            0.2535810325652301, 
            0.47050798928177817, 
            -0.14680441669633967, 
            -0.14199392512707792, 
            -0.5260167410781178, 
            -0.7301841467646348, 
            -0.3611868637155271, 
            1.3512840732782394, 
            0.04867915903144905, 
            0.44905672202026675, 
            -1.3327341395100492, 
            -0.3923914450609242, 
            -0.33748684959170644, 
            0.4402316825466093, 
            -0.4882957823629064, 
            0.6574179046464609, 
            1.2200293352824216, 
            -0.5415124800194219, 
            0.5241076769758864, 
            -1.2128840896280502, 
            -2.17305906699973, 
            0.12340940753184139, 
            0.6135356013567176, 
            2.0599083439843233, 
            0.5566534839532129, 
            -2.3412130517174594, 
            0.899863771634668, 
            0.8531796358761898, 
            -0.4463333791747593, 
            1.1770322851044563, 
            1.6111891136725365, 
            -0.9231483844085251, 
            0.02204181688442494, 
            -0.5036747060882876, 
            0.0125556954117799, 
            -1.584793554186547, 
            2.461528015807603, 
            -1.8031837504171826, 
            0.8597006777696543, 
            -0.8546240030422281, 
            1.9883672008876891, 
            -1.0082385287178763, 
            0.772393128090729, 
            -0.1307759929507905, 
            -0.08508842650177054, 
            1.2831987097608, 
            0.2869550631274162, 
            0.011109479041562564, 
            0.7895571893607867, 
            0.2767079372508358, 
            0.9906751302543838
        ], 
        [
            0.6400376256176954, 
            1.3167516810078521, 
            -0.07958056456123913, 
            0.2501907737874776, 
            -0.12497753203503792, 
            0.2905799613481953, 
            0.5482552264496247, 
            -1.3181897792896438, 
            -0.8717908978893378, 
            0.6168485026287436, 
            1.4504881264071787, 
            0.9956436894159447, 
            -0.4771713928093253, 
            -1.4148582344334024, 
            1.227658914961086, 
            -0.5628902947732538, 
            -1.6115683721674847, 
            0.969667582061951, 
            -1.323743549038356, 
            0.15988748376784426, 
            0.5083321444213275, 
            -1.2942173208348295, 
            -1.3636327777495774, 
            -1.1870132575498857, 
            0.503942233930062, 
            0.8305923502483007, 
            -0.5730299155396988, 
            0.5482980106726845, 
            -1.934434923343975, 
            -1.5621871213586536, 
            1.6712666447752886, 
            -0.3123099139625524, 
            3.3880773789217145, 
            -0.2634085247046769, 
            1.6581145270342712, 
            -0.18516124389384842, 
            -0.7749731214860515, 
            -0.9884454414065283, 
            0.06939955866318435, 
            -1.0191227717421063, 
            -1.1202260818975276, 
            -0.19097707364641417, 
            -1.6981925895070105, 
            0.10269659045609751, 
            0.058350031072807944, 
            0.8700407559258405, 
            0.47678714810274636, 
            1.0312802317326564, 
            1.225711027938626, 
            -1.0905470307011107, 
            0.25373948582634764, 
            0.44920371294418865, 
            -0.47763955791022566, 
            -0.788207308928113, 
            0.47231360693755586, 
            -0.3168120034320778, 
            -0.21877276683025493, 
            -0.4777651764258349, 
            -2.4457410820754526, 
            -0.6361615030537747, 
            -1.6551955826630662, 
            -1.8385486521687768, 
            0.2181073397782695, 
            -1.915034155932937, 
            -0.6379715909033413, 
            0.5717312802992668, 
            1.1037501466728934, 
            -1.842019265771313, 
            1.2417846768248906, 
            1.3259448148463662, 
            -0.8448844721863633, 
            0.49708419587184377, 
            -1.6829144908332958, 
            0.5438834749257019, 
            -1.2898953265649602, 
            -0.6981277468021326, 
            -2.1464706797789157, 
            0.6754521188197792, 
            -0.3440016987749813, 
            0.29256849681141645, 
            -0.13925394582760184, 
            0.5115654813704393, 
            -0.08358727964528528, 
            -0.571576025125148, 
            -0.38337362869345454, 
            -1.3964053811766175, 
            1.1043716000950794, 
            0.5671225748073179, 
            0.6250955674159226, 
            0.057607499352649014, 
            0.5789994494045234, 
            -0.10241592399043907, 
            -2.0764549811851376, 
            -2.7919697788521334, 
            -1.2850470706298536, 
            -0.1265842527312573, 
            1.3550578008026943, 
            0.08341094232420604, 
            -0.6575636443894957, 
            0.004449517655396645, 
            0.4407817554784627, 
            -1.3818861521746013, 
            0.15987357202466262, 
            1.4791812232622052, 
            -0.7773727587850952, 
            -0.7906478621544027, 
            2.079846499325134, 
            0.8213430304327703, 
            0.4712073765471023, 
            -1.453828200786827, 
            0.9480666549178468, 
            -1.2562249912530041, 
            0.48910773372225486, 
            -0.006301140637057349, 
            1.137868471366206, 
            0.03827514372828009, 
            2.0250909015148446, 
            -0.9549535838788686, 
            -0.4030323235757184, 
            -1.3685194172684325, 
            -0.8497074064947122, 
            -0.1423749773486096, 
            0.8751341426010197, 
            -1.0183853624177601, 
            -0.4088650870001235, 
            0.2783832627013589, 
            -0.2834744234467128, 
            -0.07645050197533948, 
            0.5903626601733781, 
            1.0406317395629991, 
            -0.07598644337581693, 
            0.11789098068673275, 
            -0.1490308863553844, 
            -0.6957873768061765, 
            1.5354049664717764, 
            2.0882227800317286, 
            -0.21855085845993588, 
            -1.014045097996372, 
            -1.3921681879998937, 
            -0.8845611878913207, 
            -1.465261823079927, 
            -0.4553472521867281, 
            1.8370386303951765, 
            0.24455429667764048, 
            -0.9852298131701502, 
            0.31816110886515014, 
            -0.6454442130399036, 
            -0.12082039398755971, 
            0.7597098968706244, 
            -0.09855495538836373, 
            -0.2612779968187817, 
            -1.7584727214988187, 
            1.3568610834247112, 
            -0.5760881945284195, 
            0.4365257358440588, 
            -0.4135945595423208, 
            0.6476197902118885, 
            -0.820667724012177, 
            -0.173443002531706, 
            1.3082851138329599, 
            0.020169542491290816, 
            -0.06510132744364387, 
            -0.8724157584142335, 
            0.44906979614835635, 
            -0.26715268372255835, 
            0.5754649405008565, 
            1.225118369611657, 
            -1.6317549401377696, 
            1.9589176413438207, 
            -0.7095711112096007, 
            1.547866708281203, 
            0.4865204395897665, 
            -0.5487795788054979, 
            -1.3344645535887774, 
            -2.1799104415504864, 
            0.5092572001390632, 
            -1.261402887164097, 
            -1.2223983524095476, 
            1.013588562324734, 
            2.7870099896879643, 
            0.739828653530583, 
            0.5415532772766755, 
            1.4631120324365618, 
            0.3842089577238469, 
            -0.8030627864085842, 
            -0.36815912946180857, 
            -0.913858811794547, 
            -0.09036916344326784, 
            0.08011135578610803, 
            -0.5121295061973162, 
            -0.8980206836550462, 
            -0.03990760467434831, 
            -0.28470184821893535, 
            2.112456256206752, 
            -1.247940258737671, 
            -0.7106293792608301, 
            -1.198166161397952, 
            1.5477365933194431, 
            -0.41340152334727975, 
            -1.4686425594751502, 
            -1.1346079634403943, 
            -1.7867479662530876, 
            0.84555588186837, 
            1.1470046497746635, 
            -0.08158888633535451, 
            0.5116386147842059, 
            -0.5317759798026789, 
            0.020525425301062022, 
            -0.5324217817631549, 
            0.13077851951286018, 
            0.6059698386526595, 
            -2.9495891752012944, 
            0.6251138063819902, 
            -0.5487769228684745, 
            -1.1946726616581211, 
            -0.4861504711382384, 
            1.1269628676507224, 
            -0.6875496481495398, 
            0.7643934897746708, 
            -0.1143967933322089, 
            0.06694242178309531, 
            0.3799015180964529, 
            1.0086333577746491, 
            -0.528334803457627, 
            -0.7758327307684709, 
            -1.1749495402373888, 
            0.8499368631037636, 
            -0.6745594932552151, 
            0.7771066500832184, 
            -0.4701292175980368, 
            -0.1398405087135525, 
            2.052242424544456, 
            -1.1141484538053514, 
            1.0900067163264255, 
            0.5049246060492667, 
            0.8557506936925711, 
            -0.9992703486906506, 
            -0.5837790205750922, 
            -0.5322710228550409, 
            -0.29066600230549866, 
            0.11158467445200451, 
            1.313719094077692, 
            -0.2734090047766847, 
            -1.2178322119328067, 
            0.006493837151719319, 
            1.3248418711403953, 
            -0.34639653077717125, 
            -0.9442709014191212, 
            -0.8844640678872518, 
            1.825603288371183, 
            0.011458870279664754, 
            -0.044243108539542934, 
            -0.14135737869880913, 
            0.4514184682290208, 
            -0.49811790194681876, 
            0.5478096936507124
        ], 
        [
            -0.34238897163546766, 
            0.714635818040047, 
            1.81261669282217, 
            1.147008773214896, 
            0.10029873493503219, 
            1.0743698623183708, 
            1.2955232696259718, 
            0.8024103816927577, 
            0.6287916436207559, 
            0.5338510322069847, 
            0.838494047986162, 
            0.12018400659090873, 
            -0.9144867513022209, 
            0.6497663782174763, 
            -0.898060980875176, 
            1.572548760706807, 
            2.241791181379514, 
            -0.3492470710199445, 
            1.6825063918362726, 
            -1.1046619576538639, 
            -0.7120678806146578, 
            -1.3929533697799557, 
            -1.1233676735378164, 
            -1.3323139202519005, 
            1.4925654826267243, 
            0.17463067088388326, 
            -1.5551247701763073, 
            -1.765267807420793, 
            0.46925371446633385, 
            0.05361070743188526, 
            -1.096524541740695, 
            0.5776614209557547, 
            -0.905489015185671, 
            -1.7743463500231125, 
            -1.2278824665554744, 
            -1.6954191646975503, 
            -0.44788097514142905, 
            -0.6875529087246888, 
            -0.039929499465654106, 
            0.036722687705850285, 
            -0.44030299587666694, 
            0.6593801214657878, 
            -0.7921321247478633, 
            0.650674448518953, 
            2.345038501968273, 
            -0.3036059626098609, 
            -1.1028999976665754, 
            -0.05622671900069508, 
            -0.8546104228962376, 
            0.6030336180858684, 
            -0.29152258389357644, 
            0.13309881781622243, 
            -0.2582750146250357, 
            -1.0151271977861753, 
            1.22112327839357, 
            1.7758234141488112, 
            0.6424045002806269, 
            0.2350710032083469, 
            0.014107264277342577, 
            -0.3894740402824714, 
            -0.01014993456502804, 
            -0.29114466079761064, 
            -0.300656792224364, 
            0.6262482092005539, 
            -0.7616438899674567, 
            -0.5542544199083563, 
            -0.6299148167089815, 
            -0.33145057626047575, 
            0.05612747201574315, 
            -0.5224369941599648, 
            -0.003922558750903574, 
            0.9436826492291804, 
            -0.7811887322981024, 
            1.0060923473152747, 
            -1.1879876021173996, 
            0.6183001670212809, 
            0.6883705482167025, 
            -1.7898892702058962, 
            -0.2715535132382529, 
            -0.5237484961796748, 
            1.0569105083452408, 
            -0.06181343077481968, 
            -1.7512962934712908, 
            -0.03797822091034672, 
            -0.1787856194913951, 
            -0.514238615934145, 
            1.4691459041584285, 
            0.7371162900587764, 
            0.8683857749673799, 
            1.2890523258902409, 
            -0.8540456832372431, 
            1.929941155967143, 
            -0.6241642190102261, 
            -1.8561640231216583, 
            0.7658645229495578, 
            1.3318261374876499, 
            -0.06816541767086523, 
            -0.6162758773871062, 
            0.13708947553793052, 
            2.8762631250277595, 
            -1.0337809300129974, 
            -0.38249960544320893, 
            0.35152159013389245, 
            -0.0396989572874048, 
            0.46497955802545415, 
            0.30152380247992083, 
            1.2585274184763344, 
            -1.6367463090752592, 
            0.21042888091094586, 
            0.5482895256694211, 
            0.59615982517012, 
            0.030257767932002824, 
            -0.3372178604320091, 
            0.3708790807175424, 
            0.5453348267811119, 
            1.631511673716731, 
            0.4969207430826997, 
            0.4807158138874826, 
            0.9894699710338991, 
            0.9848483199033851, 
            1.144126112185057, 
            -1.2624932474016874, 
            -0.22928855083091365, 
            -1.9009563083898804, 
            0.6239729738154133, 
            0.8062341445793556, 
            -1.142649400588926, 
            -1.457569849490755, 
            0.39054533695826743, 
            -0.814109360595443, 
            -1.5453305937061041, 
            0.05280795501045976, 
            -0.023102902269899757, 
            -0.6021320845699585, 
            -0.6397307458695641, 
            -1.3181534567720141, 
            0.17172954851075575, 
            0.9795486277620805, 
            0.3043067896834877, 
            2.001875392144106, 
            -2.7071047480690065, 
            0.6044867413339053, 
            0.5509058207346015, 
            0.11147098427730863, 
            -0.963572983438591, 
            -1.9398671790142874, 
            -0.8880577174919947, 
            -2.113871046545849, 
            -0.14330844862586087, 
            -1.8536209433247193, 
            -2.2391381585969468, 
            -1.6799059538901422, 
            0.4751291350128665, 
            -0.9139228703184791, 
            0.3538577823243694, 
            1.2320709261638216, 
            0.11111779757569865, 
            -1.3201086323226772, 
            1.0265626835063895, 
            0.4778894198679722, 
            0.4965495688935473, 
            0.7027464122952286, 
            -1.1733221777786158, 
            -0.09499727487296836, 
            0.5272130257262739, 
            -1.110938937270138, 
            0.2959149180264378, 
            -0.9394267225151789, 
            0.7395071038829765, 
            -0.654353398124182, 
            0.28256590194838094, 
            1.4080668266050331, 
            2.0222917930938697, 
            -1.6290061294273899, 
            0.4300613332344799, 
            0.3183180532554696, 
            -0.027419879732214273, 
            1.530369650614368, 
            1.6367381788714939, 
            0.07613290624350577, 
            0.5468246213816049, 
            -1.5963358262503766, 
            -1.2014805853624568, 
            1.7070398681314587, 
            0.5516658721837691, 
            0.40897162144635874, 
            -0.036766808945856946, 
            -0.2080377498140269, 
            0.08432576107121015, 
            0.7672436023661009, 
            -0.6675076738680761, 
            -0.9189596460842048, 
            0.4590985715645086, 
            0.30344772317135327, 
            -0.6234413400246569, 
            1.5310382571145826, 
            -0.15578037684240956, 
            -1.4970359689428583, 
            0.26158810043904496, 
            -2.2772027340819596, 
            -0.5062439785994628, 
            1.745437665886729, 
            1.3040578506815148, 
            -0.7333397724666592, 
            1.9848488138341274, 
            -1.150428299836926, 
            -0.26804989175042937, 
            -0.16038257853297738, 
            -1.178177093075977, 
            0.739714380083264, 
            0.8259400469425742, 
            -0.3988429303711991, 
            0.30426813731490004, 
            -0.35710334294855, 
            -1.9502184544635728, 
            1.501789036145807, 
            -0.3122262276689535, 
            0.5594407042413662, 
            -0.8030107176208223, 
            0.6764725539911267, 
            1.038446711429179, 
            1.0063493142236668, 
            -0.08705574730927189, 
            -2.985665645644662, 
            0.0045274518959813066, 
            -0.04212820017469711, 
            -0.8947655975029277, 
            0.28800734036582587, 
            0.10049384953734634, 
            0.5322990360255071, 
            -1.0559979785756854, 
            -1.0480595586621015, 
            -0.7352950800611605, 
            -0.5380872100299269, 
            0.9645330461302116, 
            -1.749331409060571, 
            0.39514524929257805, 
            1.290974135045372, 
            -0.995050123253703, 
            1.4365707061977169, 
            -0.1918578929086241, 
            -0.8606394661166313, 
            -0.07075648855662657, 
            1.1331622994800064, 
            1.2146944996102746, 
            0.12256278871681829, 
            -0.9383805383622208, 
            -1.3984921127693493, 
            0.3024559510804469, 
            -0.8213211497460648, 
            0.653037221091047, 
            0.5933060023701499, 
            2.739444929800226, 
            -0.29983509922149454, 
            0.3234945291916339, 
            0.8935325971942399
        ], 
        [
            -1.1578828947556863, 
            -1.1639242002764054, 
            1.0653880912541986, 
            0.3795167697820335, 
            1.8377597848472127, 
            -0.2636267374087935, 
            0.7480220977231774, 
            0.4197471391151413, 
            -0.8171409332316166, 
            0.6221381730764233, 
            -0.9190146075687221, 
            1.095637088516542, 
            -0.5624682760040292, 
            -0.39199821405295693, 
            1.878504095086119, 
            1.2223339024910351, 
            -1.1909064716310824, 
            -0.5998885003629598, 
            0.471857595637004, 
            -0.4724325246881064, 
            -1.0348145193397107, 
            -0.4335364117596364, 
            0.4146510512494502, 
            -0.5458924911019427, 
            0.6808925314810069, 
            -2.5172508908466464, 
            0.6396005928146494, 
            -0.749724078139006, 
            0.6056639499570152, 
            -1.2530424932975497, 
            0.4673421625648909, 
            0.01583663657093858, 
            -1.3195333928471307, 
            1.2094914368442107, 
            -0.48864422088717047, 
            -0.7910811133524299, 
            0.02173516456289877, 
            0.49011666022324907, 
            0.38297772783112594, 
            0.5924624534022315, 
            -0.34078956949101397, 
            0.6813003278575721, 
            -0.49088637188944906, 
            0.36400998611892255, 
            -0.47248653174771343, 
            0.17021902141313458, 
            -0.11909659384852112, 
            2.8483610934679477, 
            1.9016544253302308, 
            -1.1783157597672753, 
            -0.23373468432469427, 
            1.299298711303414, 
            -0.46408497362802303, 
            -0.5692486774036553, 
            0.15112810111383485, 
            0.5851629232785092, 
            0.9173844940337971, 
            0.135429118201228, 
            0.40231007671441565, 
            -0.17083034289532684, 
            -0.45979617482792984, 
            1.241848554248475, 
            -0.12463811595858218, 
            0.03146553247038407, 
            0.5430863261637864, 
            -0.45038654426999564, 
            1.364452634823064, 
            0.023507927762414945, 
            0.604863907148336, 
            0.3940055166184537, 
            0.31931330611863545, 
            0.4613039793457853, 
            1.3037711286758171, 
            -1.149998444935424, 
            -0.3023670300185563, 
            1.2391370698950115, 
            -0.4623941441021546, 
            -0.814617313330126, 
            -0.6318361469656595, 
            -1.1798923999225677, 
            -0.11413358916390538, 
            1.284175584486958, 
            -0.0747630527650938, 
            0.852312032343498, 
            -0.1442068684622975, 
            -0.8056107468300054, 
            -1.3884762266690436, 
            -0.2656046355974425, 
            0.2786661766152945, 
            -0.5179646882201387, 
            -1.4309413905846313, 
            0.616496084499709, 
            0.4250097181871351, 
            -0.2270173219460084, 
            1.1074406348010915, 
            -2.7435756822782897, 
            0.4958785689820088, 
            -0.3168385556466253, 
            0.30432714909718933, 
            0.34298385977520385, 
            0.5067366517184134, 
            -0.20746521946188967, 
            0.488903799606732, 
            1.2093283036855438, 
            0.3982231021230776, 
            0.16661756274027692, 
            2.0194089764445637, 
            -0.7080321926544295, 
            1.0167630137852712, 
            -0.2387817119251366, 
            -0.6285395042238494, 
            -0.43201263559443287, 
            0.1731446071875197, 
            1.1798715846739476, 
            0.9825167154419994, 
            -1.0082086213432677, 
            -0.0031021043824623453, 
            -0.5194310427579666, 
