{
    "layer_1_bias": [
        [
            0.19391896262150055
        ], 
        [
            -1.4256529320139626
        ], 
        [
            -0.566628273983456
        ], 
        [
            1.3730060931973105
        ], 
        [
            -0.1772325487685997
        ], 
        [
            0.12840347670433588
        ], 
        [
            -0.41352248112102025
        ], 
        [
            0.6507991353159545
        ], 
        [
            -1.8851710536975181
        ], 
        [
            2.2012130717532448
        ], 
        [
            -0.9751817996841271
        ], 
        [
            0.29395576358566705
        ], 
        [
            -0.8973708027495051
        ], 
        [
            1.9618477883970764
        ], 
        [
            -0.7006945656624529
        ], 
        [
            0.4769552758724923
        ], 
        [
            1.1965457605275878
        ], 
        [
            1.487918042145529
        ], 
        [
            -0.046374871512604374
        ], 
        [
            2.2057488347710468
        ]
    ], 
    "layer_1_weight": [
        [
            -2.424903270663047, 
            0.6700234531748972, 
            0.09647103885648867, 
            -1.3717567350115818, 
            -0.10049151583576023, 
            -0.347764484102406, 
            -1.0198007327648293, 
            -0.6110297967681719, 
            -0.6883333485950642, 
            -0.4126591275518369, 
            0.27528383029940706, 
            -1.0800744913759233, 
            0.662911324579046, 
            0.054910247289368705, 
            3.9446617619471493, 
            0.02138998585617403, 
            -0.17025657240523287, 
            0.7924780757643421, 
            -1.096676085187935, 
            -0.502626519702991, 
            -0.06043651038435775, 
            -0.32873084430865496, 
            -1.4931724169938465, 
            0.8468979701295173, 
            -1.629887609487165, 
            0.34530649260410995, 
            -0.6213390246689917, 
            -0.008550122347428501, 
            -1.8499811161916009, 
            0.0643403181886594, 
            0.15649629008460456, 
            0.2823026972063263, 
            1.4907630075029705, 
            1.7136379880744959, 
            0.5599644650662826, 
            1.269242186785452, 
            1.0852504538735812, 
            0.08439210337976594, 
            -0.3394515127753954, 
            0.11041236228697716, 
            -0.0836456766562576, 
            1.82896187192312, 
            -0.6794144864391473, 
            0.6826316127877324, 
            1.4349576570934308, 
            0.296036433551556, 
            2.256840925341645, 
            -0.3229350672593468, 
            -0.6266052040980041, 
            1.259974450912793, 
            -0.07663613577927593, 
            1.1566045471804032, 
            0.9235208386817733, 
            0.06854823936052369, 
            1.4457004477910016, 
            0.9842869161036779, 
            -0.17219380166082057, 
            0.7243132152095921, 
            -0.34639877971086275, 
            -1.4165863351840602, 
            -0.16261866118368146, 
            0.2651991453216571, 
            -1.6427522976436209, 
            -2.8724426207875315, 
            0.02714153018355287, 
            -0.35900105432280494, 
            -0.760675223295125, 
            1.4276561790480506, 
            0.8755177373218099, 
            1.199607073141074, 
            1.8431876603273296, 
            -0.47151037790881023, 
            1.8517393202346237, 
            0.47648781802231754, 
            -0.7414174527827602, 
            -1.8612019041753316, 
            -0.7382530963054147, 
            1.1356129232393635, 
            -1.3134014833697762, 
            -0.8134228052623126, 
            -0.3657907067358028, 
            1.2331689658758376, 
            0.2930519283306585, 
            0.6112186808357064, 
            -0.5022480057075472, 
            0.2687723113998013, 
            -1.8920681975767728, 
            0.38736043439910506, 
            1.5249464605126963, 
            -0.24686329699890813, 
            -0.5408531198515549, 
            -0.08142230561268185, 
            -0.4426061343603515, 
            -1.378407315496284, 
            -2.283192873227182, 
            -0.694583129054959, 
            -2.529290091392689, 
            -0.7202704912784713, 
            -1.0699058245234796, 
            1.1313875855933166, 
            0.475088063663833, 
            1.359838538871126, 
            1.1424104234629275, 
            0.49009008227783096, 
            -0.42001502238903765, 
            -0.2509787799268235, 
            1.2881406450864865, 
            -0.3868030561057017, 
            -1.9899950609785801, 
            -1.0531291413654957, 
            0.2614105842719493, 
            0.21932579903081983, 
            -1.0595005969425324, 
            1.0236038759700428, 
            0.6168141314724961, 
            0.6505816878728766, 
            0.09147248606524772, 
            -0.5024942918621196, 
            -0.05232059976454491, 
            -0.6335764909048572, 
            -0.9496246556522037, 
            -0.07616212253137813, 
            -0.9023352437773846, 
            0.6563617571280954, 
            0.7118835226196442, 
            1.061794323225992, 
            -0.0039035952244330626, 
            2.4561533144684375, 
            0.7912848355105975, 
            0.49609654105076306, 
            0.9117315091057253, 
            1.8769590514253485, 
            2.584312606008177, 
            0.3422967385310019, 
            -0.9814473605987126, 
            -1.7617066637369714, 
            -1.3175147345147644, 
            -1.452624470975751, 
            -0.7887485806048333, 
            0.8624623880511586, 
            0.6658417202579358, 
            -0.6729374894451409, 
            0.12499875503064543, 
            -0.9490602017121569, 
            2.667825255723477, 
            -1.178979100033554, 
            0.07263012728955553, 
            0.5788194887356909, 
            0.4815618203437619, 
            -0.2603017291030634, 
            0.5774414020046221, 
            -0.7913129523390537, 
            -0.22206722179364594, 
            0.5171027185683303, 
            -0.7501007065393241, 
            1.1080229780572541, 
            -0.505063762604826, 
            0.5456425360243538, 
            -1.3891846887370054, 
            1.8468015497054266, 
            0.3150045262337232, 
            -1.3624229478653407, 
            -2.0620987456732487, 
            -1.8616362103391417, 
            1.2297075923383665, 
            0.45976362494823303, 
            -1.0536931684381392, 
            1.2805329374297012, 
            -0.14207223842074723, 
            0.4957591877601037, 
            2.469519170633118, 
            -0.9151074513653458, 
            0.5933811378040114, 
            1.023059785379504, 
            -0.6771637278870194, 
            0.7788407046704655, 
            -0.9232461986184042, 
            -1.6660571355316356, 
            -0.15529938455378134, 
            0.9340040838521688, 
            -0.6503945538680614, 
            -2.414706567894498, 
            0.6139791938485402, 
            -0.7193492391501959, 
            0.839341679116905, 
            -0.015118731813314659, 
            0.5946276063667487, 
            0.2103284659066899, 
            0.7056729755542581, 
            0.5312734823017694, 
            -0.46156207398626536, 
            0.3828087296495757, 
            -1.292685865685367, 
            0.9999753407623803, 
            -0.331107820809768, 
            0.982354301156782, 
            -0.8793668235412825, 
            -2.0874767971402473, 
            -1.0130981874127745, 
            0.029743627231874764, 
            0.821302854023766, 
            0.7515645498089973, 
            -0.33126975762748806, 
            -0.4802434089604923, 
            2.257608724441792, 
            1.0032566372820593, 
            -1.5435480822398746, 
            0.7867824770664, 
            -1.3196593314983125, 
            -1.651006768484377, 
            -0.5402335942603574, 
            -0.20082198174567945, 
            -0.3081131215193986, 
            -0.3475778195923878, 
            -0.2753971788603199, 
            -2.4329099550796913, 
            1.8306568690324878, 
            -0.11551289540128427, 
            -0.12716293695802644, 
            -0.8771760610096616, 
            -0.24637063120026553, 
            0.4975324712951752, 
            -0.9625995854742078, 
            0.7974934706924565, 
            -0.2936086873921846, 
            -0.25702338397728197, 
            -0.02352705112822775, 
            -0.208247885193559, 
            -1.1250605145902748, 
            -0.04213356703276472, 
            -1.571977111438151, 
            0.20377419108742892, 
            0.7403561010462388, 
            -0.11371248288086763, 
            0.7884722797552668, 
            -0.4209751690530381, 
            0.945860112543816, 
            -0.025806692894029253, 
            1.9314502619949774, 
            0.2742842688431298, 
            0.840200147184488, 
            -0.6270679996288135, 
            0.2580193062849663, 
            -2.409717013564279, 
            0.9658018373955943, 
            -0.7486935504365546, 
            -0.1328518940742197, 
            -0.6328737132129182, 
            -1.4732056720901712, 
            1.0470602795740729, 
            0.2375235776626816, 
            -1.0851625789953636, 
            0.6070092356077131, 
            -0.770656237240976, 
            0.6112293491861911, 
            1.6015518249538074
        ], 
        [
            0.355681094999444, 
            -0.1633715841314762, 
            -0.002276833396333738, 
            0.9373258483267638, 
            -0.8307707324650624, 
            -1.77152591320716, 
            -2.2084299993788035, 
            -0.6848632565753064, 
            -0.9883695157639171, 
            -0.289814535368114, 
            0.40287670251173163, 
            1.2426235389462847, 
            -0.062112732396767005, 
            -0.9058008520036134, 
            -1.3674967269575036, 
            -1.4950114947588968, 
            -0.08546220792581438, 
            0.7045742232547635, 
            0.35044906246339796, 
            0.5848568245350376, 
            0.2464447611000718, 
            0.1412805518262606, 
            0.13180081894441195, 
            0.35959360382338845, 
            1.4754022463471654, 
            -0.5125810633024867, 
            1.0055183130136156, 
            0.9464902970949821, 
            0.6227333204471693, 
            1.3668884056725867, 
            2.4386238513633898, 
            0.7705121128015157, 
            0.5580626246019474, 
            -1.5589920845745617, 
            -1.6331668468671194, 
            -0.679521151762277, 
            -0.5866808304087238, 
            1.7723971465409334, 
            1.0025681622188427, 
            -2.864002466919145, 
            -0.2636788410319925, 
            -0.15478284576131218, 
            2.4721200255647773, 
            -0.42388304190038434, 
            1.989667866901011, 
            0.06261709805906138, 
            -0.09449097419241552, 
            -1.26500910367013, 
            0.4160415940058348, 
            0.6591337485865736, 
            0.007166896691843791, 
            0.7416033892208748, 
            -1.3961170670669487, 
            0.5343524967455282, 
            1.0362019358164654, 
            0.6966342297943124, 
            0.7915100202848174, 
            -0.23265604643832713, 
            0.47177680688088935, 
            -1.7170396468073241, 
            1.1236062864672975, 
            -0.1126199281663399, 
            -0.7337314927035666, 
            0.7462786631513504, 
            -1.6764024443004293, 
            0.9438085175469358, 
            1.5522032998154005, 
            -0.12223266666104918, 
            -0.6416514762568971, 
            -1.2825631016557257, 
            -1.2268544235255765, 
            -1.186167824662196, 
            0.16290399467918235, 
            -0.2833719358485306, 
            3.042524601430719, 
            -0.1618911973326292, 
            0.8910317941267191, 
            0.8315818106999424, 
            0.730119229775, 
            -0.6487591374741967, 
            -0.8328371857901539, 
            0.18159881837442013, 
            -1.2185551568370636, 
            0.9676727873302238, 
            -0.06286247302535303, 
            -1.125642499804699, 
            0.5978681629722029, 
            0.39213995771538224, 
            -0.08313153045828535, 
            -2.256382106357966, 
            2.0617237015439285, 
            0.036838014197191134, 
            -1.5394890392783007, 
            0.8203228816363891, 
            1.558849097381449, 
            0.6724634580260487, 
            -0.7753003110881941, 
            -0.21713998400165543, 
            -0.4100899437407752, 
            0.7132692931849355, 
            0.9127956819256362, 
            0.009685973056532193, 
            0.8755588930549361, 
            -0.8913406794700423, 
            0.192375400757839, 
            -0.13721151613291407, 
            -0.24637918878780676, 
            -1.2006619807540264, 
            0.07583916749060345, 
            2.1137038252656635, 
            -1.5138210834065235, 
            -0.4179966311450377, 
            0.7923516994797838, 
            -1.262043082893581, 
            -0.06479455817116278, 
            1.6935730717887008, 
            -0.3958744198355927, 
            -1.4676933776712453, 
            -0.5552851724487863, 
            -0.10456412864638852, 
            1.433020230488029, 
            -0.8998474616981117, 
            1.1210383080023785, 
            -1.4625910229150791, 
            -0.1487458247205521, 
            1.146466781093619, 
            -0.7584588816598821, 
            -0.6346681466414466, 
            0.06059002853317693, 
            -0.42912362232982193, 
            0.6790182492091196, 
            0.15773518090216257, 
            -0.9512269392825099, 
            -0.43295326048150407, 
            -0.5503777286853649, 
            -0.0016846078052888934, 
            0.25667545976221845, 
            0.7083635325808577, 
            -0.8750383716711624, 
            1.167582795409222, 
            0.29931431603438174, 
            1.174123343651369, 
            1.2672735886036837, 
            1.2557683865083242, 
            0.5223847855438988, 
            0.9250860653254589, 
            0.22027345459012213, 
            0.3662768178617256, 
            1.5780896455039748, 
            -0.3063298641396821, 
            -0.7127724116118836, 
            -0.8061932145188371, 
            0.2150950051344996, 
            -1.602905601110406, 
            0.6755807246336188, 
            0.8267497555181199, 
            1.4006159312633626, 
            -0.2697316752342907, 
            1.2633700224003472, 
            1.0843180020514882, 
            0.5783256324164419, 
            1.1469606442009328, 
            1.7458680459372231, 
            -0.6272484431465798, 
            -1.467967801207468, 
            -1.1212021957358667, 
            -0.5414026484446411, 
            -1.190895667018709, 
            -1.3076753269510542, 
            -0.5019903283034556, 
            -1.0412441435898425, 
            -0.3230370586364966, 
            0.69727457452949, 
            -0.6570823382158947, 
            1.2910079224573172, 
            -0.03500130920703009, 
            2.185320895330109, 
            -1.034779965370903, 
            -0.5839213555370769, 
            -2.2263992372200296, 
            -0.857061028502993, 
            -0.5433170690031177, 
            -0.8082276673818558, 
            -1.3325148321289086, 
            -0.5365306770175553, 
            -1.3273642437777564, 
            -0.704869466945617, 
            -2.8918810243046504, 
            0.1444390983065384, 
            -0.578442837098144, 
            0.46107315864401227, 
            0.06317619166727699, 
            -0.15900019544935687, 
            -1.3578953511430756, 
            -1.2108082609030657, 
            0.6813032722961411, 
            -1.0198896715978225, 
            -0.2913786758540306, 
            -0.5094296300737274, 
            -0.9031790456244024, 
            -1.6303866669869251, 
            -0.689529222016416, 
            -1.0363457475801803, 
            0.5040068575904834, 
            -0.63435045500046, 
            0.21593902075530147, 
            1.6143391470313615, 
            -1.436852227480643, 
            0.971961940285296, 
            0.4794499808808638, 
            0.16920436655304985, 
            0.6971537742164775, 
            -1.251498958712431, 
            1.1003131017816692, 
            0.1918827507814404, 
            0.2560408398316691, 
            -0.2789042879166332, 
            -1.8501970320449688, 
            -2.1976976202018967, 
            1.4305028498729564, 
            -0.30791613506257615, 
            -1.6009305082377148, 
            -1.0484095050094704, 
            0.7826822859608928, 
            -0.2660708856273033, 
            1.7876959371038512, 
            0.18223521927760186, 
            -0.5266590634548091, 
            1.8151829438302034, 
            2.574915243695279, 
            0.04119619901091553, 
            -0.2608175405234938, 
            -0.43532180073987403, 
            -0.05426798507733595, 
            0.6909353637856476, 
            1.520811808229116, 
            -1.5490458574947417, 
            0.12208138380569708, 
            -0.21062473870723403, 
            -0.5841238473183205, 
            -0.47180082265655654, 
            0.5117449312061629, 
            -0.23439568159344124, 
            -1.1440180701036078, 
            -0.33565896031598036, 
            0.10703181027390718, 
            0.5400486749257096, 
            0.018515930131362764, 
            0.47464901500136547, 
            -0.5455966941126249, 
            -1.5203691553640255, 
            0.929238653034678, 
            -1.712630475835462, 
            0.8165893608549616, 
            0.03890578945219803, 
            -0.7042610834165624
        ], 
        [
            0.041369223180951126, 
            -1.4714528012188364, 
            0.18948141812762992, 
            0.32895372912713094, 
            0.2916437295405256, 
            0.010962112230647754, 
            1.347951121034303, 
            1.2341553458120902, 
            0.17529349349426315, 
            -0.35503142432815255, 
            0.6150783400143093, 
            1.5219563579483335, 
            0.03604986945782256, 
            0.5752679083697486, 
            0.9672895041623563, 
            -1.476296643573159, 
            -1.3552302656837658, 
            0.5739429374437847, 
            0.3095528943479726, 
            0.5253400007626949, 
            -0.05050229127797682, 
            1.5634990086100284, 
            1.2841629632955778, 
            0.6508877996016363, 
            -0.32740495853123536, 
            0.031429545726861415, 
            0.8011656954390906, 
            0.5385013132845771, 
            0.3234835097497783, 
            1.6244891091355609, 
            -0.19655579782432958, 
            0.5619808527623467, 
            -0.04455438838273433, 
            -0.3091311317789364, 
            0.24663185914449792, 
            -0.6073235362308973, 
            0.010597266942234122, 
            2.5610289373032082, 
            0.5872119229018289, 
            2.1738172395064486, 
            -0.3338565608137132, 
            -0.08654558939952096, 
            -0.82663926696943, 
            0.7179746057825227, 
            -0.08900288307753637, 
            -0.8582604477333998, 
            0.6939440275193776, 
            -0.9317710494130719, 
            0.8247727985290023, 
            0.2789257658441341, 
            1.0771360094754379, 
            -1.2047399143006565, 
            -1.3661627006680241, 
            1.4800595211981846, 
            2.2640217211436515, 
            -1.2305171970235877, 
            0.2663012389523787, 
            1.8069101556317726, 
            0.23223443883023379, 
            1.3431171159658257, 
            -0.9047318596472711, 
            1.0185824441728424, 
            0.2151793332127124, 
            -0.9595983836690137, 
            0.16691373282441538, 
            1.118296709869377, 
            0.2411027305577388, 
            0.6069632078313417, 
            -0.8468426851462556, 
            0.14423245646511287, 
            0.25023112548968207, 
            2.0013908959897213, 
            -0.43534103342871033, 
            0.08850366021265951, 
            0.0129645846417745, 
            -1.5811640628814738, 
            -0.159869240148264, 
            1.0172070037956167, 
            1.5281465273369053, 
            -0.05296138897447053, 
            1.0052381013381704, 
            0.25361104642221044, 
            0.6680242614781583, 
            -0.3988610929065116, 
            1.0572259004904463, 
            -0.11862473802338787, 
            0.08040257304535632, 
            -0.8200727835967441, 
            1.2972814453001777, 
            0.4985822817203797, 
            -2.458457231536337, 
            1.1104909552438178, 
            -0.644462913338462, 
            -0.9198014307001566, 
            -0.4910272546170629, 
            1.1637430608852017, 
            0.7710172284906006, 
            -0.2017858381448101, 
            0.183557891058048, 
            0.6108390015347327, 
            -0.29855059277058893, 
            0.7456742634793397, 
            0.8977185348935437, 
            0.9795464215864905, 
            0.048116568211239066, 
            -0.4716431890073047, 
            0.2308746753009197, 
            0.30100610778472414, 
            0.7579685690949192, 
            -1.7502159605023864, 
            0.012772520886118082, 
            0.8452930414348221, 
            -0.5799442101278658, 
            1.5561513219067973, 
            0.4940046396255284, 
            2.4113909988522084, 
            -1.0931630172952713, 
            0.8596365549836864, 
            -1.461336140487133, 
            1.384477772522782, 
            0.6174675268890337, 
            -1.39700862691426, 
            -0.6851544427899602, 
            0.1200527475403779, 
            0.9520163820620069, 
            0.08082665400834867, 
            0.741382691341048, 
            0.7139525599466449, 
            -0.3774629777782102, 
            0.9654658680543412, 
            2.2255041522931864, 
            -0.9348475760095262, 
            1.577648816215725, 
            -0.9296626055323493, 
            -1.1772873210428374, 
            -0.9658820926133556, 
            -0.190331910297836, 
            1.0993292971660396, 
            -0.046978383498330334, 
            -0.6969475759514526, 
            0.338289291560431, 
            -0.22284597875154727, 
            0.9537053910737056, 
            1.7308187574279044, 
            1.2684051333259536, 
            0.34876793406394585, 
            -0.11366384705020026, 
            0.3006729684608547, 
            2.952128751508579, 
            1.3411815289503313, 
            1.1524440848068858, 
            0.8457610153293842, 
            1.5579896613341808, 
            -1.991707980864936, 
            -0.1946548135908697, 
            1.02642568877135, 
            1.0344482024637631, 
            -0.8268289960631897, 
            1.3395334169640838, 
            0.8692703912512313, 
            -1.1561047656185157, 
            0.15750978288635295, 
            -1.6506762816617255, 
            0.29282525403998394, 
            1.0509985962480561, 
            -0.0010034028369530108, 
            -0.8423648669553907, 
            -0.2523286751613528, 
            -1.1007004105218074, 
            -0.3155625334737018, 
            -0.785512467117041, 
            0.3065657418727702, 
            -0.47689880168372745, 
            -0.5117219126777108, 
            -0.9547459778137356, 
            1.0008594064734655, 
            -0.8263685464109899, 
            0.3126199264733704, 
            0.4693890143953226, 
            0.21673386771521375, 
            -0.524564008596611, 
            -1.0664044260681025, 
            0.967124466957908, 
            0.4509409496388829, 
            -0.9181416486342998, 
            1.1138510514836122, 
            0.5497870581273555, 
            -0.7274996380075195, 
            0.16980071962367155, 
            -0.44704230818562785, 
            -0.3048265354969529, 
            -0.7105725833937444, 
            1.0653481508669784, 
            0.31763926837605266, 
            -0.3830593189636376, 
            -1.5124325816285, 
            1.6236084139745819, 
            0.33476036150795324, 
            0.618994656019131, 
            2.1234588456969905, 
            0.09415153385127552, 
            0.31120195066694323, 
            -0.43341875834102217, 
            1.1054511728269811, 
            0.40161033443153193, 
            -1.7388693843986947, 
            0.6523442002104989, 
            -0.8733700854066042, 
            2.395489508052409, 
            -2.002216799355473, 
            1.6097435720058124, 
            2.1512990821846927, 
            -0.8463627884677062, 
            -0.7884256016205039, 
            0.6280163644776559, 
            0.9701439205029023, 
            -0.01820849680845865, 
            -1.34594553588155, 
            0.156553948330748, 
            -2.2223629990033125, 
            0.1981380495031101, 
            0.867470058741464, 
            -0.27513960844090646, 
            -0.09133796042419567, 
            -0.2743069356842144, 
            1.1849763988986737, 
            -1.1951160740438995, 
            -0.11517228971249911, 
            -0.31755160304739144, 
            -0.1143274515375105, 
            -1.3874547657504768, 
            -0.7705975335275919, 
            1.0296361563859948, 
            -1.392691468631606, 
            0.7255189633989264, 
            -1.282853887459633, 
            1.3331139929627998, 
            0.22321153389371212, 
            -0.6188006873718779, 
            1.513370770494351, 
            0.7818738159644771, 
            -0.6809241074727946, 
            0.5999674340784643, 
            1.2694285170662776, 
            0.6390543295649984, 
            -2.2132207123767054, 
            -0.10268984968709777, 
            1.4766695539601926, 
            -1.6709517434116752, 
            0.7284631403164747, 
            -0.42867846376633184, 
            1.2358443611357743, 
            -0.13214893468458078, 
            1.5407812961585545, 
            -0.3547255721274937, 
            -0.5611548272304637
        ], 
        [
            -0.769557285098608, 
            -0.20699892920565713, 
            1.4403732582108226, 
            1.1845531200076387, 
            -0.7228539715998735, 
            -1.091034804179116, 
            -0.16742130500693478, 
            -1.0333660623535057, 
            0.6197717759856735, 
            1.070117235922336, 
            1.3062946469055912, 
            -0.48487895844464046, 
            -1.2465738402843705, 
            -0.3888214014527612, 
            1.7287799917350086, 
            -0.826452235741246, 
            -0.6475450538279437, 
            0.7996690146431557, 
            -1.4082712770887513, 
            -0.1944369182667619, 
            1.8354699883971257, 
            1.907975850028471, 
            -1.0768165699821266, 
            -0.7901696131747674, 
            -1.4210151138780196, 
            -0.15672679103832657, 
            -1.133057796743024, 
            -1.5399142747250674, 
            -1.2946360450123187, 
            0.9957829642631273, 
            -1.6308448642306554, 
            0.11896268268858697, 
            -1.4405489746375038, 
            0.7871494348619351, 
            -1.0207868741661157, 
            1.000001396173368, 
            -1.9198862455250534, 
            -0.7019689727170776, 
            -0.6310103977653067, 
            0.19617657069098238, 
            -0.2824458742773311, 
            0.8870375978419862, 
            -0.20421225968911763, 
            -0.4040798094805973, 
            1.601553955034145, 
            1.4761010545967759, 
            -2.1990624273488164, 
            -0.3632329095275287, 
            -0.7016097634135984, 
            0.6930944034701213, 
            -0.3024404250206542, 
            -0.29827083241696806, 
            0.1258539701531778, 
            0.7822195093399931, 
            0.16636358440389026, 
            -0.2423236934120583, 
            -0.05659499245202702, 
            2.4393606158052195, 
            -0.7999040990849833, 
            -0.7757690155059217, 
            0.34250523096169827, 
            1.4197367746483487, 
            -0.527293455317106, 
            0.1666685533288469, 
            0.623135644985673, 
            -0.26869319115850504, 
            0.3235384722525668, 
            0.8433071427194809, 
            1.4454897752031124, 
            0.6477682195982757, 
            -0.24141418336386966, 
            0.5086304032624333, 
            0.8318069521436924, 
            1.7024851859814885, 
            -0.7768750952786089, 
            -0.26961759370983857, 
            0.17575583340789858, 
            -0.7891362684390879, 
            -0.06318315961642439, 
            2.1082208694577833, 
            -0.8474910449427491, 
            -1.2726957169151334, 
            1.376273790789461, 
            -0.2214233837682377, 
            -1.1836973602784135, 
            -0.2745909474769033, 
            -0.7141430140562921, 
            0.47926929993545003, 
            1.1350122616836276, 
            -1.0651216981163323, 
            1.2160907658988884, 
            1.887858043914405, 
            0.5987329119485886, 
            2.4825835698163266, 
            1.6479241272731258, 
            -0.4665055557736418, 
            -1.1648066554335108, 
            0.6979647273678892, 
            1.490147818296904, 
            -0.5551492816854656, 
            0.182907199262181, 
            1.3893905825902864, 
            0.23936872773943407, 
            -0.7920610732013067, 
            0.09198625128508127, 
            1.303954117032294, 
            -0.024647691231762255, 
            0.35842390855367906, 
            -0.4580284670134786, 
            0.9631032383659903, 
            -0.9146403824108534, 
            1.723462963634607, 
            0.63330009864592, 
            -1.6090252928881754, 
            0.10232066143058233, 
            -0.9455108509664185, 
            -0.5974290165390346, 
            -0.6051288501490232, 
            1.106305722155338, 
            0.6540037444725483, 
            1.372923538904497, 
            0.8422933302755075, 
            0.44010429013907093, 
            1.8074291603340942, 
            -0.3950379514210376, 
            0.4008831749310089, 
            -0.6336462312769692, 
            -0.13582073389567526, 
            0.6727935083680152, 
            0.9730040022342407, 
            0.3374056798379721, 
            -0.14611183210497403, 
            -0.549544591000219, 
            -0.30109108513002836, 
            1.0373321323140197, 
            -0.8745611389749823, 
            -0.3269397566480976, 
            2.339063041076571, 
            -1.3903088225414004, 
            0.6798731329758307, 
            1.2701572855117917, 
            0.487779587450504, 
            -0.5000176574933577, 
            0.0096113163991824, 
            0.8019718225137797, 
            0.27335142004215884, 
            -0.020121522072561914, 
            -0.37576334167507913, 
            -1.1379437634919258, 
            0.7409479550008728, 
            0.12168639161246228, 
            0.854524027490231, 
            -0.756549181061543, 
            -0.34445713509490317, 
            -0.09817101616385736, 
            -0.4249641428756498, 
            0.4814557579753535, 
            0.2709657541887808, 
            -0.34910820626377714, 
            -0.10184353278948838, 
            -0.6391124634600357, 
            -0.23072651731478097, 
            -1.9870031708163824, 
            -1.092409052273277, 
            -1.2661919891144855, 
            -0.400968161654646, 
            -0.47579369346064954, 
            0.4927985316631062, 
            1.0860215036938594, 
            0.71670385789129, 
            -0.76803094954682, 
            -1.053020258193944, 
            0.527963276572259, 
            -0.30378608876648805, 
            0.5498599675891285, 
            0.15268260986963833, 
            0.19848040155157348, 
            1.2781088399657707, 
            3.0596286845998635, 
            0.40399797612938215, 
            -0.4725690099518948, 
            0.9728292349039968, 
            2.1339641712675546, 
            1.4206857707627492, 
            -0.04801546849444823, 
            -0.09140506559068172, 
            0.9194707084029079, 
            -0.6202182452429539, 
            -2.0464153627163673, 
            0.3677878516751785, 
            1.5879688341852012, 
            1.2883758098169362, 
            0.28839021111007945, 
            -0.23060099148918145, 
            1.1493272530269443, 
            2.2652954163291685, 
            0.9061290062013178, 
            -0.4908572630958339, 
            1.0971857960609779, 
            0.22652655230652866, 
            -0.09678766872086343, 
            0.12226501419609641, 
            -1.1599859578078062, 
            0.33661428009559374, 
            0.386671201849481, 
            0.22075680509388793, 
            0.43047638322926407, 
            -1.435261886013946, 
            1.2467704792502863, 
            -0.4016105699806166, 
            1.6585959447170806, 
            -0.24461891742895694, 
            -0.9468197596727768, 
            -0.3628656602973356, 
            0.9245514733423708, 
            0.8778597591566929, 
            0.1194912009204173, 
            0.4849640786655804, 
            -0.048794960620452216, 
            -0.1298717165847098, 
            -0.00895268428768644, 
            0.7709418782025419, 
            -0.36097110476939104, 
            0.21731759041518423, 
            0.5909542486144227, 
            -1.1262342451013516, 
            0.08307079779030802, 
            1.4185389458463542, 
            -1.359777516880511, 
            0.36850441285710966, 
            1.097976284758679, 
            -0.284568367979769, 
            0.9462499633876899, 
            0.7723567898809759, 
            -1.006675962391458, 
            0.6670469187149259, 
            -1.4834868521397742, 
            0.21394828769810725, 
            0.23381058058774712, 
            -0.6037170379198025, 
            -0.31989071918839723, 
            2.934765869484052, 
            0.7266368096547122, 
            0.8784990264991398, 
            0.7269778036281984, 
            -0.8245215116239809, 
            1.1669798095094313, 
            1.6934656361466793, 
            -0.2435120720791181, 
            0.06676141032789255, 
            0.5336437821376049, 
            -1.019409383111947, 
            -0.6026798542796153, 
            0.4264760827327221, 
            -0.2565184129351696, 
            0.013749473317056757
        ], 
        [
            -0.14503825053825775, 
            -0.4542257186538661, 
            -2.3370658355012885, 
            -1.3427571472255722, 
            -0.11358243431176178, 
            0.6708343117684923, 
            -0.26770711660272845, 
            -1.6752312930327145, 
            -0.8328594771248706, 
            -1.5877808997050191, 
            0.5488945670376592, 
            0.4925629256066488, 
            -0.36880693345348314, 
            -0.09303317694169669, 
            -0.48092354471188437, 
            -0.33599624352709995, 
            0.12306139462343654, 
            1.3772915220265336, 
            -0.7053906684266473, 
            -1.7674848637227416, 
            -2.1037164314103527, 
            0.07420760419448214, 
            0.8182957991174188, 
            0.1776274575749043, 
            0.5884372221481089, 
            0.06218145109240209, 
            -0.37541120495244135, 
            -1.6257459730584924, 
            -0.0233005502894534, 
            -0.8093645480270671, 
            -1.0613541706474048, 
            -1.4147637430002327, 
            -0.38338416827835414, 
            1.438416095147415, 
            0.01438151822859559, 
            -0.30890550490538093, 
            -0.8994362846830138, 
            -0.517730836175746, 
            -0.9128688170472841, 
            0.2907131910188395, 
            0.6093320610001929, 
            0.691640130900678, 
            -2.5061001380191894, 
            0.09424924540609378, 
            1.5800822315817378, 
            1.0347122550057257, 
            0.3038980059485125, 
            -0.6978355692619419, 
            -0.9693045865602371, 
            1.1936570513890699, 
            -0.38231384343905356, 
            0.021922193976420246, 
            -0.8264285771323672, 
            -0.744937395627722, 
            0.00765562128132695, 
            0.29913888781050485, 
            0.6034238687837132, 
            -1.0516084915070734, 
            0.1463196154987656, 
            1.7983152700124063, 
            0.8283983716154331, 
            -0.9870584665093585, 
            0.685709612564301, 
            -0.2180995312277495, 
            -1.0584763482998367, 
            0.3484803353543313, 
            -0.06417501799392829, 
            1.719445389452487, 
            0.271937812685221, 
            0.3454680504541771, 
            0.8814475902527702, 
            -0.08653353265585209, 
            0.49943270596734185, 
            0.7478584715821472, 
            2.845837068483679, 
            -0.41529835098138734, 
            -0.40290465039264084, 
            -0.932906949439712, 
            -1.7105781158064934, 
            1.7445537811506389, 
            -0.8915871429608375, 
            1.286911999365655, 
            -1.0321155163752493, 
            0.30915473078684375, 
            0.03367882299018394, 
            -0.34624403736886367, 
            -1.3881686734423075, 
            1.0362777517549466, 
            0.15728430617822536, 
            0.07341349180308741, 
            1.1603665935616538, 
            0.711594958396746, 
            2.4312677494250834, 
            0.3460975535710529, 
            0.003817058263428002, 
            0.36689816600134995, 
            -0.6730542042905521, 
            -1.493958323616228, 
            -2.3049876489885524, 
            -1.1381755889543224, 
            -0.3983745649938404, 
            -1.1176521827341162, 
            -0.18322417752293582, 
            -2.2345983290569786, 
            -0.18313409897942928, 
            1.0276688436127397, 
            -0.26687552903498024, 
            -0.2553393175456672, 
            0.3633430266367208, 
            1.921440473583793, 
            0.7737667685891283, 
            0.438046172687768, 
            0.2463118639615851, 
            -0.2108736659559645, 
            1.4424061346171269, 
            -2.653243421751108, 
            -0.6332579256598349, 
            -2.4881188590421996, 
            -1.9298701676156214, 
            -0.9591584851780682, 
            -1.5917767103814566, 
            -1.10090829736972, 
            -0.8114579211697436, 
            -2.218892358343771, 
            0.9886733096126377, 
            1.018183336405393, 
            -0.8704833149724018, 
            0.1112883965684598, 
            1.71332424695593, 
            -0.37688603160621853, 
            -0.1746379975019893, 
            2.7671951206335397, 
            -1.726727248507085, 
            -1.6703527781038812, 
            -0.8792786897416006, 
            -1.8547805983281829, 
            -0.9705479936503222, 
            0.13303706348051658, 
            -1.126215718300476, 
            -1.5703605177717976, 
            1.4751550511918428, 
            -0.0014618422460226236, 
            1.5480509493930985, 
            -1.2522019788999865, 
            1.6579042742176373, 
            -0.030606685869319722, 
            -1.179133154137201, 
            -0.2912065141241657, 
            -1.1341872242129853, 
            0.3755373115697855, 
            0.07339490605899611, 
            -0.40247794212302884, 
            -1.102191172775537, 
            -1.2385061858946635, 
            0.010785439328029382, 
            -0.2002351762108133, 
            -0.8238133850260897, 
            0.22373900234634733, 
            -0.8873868945641176, 
            1.1125563867098067, 
            -1.0544644822671967, 
            -0.31488364242146083, 
            1.8122293017125697, 
            0.3498837376057003, 
            0.428845769073083, 
            -1.7710959948218226, 
            -0.5380188777453646, 
            -0.5884433837709108, 
            0.5192470777938317, 
            -0.6257415133706508, 
            0.36549140089533094, 
            -0.8291333984239343, 
            -0.222838772725125, 
            0.6452197378272893, 
            -0.03254406575495729, 
            -0.46791869523693946, 
            1.4358722830434425, 
            -0.17025582011050486, 
            0.0489270566129648, 
            0.08756702008930481, 
            2.092561649403784, 
            -0.04000569285140181, 
            -0.22668932323798757, 
            2.361017176209643, 
            0.5477211249364049, 
            2.2591311153775804, 
            0.3787147853704745, 
            1.1454422250081477, 
            -0.929984580467955, 
            -0.9431506536788531, 
            -1.4762653039145401, 
            0.9909944178161819, 
            -0.6071717479101056, 
            -0.4771035567963575, 
            1.5479288020978867, 
            0.1895807803480678, 
            1.5245553409022632, 
            0.36419865403678614, 
            -0.6244636880770756, 
            0.7333933887110946, 
            1.599874994770154, 
            0.003302705170380441, 
            1.208653640983037, 
            -0.377799513097716, 
            0.28182888472506584, 
            0.4731250666177322, 
            -0.5902819242603667, 
            0.32212472740410625, 
            0.4064904513419072, 
            -0.2584425147119291, 
            1.7978389102408219, 
            -0.13126720114950355, 
            0.2930849407279483, 
            0.9920983510763416, 
            -0.06385518114470362, 
            1.500005371183055, 
            0.635229952723105, 
            -0.5562456285078367, 
            -0.35255587176390246, 
            -1.1762597042618461, 
            -0.47969416031151957, 
            -1.9379019776455368, 
            -0.7010246293943173, 
            -0.14623983885923372, 
            0.49925298156954095, 
            -0.6940215188074865, 
            0.11198264984700407, 
            -0.03414425884307975, 
            0.7747668355834894, 
            -0.6955734379642194, 
            0.20293345413238803, 
            -0.7449712044823719, 
            1.0793555364353482, 
            0.17719132824454784, 
            1.048957243503771, 
            1.524093032024181, 
            -0.20506904600459358, 
            2.1460857378092815, 
            1.4686017017306379, 
            -0.14017085213285654, 
            0.448069023621858, 
            1.5447538813133703, 
            0.33510009837033683, 
            -0.4310851192784775, 
            0.7881491264301971, 
            -0.8494797128030754, 
            0.46318091473563267, 
            -0.18175724838173027, 
            1.3527243335116812, 
            -0.004191954644849776, 
            1.908819511980444, 
            0.9292029314489015, 
            1.3029338279180238, 
            0.12959384829473325, 
            1.7276262123934918, 
            0.5910583671134358
        ], 
        [
            -0.6158544419916384, 
            -0.061764147362262975, 
            0.6341398041903089, 
            -0.07323531716598455, 
            -0.2856737637967425, 
            1.2624797597721846, 
            1.0395779946609036, 
            -0.23318635114219138, 
            0.7816856648069874, 
            1.276016038101643, 
            -0.0712083111003873, 
            -0.0980725858142724, 
            0.6579391676315127, 
            -0.3118794621654657, 
            0.4419379424576916, 
            -2.2011259056606445, 
            0.5830113743315052, 
            -0.6124482124492702, 
            -0.8572578422301343, 
            0.8871860071390246, 
            0.6529935502962726, 
            -0.17302307221793434, 
            1.1329392042493387, 
            0.5278201598788299, 
            -1.5434334147403213, 
            0.12660685960656468, 
            1.2658028468105036, 
            -0.015786614183961642, 
            0.6609091102744501, 
            -0.4427537783586926, 
            0.15016631021559515, 
            -0.022536300404291113, 
            -0.29514241114877837, 
            0.6203131263480114, 
            0.7065256199475333, 
            0.13951036421529997, 
            -2.3001433240242615, 
            0.2943610218616263, 
            2.52043335965493, 
            -0.08424328190113754, 
            -0.16912034186344013, 
            -0.9852898473559183, 
            -2.4841086023394197, 
            -0.14391291583227922, 
            1.1063728491925113, 
            -1.3895509578007148, 
            -0.20139047425925435, 
            2.1758309185890607, 
            -0.4050835567969302, 
            -0.4105572535536869, 
            -0.6500082665199142, 
            -0.3110456755306178, 
            -0.4195274702713469, 
            -0.22188070553182906, 
            -0.5098937749172215, 
            0.9470267079894067, 
            1.5785953523035994, 
            1.4410169722434876, 
            0.7064537214547788, 
            -0.9364036344163909, 
            1.5034918299962903, 
            -0.4113325181655552, 
            1.0241118255071902, 
            -0.6636966345275132, 
            0.6496871680727486, 
            0.39579238584273885, 
            1.9644208075959217, 
            0.06182716887665344, 
            -0.99726153917938, 
            0.3821388067802523, 
            0.31321128231968187, 
            1.2158499894032149, 
            2.4472722330109264, 
            -0.2891974809777935, 
            2.6075458874750987, 
            0.4793633658550137, 
            0.7189357349911298, 
            0.48122868917968453, 
            -0.3874734148528309, 
            -0.815046791835017, 
            -0.7182105922297523, 
            -0.4169137833424352, 
            -1.3618294722215807, 
            -1.6300816174692705, 
            -0.837021535978777, 
            -0.6085663664793822, 
            1.228696705555312, 
            0.00537643634902102, 
            0.2931262067606722, 
            -0.1958569089321184, 
            0.1975797056036735, 
            0.9944606550183559, 
            1.4538400790331503, 
            0.767911661808888, 
            -0.4676075731821053, 
            0.030460530930568268, 
            -1.1390763134551687, 
            0.5384615819783664, 
            -0.38741191727105934, 
            -1.176740737152717, 
            -1.4263797703228656, 
            -0.930475633971622, 
            -1.428477528847158, 
            0.7475080773487659, 
            0.15347424694531217, 
            1.2491221102797418, 
            0.1745882680944003, 
            -0.41913508443292613, 
            0.6841921450491176, 
            -0.3967186458378259, 
            -0.37369417596428217, 
            0.7048173835740154, 
            -0.0028265189400914366, 
            -0.6926932487997954, 
            -1.3595630999629555, 
            -1.0656152937683212, 
            -2.3241486209279087, 
            -1.3291995906938205, 
            1.386029622904198, 
            0.2664955471682602, 
            1.2805822882773277, 
            2.449570620298533, 
            -0.511739417249544, 
            -0.3901755645034308, 
            -0.44157108869045325, 
            -1.4117470545786586, 
            -1.1265509093586497, 
            0.45081440515444093, 
            0.5595904736572597, 
            -0.5261538316362099, 
            1.3219061206137428, 
            0.009493314302213389, 
            -1.9045468889172121, 
            0.13758247315943983, 
            -0.3397128864755674, 
            0.24940012605063092, 
            1.9823823121669166, 
            0.043863857839470534, 
            0.9285033650269439, 
            -1.9412757345147886, 
            -0.34299918774105875, 
            -1.6134119068727055, 
            -0.37871256128016456, 
            -0.2537008874545846, 
            -0.815086255243242, 
            -1.5454094270007828, 
            1.0239303242932334, 
            -0.10502139819432264, 
            -0.2839401041549118, 
            -0.7424935206006604, 
            -1.1989244741708318, 
            0.34252935778056687, 
            0.652552531210035, 
            0.4859976707089249, 
            0.6896172084844564, 
            0.04214584552501965, 
            1.825392910758157, 
            0.12924140515774268, 
            1.5720162580697021, 
            -0.789832416616022, 
            0.851979291128138, 
            -0.5431786320844842, 
            -0.32040408006344534, 
            1.9997383787644776, 
            -1.3931986032609207, 
            1.0695001824033274, 
            0.14480786969245382, 
            -0.9761578332693044, 
            -0.8002299659147255, 
            2.216114202963149, 
            0.13226098383486973, 
            0.18886727342234635, 
            0.8854163942847904, 
            0.41235096544929817, 
            0.4184185410473647, 
            -1.0547981399932913, 
            -0.3567784666044932, 
            0.2559622733795348, 
            -0.3764454670462496, 
            -1.2451539404718321, 
            -0.20574857002454286, 
            -0.5986083847711359, 
            1.6243426563283514, 
            2.2901197062561884, 
            0.5943260499936546, 
            1.0879610871016503, 
            0.3111526760208706, 
            0.33097168929293014, 
            0.7684350831784357, 
            0.5450996722913408, 
            2.6653754285171094, 
            2.0475706145461405, 
            -0.44239803831831315, 
            0.06495659564839397, 
            0.49017905045960053, 
            0.7328163687419242, 
            -0.6286122579137218, 
            -1.0312118927082277, 
            -2.1688262098316304, 
            -0.2963421119679229, 
            1.7604810540457039, 
            0.8068080632504909, 
            0.2949692335425567, 
            -0.84788798859254, 
            0.9889027135065718, 
            2.050111897597707, 
            1.0605848166135554, 
            1.1272379435112045, 
            -1.1712135278554192, 
            -2.0740982191201724, 
            -0.5215101136421737, 
            -0.8170704559789942, 
            0.08218703883185545, 
            -2.2202861912779683, 
            -0.33572380599973767, 
            -0.2912536599718629, 
            -1.9614672922079197, 
            0.7835472268767905, 
            0.26481584163276173, 
            -0.7971265521646426, 
            0.6838639929086785, 
            -0.4408523077662688, 
            0.2670992028125551, 
            -0.5172322735669275, 
            1.030359000058638, 
            -0.11277412417344237, 
            1.301311675735455, 
            -0.29544359434328477, 
            -0.6713620955676528, 
            -0.8224242207796586, 
            -0.8565647991435622, 
            -0.16785589352981448, 
            -1.0553679622455414, 
            -1.1937865028224217, 
            -0.03553353670665782, 
            0.25734569046060296, 
            -0.713677004721323, 
            -0.518832143054508, 
            0.2091548295412337, 
            -0.3643186951579767, 
            -0.48471932705904713, 
            -0.37716909396629283, 
            -2.1654046372465845, 
            -0.06720476109804088, 
            -1.1049565843262148, 
            -0.4586684814125643, 
            0.09459621749304604, 
            -0.32894384666911924, 
            -1.7651441647525716, 
            1.0546387503020258, 
            -0.8726960616704227, 
            0.13677708769961186, 
            0.17396245498736204, 
            -0.6004349414980474, 
            0.08655915590692667, 
            0.24237258516167098
        ], 
        [
            0.018722088826856945, 
            0.6060052950068353, 
            -0.2412629495558209, 
            -0.1520227226332997, 
            1.1602320371196309, 
            -0.1966497317121236, 
            0.03205967699414791, 
            2.0783394968653566, 
            -0.29828260565878095, 
            0.010451700678110519, 
            0.014130465338278551, 
            -0.12752353180309967, 
            0.687287522893912, 
            0.4194270874853866, 
            -0.7469685450239538, 
            0.30595645913914465, 
            1.07501878024963, 
            -0.11471655224631894, 
            -0.047511313556539383, 
            -0.5507651388456709, 
            -1.1988869408309553, 
            0.8542892145007411, 
            0.5531467548427649, 
            0.202514998051367, 
            -0.21741495067759523, 
            1.9832624588069057, 
            -0.9076139778071578, 
            0.40269513049753447, 
            0.3474353318670309, 
            -0.4531454835568279, 
            0.731491185733576, 
            -0.08904685840701317, 
            1.6442845206929015, 
            0.4520190245012054, 
            -0.26372768955846815, 
            1.011844473281644, 
            -0.10444294507690902, 
            -0.3480899277504123, 
            0.31008564391968224, 
            -0.9689168869099994, 
            -0.08188274536355099, 
            -0.1749620535807911, 
            -0.560558018560838, 
            -0.14315009421117447, 
            0.42905037084987807, 
            0.2871932031757446, 
            1.5989443525234117, 
            1.0127544717768582, 
            0.08211913509032617, 
            0.14544827611084488, 
            1.454100348077127, 
            0.32130765676004386, 
            0.5336854369164681, 
            1.857791339787538, 
            -1.003106969340724, 
            -0.4121896899798132, 
            0.022463110440546788, 
            0.2931017602081736, 
            -0.04769554113232383, 
            1.8397446188918785, 
            1.2455229033891115, 
            0.9707368044008248, 
            -0.8800239855600609, 
            0.5424109549779882, 
            0.7326613425692605, 
            -1.04450831578606, 
            0.06941421654749402, 
            -0.2880996006134542, 
            0.6034683232311122, 
            -0.31104340087580806, 
            1.2129996912200922, 
            -0.1787665840932988, 
            0.8226177894066279, 
            0.3810282934520298, 
            -1.0040846443351341, 
            0.8329466922584912, 
            0.8775164081267602, 
            -0.6055500041252087, 
            1.5098426227869002, 
            0.2725613292105581, 
            0.8590655135527253, 
            0.4742744562901187, 
            -0.840348530392045, 
            0.8878652288604382, 
            0.6827870824865412, 
            -1.209001541434153, 
            -1.936263944427181, 
            0.6505577735547106, 
            0.5162031796670681, 
            -0.3808312772582909, 
            0.32252978483507116, 
            0.33183487016903046, 
            1.3480429264940257, 
            0.7977946883696763, 
            0.22493262631142305, 
            0.316624007217675, 
            0.6769191060144574, 
            -0.20236506300806553, 
            1.5461907833088107, 
            -0.9196300722798979, 
            -1.1485145602493847, 
            -1.218332459608034, 
            0.2526341081267528, 
            -1.601322176510739, 
            -1.0422724566009272, 
            -0.07616071893485069, 
            0.6695896145957251, 
            -1.9027441615499374, 
            0.5961780943984002, 
            1.4537245876798746, 
            -0.3042610422452693, 
            2.445827779994472, 
            -0.3119709314064891, 
            -0.07733160603233218, 
            0.14953538624478302, 
            -0.22674128235991076, 
            -0.3380384804918813, 
            -1.889794240760519, 
            -0.7458582186011242, 
            0.22911726676734667, 
            -0.008890021927737227, 
            -2.4747208693065206, 
            -0.8547058088552736, 
            0.0451275234377806, 
            -0.4814175612980675, 
            0.47640222238929486, 
            0.3542015353924323, 
            0.34805804078033314, 
            0.1382296634482098, 
            -0.8881992005445772, 
            0.31259330409174324, 
            0.43114571883759734, 
            0.9348751830025204, 
            0.116371692787813, 
            -1.2905165423053102, 
            -0.2700567495386929, 
            1.522776918899566, 
            -0.292052655084916, 
            0.07166882992274792, 
            0.07741663404785512, 
            -0.5872983657659494, 
            0.19314300222177935, 
            0.39624208922744414, 
            -2.2156161598121753, 
            -1.7078839814692963, 
            -1.4661205504472004, 
            0.589598446636425, 
            -1.1490185029905597, 
            -0.2576978284278901, 
            0.39881227923261303, 
            1.5404140941874112, 
            1.0312818754647934, 
            1.8371319947735727, 
            0.9261226639352462, 
            1.0841352935824575, 
            -1.8641962067305726, 
            -1.4028033206602122, 
            -0.7478806944599672, 
            -1.664037007190447, 
            0.04503482114446407, 
            0.2102719429744425, 
            -0.3052397834541736, 
            -1.0510481809459669, 
            0.08550135748579361, 
            -0.1634756980281533, 
            1.727419636399302, 
            1.0850966258417452, 
            1.2844173073219307, 
            1.2104664441173552, 
            0.9296157364900439, 
            0.5578930821319054, 
            -0.7944792247199303, 
            1.0930563279608039, 
            -2.8571199730206995, 
            -1.170366868253939, 
            0.1583546068773954, 
            0.2314057169974796, 
            -0.8930390408186856, 
            -2.7139702458440773, 
            -1.2870057570554128, 
            -0.20532095052424826, 
            0.2341291765737314, 
            -0.38616634741305716, 
            -0.3214942433967821, 
            -0.7091875515023699, 
            0.15812299287533474, 
            -0.9252462853084791, 
            -0.2446599650752166, 
            0.9280705293968181, 
            -0.7993019301289993, 
            -1.43984352959775, 
            0.48680267558296075, 
            -0.8479932939650349, 
            -1.4590768300414654, 
            -0.40809755126166225, 
            0.3464135990392133, 
            -0.6797480623762759, 
            0.5390131020997475, 
            0.3289902569462002, 
            1.472440008861779, 
            -0.4867601168660297, 
            -0.3964659375516398, 
            -0.37874915210702353, 
            0.11437442469150454, 
            -0.15677603299802817, 
            -1.2443970980356065, 
            -0.07380025984496943, 
            -0.9063637897367867, 
            1.7774618536556501, 
            0.44516771009349865, 
            0.7379807833745637, 
            0.9818129496590234, 
            -2.744743970523391, 
            0.5052066596312116, 
            -1.0520705207114256, 
            0.8815683490824172, 
            -0.5806380419596582, 
            1.8790397547473987, 
            0.08771009746300408, 
            -0.856813310259455, 
            -1.1929477591450948, 
            -0.28332801099849925, 
            -0.011513368835236073, 
            -2.2371017710817087, 
            -1.8710462723031136, 
            -0.18333960465388974, 
            -0.660552074809581, 
            -0.8423161309675403, 
            -0.2113113978374818, 
            -0.7570606570919022, 
            -0.2876477355389814, 
            -1.2211406905300999, 
            0.19003841977181982, 
            1.2735835805353055, 
            -0.044576678885686914, 
            0.9088259080730028, 
            0.46549566895227457, 
            1.1069000520734613, 
            1.7106367226972277, 
            1.0300421253868304, 
            0.37318540328157446, 
            0.2937448471071367, 
            0.9182434219211829, 
            0.6246160082044134, 
            -1.0520097483829076, 
            0.4323506445169971, 
            -0.02329533497523021, 
            -1.2419966675729226, 
            -0.5808411452682154, 
            -0.9783977810544291, 
            -0.3221174259997336, 
            -1.0321420872338627, 
            -0.8439420410740716, 
            -0.376346254375058, 
            0.9947368426433848, 
            0.2575380545721668
        ], 
        [
            0.46273673515830643, 
            -1.4038271532768318, 
            -0.5049959183869791, 
            -0.7770290991015791, 
            0.9603210661364168, 
            0.44015338617162153, 
            0.0426639038603168, 
            0.13130178243969431, 
            0.24395410011914628, 
            1.8244788936357719, 
            0.027382068787757438, 
            2.77750832569016, 
            0.5385024830885797, 
            -0.3579619150020685, 
            0.07824160707722289, 
            -0.34279750750185783, 
            0.4139117219781721, 
            0.6853565768782327, 
            -0.18849232295537963, 
            0.7018121317195418, 
            0.47371338466203317, 
            0.3587345266359961, 
            0.03969238479572796, 
            0.6717050187253688, 
            0.40133290809354255, 
            -1.7750382852821007, 
            0.4482390617536093, 
            -0.8805658835991081, 
            0.8074282835258174, 
            1.0876435223358323, 
            -2.2000931582787393, 
            1.2319380377146023, 
            -1.6289889181287915, 
            0.4031369220535772, 
            -0.25105815052322944, 
            -0.8003276003219671, 
            0.5949895815837832, 
            -0.5862468161565757, 
            0.742642539143481, 
            -0.336043131674546, 
            0.025294861218805614, 
            -0.6179140533465576, 
            0.43775264047296675, 
            0.5052823677970335, 
            -0.8031627115189967, 
            1.5837298110202573, 
            -1.1792526807323496, 
            0.7697345255057271, 
            0.41179989674037365, 
            0.021591168190638235, 
            -0.14654090817198615, 
            1.0820528194765537, 
            -1.5049048510070895, 
            0.8951959584841642, 
            -0.019151168095408778, 
            1.9771103351259185, 
            -0.5582454963857498, 
            -0.6053078357949717, 
            -0.03412665135375874, 
            -0.255249678927041, 
            1.198594431064142, 
            1.7618872068975824, 
            -0.16274251247035984, 
            -0.4389670651350158, 
            -1.8224096919458257, 
            -0.10485164668662136, 
            0.9413948280616172, 
            -1.499113453121238, 
            0.11461165059807288, 
            1.1311764776378803, 
            -0.8541378328261916, 
            -0.823657179514248, 
            1.2285873541555947, 
            0.2736654306174055, 
            0.38301606017473233, 
            1.905556267182635, 
            -0.4413615760629745, 
            -0.09301380802503971, 
            0.1056550031551174, 
            -0.748695087719591, 
            -0.2552436941558527, 
            -0.5378490865607065, 
            -1.6382592855171545, 
            -0.45349997433388284, 
            -0.059838964973563835, 
            0.6426355659243292, 
            0.20312545735420742, 
            -0.5787165686988679, 
            -0.013392609577864133, 
            3.2263722333290255, 
            1.4280632650659721, 
            1.3702942746990125, 
            1.710654878054132, 
            0.2113125323019727, 
            0.26452147251685154, 
            -0.8064433932959205, 
            0.6108727983839918, 
            1.8906643609353317, 
            -0.3294038145828091, 
            0.4589961808699817, 
            -0.32109114914642156, 
            -0.01027154689333433, 
            -1.8842536242089256, 
            1.7299593277739882, 
            0.054548176302214944, 
            0.5470439332990313, 
            0.9952823262326842, 
            -0.5087364075002065, 
            -0.2971517955342358, 
            -0.10229663500122026, 
            -0.6017076263107687, 
            -0.12775546196990192, 
            1.131319895760068, 
            -1.6607144435501524, 
            2.2260411934716076, 
            -0.03595333987684435, 
            1.05040159985243, 
            0.47374272258948835, 
            0.9277584771792493, 
            0.22054773404615646, 
            -0.02906525034489718, 
            1.3890449479875202, 
            0.5397216519387368, 
            2.3192798438703486, 
            0.11444695564621643, 
            0.8376307424537659, 
            0.23398973083932303, 
            -0.12953228282849474, 
            -1.2614681787375166, 
            1.1350756517082716, 
            0.9914491337175394, 
            -0.07207198345923206, 
            -0.3993490931123827, 
            -1.041263160965467, 
            -1.6452160961263447, 
            -0.2937720398293575, 
            -0.6226988765912912, 
            -1.0308644635372508, 
            -1.0527304148147776, 
            -1.0540449383059494, 
            -1.073365426265224, 
            -0.8521768086568258, 
            0.26669959869640925, 
            -0.23794002112085993, 
            -0.6817323861159315, 
            1.1274725256106515, 
            -0.0243948085722045, 
            0.3072978939419677, 
            1.7933609906815418, 
            1.5627010062214604, 
            -0.6001152905740282, 
            -0.10482872104717478, 
            0.7860726954548485, 
            -0.6749031799642301, 
            -0.19631013947204143, 
            -0.2933657458607509, 
            -0.9842038145259328, 
            -0.6829677156009809, 
            1.0329031224252312, 
            0.22547699527504608, 
            2.2297048284242744, 
            -0.4754384644231196, 
            0.7664956830333379, 
            0.4071914805263757, 
            0.42501287042824687, 
            -0.7767358830431447, 
            -0.09957461613847372, 
            -0.021576181675154002, 
            -0.8373243509305738, 
            -0.5550782167337993, 
            -0.773424643352005, 
            -0.750372206913156, 
            -0.716404776017099, 
            0.38810880327078456, 
            0.5886882998552289, 
            1.2796073319880354, 
            0.888535639968641, 
            -2.31454378972471, 
            -0.20311885115564662, 
            0.7631766527606285, 
            0.6355940694434178, 
            -0.778717348903766, 
            1.3893817557385229, 
            1.43567723053786, 
            -0.567424193311355, 
            1.5511313954634591, 
            -0.33614402074641525, 
            0.6513906660982354, 
            -0.30044795647964767, 
            0.7280876765360035, 
            1.1583584110881329, 
            1.4657873116385403, 
            1.215977070167203, 
            0.06536290912211341, 
            -0.10923566177446205, 
            2.097523135105852, 
            1.376884226513278, 
            0.11445012213009237, 
            0.14931005816039253, 
            -0.3900388909689877, 
            -0.3960189374716023, 
            1.0303239749166258, 
            0.19084629967905437, 
            -1.0015660728831701, 
            0.39088898093814894, 
            0.5166845957948571, 
            -2.0233820393476933, 
            -1.7526448251166022, 
            -0.8177043357693109, 
            -0.11763693519514219, 
            -0.8199085485710171, 
            1.588934670067824, 
            -0.08727174705961051, 
            2.6107002244529443, 
            -0.06066109465641096, 
            -0.41578210047732755, 
            -1.8720078185955276, 
            -0.06661382154594456, 
            2.2645485786608823, 
            -1.9746708273766607, 
            -0.06970826246636341, 
            0.2965054218976724, 
            -0.6169063471243917, 
            1.687651763361673, 
            0.9949885419652766, 
            0.6843714963530412, 
            0.7543481283310598, 
            1.8509939468817336, 
            -1.2644368605387821, 
            0.06291969277888049, 
            -0.5594430696309052, 
            0.9039352694989612, 
            -1.5462546599315683, 
            0.17372550192699515, 
            -0.19602563754979888, 
            -0.4293070922259128, 
            1.1116449592074773, 
            -0.9639822907333514, 
            1.473948499515309, 
            1.924409148772594, 
            1.0075800358537401, 
            -1.101147040484905, 
            1.0253970050946095, 
            -1.448492771859675, 
            -1.3668287636150986, 
            0.24339016879832823, 
            -0.9473194376129209, 
            0.10867295125375392, 
            -0.06867808880168667, 
            0.1135707460422671, 
            -0.8644669760133715, 
            -0.32188753959554517, 
            0.9061022818090166, 
            1.328355989696532, 
            1.3981469999336342, 
            1.5744030086251781
        ], 
        [
            -0.21083814232339088, 
            0.18352328860314002, 
            0.3468568079569564, 
            1.1518560340735302, 
            0.41572925322356663, 
            0.29272670605284584, 
            -0.768365620321063, 
            0.5387543003730231, 
            -0.1640723439517371, 
            -0.4474548634296588, 
            1.7873912051460517, 
            0.08390652375502422, 
            0.3882913120933805, 
            -0.10128226156223194, 
            0.28457881627088216, 
            -0.12160955467546479, 
            0.4008604059012911, 
            -0.5556850488015426, 
            -1.8646672156348458, 
            1.488108951050408, 
            0.23201664505500613, 
            0.018549374972177627, 
            2.0585948559023803, 
            -1.851206910813037, 
            0.26201242948134285, 
            1.3923197647105148, 
            -0.5064753978683075, 
            0.9371003408655556, 
            -0.49815594242440314, 
            -0.41918504980954535, 
            0.38307048470123994, 
            -0.8882358980386926, 
            0.6343583358014776, 
            1.2902862399059705, 
            0.2999245226510136, 
            -1.2559468770632236, 
            -0.30240880253689617, 
            0.6628952056016767, 
            0.4416132713720716, 
            -1.0728061794798613, 
            1.0083779044097407, 
            1.6743725248001455, 
            -0.44032784068972863, 
            0.024018331015893478, 
            -0.2859849886586077, 
            -0.04499653323286268, 
            -0.7557895478464371, 
            0.6879398323547673, 
            -1.0115127341604357, 
            1.478055745606772, 
            0.26546890496397113, 
            -0.19268083787933013, 
            1.4407841024959651, 
            0.386396263874525, 
            -0.3337617494485338, 
            1.0293570014958129, 
            0.6042445058228159, 
            0.49456801937109224, 
            -1.118140081725918, 
            1.6626958515411947, 
            -1.3095490880556835, 
            -0.8251869559254109, 
            0.03481395089787045, 
            0.6671272617278794, 
            1.2554440374923468, 
            0.12041750114624478, 
            -0.2908321924932257, 
            0.19061010268656114, 
            -0.8631447336025252, 
            0.10209223398324556, 
            -1.124259959433436, 
            -0.3135092598691022, 
            -0.9133589103583386, 
            -1.44133917553661, 
            0.2647763139488279, 
            1.0035573310942494, 
            0.4249013513867131, 
            0.4662819804904116, 
            0.993538015252892, 
            0.46106798645542757, 
            -0.4534353777530785, 
            -0.6868592781534871, 
            -0.31004635469546715, 
            0.06112922927281637, 
            0.972745112735072, 
            0.8762707236329512, 
            0.6051937888092731, 
            0.6328971808670601, 
            -1.0511888346637153, 
            1.8923540166406532, 
            1.2440619190434319, 
            -0.9661074107920895, 
            0.5558932771218804, 
            0.6018852881944039, 
            0.8551321820886626, 
            1.7477861715128251, 
            -0.44477362038572976, 
            -0.2861379162853477, 
            0.25928398969131033, 
            -1.5150324857718223, 
            -0.28053502750724435, 
            -0.2694541136375648, 
            0.6832462171426856, 
            0.0035773150947832626, 
            1.164249310326596, 
            -1.1349394441326648, 
            -0.3017282153693529, 
            -0.2902425205184349, 
            0.6220857645745017, 
            0.8129070077207197, 
            -0.8976977777604602, 
            1.2646993420907717, 
            -0.10268454673569098, 
            0.28927507562430244, 
            -0.9231659543792674, 
            0.7476305008943797, 
            2.5175746713931573, 
            0.7630102940746731, 
            1.002800252195199, 
            0.29273209750247087, 
            0.764467647872256, 
            1.363024656155342, 
            0.70505792326436, 
            -1.7022335775677793, 
            -0.21063322733270795, 
            -0.7948842253851902, 
            -0.7745715089633267, 
            0.044040598148863706, 
            -2.188630048744632, 
            1.1129988913680176, 
            0.09788729803142915, 
            0.9915732353618664, 
            0.8379420158159843, 
            -0.03830082982225597, 
            0.4330994014485642, 
            0.14940360340870254, 
            1.2440523466119986, 
            0.48477698545370573, 
            1.23815825437274, 
            0.7761961790081948, 
            0.616864591950199, 
            1.9766862524726907, 
            0.784266572472586, 
            0.0738377966156557, 
            -1.14082709109991, 
            -0.2376530394357969, 
            0.3970312986401145, 
            0.1275422533277364, 
            -0.5671744681538748, 
            -0.5067539793106423, 
            1.520294039828923, 
            -0.8469273475147493, 
            -0.4769037706059834, 
            -0.023309794877780197, 
            -1.1333268369776242, 
            -1.044369991672899, 
            0.9019453844967049, 
            1.234485927554588, 
            -0.8636728482306848, 
            1.891578878649518, 
            -0.0512265700724682, 
            1.1484306670862936, 
            0.37750480081014653, 
            2.7998898450620966, 
            0.001275217007793336, 
            0.5152360692019033, 
            -0.6090280641375205, 
            -1.3358659384925953, 
            0.8309329153075622, 
            -0.43067384356693567, 
            -0.17752640556106744, 
            1.8132991818877742, 
            0.6782721670058945, 
            -1.2929150593610077, 
            0.6363312610367097, 
            1.1101599098873365, 
            0.41993485838019107, 
            1.4836089010187543, 
            0.18760883073932094, 
            0.06778716845327026, 
            -0.6373050444058181, 
            -1.5499220987907785, 
            1.8139955036963802, 
            0.6644083498794305, 
            0.5274439199042689, 
            -0.24413328405778734, 
            0.9283322439576455, 
            -0.7997786759366239, 
            2.962840564523392, 
            1.3553855209072767, 
            0.8414209101433598, 
            0.21443113101629374, 
            -0.8497903077551257, 
            0.046754082024673564, 
            -0.6881969118226805, 
            -0.8810651183306968, 
            -0.6377597347058775, 
            -0.3273562838956978, 
            1.114845158068607, 
            -1.2008967560958606, 
            1.1511574200751262, 
            1.7067107524030196, 
            0.7391936875873346, 
            -1.5113928026433407, 
            0.787523902758537, 
            -0.15238663744296307, 
            0.16540499205109613, 
            0.5853056334318174, 
            1.5904668734149483, 
            0.7168651050484751, 
            -0.34613213145881827, 
            0.7522067586537938, 
            0.5958117780204113, 
            0.5051779885628745, 
            -1.3612071506025567, 
            -0.20957810543355188, 
            0.930005002438318, 
            0.5471374274176874, 
            0.5597537757133357, 
            -1.180443591315857, 
            -0.17545998468556945, 
            -0.7032139135838722, 
            0.5692604120992866, 
            1.3939789881448201, 
            0.48135850314685497, 
            0.08806673752370588, 
            -0.25282461543897644, 
            -0.9511184231678317, 
            -1.0161531175332787, 
            1.0381074634261875, 
            0.2489761379034791, 
            1.6668576913339839, 
            0.5689973103588322, 
            -0.7731767700320406, 
            0.8354847006524044, 
            0.23305669807872836, 
            -0.9523504613715287, 
            1.313822696889259, 
            -3.2497838630334046, 
            -0.036843112641302043, 
            0.14886386616998065, 
            0.27445183239946774, 
            2.312614041521329, 
            -0.8014714775737718, 
            0.5151530299716354, 
            0.1554399206461117, 
            -0.5436646189078929, 
            0.5809771824651365, 
            -0.2584066428724136, 
            -0.6235399520666023, 
            -1.0776813856282712, 
            1.6148619419758268, 
            -1.336256409805569, 
            0.69706853405528, 
            -0.17532973191368786, 
            -1.3637482331505801
        ], 
        [
            -0.32014582182092044, 
            0.2844106099471833, 
            0.1803777620401539, 
            1.6942732791965098, 
            0.0617245845512136, 
            -1.1053581867808433, 
            -1.4936817742999267, 
            -0.47487918120190226, 
            -0.75298636220161, 
            -0.9170478641354641, 
            0.19830255103206307, 
            0.1948862288769127, 
            0.2437693836781016, 
            -1.1320172110033124, 
            0.5210027658564333, 
            -0.2882921830219991, 
            -1.2320955661610273, 
            0.9730666674958109, 
            -0.36358758731849883, 
            -1.0443078784988553, 
            0.27628608087864764, 
            -0.05209757747807529, 
            2.037818356151916, 
            0.33929404267408725, 
            0.45579306474703657, 
            0.9960931311257221, 
            -0.47172068410426427, 
            0.9273899416709045, 
            -1.593365741825507, 
            -0.753881017628654, 
            -0.35327733531029504, 
            -2.5632924257978673, 
            0.44312314006551934, 
            0.909015613980256, 
            0.6800332451156307, 
            0.01120189271759992, 
            -0.7206978927004766, 
            0.17874668918524206, 
            0.4104107024407339, 
            -2.112210205521828, 
            1.43984663999145, 
            0.761199785261902, 
            0.1734852903427613, 
            -0.5504929871381233, 
            -0.382110145568063, 
            0.6711617802851738, 
            0.22347781144830067, 
            0.026186980079317523, 
            -0.003873615049604749, 
            -1.144228841613669, 
            0.5067886885293653, 
            -2.494773523233682, 
            1.0693658593491249, 
            -1.4302466316682596, 
            0.9686540676374106, 
            1.4649308641369234, 
            -1.5263609305420995, 
            1.2426077438271945, 
            -0.17166148960619868, 
            0.8856475714258922, 
            -0.4962327786914282, 
            -0.3653514654244341, 
            -0.9177654597911968, 
            1.1043941139034723, 
            -0.8205428192463269, 
            -1.12023136935803, 
            0.46976958097040517, 
            0.26789003887298346, 
            -0.5410536549809964, 
            -0.4241234823164507, 
            -0.006070367859761602, 
            -0.2692628397834001, 
            0.9675310302721151, 
            -1.9963207123847155, 
            -0.19677527409904053, 
            -1.1473667866168522, 
            -1.0556367453155366, 
            0.45405807268011006, 
            0.08785801334124961, 
            0.01129986021366796, 
            0.3616940082809726, 
            0.19465590533310123, 
            0.9859655372666382, 
            -0.9430890960780267, 
            1.0968266731710905, 
            -0.07786217562021244, 
            0.5255327266817802, 
            -0.4358021241726356, 
            0.3585505767301338, 
            -1.198075024924852, 
            -1.776009794898285, 
            -0.2708955783114542, 
            -1.531737715502872, 
            -0.45098645586475106, 
            1.0703438897713682, 
            1.280116620730715, 
            -0.525965058771359, 
            0.5972761213613743, 
            1.1790273118211738, 
            -0.264921865758534, 
            0.342931577110391, 
            -1.888584557390712, 
            -0.6609247399282104, 
            -0.4388494208871956, 
            0.7480066581419754, 
            0.03356743336612579, 
            1.314300504156319, 
            -0.021570380813798192, 
            -0.05525872888808374, 
            0.4388635155216052, 
            2.175663614133951, 
            1.2497647668588228, 
            1.3620914438535268, 
            0.7724900995634487, 
            0.2117642098026733, 
            0.2902286996875592, 
            1.1846872643274544, 
            -0.46049321140394495, 
            -0.467536729749591, 
            -0.549427937520207, 
            -0.869098076900375, 
            0.042139703447859334, 
            -0.16997947498653396, 
            0.3310335769493144, 
            1.3453306717818614, 
            0.00916985332833548, 
            1.2359222405159693, 
            2.144582945628469, 
            1.122972322921169, 
            -0.11855124568022263, 
            -0.7189573815030657, 
            0.397954175869354, 
            -0.83880991400711, 
            -2.548121119927209, 
            -0.03162000862681554, 
            -0.25586897384918844, 
            -0.42057323775536576, 
            -0.8452891103857062, 
            -1.7312520946943841, 
            1.4951392664890493, 
            0.687920673881253, 
            -0.6198126514980399, 
            1.4312463171013554, 
            -0.45243858127489506, 
            -1.0266293003459428, 
            1.2650500835763476, 
            -1.9464055133338072, 
            -1.399682227949675, 
            0.4622448745350047, 
            0.13268843026062851, 
            -1.5650455743895173, 
            0.07757675666943574, 
            0.44134054692600777, 
            -0.7873682475927175, 
            -1.1188948552511193, 
            0.6339677527905656, 
            -0.49805775643590433, 
            1.5592319615513455, 
            1.311970819097901, 
            0.21828611291648226, 
            -0.6819763554383929, 
            -1.412484794000287, 
            -0.42289325149842405, 
            -1.269556688611207, 
            -1.463902276733029, 
            0.3078054835661512, 
            -1.1585013086611098, 
            -0.22942346166194974, 
            -0.9237271101150789, 
            0.2568735627271444, 
            0.9556566641406538, 
            1.1438777129147595, 
            -0.4859024907107783, 
            -0.1713506895176815, 
            0.7539076404285397, 
            -0.5533294797967355, 
            -1.9895280422656196, 
            -0.8056648272516468, 
            -1.7255305397801677, 
            -0.5279773210843055, 
            0.10277051508454157, 
            -0.11640830452097789, 
            1.1842252262160025, 
            -0.13677632792818534, 
            -1.017348908681033, 
            0.35374957026024756, 
            0.17732246852564976, 
            1.2327977228310594, 
            -1.5442788727790628, 
            0.23677406347929622, 
            0.4037441963423193, 
            0.7964191218001972, 
            -0.6980997068220811, 
            -1.1736948399095128, 
            -0.19310798667824317, 
            -0.7730111561946776, 
            -0.351724770047568, 
            1.2906887043057198, 
            0.2870599963499549, 
            -0.9526676541144727, 
            -0.07676424038409081, 
            -0.3639867503791998, 
            0.6762023682470419, 
            0.19348772978534434, 
            0.7978366976626744, 
            0.09940927985303144, 
            1.1392193538316513, 
            0.8731468858537547, 
            -0.3364395269938322, 
            0.4821621683599613, 
            0.1752925673651461, 
            -0.47970769913038097, 
            1.749686895764391, 
            0.6533545296583081, 
            -2.457441719432866, 
            -0.690389516101014, 
            1.3256947730927868, 
            -0.01852922074561747, 
            -0.3894035031981514, 
            -0.7677663149300702, 
            1.0436889123706672, 
            -0.39346789841375185, 
            -0.15448106049181276, 
            -0.4397863859342143, 
            0.20924198962740204, 
            -0.22444257786231467, 
            0.38382905541015094, 
            0.818018359998659, 
            2.3682430987938377, 
            0.6778643685799102, 
            0.036739335308467805, 
            1.171201520547637, 
            -0.27661210264391795, 
            0.04905062296029197, 
            0.7317314852642062, 
            -0.060703634023426226, 
            -1.1206731910703382, 
            1.4267508992769133, 
            -0.2042922967417776, 
            0.3534569717100368, 
            2.1962561848035915, 
            1.6556532219795244, 
            0.9954237863585219, 
            1.3303971540705966, 
            0.121783262924518, 
            2.7175462668239603, 
            -0.37043825708681405, 
            -0.37860419869695994, 
            -0.18125674065642067, 
            1.1324027780502897, 
            -0.5052846043650414, 
            -0.3742585411295552, 
            -0.9285303567620816, 
            0.32912389408418397, 
            -0.8795811709240341, 
            0.7427144489173667
        ], 
        [
            -0.31794912735858155, 
            1.1826180865012812, 
            -0.9750504049673565, 
            -1.2732982856100699, 
            1.190948069256483, 
            -0.00424239885710221, 
            -3.1573659543766968, 
            0.14321509086317877, 
            0.7691439277469981, 
            -1.2221908807616706, 
            -0.9765126621371494, 
            -0.8604999236650631, 
            1.7299858694678873, 
            0.21851891660526265, 
            -0.3160677543818827, 
            -1.0074721381876977, 
            0.7259212640517857, 
            -0.5207241701518405, 
            -0.3542952081395596, 
            -1.3739203285126493, 
            -1.4401203341206046, 
            -0.575611269557396, 
            -0.45701711036559156, 
            -0.34367280622686514, 
            0.7150548567993911, 
            -0.7071749680680538, 
            -1.0294922669073685, 
            -0.01723942381765199, 
            -0.3262608759165762, 
            0.7223280259523379, 
            -2.17514346161018, 
            0.432107717403198, 
            0.9717616675766036, 
            0.5512018190230673, 
            -1.2016482878173398, 
            -0.5165660556331146, 
            -0.6812196056204438, 
            -0.8803325637358184, 
            0.45453790695659607, 
            0.22292216503268014, 
            -0.10798735811133778, 
            -2.2887150577850184, 
            1.2126855433535306, 
            -1.0319801959129502, 
            -0.1881567729210245, 
            -0.8335244056845647, 
            0.12031060634081145, 
            -1.2324541428918836, 
            0.050526206178629476, 
            0.5119822731830631, 
            0.1116821450560517, 
            -0.24091711375967742, 
            0.6601542692690091, 
            0.06622611252608991, 
            0.18306014612600302, 
            -1.3205112435616642, 
            0.9762545088555019, 
            -1.7922764168572192, 
            -0.740056342994413, 
            0.00916178393888582, 
            -0.12025311464539068, 
            0.47663933216905574, 
            -0.2590096874582013, 
            0.25519730693290776, 
            1.3296076499265292, 
            -0.2616007389750715, 
            0.18057515062351992, 
            -0.18691707086742507, 
            0.8221907880480357, 
            -1.0854783289212726, 
            0.08900004546161235, 
            -0.6135221442669286, 
            0.33623458539020684, 
            -0.07330497018453067, 
            -0.6224040637051083, 
            0.05302667856656639, 
            1.8013974164480908, 
            0.758403557896819, 
            -1.1278935471381557, 
            -0.026068358375099396, 
            1.6088262928477979, 
            -0.836722835222055, 
            0.9660385359053867, 
            0.007457944593605743, 
            -0.37093686696065, 
            -1.451006337219409, 
            0.2581415148294708, 
            0.8359463483827398, 
            -0.9851197924205796, 
            1.4037826114517378, 
            -0.30146546118944934, 
            -2.3271188006479386, 
            -1.7600164842503627, 
            -0.25807962801565837, 
            0.38932868431931295, 
            -0.6535469348251447, 
            0.5989034783209723, 
            2.733419107646484, 
            0.11385946268822714, 
            0.7517271733839466, 
            -0.8490053111529428, 
            0.11964461787137481, 
            -0.18631761331050148, 
            0.08538712430101432, 
            -0.2015261096374041, 
            -0.5174692033340094, 
            -0.9952014975690112, 
            -1.123439782259692, 
            -0.7955315527673097, 
            -2.226559476755643, 
            -0.033279684031992614, 
            -0.11849526033828121, 
            0.5910010042314303, 
            2.047756666784607, 
            0.5612744750153343, 
            0.1289498281304178, 
            0.5462865524507184, 
            -0.0006573641361863839, 
            0.001632711103144873, 
            -0.3715882147643229, 
            -3.3445160482065672, 
            -0.249786822971018, 
            -1.3324996713275203, 
            0.05833516880493795, 
            0.06414451318922837, 
            1.0518992500211293, 
            0.3458963121997762, 
            1.8959259381215317, 
            0.4550911040117745, 
            0.978587342110021, 
            1.020159016676576, 
            0.7112736584598108, 
            2.6053767571561313, 
            -0.48614027013095734, 
            0.6179042839154454, 
            0.28156194560079517, 
            -0.6754773648696742, 
            -0.8630168062841052, 
            -0.3608388623923122, 
            0.5562439299702389, 
            0.6539916657975413, 
            0.4457065198803187, 
            0.1302227658491922, 
            0.8304122330676802, 
            -0.4761304400766482, 
            0.6338310089543796, 
            2.7791232930216285, 
            3.6754730980127457, 
            1.1466272771079453, 
            -0.3314024835383202, 
            -0.044243407956732345, 
            -2.489523016150927, 
            2.0603814075544764, 
            0.3242430756836648, 
            0.7504105517361102, 
            -0.2174050531694837, 
            0.5066732230774261, 
            -0.996852641387877, 
            0.8675476846234814, 
            -0.4424597759414972, 
            0.6513330429022853, 
            -0.2142467329171832, 
            0.790938261337654, 
            3.1030641178386897, 
            0.9053400391761008, 
            1.1186081232624785, 
            1.581802830790982, 
            0.1970102234727095, 
            -0.12747258431817216, 
            -0.5829303429801319, 
            0.5038678015012246, 
            -0.9812753244376965, 
            0.03530082605477357, 
            0.4857159222569058, 
            -0.07147283462878706, 
            0.4406321860005493, 
            0.8766207943663159, 
            0.2917965377386849, 
            0.46575823653038284, 
            -0.732631021460321, 
            -0.3089728486775756, 
            0.4085512732665384, 
            0.14810085486610822, 
            -0.2691020414966188, 
            0.3366577798951596, 
            0.3981753947517231, 
            1.7451496756716578, 
            0.8341134415839875, 
            -0.108221245633629, 
            1.5193704069001757, 
            -1.315923234025236, 
            -0.01971139811127887, 
            0.14858719859721317, 
            -0.591621404983206, 
            -0.08788506274370425, 
            0.4125624234780279, 
            -0.057226050285413915, 
            0.9423296000359569, 
            -0.45148618646250427, 
            0.07298569001416885, 
            0.5442711955789479, 
            0.14123042266852623, 
            -0.8098233150714825, 
            0.9676805638012747, 
            0.8659345317172767, 
            -1.754100261455991, 
            0.6282073694878992, 
            0.9363073260930758, 
            -1.0871440657174736, 
            -0.5349943614458952, 
            0.09650812226738538, 
            -0.5901290459221469, 
            0.43711296912992514, 
            -0.41980769834259885, 
            0.0036222552871165515, 
            -0.46869186676443264, 
            0.16086981102239734, 
            0.7029293092871777, 
            0.6980448509652891, 
            -0.6880764632656314, 
            0.37427748150495277, 
            -0.0794978020125565, 
            -0.4838177760623483, 
            -1.63627455320012, 
            0.7076775493450791, 
            -0.6563646118119647, 
            -0.2273709956341658, 
            -0.8927763204106839, 
            -1.79848718274686, 
            0.7028319784887053, 
            -0.16970231112668635, 
            -0.9025569211707025, 
            0.10712432050351409, 
            0.3794029808146048, 
            1.4637134888308705, 
            -0.9457959862709187, 
            0.16494667300768717, 
            -0.8160417569607102, 
            -0.29097721847081065, 
            -0.44444829209305037, 
            -0.7227698708298514, 
            -1.8766682573455005, 
            0.7057974143022323, 
            -1.601986548485638, 
            0.671383375947061, 
            0.8620797424532832, 
            -0.39900106152927006, 
            1.7665912357334976, 
            0.7506464561115896, 
            0.4893899135031086, 
            0.8529808837322186, 
            -0.4119142813853854, 
            0.2719440709955641, 
            -1.322979262757873, 
            1.445827186865697, 
            -1.1778734020937203
        ], 
        [
            0.08602804915089861, 
            1.3228166366266851, 
            -0.5419655162129479, 
            -0.1972855353980226, 
            -0.1278628050636789, 
            -0.5481348475491338, 
            -0.7407842477268782, 
            0.27212318009683595, 
            -0.9306840454106386, 
            -0.4076180100189434, 
            0.1154369434839697, 
            -1.159439160672797, 
            -0.2624529967149604, 
            -0.6972048479340455, 
            0.1903030304632437, 
            -0.6067838897153154, 
            1.0862684570175536, 
            1.1447157019975682, 
            -1.5672762009346661, 
            -0.9155658067998771, 
            -0.19181773332249835, 
            1.4295307441469245, 
            -2.0371435886619818, 
            0.39231447979068246, 
            0.6720949449307209, 
            0.39727970876335783, 
            0.9802482564399148, 
            -0.6271228369126761, 
            -0.8731932848807726, 
            0.865551508788358, 
            1.5270114598874551, 
            -1.234487210284369, 
            0.2668933667374262, 
            -0.1979856923920795, 
            0.02255271889020601, 
            -1.3033208333628783, 
            0.2840430968393499, 
            0.63800522274865, 
            0.060603132377315114, 
            -0.4417610702109256, 
            -0.7121752263804435, 
            -0.40563657736671926, 
            -1.0928307262310277, 
            -1.2374010697898787, 
            -1.4942045566264388, 
            -1.3656064848795681, 
            -0.4613333325794052, 
            0.9999630134826039, 
            -0.08295269161643182, 
            0.34498432649122374, 
            0.12652412842967795, 
            -0.12902313003883967, 
            -1.4976344232663952, 
            0.020057660680598128, 
            0.0015552142930624559, 
            0.5324025913993637, 
            0.8688244904140927, 
            0.8848349755577786, 
            0.3971914803784024, 
            -1.6276156794646193, 
            -1.797648621809354, 
            1.3203757383488555, 
            2.0297300717844133, 
            0.8539670433429016, 
            1.8715008157630748, 
            0.6738226848563926, 
            0.7437259223186062, 
            0.08645350144696197, 
            0.8377640117901756, 
            0.42185708416807766, 
            1.24467087766461, 
            -0.2997345555690635, 
            0.7462451896027771, 
            1.3804486060602206, 
            0.8663612990968174, 
            -0.8480751908809809, 
            -0.6434413772576105, 
            1.047678295985761, 
            1.51489740426947, 
            0.336336635728274, 
            -0.06332588582505914, 
            1.6717961524234042, 
            0.5324345272109126, 
            0.7001127731943594, 
            0.1469125938749124, 
            2.111357414355073, 
            -0.02499713056720096, 
            -0.4200993485439888, 
            -0.3195385075935013, 
            0.47246744361848775, 
            -0.19191403254310505, 
            -1.0858771206596995, 
            0.42253231591453627, 
            -2.879072375682544, 
            0.7107936618995074, 
            -0.6901292707649335, 
            -0.8821085001360691, 
            -0.7431659452235545, 
            1.899883081944311, 
            -0.13085129267512163, 
            -1.098832911967738, 
            -0.8779154708839512, 
            0.25833569429547953, 
            0.2820560082108, 
            -0.22955260066723668, 
            -0.9390582378396612, 
            0.01269512864767045, 
            0.12295507324962318, 
            0.041296894461521225, 
            0.2673167022225258, 
            0.25751750045572885, 
            -0.3342939756564702, 
            -0.1808163373579989, 
            1.6276048424217264, 
            -0.24510262512864983, 
            -0.04395768934560505, 
            -1.3601731130782861, 
            0.13630477349558695, 
