{
    "layer_1_bias": [
        [
            -0.6698776038078694
        ], 
        [
            -0.8854866297046865
        ], 
        [
            -0.0724141487399826
        ], 
        [
            -0.5165508324776038
        ], 
        [
            0.18093136450242614
        ], 
        [
            -0.5481434093741498
        ], 
        [
            -0.9895911224836679
        ], 
        [
            0.4966241458897018
        ], 
        [
            -1.5973662068785168
        ], 
        [
            -0.0640873635716287
        ], 
        [
            0.7233035101740606
        ], 
        [
            -1.6543272471533843
        ], 
        [
            0.1464056720804274
        ], 
        [
            1.9481513880605787
        ], 
        [
            0.5186092471243271
        ], 
        [
            0.6250651696293228
        ], 
        [
            0.6904424453656723
        ], 
        [
            -0.2916365137592436
        ], 
        [
            1.3873201183842283
        ], 
        [
            0.6523334311655964
        ]
    ], 
    "layer_1_weight": [
        [
            -1.0669242077163703, 
            0.4420126804258038, 
            -0.45521899016225426, 
            -1.02311934145459, 
            -2.057752982227611, 
            -0.5860949256284028, 
            1.9811739438632703, 
            -0.912077891260604, 
            0.5136720969606425, 
            0.15823354836501358, 
            -1.2889140218018944, 
            0.06705750714586055, 
            -0.7651750253603152, 
            0.3199261140499768, 
            -1.5338115366315002, 
            -1.814340029454411, 
            1.4031387918775022, 
            0.7953486042361814, 
            2.325114191286827, 
            -1.2089494242787309, 
            -0.4608410997133407, 
            -0.2764221832252095, 
            0.15750116224152302, 
            0.27498175925059104, 
            -1.2131870510201228, 
            -0.43301897124433236, 
            -0.33231992036019786, 
            -0.17337339614561945, 
            0.2687798962242225, 
            1.173968078942343, 
            -1.093617524754915, 
            -0.3591739349567141, 
            -1.3027259511547444, 
            -1.2855447622439051, 
            -1.5968813016964687, 
            -0.4290719823878419, 
            -0.10700465826022373, 
            -0.5555281315255801, 
            -1.6163790417206507, 
            1.2012765206112743, 
            -1.7301261277664202, 
            -1.0659257031440939, 
            -0.9340881351499676, 
            -0.46241643943417626, 
            -2.0470083136851036, 
            1.0107733692200644, 
            -0.23082389428389777, 
            -2.156029605177986, 
            0.511844326797581, 
            -0.43439105380707105, 
            0.5225028319156255, 
            2.1946238590956253, 
            -0.48174610787624694, 
            1.0285711772022375, 
            -1.3568791970790073, 
            0.2882209145879511, 
            0.3911236777139066, 
            -0.13034709119505228, 
            -1.6421929250227962, 
            -1.6326748647915943, 
            0.7971382722190776, 
            0.3661680712339677, 
            -2.6322443208427697, 
            0.16350747052539238, 
            0.24915029808350894, 
            1.0570582535408226, 
            -0.5390928798912913, 
            -1.3085273264416613, 
            0.8731757712486308, 
            -1.4701597578408423, 
            -0.0021811003987565413, 
            -1.808544752751152, 
            -1.7409495196961509, 
            1.0117434842659727, 
            -1.1384078752136138, 
            -1.7029286569912683, 
            0.3655540621003199, 
            0.4384585802670722, 
            -0.10268029466499744, 
            1.698887145846085, 
            -0.6643694160269431, 
            0.05948134030449655, 
            -0.1635234729359313, 
            -1.2029985465542377, 
            0.8523158891923739, 
            0.3544813955379949, 
            1.7960565355295284, 
            -0.6711557169306827, 
            -1.3820081263146493, 
            -0.20038388809186217, 
            -0.7423629816766439, 
            0.28571651868238945, 
            -0.3237574658069646, 
            -0.5277660724315506, 
            -0.17041918345519813, 
            0.6864888905484566, 
            -0.09901148578968585, 
            0.38673461448723323, 
            0.28577921841657195, 
            0.1493403601626217, 
            1.1821240201783982, 
            2.298073772511552, 
            0.5552558689615871, 
            0.8983830354535909, 
            -1.6326463234418649, 
            0.9467851017024664, 
            1.7530469267646007, 
            -1.615772536541913, 
            0.49059131458495675, 
            -0.9861922472808581, 
            -0.1689254146396102, 
            -1.061016880312581, 
            0.09330608582912178, 
            1.1082153002956079, 
            0.06124592371939101, 
            -0.2566914198991488, 
            1.7149143608988575, 
            1.4735770568342867, 
            1.0345000519809038, 
            -0.015669355929991545, 
            -0.1551133231126568, 
            -0.9571963215336836, 
            -0.1962313800625192, 
            0.21522963122342037, 
            -1.6020607278533623, 
            0.1782188212207467, 
            0.10473767002299719, 
            0.8327111158391316, 
            -1.8095535606596918, 
            -1.1751535640237358, 
            1.2900403610290316, 
            -1.0374849076858204, 
            1.352983417425777, 
            -0.5291660040377193, 
            -0.7133565052181039, 
            0.9658268988908467, 
            1.249955357562773, 
            -0.19657190216153284, 
            0.8911183866895501, 
            1.0692183838456084, 
            0.9058465279857512, 
            0.2586551627564491, 
            -0.16226356187288343, 
            -1.6136526700002611, 
            -0.5061121787462249, 
            -0.18397849931401322, 
            0.19083952748855887, 
            2.4924770481411973, 
            1.6200797317478755, 
            1.1603381646288795, 
            -0.7565369356175048, 
            -0.687552911273552, 
            0.33844732782186604, 
            0.4051352368171804, 
            0.11239793331796391, 
            -0.36195839044881134, 
            1.1551089702170807, 
            2.0271896958609488, 
            -0.03254753932720054, 
            1.7216009169594102, 
            -0.7211190035757438, 
            -1.0936511311205273, 
            -0.03238864433210164, 
            -0.1961845984418073, 
            0.5221656877041162, 
            -0.7843495359000189, 
            2.0755450792672834, 
            -0.4401594770211611, 
            -0.3038125899776042, 
            -1.3677829616462265, 
            -1.355955099994504, 
            2.7128117028898866, 
            2.986988555775821, 
            -1.1690627433195575, 
            1.626818068826725, 
            0.9999755668163907, 
            0.4851213438433707, 
            0.8562707147629647, 
            0.7568381964661824, 
            3.277144993688686, 
            1.053212791895241, 
            -1.4886598763222199, 
            -2.469104451525936, 
            -0.26612511071989126, 
            0.5174725587738265, 
            -0.12569911183700674, 
            -0.28785247559541227, 
            1.825466985972736, 
            -0.6791598098544422, 
            0.987897134414532, 
            1.797895994514811, 
            -0.018520125544636928, 
            0.06742435839507833, 
            0.6482397823683311, 
            0.7928877240455917, 
            0.4536497046243124, 
            -1.6174693414277834, 
            1.1222642681215254, 
            -0.35603938634374344, 
            -0.7383236923864782, 
            1.74669250359551, 
            -0.22258003367490053, 
            0.5417379595752442, 
            0.7390294022107132, 
            -0.4341317966367865, 
            0.6647389440081756, 
            0.9283175930313601, 
            0.17812149239538594, 
            0.43152370090838704, 
            0.5823437519884428, 
            0.913952310284635, 
            0.8139026071653165, 
            -1.7944304053231677, 
            0.43629585704606405, 
            -1.1740067045512508, 
            -0.2084273504929246, 
            0.26382008704402204, 
            0.1248946316849398, 
            0.09795877121320402, 
            1.1880762405464853, 
            -1.4620583196859782, 
            1.5758879862157105, 
            -1.456391153694197, 
            1.1601812875206872, 
            -0.18935273889608076, 
            0.1107997314194584, 
            0.9940249335659868, 
            -1.0338950359567791, 
            0.1657219346144107, 
            0.6088441847837464, 
            -0.6045783672710419, 
            1.2626603538982948, 
            -0.47621133930859544, 
            0.7605559539238165, 
            1.0348349430740431, 
            0.9578736365399774, 
            -1.0908456192175864, 
            0.8966735223674152, 
            -0.2241738088110422, 
            -1.2573705508139426, 
            -0.6315738565958147, 
            0.15413765026042547, 
            1.1722055859043075, 
            0.02594514092655784, 
            -0.15188822657533813, 
            -0.7009807090760216, 
            1.656601167884824, 
            0.7512240731266374, 
            -1.3523460603718742, 
            0.34350314904157747, 
            0.9112938201374475, 
            -0.7654303705866473, 
            -0.3105501032957001, 
            -1.7971132590438912, 
            -2.8271752776363943, 
            -2.0000144577949337
        ], 
        [
            -1.2753937660689827, 
            -0.38723794252731475, 
            0.7009995443437294, 
            -1.0304933701827665, 
            0.04848347265962177, 
            -1.3027417042192584, 
            1.3719069546756133, 
            -0.46841489709254636, 
            2.335388550962714, 
            -0.48504264668896363, 
            1.8956585027978, 
            -0.24809844796498445, 
            1.4001079551936757, 
            -0.6129212276198159, 
            -0.11525610732947984, 
            0.003805851797590779, 
            -0.24316713269316478, 
            -1.023813500752641, 
            0.8418554515692984, 
            -0.05140971346815648, 
            -0.9017473908947771, 
            0.32246000441045497, 
            -1.1852701482497774, 
            0.6262641114442413, 
            -1.387083739661561, 
            0.646735776736351, 
            0.4314443017521627, 
            -0.21487543603962697, 
            1.4177184727199923, 
            0.2957138007037953, 
            0.026918811881420823, 
            -2.3362491202188718, 
            -0.2204309979918139, 
            0.03696525434433669, 
            -0.9228239970397367, 
            0.6306164697507359, 
            -1.2654084019580598, 
            -0.7316806358222512, 
            0.4376932507850304, 
            -0.0948806665522361, 
            0.5232389503289809, 
            1.4655441019533788, 
            0.7060493179105036, 
            -0.10793232988367828, 
            -1.1507455778661098, 
            0.5379246803649926, 
            -0.5835008874290112, 
            -2.9549853777683723, 
            -0.05831245632258244, 
            1.1100829676975887, 
            0.8822354626578688, 
            -0.5304265469902082, 
            0.2636868329361186, 
            0.5224863538774409, 
            -0.8677320140790793, 
            -0.029036855745970487, 
            -0.1612577362752791, 
            -0.2052908259661626, 
            -0.4568609356898701, 
            -0.5155408322735455, 
            0.03398263493790032, 
            -0.4939918263368798, 
            1.1109982079740537, 
            -0.5194355345008367, 
            1.3193433498666087, 
            -1.0092195456832722, 
            0.15459236277744978, 
            -0.7471023866814559, 
            1.7339815801627307, 
            -0.08827141863089429, 
            -0.6103427193200494, 
            -1.150030875423492, 
            0.0018416235619419436, 
            -1.6997794590069657, 
            -2.652832976168431, 
            0.7761811949946422, 
            -1.111392077364437, 
            -0.5159856472289842, 
            -0.010099911575937712, 
            2.003627218219324, 
            -1.471733376244653, 
            0.05541364115718386, 
            -0.9426679139415416, 
            0.7572933454842012, 
            0.11910554097325463, 
            0.9395537427931908, 
            -0.10472232991588232, 
            0.8772176258406319, 
            -0.18745688469692973, 
            -0.17476758907547735, 
            -0.8793587320605509, 
            1.6008729421617365, 
            0.23221685459929706, 
            0.7646733479253328, 
            0.0383338941141814, 
            1.7105620453326664, 
            0.09570868763466474, 
            -0.36720553068708756, 
            -0.5446138468444005, 
            -0.5729660713553328, 
            1.9461645270981354, 
            -1.4519714572496054, 
            -0.276306626753326, 
            -0.9916351507178767, 
            1.038116003886406, 
            -0.8466221636252602, 
            1.6396856119229077, 
            0.12101081960791622, 
            -0.4205619864825352, 
            -0.19818338860164347, 
            -1.282260916142004, 
            -0.6329652090806562, 
            0.2878189608428615, 
            0.08189932421531737, 
            1.2492840812024604, 
            -0.776504081544324, 
            -0.1821915620740269, 
            -3.4205203483504456, 
            0.02612990938160419, 
            -0.6267839829322448, 
            1.8330102842437181, 
            0.5651831146653272, 
            1.289506072156754, 
            1.9464978657782142, 
            0.1265344650356004, 
            0.7006867346334791, 
            -2.060592385637004, 
            0.826368715681029, 
            0.5428997461450111, 
            0.30207222819524554, 
            -0.5517025423395253, 
            0.459387033993507, 
            1.1238292330101671, 
            -2.108868576379276, 
            0.44310861076115565, 
            -0.03935201921949957, 
            0.9765090849261915, 
            2.337963240658173, 
            -1.0666466287829195, 
            0.32862843172833145, 
            -0.19380991419865884, 
            0.16993579386936172, 
            0.05196907790463292, 
            1.0685678655463346, 
            1.5940032118904284, 
            -0.48414878114510723, 
            0.05838392630892353, 
            0.09781381612626748, 
            -1.2668685999601654, 
            0.06470250460854833, 
            0.11221512213496064, 
            0.4457693807705733, 
            1.2033265573293959, 
            0.2654769734271693, 
            -0.0690152345822532, 
            1.4128240987473455, 
            0.3134858305224324, 
            -0.14729291337724326, 
            0.6253387475287292, 
            -1.5867777398140388, 
            -0.3286690535281625, 
            0.61001767414954, 
            0.8435350721743394, 
            -0.6644163147754725, 
            1.4825131671567315, 
            -0.2234248883741057, 
            0.3141033453402681, 
            -2.250188465744204, 
            -0.32937681449193307, 
            0.7268382560379507, 
            -0.9428493716963368, 
            -0.18288396815230304, 
            -0.9764806689314441, 
            -2.4496374479860448, 
            0.22021067744542777, 
            1.2382582323832145, 
            0.07169403230057235, 
            -3.3379642453851823, 
            -0.5085514079773497, 
            0.1024918335306039, 
            -0.3638696112737616, 
            -2.9323539849179503, 
            -2.17804320006464, 
            -1.9317167158214084, 
            0.05749866086881792, 
            -0.10260831933929, 
            -0.3651103322939904, 
            0.6724427684807454, 
            0.4739361159707549, 
            0.749572173063457, 
            0.05783229438893759, 
            -0.5214530886072438, 
            -0.8605735117762728, 
            -0.7581106101270435, 
            0.6589452603590347, 
            -1.5917322949731694, 
            0.6579054013411325, 
            -2.0470053028307245, 
            1.1652502429656548, 
            0.12772692943561315, 
            -1.5421868004092103, 
            -2.0692628321896236, 
            1.1382327271090285, 
            0.009163113330473689, 
            -0.12379649385989999, 
            -0.5472395844999273, 
            1.0618155199286665, 
            0.6727099749480834, 
            -0.01894891874681394, 
            -0.5573560034132959, 
            0.22411504654427336, 
            -0.6195568627079292, 
            -0.5853598104963513, 
            1.9623657677541637, 
            -0.19902246367072485, 
            -0.9528744154561761, 
            -0.9350538383189663, 
            -0.4978639694734695, 
            0.6785926193192935, 
            -1.0788811873241215, 
            -1.7657659028899275, 
            2.0895461021549497, 
            -1.246610346237162, 
            -0.5466862575854134, 
            1.2752481585873856, 
            1.7020211247746504, 
            1.6292966883732902, 
            0.3555562393531687, 
            2.388814270147422, 
            1.5488217585244985, 
            0.16642342860620613, 
            0.17693170713082074, 
            1.5965249298567128, 
            0.3616196329197538, 
            -0.669852403074645, 
            -0.503227833420178, 
            0.18562508158875624, 
            0.20368442895317382, 
            2.2160061965178093, 
            -0.3826628272694489, 
            -1.9407846211884827, 
            0.11564647876567882, 
            -0.0668933380879676, 
            1.1771553012353222, 
            1.4544146836679797, 
            0.611431770579844, 
            0.991759252025573, 
            1.368188048044693, 
            -0.37152326077814174, 
            -1.2758885978473862, 
            -0.3609162889364735, 
            -0.9753106092698646, 
            -1.9677416421050429, 
            0.8390252872588172, 
            -0.48742526279203224, 
            1.8785592371727082
        ], 
        [
            -0.919466114106209, 
            1.7332557125352688, 
            0.27745627358360964, 
            -1.346877015530506, 
            -0.6741591545490393, 
            -1.2958633960613095, 
            -0.1763925416087513, 
            -0.5659756217256866, 
            -0.33036847177778744, 
            -1.1469434644780658, 
            -0.4551201728596201, 
            -0.45951646646770006, 
            0.511821939299915, 
            1.270422559803208, 
            0.11944919444473849, 
            0.5478755263800899, 
            -0.7218654504606757, 
            -1.085416068811896, 
            -0.1347945440927327, 
            -0.8434380564143251, 
            -0.7088620701734212, 
            1.8739508476927362, 
            0.8658176609728189, 
            -0.8377942962861372, 
            -0.7275608885284731, 
            0.24187647249785582, 
            -0.2138148830314156, 
            -0.2546168250790964, 
            0.9731075427883561, 
            0.49370197521409015, 
            0.17220322944783323, 
            2.833597152339778, 
            0.12168378452842843, 
            -1.182015525954881, 
            -0.23870714067523674, 
            0.8335918985052863, 
            0.013702428527208424, 
            -0.003473541782622363, 
            -0.04033949331243838, 
            0.42126851410893856, 
            1.1060460038813253, 
            0.7252625603234809, 
            -1.509722418864612, 
            -0.5998613451221259, 
            -1.261076216387248, 
            -1.5642244842547326, 
            0.5007741584694879, 
            -0.06639948231212522, 
            0.7051017260180208, 
            -0.7745343127258267, 
            1.1918639316241832, 
            -0.32010461738993484, 
            1.8897579253468588, 
            0.8633995059083951, 
            -0.46630196925426204, 
            -0.7868971401611584, 
            -0.2843619622866656, 
            -0.7106163121171136, 
            0.23295542585465298, 
            -0.9725517225216757, 
            0.3764957780091111, 
            -0.47914807054687425, 
            -1.7058212214989068, 
            0.004367468163763633, 
            1.0830523350293357, 
            -0.4630992524136254, 
            -1.4120677414132319, 
            1.080759678142977, 
            2.116203696356019, 
            0.5859429074676028, 
            -1.5305308323133622, 
            0.8980369273846175, 
            0.6241077816553334, 
            -0.057995693447238275, 
            -1.3383063483869693, 
            -0.8158384108470518, 
            0.9715291870293041, 
            -0.41808825020311896, 
            -1.2811247177749743, 
            0.5385602776770585, 
            -0.9879720512454453, 
            0.49077253185890485, 
            -1.6814813328909326, 
            1.8252729965357948, 
            -0.30695610799216283, 
            0.04628391270400656, 
            0.2082251140849759, 
            -0.21398914903059293, 
            0.549674238412704, 
            -0.2177015511950035, 
            -1.3949438334123618, 
            0.08597476117737446, 
            0.06649189474256002, 
            -0.24451105017733, 
            -1.6896550825303223, 
            1.073652741774783, 
            0.9009664152533284, 
            -0.21788208250869212, 
            0.4250738872453984, 
            0.8708567360860123, 
            0.38408600540454274, 
            0.9957520511128556, 
            0.3810404719488928, 
            1.6842554606893585, 
            2.046429706376672, 
            0.8321418524848221, 
            -0.7085941322904025, 
            1.3108417530150085, 
            -2.427938922918474, 
            0.5760082323955611, 
            0.18309837288077077, 
            -2.2343699758824984, 
            -2.0007469510957465, 
            0.7706228312199909, 
            0.11971393890087448, 
            1.1090750032258525, 
            1.2234021689318826, 
            -0.3003753889303564, 
            0.3291415871602148, 
            0.07826095390147735, 
            0.8041396876619487, 
            0.017937504900322927, 
            2.2729888010525308, 
            0.7547228048978475, 
            -0.7511830832664421, 
            0.3853958968460796, 
            0.3808261408771019, 
            0.30496121091877904, 
            1.0095166598519543, 
            0.45457381016077036, 
            0.2666394720009393, 
            0.22448971277699586, 
            -0.1980452885938297, 
            0.10931026363498696, 
            0.24701901678232832, 
            -0.4862532605996545, 
            0.2005170849621883, 
            -1.2444587835219953, 
            1.1932594864834594, 
            -0.7445367776551269, 
            1.100041532074214, 
            -0.24457513054323415, 
            -0.07961640184745052, 
            -0.35941024054833115, 
            0.9130245624693528, 
            -1.0785874407029121, 
            -0.8245592517446926, 
            0.9018691007822427, 
            1.142860365304185, 
            -0.10359738489395531, 
            1.2678494146629329, 
            0.043216562086558385, 
            0.47281748562949977, 
            -1.1317679412215764, 
            -2.468223180419831, 
            -0.05900508636298916, 
            0.1257587279011236, 
            0.5213045722512983, 
            -0.5509462237879881, 
            -2.5310812663844464, 
            1.2259836629791439, 
            -0.8689037889053134, 
            0.8197414429828176, 
            1.4322259635755956, 
            0.08940993059067667, 
            -2.7014997926907913, 
            -0.9362390387846963, 
            -1.608594493920967, 
            0.9532467616950435, 
            0.4296649961574741, 
            0.9545621277909779, 
            0.6109236844350402, 
            1.073392413576865, 
            0.7932051308578734, 
            0.0044472403312705916, 
            0.5848056561665517, 
            0.41809264864799695, 
            -0.5727278641528942, 
            1.1567168227749975, 
            0.22779152283390755, 
            1.462116604487373, 
            -1.8556811821803643, 
            0.13327973303423812, 
            0.07198694573509916, 
            0.8619308336631039, 
            -0.655159475152249, 
            0.8808596273118857, 
            1.1293504747137175, 
            0.36304820168658253, 
            -0.7203088653373291, 
            -0.9567240585420277, 
            -0.034318622815088476, 
            -0.6122543910122924, 
            1.7023456966330968, 
            -0.009663252838409015, 
            0.26130607190693395, 
            -0.36959148417722776, 
            -0.6345520006032164, 
            -0.47093117483492153, 
            -0.3598535156018484, 
            -1.3173893643878642, 
            0.27332657735833193, 
            -0.1476047962261694, 
            -0.15776286493820196, 
            -0.9559164808814296, 
            -0.16717922710975416, 
            1.0709997731767233, 
            -0.29397822801909423, 
            -0.05769837828429294, 
            1.6383350117846662, 
            2.3202272743569576, 
            -1.1854117666128994, 
            -0.8740928862323621, 
            0.8585699353831334, 
            0.6514482252043514, 
            -2.0581282263767484, 
            0.4932298716615051, 
            -1.3473616435225135, 
            0.5990593692121613, 
            2.006904336534813, 
            0.5867970847509241, 
            0.7581899555455796, 
            0.9129693062611103, 
            1.8309150156903466, 
            0.25108613690474924, 
            0.10172734066020397, 
            0.44036966892614554, 
            0.9487787635836671, 
            -0.05322536152083547, 
            -0.17982221362443518, 
            -0.22059538665807585, 
            -2.3270626992143866, 
            -1.9664130383802596, 
            -0.3557555323451135, 
            -0.46817800109860674, 
            -0.911455141299168, 
            -1.6976285207600768, 
            1.754156471024284, 
            -0.21048759031806621, 
            -0.1382968728934412, 
            0.8298911016050202, 
            0.646842024385084, 
            0.3714517374857462, 
            0.8069863666614614, 
            2.2805835108927264, 
            0.32806533035983837, 
            2.4014274849580044, 
            0.4493751934319756, 
            0.17399457035239616, 
            1.350081369658123, 
            0.40497104878495427, 
            -0.35617854657503845, 
            -1.2822643441116446, 
            -0.06066615866648625, 
            -0.19920827223387752, 
            0.06563529140243524
        ], 
        [
            2.5222773380217847, 
            0.828763839385158, 
            -0.2305229560446912, 
            -0.858025119655401, 
            0.05791906410020537, 
            -0.904047806312147, 
            0.7887309592629829, 
            0.2979496468027952, 
            -0.2037704928259515, 
            0.5418443569555201, 
            -0.24817626560784214, 
            0.7469001018153855, 
            1.076766278985543, 
            -0.5387676242520658, 
            -0.31106220778410604, 
            0.48790980532319467, 
            0.6427515760299967, 
            -0.44024027872791227, 
            0.4115598957711763, 
            -0.4212362345011097, 
            0.7363182671303283, 
            1.7422151901577019, 
            1.1803279391637786, 
            -0.412444524580167, 
            0.008707547392940376, 
            0.5823538102625974, 
            -0.056708087853167326, 
            -0.43185798279963467, 
            -0.24137590824245095, 
            -1.640271735423138, 
            1.3763647075560526, 
            -0.27774174492601533, 
            -0.9334177460764485, 
            -0.24894417123568482, 
            -0.275190426804181, 
            0.20568275335845268, 
            -0.6167047585016515, 
            1.0060933641449, 
            0.0035136427565347957, 
            -0.04423109908744405, 
            0.3497317811478882, 
            1.4239839362816777, 
            0.7737911367832232, 
            0.7330987663864693, 
            2.021193646391665, 
            0.8687248008187534, 
            1.3422877809920313, 
            -0.32625638391551937, 
            0.6612437805351626, 
            1.6925340907128048, 
            -0.9939793519582539, 
            0.060941762906382486, 
            -1.815254430824475, 
            -0.18337207239244413, 
            -1.3358499885594832, 
            -0.64061298291183, 
            -1.0913738783076392, 
            -0.1286726218514277, 
            1.5604080540936307, 
            0.7262562800473882, 
            1.94742579743304, 
            1.1210071550519065, 
            0.10805328140052854, 
            1.019680461390713, 
            -1.0963381937208438, 
            0.10685124016633205, 
            0.37659784880990704, 
            1.2162203521578363, 
            1.0162493563238613, 
            1.212340183180617, 
            1.7819172529809373, 
            -1.9868942450507456, 
            0.8165313195284631, 
            1.047804877865788, 
            1.4455062685831133, 
            0.3052140822318047, 
            0.6541271359494457, 
            -1.1130973129043358, 
            -0.719048452611293, 
            1.509785674927927, 
            2.276806885366848, 
            -1.421922888940201, 
            0.2772210884122117, 
            0.03869495728859607, 
            -1.1149636636102591, 
            1.2724697113852244, 
            -0.6735142137359835, 
            -0.3241083358826568, 
            1.8180928312973506, 
            -0.25292444836574035, 
            -2.116770305650196, 
            0.8202751006962823, 
            -0.3756417440305789, 
            -0.29268209718446836, 
            -0.68735505855254, 
            0.9632293973013728, 
            1.3703628534817376, 
            0.3259325151930901, 
            0.46245103969171003, 
            -0.6692882974732203, 
            -0.03012472424717349, 
            0.8040682708454356, 
            -0.06614999158610736, 
            -0.6069656479909493, 
            2.146067958068445, 
            0.7991869924708271, 
            2.217668675394423, 
            -0.4316541403482993, 
            -0.39266519671212635, 
            1.6859395804278527, 
            1.1364158506050244, 
            -0.67768086525463, 
            0.32413420193249276, 
            -0.37347659259476407, 
            1.0807649611093209, 
            -0.6517765677936543, 
            -0.08530930664776916, 
            -0.2737783441179415, 
            0.908289916177296, 
            0.3312164046882955, 
            -0.552602246210778, 
            0.5430942928414335, 
            -0.3191838841231526, 
            1.4764212132897316, 
            1.2503335871946226, 
            -0.1945324964033611, 
            0.012692435071468534, 
            -0.25662410145666514, 
            -0.027213543744657495, 
            0.3853413588516635, 
            2.5708415902197985, 
            0.005555486005157137, 
            0.13504863569139644, 
            -2.5488748060548434, 
            1.0133155014925648, 
            1.115016577439422, 
            0.2762067697920762, 
            0.5599929852877477, 
            2.9207524019652786, 
            0.9992127623598815, 
            -0.07646049492160638, 
            0.6644461228872702, 
            0.3990693376842389, 
            -1.8142651403416583, 
            0.33357977993911425, 
            -0.8764551825653556, 
            -1.7858327035259662, 
            0.7499708582934002, 
            0.44866388214876735, 
            3.1401973472579314, 
            0.20378106562187023, 
            0.04761148771091927, 
            -0.29481972921433225, 
            0.7339571907787292, 
            -0.7365361515418852, 
            0.23994082173659192, 
            -1.2471972582733755, 
            -0.05124255433295348, 
            0.8947198792966599, 
            -0.4479783720462918, 
            -0.049766051844272116, 
            0.6743276758345245, 
            -2.128820894977243, 
            0.023685798440043374, 
            -1.9853314890457594, 
            -1.4987515428911649, 
            -0.39695641704631796, 
            0.17064832584683312, 
            0.7411576679628876, 
            0.7842098430770987, 
            -0.41853622270423213, 
            -0.21852411248541892, 
            1.3431493694920746, 
            -1.005944116277806, 
            -0.35323522896343384, 
            1.6161024883667257, 
            -1.0677286181782446, 
            0.7793800690026839, 
            0.15935299270688988, 
            0.39664863942952955, 
            -0.1115308102743719, 
            1.3853416202310198, 
            0.4666834005350643, 
            0.6711775347642966, 
            -0.02311488005184636, 
            -0.14045733054739504, 
            0.6023295791427472, 
            -0.19292751515200995, 
            1.5726048737154832, 
            0.28848779455482976, 
            -0.11383315985544287, 
            -0.1974739368115267, 
            0.5724218823839822, 
            -1.001556829050707, 
            -1.390983503676247, 
            0.8802524707842545, 
            -0.1739045943963175, 
            -0.15939379721339575, 
            -0.44380283252551983, 
            -1.614728343768239, 
            -0.7978340116942934, 
            0.473811865998038, 
            1.2155861869034161, 
            0.4061841287447022, 
            -0.13566660852392587, 
            1.7290517289709304, 
            0.5840207531604599, 
            1.0572397987842503, 
            0.6975151781980267, 
            0.8760947823039872, 
            0.39261617747006455, 
            2.0894962134889443, 
            -1.3308289569983767, 
            0.686130837848159, 
            0.718226219509341, 
            -0.9404509577847129, 
            0.23213679766290451, 
            1.0158856505059064, 
            0.9496160029342766, 
            -0.12257983522552796, 
            -0.8346107743761947, 
            -0.39306012708060123, 
            -1.1086253253992389, 
            1.295754180350781, 
            0.6497849726273158, 
            0.7556958919951517, 
            -0.1567527398640641, 
            1.8488824189046975, 
            1.2117631176281558, 
            1.9998776968438532, 
            -0.7089362762815348, 
            0.8991383493663504, 
            -0.567148845568855, 
            0.3083188045742226, 
            0.7830610675239832, 
            -1.0843949231659586, 
            0.11151970307618748, 
            -0.4565598822064324, 
            1.8227150705045319, 
            -1.0542954063897672, 
            1.3945894145265167, 
            -0.08374549839241582, 
            -0.015700268327151105, 
            0.6834669157139104, 
            1.2994677932527638, 
            0.4148252097093552, 
            -0.42533762956872023, 
            0.06366216373773113, 
            -0.265473046890314, 
            -1.2103151733687745, 
            0.30522809535036505, 
            0.2615908143092468, 
            0.0996633397332828, 
            -1.3659965021891545, 
            -0.1707713654138359, 
            -0.4056328142596614
        ], 
        [
            -0.446469465940437, 
            1.3581223619697742, 
            1.3771534355188848, 
            -0.6937494700117174, 
            -0.013151760646652737, 
            0.14911306297176105, 
            0.34707441495350105, 
            0.4837190322738466, 
            0.7483879926355007, 
            1.0415176290346446, 
            0.11972752920975224, 
            -1.3943100746102097, 
            -0.7373001268353057, 
            1.113442651110623, 
            1.6134139066831146, 
            -1.960501413836847, 
            0.8048986120280891, 
            -2.0313104875684003, 
            -0.5263243575935344, 
            0.5383716090446303, 
            -0.13876253967932856, 
            1.543934883041926, 
            -1.0209231468617672, 
            -1.2260983378196317, 
            -2.1819876233140927, 
            0.04141067824754552, 
            1.7835329646304745, 
            -0.4579376725845798, 
            -1.38862053527444, 
            0.7405348446752623, 
            0.5003523854683629, 
            -1.7116679624435536, 
            0.053573011477511194, 
            -1.014520504122532, 
            -0.9566458969485376, 
            -0.7587902524763184, 
            0.1533651257862025, 
            0.8813750629994128, 
            -1.5647486420211358, 
            0.5018383218042224, 
            -0.26097611721259306, 
            0.8259154965657463, 
            0.08881822747589739, 
            1.910031142665119, 
            0.32578236065061883, 
            -0.04823459052478519, 
            0.059880986832339576, 
            0.43648512857124855, 
            -2.0047522286697537, 
            -0.7293061121280018, 
            -1.8906976600294527, 
            0.03679060750997162, 
            -1.394330139055383, 
            -0.16226057584677936, 
            -0.273964171305134, 
            0.9524023267537111, 
            -1.6142448243845013, 
            -0.2621153809247792, 
            0.7511238107838318, 
            0.18369450520349548, 
            -0.1659341597239604, 
            0.42454642229593226, 
            0.12451878721921383, 
            -0.41111904830347684, 
            -0.5319851564351891, 
            -0.45743080954873866, 
            0.28629943524014007, 
            -0.07107124971273529, 
            0.00396169709204113, 
            0.29871047180028143, 
            0.42232861410745526, 
            -1.015534217126668, 
            -0.5000896680927279, 
            -0.4083421858773857, 
            -0.8181014261409434, 
            -0.9142540334579232, 
            -0.14233534045096533, 
            -0.963683196386461, 
            -1.3835250949616233, 
            -0.8507527411557296, 
            -0.10183023432649951, 
            -0.12103287561553033, 
            -0.016061714490150848, 
            -0.9752633399396262, 
            0.8227594971720376, 
            0.16570514676643192, 
            -0.37630564559556856, 
            -0.3153141342727984, 
            1.1688824354892335, 
            -0.609236960824382, 
            0.7704629463058351, 
            1.6732897632606167, 
            1.2251818228732518, 
            0.18585453461175133, 
            2.617535859525929, 
            -0.40555125943412124, 
            0.9866374014624452, 
            -1.3086241562731797, 
            -0.8579526602639077, 
            -0.3466057496568643, 
            -2.2505781890357475, 
            1.1406204073021753, 
            -0.3626802001582724, 
            -1.0548872699515084, 
            -1.384073156430963, 
            1.2982000702125016, 
            -1.2266724622568972, 
            -0.2021586627835627, 
            0.7030864469149625, 
            -0.3449305266923503, 
            -0.3422917491883835, 
            -3.0437513077406946, 
            1.7947919059523714, 
            -1.706389048878887, 
            -0.7985718099618646, 
            0.39902221983819075, 
            -1.825795979585133, 
            1.5039213351124727, 
            0.5751899945107594, 
            1.1870820849822559, 
            1.7124094333017135, 
            -0.19115690419316717, 
            0.853309796846731, 
            0.4319564987002277, 
            -1.9237800607372495, 
            -0.0647174789501513, 
            0.28800043779129497, 
            -1.5260104465958808, 
            0.6197222238119212, 
            -0.8304229253200813, 
            0.19043253743063243, 
            -0.8554665010566566, 
            1.2048541939381532, 
            -0.6542283896977882, 
            -0.18286458776043377, 
            0.960103675065811, 
            1.9110311934382147, 
            -0.8417475371799383, 
            1.4026786849465351, 
            1.2504812541678592, 
            -0.8634352813033908, 
            1.202732849265734, 
            0.2572335468138498, 
            0.4725667271831312, 
            1.6620866999626116, 
            0.9594949425222014, 
            -0.46451400577566443, 
            0.30949325065388017, 
            0.9842082824014673, 
            0.47062251257007137, 
            -1.8447495415187167, 
            -0.7190147254520104, 
            -0.6652161950677669, 
            -0.9503225642750845, 
            -1.3336738914131268, 
            0.13479603270924975, 
            0.1569235962827881, 
            0.6244123788196635, 
            -0.0962559942370422, 
            -0.6401958042047023, 
            0.4224557614716356, 
            -0.05578736486800567, 
            0.26137278054480956, 
            0.31451756715740503, 
            0.4127640438580306, 
            0.4622794473780517, 
            0.7952615187878278, 
            0.2833629841926944, 
            -1.4241667221944418, 
            0.1922768069212503, 
            0.2842260208958247, 
            -0.061544685417993204, 
            0.2278357475771356, 
            -1.173720109104556, 
            -0.8030119323224593, 
            0.4052737012429684, 
            1.431943607371076, 
            0.22703495242375904, 
            0.3323960959845488, 
            0.7348164513607071, 
            2.181035463811582, 
            0.7404200884715845, 
            0.5526094549248084, 
            0.33688690463598864, 
            -0.8238056125062185, 
            1.9104521832612291, 
            0.1613356311625781, 
            -0.20352422149217198, 
            -1.9064817023848695, 
            0.2171381686841723, 
            0.09517619913092397, 
            -1.26963180908297, 
            1.3865248681402786, 
            1.128872778687168, 
            -1.1778441822483146, 
            -0.9035588204298819, 
            1.5198707685902395, 
            1.4563471204088065, 
            0.1863481717379044, 
            -0.5407026509149542, 
            -2.0621922064356264, 
            0.191013985067013, 
            0.4386022547672562, 
            -0.28014364011953546, 
            0.04911126325112382, 
            -0.5182135965666788, 
            0.3108118112836472, 
            1.6047220491077132, 
            -1.220331928708463, 
            0.8555968051526683, 
            0.39642414848644847, 
            0.24266076016529095, 
            1.345147921294724, 
            0.477217207965666, 
            1.3571448761898937, 
            -0.180940538790585, 
            -2.524144360092709, 
            -2.046085394972896, 
            0.05181418163114893, 
            0.8637582966038816, 
            0.4033866939292139, 
            0.41737740441173937, 
            -0.22268860443051472, 
            -0.7977035266517125, 
            -1.0317131052765023, 
            -0.5850047371595479, 
            -0.5601381209430232, 
            1.6292991512922153, 
            1.3784463000850484, 
            -0.3488982743654863, 
            -0.8122128251702396, 
            -0.1961000803907463, 
            -0.968351799011286, 
            -0.7208259335396097, 
            -0.34981844877449886, 
            0.3331696983063009, 
            0.1922256839759003, 
            0.5273239241564509, 
            0.5925745873468038, 
            0.5706859062087357, 
            1.549319332717744, 
            -0.35397707862045524, 
            -0.5702376989502146, 
            0.22476412629608195, 
            -0.3320395668375066, 
            0.46665754929490477, 
            -0.17177610068360977, 
            0.254706297098176, 
            -0.5775889562263193, 
            1.8038557118681349, 
            0.928745994521498, 
            -0.7184326821781832, 
            0.08118389113251419, 
            -0.8043697223981604, 
            -1.1483144055988495, 
            -0.054251257615479276
        ], 
        [
            -0.17775580751395706, 
            2.1479834963266087, 
            0.4404238014241442, 
            0.9375052799962234, 
            1.4691721095787094, 
            0.2764890219909188, 
            1.8264811272528805, 
            0.35529836434149986, 
            -1.1752230774535168, 
            -2.5675055960836843, 
            0.2241329772760448, 
            -0.8086255148703251, 
            0.37669052640177414, 
            0.14902972296844988, 
            -1.922248887575627, 
            -0.2720924375667099, 
            -0.564444702165868, 
            0.7842202549306682, 
            0.0759937326238053, 
            1.0921376844242106, 
            1.165833274478906, 
            2.0793839774775567, 
            1.784866175587757, 
            0.45993373679149263, 
            0.44682122519725337, 
            0.5367928795837451, 
            -1.2126063774508316, 
            -0.6508225488311747, 
            0.45047414231814653, 
            0.5299363424132832, 
            1.7926911891510413, 
            0.4695662077547666, 
            0.5878590610935632, 
            1.2210456009555744, 
            -1.0442879451061857, 
            0.5486308198445835, 
            0.4220705534820732, 
            -0.5443954769050154, 
            -0.27354120093960455, 
            0.5347058613109359, 
            -0.8257524450137825, 
            -0.666189835421009, 
            0.8272499834542777, 
            0.22319792334358274, 
            0.21370786802129596, 
            -1.4807479519029478, 
            1.1552800270959367, 
            -0.01777849096154345, 
            0.41911151190685564, 
            -0.7928026342485626, 
            1.3927258038398707, 
            -0.6766427751697909, 
            0.07181685002775547, 
            1.427779794507096, 
            -1.2191659749722294, 
            -0.8574392387379496, 
            1.154747416696671, 
            0.42864743884441797, 
            0.6289772269644209, 
            -1.0301435768755274, 
            -1.1505296772230869, 
            1.082989577497393, 
            0.45302369501016737, 
            1.4298906206058575, 
            -0.20922525924385013, 
            0.49848489521257866, 
            -1.3369761044497963, 
            -0.9038086941898705, 
            0.46862161466036945, 
            -1.3787407660201683, 
            0.8069021452237435, 
            0.23932436824452125, 
            -0.557245673245622, 
            -0.8329489915358833, 
            -0.04571901082483557, 
            -0.595508659499091, 
            -1.7317009382419937, 
            0.252957438948098, 
            1.7450909444600768, 
            -0.22536073315551922, 
            0.8207024525843066, 
            1.928910794070764, 
            0.3865509283862598, 
            -0.3489826231225585, 
            1.096587022977082, 
            1.1793820689203305, 
            1.1867098463021206, 
            -0.5939626954332695, 
            -0.36151653177380605, 
            0.3252546476063967, 
            2.1376389077907505, 
            0.5556595082353731, 
            0.6118148909645988, 
            0.6250739226716994, 
            0.0520305255301736, 
            1.384552157144502, 
            -1.999560290921463, 
            -0.6093117964247671, 
            0.957430001351996, 
            -0.7427892199993718, 
            0.9634158128439607, 
            0.3781023323776296, 
            -0.13993896394844202, 
            -0.8546895121968651, 
            0.23058649289773164, 
            -1.6012534264803489, 
            -0.5847576809154087, 
            0.3028105956559814, 
            0.9802941966814234, 
            0.7750706624673074, 
            0.9520990035930038, 
            -0.4578079906461504, 
            -1.6854978448771214, 
            -1.7333246616169296, 
            -0.9674600494782767, 
            -3.5366737432183784, 
            0.6342317115330718, 
            1.4365737844584958, 
            -0.2087192899962985, 
            -0.046127972453939965, 
            -0.2950458841241759, 
            0.6547999188332331, 
            0.6697305741519611, 
            -1.1308980184323119, 
            -0.10597084779528909, 
            -0.10485484516483899, 
            0.4964173969350655, 
            -2.0916453666144452, 
            -0.2435864818908657, 
            -1.2428072924473539, 
            -0.28947365643250145, 
            -1.5026671067146808, 
            -1.868650360291892, 
            -0.794664277586406, 
            -1.1735089797973708, 
            1.071960104911773, 
            1.6406231716668966, 
            -0.34502893745014834, 
            -2.346505417312829, 
            0.18484117969353672, 
            -0.8739276333484338, 
            -1.7489676203578408, 
            -0.9576181281821488, 
            -1.7382528454892083, 
            1.1644468913202763, 
            0.5857897072056875, 
            0.40455784308332593, 
            0.42219816868013654, 
            1.4728890480275283, 
            0.19385680746130132, 
            -0.2068728270940229, 
            0.34494797138912375, 
            -0.9261084618466423, 
            1.618539919537851, 
            0.44135357446389717, 
            0.4257981603406359, 
            -1.2398397409015562, 
            -0.15294512124437076, 
            -2.0614767214343788, 
            1.2098860962685356, 
            0.750163116718508, 
            0.6518189968799103, 
            -0.2324125561413397, 
            1.4020020486124336, 
            1.6143973140910328, 
            0.7947695443847312, 
            0.21097863032363745, 
            -0.7954031324428441, 
            0.2580973821951315, 
            0.91180616594815, 
            1.3870777483850045, 
            1.2870697857171207, 
            -2.347721075165621, 
            1.214098894861423, 
            -1.4487953559342535, 
            -0.15393383340284458, 
            0.3595492207004675, 
            0.5003717506794091, 
            1.0552558203058602, 
            0.45242776768764964, 
            0.15722225590172173, 
            -0.3217461498838833, 
            0.49595552954714056, 
            -0.24592804917820882, 
            -0.4302476392311195, 
            -1.499547099126721, 
            -1.5787670175177835, 
            -1.6224264500125918, 
            0.1929245089740758, 
            0.09083321914095718, 
            -1.317417016571916, 
            -0.1206090555409295, 
            -0.5437517999770954, 
            -0.3889849168428057, 
            -1.0827137955157655, 
            2.212594251161542, 
            -0.6504582944798597, 
            -0.17615924942444428, 
            1.148964043996044, 
            1.5603212324824427, 
            -2.273285559190705, 
            -0.5541472676577409, 
            -0.4171190412481847, 
            -0.36495664756766827, 
            0.02169895592921681, 
            -1.4823725362307687, 
            -0.04756639986758385, 
            -1.0927454034671142, 
            1.2278622396139631, 
            0.41672469598642004, 
            0.24285253283876082, 
            1.0029367463930745, 
            2.530952130989873, 
            1.5355186249617205, 
            -1.4207484954032124, 
            -0.5458001705486774, 
            -0.2927455311740849, 
            -2.3202758100543157, 
            -1.0456111351712554, 
            -1.1416828839661524, 
            0.10099496950685422, 
            0.9759225051833406, 
            0.35343375222002965, 
            0.3333742479911733, 
            0.6079803615655337, 
            -1.4430806006603623, 
            1.799751473466414, 
            0.0232037352218978, 
            0.647255906962254, 
            -0.5954987920885746, 
            0.3125156512267597, 
            1.0326413194104715, 
            1.3858297879375168, 
            -0.04519578293104681, 
            0.18765852607778552, 
            1.345624919139659, 
            0.4396787432759946, 
            0.1306137329280647, 
            0.4322799354533505, 
            -0.1757164027357842, 
            -0.7754229707448889, 
            -2.039974061687961, 
            -0.02549335683188399, 
            1.090785946932564, 
            -1.1944287535772011, 
            -1.350811643836241, 
            -0.58566339659674, 
            0.43319247869937355, 
            -0.7823130701939726, 
            -0.017095105404644432, 
            -0.6680879903133436, 
            0.805774227261866, 
            0.3047310611323479, 
            -0.1783900333016346, 
            0.8230207930282679, 
            -0.30189523245577005
        ], 
        [
            0.3564873569572986, 
            2.062074894357942, 
            0.5349932155424111, 
            0.7225860948457471, 
            2.5257991918526734, 
            1.4685779719357712, 
            -0.4089429815329918, 
            2.1297131686473447, 
            1.743135579462813, 
            -0.11790216030013803, 
            1.0504283413262776, 
            1.6112052093702134, 
            -0.3304909566400924, 
            -1.080197794171942, 
            0.39172253388993744, 
            0.5335329937522458, 
            -0.8223939495852289, 
            -0.016146514706620166, 
            0.5627962006640848, 
            -0.857358413942017, 
            -1.0635485849978634, 
            0.8305762519070723, 
            0.5045502994824262, 
            0.7554722221852818, 
            -1.1155995870553177, 
            0.4866868575501986, 
            -0.5946440381429909, 
            1.633199490829708, 
            -2.146208953280215, 
            0.8949474919866743, 
            1.0804845288987643, 
            0.6436901134001083, 
            1.8016690465216023, 
            0.6167804453336607, 
            -0.6664813886800481, 
            1.6933656934211319, 
            -0.5362056197563297, 
            0.5119441979327816, 
            -0.5109452150670539, 
            0.08874537156210308, 
            -1.5128176296227294, 
            0.5895272559125374, 
            0.8149010853241259, 
            1.621841444354059, 
            0.4534797290691029, 
            1.5490693993223303, 
            0.15805223146255845, 
            -1.0289932041777843, 
            0.2955344237636806, 
            0.5587303216687467, 
            -0.7810487561656377, 
            0.8215890490296857, 
            -0.26227322851958335, 
            2.0061708083691, 
            0.7428376453707284, 
            -0.015594826207511226, 
            -0.6576920637076608, 
            -0.8130503587879897, 
            1.7957020795212828, 
            -0.3936872252345228, 
            -1.0762236766735007, 
            -0.0069348476672933205, 
            -0.5825813935934433, 
            1.264107320137756, 
            -1.7781954259181174, 
            -0.1821469365171852, 
            -0.9905807511715484, 
            -0.799817814422822, 
            -0.76546519206784, 
            0.8738965825123262, 
            1.6475023224915937, 
            -1.1605284491328305, 
            -1.666183319841791, 
            0.19960580556994398, 
            -0.022977591750483604, 
            1.1563766700701343, 
            2.392801316717487, 
            -1.2293461587155305, 
            -0.09901086086821148, 
            0.10210442907649635, 
            1.8416374276831016, 
            0.6929770686639551, 
            0.5009020613013891, 
            -0.6903100832665579, 
            -0.1282429217014927, 
            1.3158899723066018, 
            -1.0572505247912003, 
            0.5264431428962666, 
            0.9447709147077407, 
            0.2885076321803794, 
            -0.13011293942105684, 
            0.015854159073523843, 
            0.0758764397492265, 
            -0.35976448772993386, 
            -1.4699451010373021, 
            1.131460011583102, 
            1.1359386917483418, 
            -0.05215814758803099, 
            0.40195701254778493, 
            0.16474631518801044, 
            -0.6695607078114817, 
            0.6349238042342116, 
            -1.5271757286965457, 
            -0.08709875115368461, 
            0.5655163669207747, 
            -2.005316144225413, 
            0.6519624312451591, 
            -1.273308237803382, 
            -1.1534455613580303, 
            -0.5382023122205353, 
            2.250972573315427, 
            1.6754597340962736, 
            -0.049333182256370685, 
            -0.39259923935743746, 
            0.632957066821555, 
            -0.7028369594631334, 
            -1.1013739160481564, 
            -0.3021502650417661, 
            1.589670012254111, 
            -1.6476375069249845, 
            -1.0434765946325246, 
            -2.4027287620883055, 
            0.004265382788325432, 
            -0.08002991849916502, 
            -0.2080531082592349, 
            -2.13521002187334, 
            0.0869255976117627, 
            0.9665525141118897, 
            0.8758827485492053, 
            -1.8888574967953466, 
            -0.6348877840996056, 
            -1.1344354218316026, 
            -0.4206969147186354, 
            -1.4872466807617784, 
            -1.0007518276699114, 
            -0.8953897908669262, 
            -0.32118649577046293, 
            0.4797491919644368, 
            -0.8115474936934379, 
            -1.6476317707867811, 
            -0.2518520412591953, 
            -0.12827311635936164, 
            -1.4059959726767906, 
            0.16040362366394545, 
            1.6567188364613354, 
            1.422814074410612, 
            -0.7781867323257057, 
            0.32693456366705204, 
            -0.7442487302175446, 
            -0.4789397911147017, 
            -0.13683302679298218, 
            0.5169587901564872, 
            -1.347871632412604, 
            -1.1432042959563602, 
            -0.003067435262755955, 
            0.7101592677583327, 
            -0.5575328062826879, 
            -0.4377538814255062, 
            -1.4959351803339176, 
            1.2693761049025112, 
            0.37408334038651747, 
            0.8267228745590762, 
            -0.591664697176124, 
            2.3389193507573878, 
            0.8650405083511578, 
            1.2157628512288163, 
            0.8620831657741643, 
            0.528230890258387, 
            -2.881608005896088, 
            1.7456569636573764, 
            -0.10819478365780887, 
            0.06256544566931349, 
            -0.18101737626462955, 
            -1.4125829115332145, 
            -0.3901559095516413, 
            0.25411477857147724, 
            -1.0315877940929765, 
            0.39678109098516734, 
            0.26676101846182965, 
            0.37009032315242707, 
            0.03667976244014708, 
            1.1656944054753624, 
            0.37817659855078695, 
            -1.5860812338843424, 
            2.1096912343945378, 
            -0.27727548544358666, 
            -0.4063079623749646, 
            -1.3642211374723474, 
            1.4810348940482532, 
            -0.21796945173091478, 
            -1.5567026925768293, 
            -0.21365348754606087, 
            -0.15189332740454506, 
            -0.47065923701324164, 
            0.5384244733169816, 
            0.7359460117011051, 
            -2.3955143121302256, 
            -0.429225921482454, 
            0.2618524662917502, 
            -0.5199840203862709, 
            1.8812221052901528, 
            -0.06532403769542607, 
            0.0855536512521766, 
            -0.32275954083656444, 
            1.2851054533209962, 
            -1.631247297105847, 
            -0.37538227120733364, 
            -0.4792196512571176, 
            -0.9177219622424273, 
            0.035698506938878174, 
            0.8391141583012588, 
            -0.0029889012375709906, 
            0.2724149924745485, 
            1.6714458466443083, 
            1.897873926122653, 
            0.24278720251056168, 
            -0.614981044151303, 
            0.5118588176244419, 
            -0.3838476363729631, 
            -0.5175094849783833, 
            -1.4325717872561217, 
            -0.7604964102329532, 
            -0.18153992773232852, 
            -0.839064184495786, 
            -1.261557413239493, 
            -1.4924683703876076, 
            -0.1840262370383112, 
            -0.6240762980422334, 
            0.8990118455606319, 
            1.2306049911278836, 
            -0.2188614020343228, 
            0.2819087393626921, 
            -0.10769863233238904, 
            -0.4595560712449585, 
            0.1449642786823218, 
            -0.7977000319746408, 
            0.8499475259547995, 
            0.6065827127863802, 
            -1.1373705596899495, 
            -0.9289136206855442, 
            -0.44532807068064423, 
            0.568602770515694, 
            -1.7063917862843276, 
            -0.6735529323116514, 
            -0.36254916638132406, 
            0.1421760595669813, 
            -0.46842499014800865, 
            1.2767230095141278, 
            -0.26293202526102893, 
            -0.2149442812857097, 
            1.2994599575421333, 
            -0.44749249309781913, 
            -0.07918391636519415, 
            0.3978200299928703, 
            -1.3584768748235814, 
            -0.8175812333702958
        ], 
        [
            0.10650208437247637, 
            0.3057537132620679, 
            1.270149418372147, 
            0.5319682706988793, 
            -0.6186041541430701, 
            1.6347448190108576, 
            0.8250096853954618, 
            -0.937001978384755, 
            0.006460782760722063, 
            1.5341287585222407, 
            0.27209104752555346, 
            1.8801237402879871, 
            1.1211700575762396, 
            0.04622330176601303, 
            2.267709505441768, 
            0.9320435699131056, 
            0.7539725598951461, 
            -0.5225881668870831, 
            0.8219384753006751, 
            0.19308448621356047, 
            2.217150833257239, 
            0.5268378865938421, 
            1.8654442832882683, 
            1.1062872399147896, 
            -0.05315738778032091, 
            0.99494415690213, 
            -0.5924613040697836, 
            1.761111696893208, 
            0.17911921967083874, 
            1.5841231484774905, 
            0.7235394929775852, 
            3.144066797059212, 
            0.6983545005163468, 
            -0.20837692126660637, 
            -2.207347368672249, 
            -1.3068958653091702, 
            1.748191301857859, 
            0.12254577968090541, 
            0.9080976603441484, 
            0.19993750752450795, 
            -2.367965773772579, 
            3.6642069811666906, 
            1.4407217306682008, 
            0.8606053764353743, 
            0.6716132587137269, 
            -0.21306939037715417, 
            0.405107052809555, 
            0.4536777473765569, 
            -0.8730350480111599, 
            1.1847088151992058, 
            0.09521334203602867, 
            0.7125572962720307, 
            1.4966692234327452, 
            -0.4464021400204258, 
            -0.45766807667346965, 
            -0.17664042221529458, 
            -0.513076791928846, 
            -0.1715451402325561, 
            1.2312128936269047, 
            -1.6999637165927333, 
            -0.6997336298022814, 
            1.2053434127180471, 
            1.2448238764386843, 
            0.014318858994620985, 
            -0.15731068085009567, 
            0.4712829050815623, 
            -0.1393902636718537, 
            -1.9265185601201769, 
            0.0528173723289964, 
            0.8099461240260756, 
            -0.4095558706480841, 
            -1.2042490831617603, 
            0.2795423881734097, 
            -0.48429604106681207, 
            0.4279157582882893, 
            -1.2711451402980547, 
            1.7304649694798322, 
            0.6823454973450723, 
            -0.5517592884766199, 
            -0.9166379429367252, 
            -0.02087263313053914, 
            -0.2630575141979494, 
            0.6869441285293032, 
            -0.9815467942585149, 
            -0.31195483632860893, 
            0.8915838512784464, 
            2.1150878806481628, 
            0.8398637203044256, 
            0.6722274584468408, 
            0.36025058676907373, 
            -0.007762110632067515, 
            -0.27313801165470025, 
            -0.014274214077623297, 
            0.27134913893584983, 
            -1.059183339320938, 
            0.048128312937106794, 
            0.8908662282686775, 
            -1.3779006553127762, 
            -0.8255429605855354, 
            0.23410400418968275, 
            -1.6494906304537824, 
            -0.3435927045747967, 
            -0.7001690614667251, 
            0.2355823597048662, 
            1.0178338385954813, 
            0.8490545300445433, 
            0.6509514133851885, 
            0.9136509800116637, 
            0.21652119167014963, 
            0.405333887268526, 
            -1.253914706656961, 
            0.9407644006345771, 
            1.133899547167771, 
            0.9296305870476027, 
            0.09954178868886317, 
            -1.2339694022463734, 
            -1.1452237547214206, 
            -0.2396798761805076, 
            0.4933704077792609, 
            1.1023873267460158, 
            1.7305820742502425, 
            0.6092216214541417, 
            0.19116451480938257, 
            -1.9994274828335197, 
            0.2906271226064237, 
            -0.24985244978072116, 
            -1.2461879281721588, 
            0.752897180018936, 
            1.2447760333189453, 
            -1.5681140745116149, 
            -1.2774298396146662, 
            -1.1220794711910118, 
            0.4163897657390021, 
            0.014662534178586213, 
            -1.1350504956368936, 
            -0.3860332622815596, 
            -0.347308512708644, 
            1.688122544457534, 
            0.972204584955099, 
            1.4584018800025196, 
            0.8451116806751264, 
            -0.4269769961495223, 
            0.70573204474776, 
            0.03658739274120027, 
            0.6245339578061574, 
            -0.6705099236520701, 
            -1.0837552957967116, 
            0.6756396030110278, 
            0.1997108818732568, 
            -2.593848812556347, 
            -0.20445777784630126, 
            1.0329200395733535, 
            0.536266847913756, 
            -1.4413898117269692, 
            -0.6114536663543934, 
            0.5319584034954051, 
            0.2911597095403075, 
            -0.5106132679956357, 
            0.6576596380985152, 
            1.5973454925557293, 
            0.17377671454086868, 
            -1.1433846933910004, 
            -0.111402646671157, 
            -1.5964673140099637, 
            0.5302023260270702, 
            -1.3105957121892784, 
            0.43641998528376325, 
            -1.0646033020373347, 
            -1.351363951683968, 
            -1.4533534956084821, 
            -0.32471548056651917, 
            -0.21452907967872598, 
            0.6275207377937068, 
            1.9537312510009877, 
            -1.428566558082361, 
            0.6246415865582035, 
            -0.819130029365645, 
            -2.853699425391693, 
            -0.7125369789745086, 
            -0.557424317693657, 
            -0.20303408953720192, 
            -0.4457006607668711, 
            -0.8332952377580587, 
            0.22970826025546842, 
            -0.7790808646605447, 
            -1.0236578217149224, 
            -1.2126270944306354, 
            0.15094309929612673, 
            0.9558201876344484, 
            1.5670490479149062, 
            0.582650407153058, 
            0.6620682763026767, 
            0.13476053474724875, 
            0.9394097320835338, 
            -0.8504676234374253, 
            -0.9092972979334856, 
            -1.8535145583521462, 
            0.536848122724386, 
            0.7493049230169218, 
            0.10052993214890121, 
            -0.3842433123216585, 
            0.38168377628524064, 
            0.5449512828816112, 
            -0.15052304931617952, 
            0.016930814598534717, 
            -1.673422566789806, 
            0.192652809937881, 
            0.03743520981258189, 
            0.8698821471072629, 
            1.453064886205755, 
            -0.7710043922480364, 
            0.06138107371879147, 
            0.2657632656825611, 
            -1.2795095828823406, 
            -0.16406242983280483, 
            1.5353916384412187, 
            -0.4148697044626574, 
            -0.40253590983428933, 
            -0.22188499095302214, 
            -0.14587852763989242, 
            1.3167829392958645, 
            0.29419326141412616, 
            -0.0054263355152097195, 
            0.8113282189290788, 
            -0.47998990637980504, 
            0.8295209123414162, 
            -0.5178391573414337, 
            -0.16899963444414456, 
            -1.20450294243182, 
            -0.2559499761291232, 
            -1.420324815357832, 
            0.04189721084769586, 
            -2.673869482501658, 
            -0.8362044139061977, 
            0.0744622309641384, 
            0.42123880342660724, 
            0.6289009474578626, 
            -0.8872629231882686, 
            -0.9547418537480318, 
            -1.5474162022287052, 
            0.23979662051551232, 
            0.571098980108541, 
            0.28631381484979246, 
            0.1737759248643887, 
            -0.4107747900868493, 
            -0.7308636930063795, 
            -2.1227065877253617, 
            -0.7281659925457228, 
            1.25561055057309, 
            -0.6122732833172644, 
            -1.0209191807321798, 
            -1.714001494642119, 
            0.9782971718507446, 
            0.6863569114098435, 
            0.2895279607091861, 
            -0.07190353398672822
        ], 
        [
            2.3771713208979515, 
            -0.938371961610696, 
            -0.7955581779591211, 
            1.0923798872943085, 
            0.05562815160572981, 
            -0.43047343090229545, 
            0.42611194055185764, 
            1.080081487830024, 
            -0.7423644383036566, 
            -0.06237256719116816, 
            0.42706058397829305, 
            1.1630460185890943, 
            1.2880783953026569, 
            -2.812142766198696, 
            -0.27507017865107086, 
            -1.9282883499937036, 
            -0.9216582647871148, 
            0.377385191532265, 
            0.01567596584178744, 
            0.1951309008382206, 
            -0.28679245745142457, 
            1.754463758821631, 
            -0.36370739221283827, 
            -0.07886047382718431, 
            -0.03463802345421585, 
            0.7184856909008399, 
            1.9498830066554396, 
            -0.5539985697069265, 
            -0.6751011097435087, 
            -0.9367829785312984, 
            0.9901113961087071, 
            0.2746742925669675, 
            -1.5201407883637506, 
            -0.30168162972597307, 
            1.365676053000475, 
            0.6632678756441748, 
            0.08421606169337993, 
            -0.43554378398345855, 
            1.3413265130118073, 
            -1.020115024863008, 
            -0.05310877617516967, 
            0.46527618465217474, 
            1.4896710954527852, 
            0.5606958180811257, 
            -1.284361664021104, 
            -0.7778681852899997, 
            0.7558517063336275, 
            1.3034682297110203, 
            -2.550223366592763, 
            0.3777157534683841, 
            0.13723091092079107, 
            -0.12800438468358163, 
            1.401072172939296, 
            0.619174635134628, 
            -0.6121121284244525, 
            -0.8902806522521984, 
            1.083920689602779, 
            1.0253813759875783, 
            -1.3556823655812786, 
            0.42883768620998064, 
            0.5997006591932116, 
            0.042347970866428754, 
            -0.8333262500006374, 
            -0.6028593952522053, 
            0.5011637548794459, 
            -0.8614268186517423, 
            0.5130516640101821, 
            -0.2611717104503868, 
            0.23487310769825867, 
            0.8663529439940422, 
            1.1894582696239864, 
            -0.2552752659176201, 
            0.8690178934920448, 
            -1.185800840793852, 
            0.21620677947375908, 
            0.33010933131644005, 
            0.1221924864479237, 
            -0.8566691792269776, 
            -0.6705975111487965, 
            0.26762840166232055, 
            0.8411334305890628, 
            0.01924094737857821, 
            -0.1876439681663088, 
            0.41154584557246143, 
            0.5224712026871587, 
            -0.1641757174955424, 
            0.7751042837546536, 
            -0.03622330153892198, 
            1.1678944689638664, 
            -0.7958722828174033, 
            -0.2971179452723954, 
            0.509102089561033, 
            -1.6310704880320634, 
            1.2669398931855682, 
            -1.717936004005439, 
            -0.38153716715505437, 
            0.9714143111552516, 
            -1.8367854605298723, 
            0.11370522752585571, 
            0.11825129995617681, 
            0.9046530501430446, 
            0.2598386540955021, 
            1.1564474066555321, 
            -0.03669818301767433, 
            -0.1910455605239938, 
            1.0392303809246628, 
            0.03518757678044104, 
            0.579403968322892, 
            -1.016641614960936, 
            -1.394924211816491, 
            0.9635314276148044, 
            -2.0161202711623, 
            0.4429940303692197, 
            -0.9361284775259986, 
            -0.8174736295409715, 
            1.1066593901527846, 
            1.8382220714130897, 
            0.48721209519415726, 
            -0.01357132100349596, 
            -0.9388170542307152, 
            0.28489439785909154, 
            0.25868127600432456, 
            -0.5795919890164877, 
            -1.2945745221580987, 
            1.2838337370407145, 
            -2.437901277874168, 
            -0.19812489200389102, 
            -1.189581687444765, 
            -0.5379328745164887, 
            -2.2879689232395695, 
            1.1313865051181884, 
            0.7606284911003883, 
            0.9072498544252722, 
            0.25961870920508345, 
            1.1339126488106994, 
            0.969104255914109, 
            0.7188074266474035, 
            0.5317620943428069, 
            2.4340728937367753, 
            0.37907948296762606, 
            0.48438089486645913, 
            0.04771334746653823, 
            1.9170079401614177, 
            -0.8203519251507697, 
            1.3345235477448147, 
            0.5915688883720089, 
            -0.6251583681011479, 
            -2.1361902859694535, 
            0.8473792417338575, 
            -0.7848359734572101, 
            0.8174985933141332, 
            0.8598820674059293, 
            0.680364658841657, 
            2.632302405619497, 
            0.9676590577721416, 
            0.17416275298996184, 
            0.03604261679902637, 
            2.0763958642721136, 
            -1.5178884684469318, 
            1.1383275707071614, 
            1.6149758001377614, 
            0.5728334028612679, 
            0.8726313552187726, 
            0.1710735574387629, 
            -0.09874183487380249, 
            -0.5676424625844232, 
            0.7087724283739976, 
            0.5033024637320138, 
            -0.7467161772900919, 
            2.118187876435565, 
            -0.5803659598168, 
            -0.48962328517677467, 
            -0.16466523447879225, 
            2.907070688788324, 
            -0.3285035007101168, 
            0.4542420914383646, 
            -1.4349387436083814, 
            0.21572829151426917, 
            -0.259196494429274, 
            0.5713097772077775, 
            1.4953195235938908, 
            -0.21903959414800742, 
            1.264203605870448, 
            -1.4806547770794318, 
            0.746986847596728, 
            0.08599452892994264, 
            0.5735811866169118, 
            -0.0017437298443256713, 
            0.5824397868890653, 
            1.6629026585276387, 
            0.46208029621540564, 
            -0.11863007082217876, 
            -0.47640976342079827, 
            -0.015968384661666613, 
            -0.6979021176160377, 
            0.21373034006611802, 
            -0.6890508281252335, 
            -0.8584190833378611, 
            0.20075174634034898, 
            0.918652468418409, 
            -0.11907832582628322, 
            -0.8878714310799024, 
            2.320307613647899, 
            0.022125321794179115, 
            -0.4555728898105809, 
            -1.4421843000020511, 
            0.2242612440297237, 
            1.4423902443329544, 
            -0.5701756816207968, 
            -0.8255911467413307, 
            1.2573447959446498, 
            -0.6614079022219553, 
            -0.7263455582498543, 
            1.4387878279326407, 
            0.5337492353648512, 
            0.4279692593543194, 
            0.761627793604787, 
            1.3319653482069405, 
            -0.47240243834779966, 
            -0.2275491465728761, 
            0.06886334228116037, 
            -0.3307438487257655, 
            -0.9692254102500468, 
            -1.3768637364768572, 
            -0.29043170394436496, 
            0.33389419621667465, 
            -0.30606175372568706, 
            0.5911415287493281, 
            -1.0633536907913186, 
            0.2716574367336778, 
            -0.780892920052809, 
            -0.2221009292137546, 
            -1.9537762285755638, 
            -0.28237692715903506, 
            0.4110916972251983, 
            0.29208100617717264, 
            1.9666513864139594, 
            0.6124674546871851, 
            0.6360687222671868, 
            -0.2633657786423295, 
            0.782983293367558, 
            0.7142732284283019, 
            1.3549768864294838, 
            0.48324099062275044, 
            1.0025341758352018, 
            0.5008611221648133, 
            -1.6678362771647575, 
            -1.6983131064774661, 
            -0.7746565162822414, 
            1.0033618745376127, 
            -0.0705914623276791, 
            1.8709581959370176, 
            2.7379715837544603, 
            0.36550122587122724, 
            0.14342287321151698, 
            0.5767021435448789
        ], 
        [
            -1.266755094859904, 
            1.333477832673424, 
            0.37193250600395933, 
            -0.8494542523514103, 
            -0.8848928949344529, 
            -0.7313293859338367, 
            0.5255531036936675, 
            -0.3464899666977618, 
            -0.7352470549876019, 
            -2.0252986573439915, 
            0.4375541552510701, 
            -0.0022625946587310837, 
            1.06273253166924, 
            -0.8852979794617383, 
            -0.16861488645444195, 
            -0.6174882535971821, 
            0.4558393114227455, 
            0.013923375916892676, 
            -0.7147835000512031, 
            -0.6127621528116508, 
            -2.5392984531933767, 
            -0.5417543460710423, 
            0.07329963506026921, 
            0.3036168430499503, 
            -0.12987239904013628, 
            1.048995714543467, 
            -0.3238040054774725, 
            -0.632682868905555, 
            -1.1725735352970847, 
            0.75516358730632, 
            -1.61071144329688, 
            -2.1400414954350038, 
            -0.11404351740246024, 
            0.4163990827444323, 
            -0.47155442495017086, 
            -0.9893625568955994, 
            0.22382638448886977, 
            -1.2616309640361723, 
            -0.7389576870347323, 
            1.7298602237843133, 
            -1.7438108333425024, 
            -0.742179033136864, 
            0.627629501926163, 
            -0.675979725096174, 
            -1.1003871118970145, 
            0.29875752103610104, 
            -1.4177560593520449, 
            -0.5189320350698401, 
            0.934128603305667, 
            0.5100116598932404, 
            0.047289961702944694, 
            0.2948672880905966, 
            -0.22767994746375844, 
            -0.28682953564634206, 
            -0.9762415442832834, 
            -1.1516392057208154, 
            -1.265727713963976, 
            0.0468814910128304, 
            -0.37192854615558896, 
            -0.9460051268180006, 
            0.8476946065579796, 
            0.31604932174063055, 
            0.66303897997249, 
            -0.6446742935799952, 
            0.7821427769684988, 
            -0.8053970879560032, 
            0.3315104059534327, 
            -0.7536205370208752, 
            -1.3026875815279355, 
            -0.38837198846196574, 
            0.13829592706319493, 
            -0.06656656848262374, 
            0.46085274941927096, 
            -1.5585314646026573, 
            -2.1921927281319142, 
            -0.24294730634127515, 
            -0.6425076636544211, 
            1.7422596411060436, 
            0.20917617302102146, 
            -0.7952008176846628, 
            1.3068872699024763, 
            0.008525814940183535, 
            0.0847728285881317, 
            -1.5459911840569232, 
            0.5444349148220743, 
            -0.19646462812793067, 
            0.6682566883057959, 
            -0.6734071184377453, 
            -0.3035492675152961, 
            0.6910360795208509, 
            0.15027061717202647, 
            0.5399035575770368, 
            0.2564452860479646, 
            0.8224350733489363, 
            0.36832901300437454, 
            -0.10825183430049777, 
            -0.2463153152268072, 
            1.3187060766017373, 
            1.4043719892246052, 
            -0.5110331765186619, 
            -1.2142694642328482, 
            0.2476487722538536, 
            0.013057405621555154, 
            0.3140388531437339, 
            -0.27264372238359474, 
            -0.9098726234980026, 
            -0.07747287987093918, 
            1.296168311957724, 
            -1.007706502512752, 
            -1.6110087295559206, 
            0.11095554707794493, 
            -0.3074081838711161, 
            -0.7957327856853449, 
            -0.8025546580289321, 
            1.5474558572257855, 
            1.430203939054875, 
            1.4045961997700607, 
            1.058535065800472, 
            -0.6491743057947346, 
            -1.528009980581485, 
            -0.389447700435188, 
            0.16792160122862407, 
            -0.3495324873771013, 
            -1.8328489385506455, 
            -0.5085720001107454, 
            0.4025007768653337, 
            -0.7895582690565799, 
            0.4103569282942684, 
            0.3402619437182747, 
            1.8242234181278831, 
            1.7186170170224833, 
            0.7793066424129913, 
            1.7957260103592978, 
            0.49603696160308663, 
            2.3549738839668413, 
            0.31052715379329693, 
            -0.5691879996116199, 
            -2.197814565892044, 
            0.15112178112183106, 
            -0.5883968949445754, 
            1.8270756044909637, 
            -0.12157392342569669, 
            0.12374514701378897, 
            -0.40038070594552316, 
            1.1241743702293698, 
            0.3105298601949596, 
            -0.05531651979990916, 
            1.6872936174883428, 
            1.253783572731742, 
            0.4701618224004544, 
            -0.04685292600344693, 
            -1.0853134743349555, 
            1.6131746532865752, 
            0.3415086995786536, 
            -0.17057789535406806, 
            -0.9337676437397978, 
            -0.9949629887992967, 
            0.06111932690769896, 
            -0.40049024116551996, 
            -0.3196763196149378, 
            1.0809888858534398, 
            1.251956389413077, 
            1.0276102561765317, 
            -0.05013204387673141, 
            2.1422610841678273, 
            0.22166472075719523, 
            -0.897722033214791, 
            -0.8050383136061965, 
            -0.68886791390891, 
            -1.859648719067051, 
            -0.352497301276658, 
            -1.2815905352331307, 
            -1.7193006104733903, 
            0.43506202908666414, 
            0.12005494124116455, 
            0.10179406305419861, 
            1.5830223399330374, 
            -0.4886676107495218, 
            0.6857070423966233, 
            0.9869110240603827, 
            0.8909539244627204, 
            0.06172578055522157, 
            -0.02723271696310788, 
            -0.08193544338171817, 
            -2.740072592300024, 
            1.4143656110170029, 
            1.2954989985472751, 
            -0.3063309710506277, 
            0.09353902769534647, 
            0.3724405826698325, 
            -0.10740156706796142, 
            -0.028873101476737037, 
            -0.46155491346789584, 
            1.4745914029527951, 
            0.9389722560835375, 
            0.913372585306386, 
            0.7709409931469988, 
            -0.3884818998301199, 
            -0.1304141212758209, 
            0.49971260150836155, 
            -0.2971716789349021, 
            0.6400216362914016, 
            0.23041246236702992, 
            1.2831767461596986, 
            0.46065910831769885, 
            -0.7464972346459954, 
            -0.1987865353614824, 
            0.5769403455783307, 
            -0.09583703797371196, 
            -1.0010521244848114, 
            -2.0734777165792324, 
            0.6447237669026269, 
            1.535384724987213, 
            0.9328940590565149, 
            2.5454905991229713, 
            0.7691467799711282, 
            -0.06289811949201421, 
            1.0685760338347428, 
            0.03319409433378433, 
            0.14509103305512902, 
            0.3656715164246692, 
            -1.2866865735407675, 
            0.43414568385864793, 
            -1.5632790371616632, 
            0.937441962043129, 
            2.1256197875260345, 
            -1.109435196542508, 
            -1.1616854229688423, 
            1.965106403123558, 
            0.7363660219762962, 
            -1.4939577465865184, 
            2.096955571687449, 
            -1.1037127677174992, 
            1.5720349973880028, 
            0.3258868618107554, 
            0.7190671016138522, 
            0.2806405390584287, 
            0.1076503419662566, 
            -0.939631994621012, 
            -0.9022736735502023, 
            -0.9682524280166119, 
            0.4227510534701618, 
            -1.829737155890308, 
            -0.12388140458169918, 
            0.9383890913642768, 
            -2.3976539178886376, 
            -0.43154411325066444, 
            -0.012768833340317113, 
            -0.2819059250402628, 
            0.4618509398592384, 
            1.1586065007842046, 
            -0.15376636639720162, 
            0.5966205003005239, 
            0.12931595184594005, 
            0.5961679369908971, 
            0.0024340720453417944
        ], 
        [
            -0.17984049472844782, 
            0.5909071117956165, 
            0.7087766840070205, 
            -0.8951948818632836, 
            0.7225605632926098, 
            0.25274319226778486, 
            -2.026211455170649, 
            0.45725635349992055, 
            0.3150245817533521, 
            -1.4727673015160287, 
            0.21423481629439484, 
            0.08810358330144388, 
            -1.4169666862315389, 
            0.7668431301730563, 
            0.7072011281190962, 
            -0.583779953373479, 
            0.9148721651480237, 
            -1.6539915346994953, 
            0.24442864210192927, 
            -0.5230853863487305, 
            0.249616637142636, 
            -0.921338509742349, 
            -2.435567922138978, 
            0.9540529671771917, 
            0.6420412533768587, 
            0.8561740968751017, 
            -0.5223601247602999, 
            1.2974610315878494, 
            -1.367402038807516, 
            -0.37515906875513694, 
            -0.41515639224269885, 
            0.25000485315315785, 
            0.8208123834435291, 
            -0.029803000995782446, 
            0.47755296613349324, 
            -0.8429011026474186, 
            0.0009454861387281117, 
            0.019748118134337488, 
            -0.3829072706817914, 
            -0.3337293776106834, 
            -1.6475002350778851, 
            0.42701465204269395, 
            0.5926942159929645, 
            -0.18575743407347287, 
            -0.021633742781887656, 
            1.5315479769018485, 
            -0.9549152041741941, 
            -0.214497840539588, 
            0.3963595690526795, 
            -0.2743880044386386, 
            1.1471560225530528, 
            -0.754349669240565, 
            -1.6788613450744831, 
            0.3116618433994164, 
            -1.6423843004925114, 
            1.2257991495641143, 
            0.43049972763056216, 
            0.9574382673665452, 
            -0.5877671321479834, 
            0.29721896072663434, 
            -1.1494408701214085, 
            -0.24699003786191473, 
            -0.10149690467562765, 
            0.24520363713774362, 
            0.8186568164680742, 
            0.32231146920042314, 
            -0.8983336736145965, 
            1.260594009913699, 
            0.8375576970646107, 
            0.55125127748849, 
            0.529952439849154, 
            -2.1252816942234047, 
            0.12762215824712858, 
            1.9177419329283965, 
            1.0235343043348895, 
            -0.114906553071976, 
            -1.046955107328857, 
            -1.4373086591837794, 
            0.6122800560622274, 
            0.06836757897081845, 
            0.7567723324088771, 
            0.09061018581224546, 
            -0.8734499851835847, 
            -0.2568773816240111, 
            -0.15666530175681084, 
            -0.9067687307273223, 
            -0.6459779790174239, 
            -0.28500504159811774, 
            -0.5421300102343156, 
            -1.0154576399940267, 
            -0.3184481108349847, 
            -0.6897386988996861, 
            -0.47558063266280026, 
            1.1372740490472832, 
            2.1831490057197303, 
            1.7803313037528614, 
            0.5629593387661574, 
            1.4109832009773007, 
            1.0299805782063367, 
            -0.5382757214567696, 
            -0.14226549970587699, 
            0.03233851348370432, 
            0.9348054338744302, 
            -0.48889069151728853, 
            -1.1297294420409538, 
            -0.7977734385330753, 
            -1.0266822261784934, 
            0.15124943209603825, 
            0.7015595416531153, 
            2.882271910496204, 
            2.677715424039542, 
            0.3420590594733305, 
            0.1758496532772687, 
            0.7188373045187193, 
            -1.1749468711028697, 
            -0.6641054926805938, 
            -0.32588806593289665, 
            -0.1314590079482221, 
            -1.3947667929443242, 
            1.4357573484816113, 
            0.0331176617104003, 
            -0.1952213582947241, 
            -0.2783722994471552, 
            0.15961446583585207, 
            2.041853394247474, 
            2.9291710313663923, 
            -0.5632699521338478, 
            0.8149312874081713, 
            2.317286475622378, 
            -1.4264406580533289, 
            0.8253635662338509, 
            0.8484723835651069, 
            0.49480291007892074, 
            -0.6977039485747463, 
            2.1102150030362887, 
            0.45104756678605645, 
            -0.30557893976332157, 
            0.3581026385042479, 
            -0.28926458024684, 
            1.104902637810246, 
            1.3970621953620903, 
            1.6302245988845097, 
            1.4096463300284046, 
            0.45768284868446796, 
            -1.3025831203011853, 
            -1.046700334253699, 
            0.5835779109521525, 
            -0.2271783171955051, 
            0.6193245503808928, 
            1.1571871444966668, 
            0.45095301866757864, 
            1.6157396760229452, 
            0.8432057863947352, 
            1.5542341146111993, 
            -0.23605490163208978, 
            0.36141430470771646, 
            -1.0922922227655814, 
            0.13237016033548876, 
            -0.5323680761208498, 
            0.2718811852103415, 
            -1.049824770571428, 
            -1.3993698609076055, 
            0.3402772330072629, 
            -1.2676802513203032, 
            0.49997898099212235, 
            -0.2881103814075561, 
            0.23195783382826007, 
            0.19743871195196583, 
            1.1680758658142676, 
            0.39030580194162023, 
            0.7642565979351797, 
            -1.0921357306861867, 
            -0.5000802675663965, 
            -0.14022530482036297, 
            -1.4429394628385872, 
            -0.476756734336528, 
            -0.2288239857023202, 
            -1.5300438971134398, 
            -0.4685910773139967, 
            0.033390477239866385, 
            -0.7258713995964586, 
            0.28416426194867, 
            2.628073691901664, 
            1.8563920890304206, 
            0.3015685848056584, 
            -0.7680177102683611, 
            -0.9212079205996605, 
            0.1841302238748323, 
            -1.7465336510577238, 
            1.9733811426883654, 
            -0.689642615531154, 
            0.47934464810074695, 
            0.07823232216164926, 
            0.3796413761513352, 
            -1.934336006751614, 
            -0.8958643817935149, 
            -0.7329622355227903, 
            0.7612936387507822, 
            -1.1719271142728744, 
            -1.0523927978701062, 
            0.6144405015829222, 
            0.18054387429794486, 
            -0.3248241138017696, 
            -1.0161146891069537, 
            1.2492845335397076, 
            -1.0998320394707395, 
            -1.3348197783762903, 
            -0.08950625553318681, 
            -0.8678142309595805, 
            0.5654931821129102, 
            0.3026231680353906, 
            0.23985644953971394, 
            0.24624470045302044, 
            -1.8084745011060952, 
            -1.5250146461764897, 
            0.7442698166962389, 
            -0.7905606479797965, 
            -0.992310934376456, 
            1.3569401805598638, 
            -0.0810735481458471, 
            -1.4844202993444404, 
            -0.04960821444635203, 
            -1.1109677576480859, 
            -1.2533091311603766, 
            0.019312770590647205, 
            0.11910762152335298, 
            0.051854055449447406, 
            -2.05038220388278, 
            0.43809540844027495, 
            -1.9269930428853204, 
            1.5143131661616143, 
            -0.8957786991188171, 
            1.8382169105734185, 
            -1.2242876265337124, 
            0.6520383261294145, 
            -0.6383735697908023, 
            1.1640170790406157, 
            -0.367274960570972, 
            0.3955698194848587, 
            -0.4490043138402617, 
            1.2148704620239932, 
            -1.7514332033353555, 
            1.0616235272281747, 
            -0.23196064433363056, 
            2.1231851308001035, 
            0.4133598384459902, 
            -0.953701114558911, 
            -0.6419198077149821, 
            0.5170172771380762, 
            -1.0727019753795501, 
            0.9390304408021404, 
            1.1700828713323914, 
            0.6985761343227869, 
            0.23560362589680195, 
            0.5030261374822156, 
            0.9708422678946388
        ], 
        [
            -0.3433434499452309, 
            -1.571030108152954, 
            0.5177440852983096, 
            0.5658522329933313, 
            -0.8214175770514848, 
            -0.7787643324992605, 
            0.539196337565987, 
            0.7389981481625202, 
            -0.814431116501529, 
            -0.8443298321388244, 
            1.0328230209899063, 
            0.47053667016560513, 
            -1.1194448231387983, 
            -1.528713055642109, 
            -1.2375853816760927, 
            -0.8888921240937374, 
            0.7832762343028314, 
            -0.6225419190579005, 
            0.038775650509709825, 
            1.5073737382687398, 
            -1.1890626746153712, 
            1.0883507052207784, 
            0.6637579583019184, 
            0.3325882207568709, 
            -1.433264829673099, 
            0.7100498154403552, 
            0.033909191368503615, 
            0.4700232663974902, 
            -1.863810099538222, 
            -1.7586943996327213, 
            -1.2592046674501942, 
            1.5842960025751769, 
            -0.5272629801956854, 
            0.7505274495256278, 
            1.1688537595004944, 
            0.527456286177917, 
            0.33963233227696327, 
            -0.359564375028543, 
            0.2968858853916984, 
            0.6728171169401695, 
            -0.5481856573254288, 
            1.586845547181308, 
            -0.1613340613551679, 
            -1.1952467760218268, 
            0.6351714675104817, 
            1.3496162873115687, 
            -1.5836297376215527, 
            -1.181201572022899, 
            0.034717063000934925, 
            -0.4819574528887858, 
            -0.10410897107314555, 
            0.9301118168361827, 
            0.7625158216703908, 
            0.3039831980707522, 
            0.4296187074742932, 
            -1.799803752913492, 
            -2.3184914888945327, 
            1.594097116583423, 
            1.475737447291605, 
            0.0017551883469605198, 
            -0.6753426569103526, 
            -1.4331697108702717, 
            -0.9009185825367461, 
            -1.073839247434613, 
            0.6051692056994876, 
            -0.07562414112464316, 
            -1.9223761658370586, 
            -0.12815590497079474, 
            1.242958808007257, 
            -1.0641486458988942, 
            1.3853069212553475, 
            0.07272789198801939, 
            -0.36630889872857253, 
            -0.21475800547970975, 
            -0.6526185694262765, 
            0.4778603445001927, 
            0.12214264819050294, 
            1.4876604782988598, 
            1.260840122702332, 
            1.2914117893002723, 
            -1.5213461010493652, 
            -0.4818548057371536, 
            0.20118903481389816, 
            0.07755468843010964, 
            -1.323533684432157, 
            -1.1061399966771026, 
            -1.0955606775939155, 
            0.15074560982204385, 
            0.7386254306946771, 
            -1.6165859681605173, 
            -1.6626509173873147, 
            1.0737270716943064, 
            0.35778528870593534, 
            1.1906777600698835, 
            0.9669314611775565, 
            0.609060862286811, 
            -1.768417487615052, 
            -1.2178351074785372, 
            -0.8383804294423514, 
            -0.552670466639722, 
            -0.9647607029512745, 
            1.1781397253929837, 
            0.9651165341957998, 
            0.6845255847083327, 
            0.2168732429264984, 
            -1.4152948571562216, 
            0.6681611249179703, 
            -0.7857597959910815, 
            1.05168591737873, 
            1.412852897706443, 
            0.577441994187296, 
            1.5723852065683637, 
            -0.18993726435304803, 
            -1.9256652674246686, 
            -0.006317894556741018, 
            -0.5189078091696804, 
            -0.35328551322645996, 
            -1.06405573021633, 
            -0.038200549214462184, 
