{
    "layer_1_bias": [
        [
            -0.4915951222980953
        ], 
        [
            2.091162254212842
        ], 
        [
            -0.6309813677554474
        ], 
        [
            -1.330830842492388
        ], 
        [
            -0.12085925209238049
        ], 
        [
            0.702341343940642
        ], 
        [
            -0.6462265849806333
        ], 
        [
            1.436998092656024
        ], 
        [
            0.9411489891185302
        ], 
        [
            -0.5574537401551474
        ], 
        [
            1.2349004512395911
        ], 
        [
            -1.07092594287974
        ], 
        [
            -0.22905117880715126
        ], 
        [
            -0.08571710976620937
        ], 
        [
            -0.6758049740834047
        ], 
        [
            1.5337268189738351
        ], 
        [
            1.081895321724002
        ], 
        [
            -0.6970635332498277
        ], 
        [
            0.5732633294520625
        ], 
        [
            1.3278911934520468
        ]
    ], 
    "layer_1_weight": [
        [
            -1.0033065669229662, 
            -1.3860150754751854, 
            0.4801269712309699, 
            -0.48320854258958146, 
            -0.7894704909341819, 
            -1.1888363649287137, 
            0.8353820605279376, 
            -1.0549389491414338, 
            -1.8853178997546178, 
            -0.17457657115202582, 
            0.5800276236861615, 
            0.9180328392170052, 
            0.7730884591594318, 
            -0.7158169682623384, 
            0.07094090535304025, 
            -0.34586748104808407, 
            -0.5981775007633494, 
            0.28398986789293784, 
            1.9688875920405169, 
            -0.2111437068416193, 
            1.300239131311561, 
            0.06645702661563414, 
            -0.31070101326991895, 
            0.06545272427078047, 
            0.36796323642819456, 
            -0.13422726527478088, 
            0.5261601130408231, 
            0.22147225115514055, 
            -0.4683599459037464, 
            -0.056840245878332044, 
            0.8855861649808449, 
            -0.8514445592402796, 
            -1.2953216372293013, 
            0.7248591034796783, 
            -0.11143581679052751, 
            -1.338598849011079, 
            -0.5454898824844123, 
            0.6711414926426644, 
            1.602311289335043, 
            -0.6592366610701623, 
            0.18218088241363925, 
            1.1745802414194109, 
            -1.4153071418702217, 
            0.4496231694262161, 
            -0.1599558079575064, 
            1.0302420786037496, 
            -0.0985870298229497, 
            0.6797914317350903, 
            1.6585547583340206, 
            0.30968033627143415, 
            0.4906334014999792, 
            -0.8539671334759888, 
            0.2603363418626352, 
            0.666358635470278, 
            0.02801500684294272, 
            -0.47986819344667314, 
            0.38279350469309303, 
            -0.5735663010762025, 
            0.7704458770104013, 
            0.4891209434819, 
            0.5326235314719082, 
            -1.0370129901862144, 
            2.3482929527179017, 
            -0.9024524055423354, 
            1.9369500059267233, 
            1.110982855347187, 
            -0.0015064575098292267, 
            -0.15571410263754806, 
            0.15441871028916707, 
            0.2999834136072108, 
            0.282385478018184, 
            1.6842475926946576, 
            1.2098434432745877, 
            0.9297455228089079, 
            1.1545521043319047, 
            3.0098614822929903, 
            0.9000019444284107, 
            -0.5586473530435643, 
            0.7529088227853229, 
            0.09503975553937044, 
            -0.08647718325773103, 
            0.07909406712152485, 
            0.20787097382676586, 
            -1.1776111753667935, 
            -1.5994934095093352, 
            0.31121856705224127, 
            1.2194252315577787, 
            0.38907506287740656, 
            -1.0501783270423224, 
            -1.1253586624799738, 
            -0.9191677289537546, 
            1.5792055844000321, 
            -0.790281074512502, 
            -0.11289433431296295, 
            0.6296851310077355, 
            1.7539511807608, 
            0.5690707086401432, 
            -0.56079230080659, 
            -0.23027643966895986, 
            0.9342457207423472, 
            -1.7355100316405057, 
            -0.3916896601777464, 
            0.8304958174478874, 
            2.245228108677859, 
            1.0541894015068856, 
            -0.04515231663554194, 
            0.5182792901849733, 
            -1.845507701924029, 
            0.648910400646082, 
            -0.40807650063066714, 
            0.5832354355391345, 
            0.3675707213096367, 
            3.253240532743155, 
            2.1165972270371625, 
            1.230467009439306, 
            -0.3977408712840662, 
            0.800284847623666, 
            2.117117894554559, 
            0.39434086808124896, 
            -0.8451351855782955, 
            1.2420575993171998, 
            -0.8159911852469321, 
            0.4432027197893932, 
            0.9023378290466466, 
            0.863092517843762, 
            -0.6271092878657647, 
            -0.040540541921914745, 
            0.7237057351736093, 
            0.7957770243024689, 
            1.7448509923816649, 
            -0.9155850265270302, 
            0.48251694872193646, 
            -1.9967909417771843, 
            0.8806076898983368, 
            0.364326420821445, 
            0.08629837289081187, 
            2.6225973807313943, 
            0.22570749233018797, 
            1.1711049721839115, 
            -0.7505813152576042, 
            -0.3225714447701826, 
            -2.6933346771152653, 
            1.7161475774521955, 
            -0.5207052126924567, 
            1.2936722565519903, 
            -0.6663219339599745, 
            2.19346443271805, 
            0.27881321729171804, 
            -0.4992270223313348, 
            1.0076318608161798, 
            -0.35891111667677034, 
            0.740280299427287, 
            1.702760554708129, 
            0.06407799228897151, 
            -1.3916649747209233, 
            -0.1126921438576818, 
            -0.1666310613552634, 
            1.9827628772246868, 
            1.8528245767198388, 
            -0.4767802897692398, 
            0.37737083778262137, 
            -0.15327892507715996, 
            -0.43945049918767, 
            0.08656769801390624, 
            -0.026290332015526566, 
            -0.7720201680516104, 
            1.6652308003887468, 
            0.5912940365203959, 
            1.2254257843288223, 
            1.395290568375183, 
            -0.8698680485064758, 
            0.6254785058539232, 
            -0.7298435488310021, 
            -0.9756355479939243, 
            -0.36848631358201417, 
            -0.8077246080676588, 
            -1.6940835167669912, 
            0.3722385286543753, 
            -0.3780944047369918, 
            0.2879067327542222, 
            -0.022370599884688706, 
            -1.0487593167010523, 
            0.19349947725286432, 
            0.42436437035955854, 
            -0.8479687587250717, 
            0.24147515551892335, 
            0.9580459337947794, 
            -0.35001743369025445, 
            1.307894947035748, 
            1.0358885677839211, 
            -0.2057848468686957, 
            1.1958817763646625, 
            1.1522292421909033, 
            1.587057961267269, 
            -1.8408691298119788, 
            -0.9862236190213433, 
            -0.5804660374639624, 
            -1.0398430595049675, 
            0.22273386393479536, 
            1.1647333287136792, 
            -0.777278043002034, 
            -2.735398027621575, 
            0.98489858773573, 
            1.7688343025758857, 
            -1.8753573961427037, 
            0.6507780395505193, 
            -0.2995305103956308, 
            0.1439945056236117, 
            0.2831034777956742, 
            -0.43320659264411504, 
            0.6523100639525893, 
            1.543696812067267, 
            0.7750656144637432, 
            -1.7116296873845904, 
            -1.164984650509256, 
            -0.1554980412080134, 
            1.3997530502452198, 
            -1.2310672583375433, 
            -0.5931281879788545, 
            -0.3797729904697596, 
            -2.871799810389537, 
            -0.8882097168269943, 
            2.1543672567792105, 
            0.34659206447332264, 
            -1.9984949664184328, 
            -0.869266016508519, 
            -0.1143220825228837, 
            0.7903703941460186, 
            -0.11366969746120086, 
            1.2918425423411122, 
            0.7910415057823289, 
            -0.2620734799101823, 
            -0.023744418165731647, 
            -1.0902063977735372, 
            0.12143511936736878, 
            -1.8052136082752368, 
            -0.3460265526996962, 
            1.2579502715532953, 
            -1.2986966622155343, 
            1.0304236037934968, 
            -0.21953149971790673, 
            0.8720882951000961, 
            -0.5325078069409457, 
            2.5691442880096886, 
            -2.049962755476311, 
            1.5829359127315572, 
            0.5366830654630594, 
            -2.004742901021053, 
            1.3791022397693737, 
            -1.5108949971310515, 
            0.5394603637118897, 
            0.10617294840026634, 
            -0.07343888955939873, 
            0.9452724419367334, 
            0.3097137816932608, 
            -0.646689012608088
        ], 
        [
            -0.7715217778988679, 
            -0.32891921447108613, 
            -0.5596935209950997, 
            -0.6491170074380572, 
            1.1916605414785841, 
            0.4631769427163062, 
            0.2698898310091377, 
            0.3804750255064728, 
            -0.9582071700334208, 
            1.414352971490035, 
            -0.8724167052251299, 
            0.8251925610907267, 
            -2.1097354174312692, 
            1.8175338909339984, 
            -0.14794457354562945, 
            0.022394715320717854, 
            1.5868212104841948, 
            -1.0402747123168046, 
            0.46359059033735955, 
            0.8162738828646122, 
            0.4019836717555113, 
            0.35762653025915087, 
            1.6493852208253308, 
            0.5835984615883603, 
            -1.65311409634708, 
            -1.1675105348890098, 
            0.5820388345760108, 
            -0.08044645309770936, 
            0.38187445734389797, 
            1.2676005474506906, 
            1.427343294368143, 
            1.6312876428950513, 
            -0.13146992824611303, 
            0.21880386910953314, 
            1.749280119959911, 
            1.336669632581871, 
            1.1858255342559965, 
            0.9141262883155875, 
            0.31611202696825336, 
            0.9212538347214746, 
            -1.6233923086732356, 
            1.4676257597172992, 
            -1.5211443101849507, 
            -0.14714537464618002, 
            -0.4140223113706015, 
            -0.4063933195510998, 
            0.6618873475435685, 
            0.6180068761018778, 
            1.213132326010114, 
            1.8300152639638165, 
            0.44408613564732846, 
            -0.7012411246239267, 
            -0.14490819924057644, 
            0.3369882907257811, 
            0.328581438237298, 
            0.5953539828870682, 
            -0.29291887625648744, 
            -1.3255099812838145, 
            -0.9296194435812759, 
            0.4485139158203646, 
            -0.7984771319329782, 
            -1.3575164388806178, 
            -0.39694788801553904, 
            -1.3679953290953273, 
            0.8008979852643227, 
            -1.0613711326326047, 
            0.5003136439806494, 
            -0.944727582363048, 
            0.4248653945545028, 
            1.4069868188004493, 
            -0.6615959959593761, 
            -0.13772615089584875, 
            0.8216117536284752, 
            -1.2391473908024595, 
            1.3125246064125233, 
            -1.0487220468706104, 
            1.1266892390171104, 
            0.6171378524872561, 
            -0.8650396981619825, 
            0.6562906448477792, 
            1.5015109762155372, 
            -0.7576406330016552, 
            -0.19154393738609776, 
            1.2208255581146918, 
            0.6636777588335431, 
            0.8700903376665176, 
            0.9622798889552818, 
            -1.3178246444823953, 
            -0.7848956614563617, 
            1.3141100382449413, 
            -0.29920113977742, 
            0.20507393282339811, 
            0.8360471983598211, 
            0.8560030674895934, 
            -1.7705194538634688, 
            -1.4728723390390013, 
            0.322355841410918, 
            1.1632189110482098, 
            -0.12534861847735862, 
            -0.41781639411228033, 
            1.6886094500511224, 
            1.1082810705440918, 
            1.0350687025581295, 
            1.6646668727576346, 
            -0.32127371012671, 
            1.5395536877779201, 
            1.6021211725434439, 
            1.0203053706357699, 
            0.0303601341554141, 
            0.9716940762916411, 
            0.4909994658302894, 
            -0.584144325566056, 
            0.5673471553304047, 
            -0.7687961504887607, 
            -0.7054354289150142, 
            0.11706015860664386, 
            -0.8757092680733065, 
            1.3487320049217049, 
            -0.2554151147340054, 
            1.7958540923549993, 
            0.18060311479825558, 
            0.7776571563323789, 
            1.5073113643509097, 
            -0.7569742561310376, 
            0.43880314663326897, 
            0.8518769754802901, 
            0.7585319912482263, 
            1.1380794494483586, 
            -0.4944654531433809, 
            -1.0777611956616977, 
            -0.34607446761658966, 
            -2.344313496849652, 
            1.0685816118601272, 
            -0.8435791560916909, 
            -0.3236857966973928, 
            -0.04249585731298007, 
            0.5195371985845624, 
            -0.591293435993575, 
            -0.302607644346005, 
            -0.845811437906007, 
            -3.0999833224599214, 
            -0.6782854147565078, 
            -1.374212409451817, 
            -0.041669107174616415, 
            0.32872334064861514, 
            -0.8677835499111383, 
            -1.3338944403780788, 
            -0.03287846831240091, 
            -0.9828903481235783, 
            -0.25567814718487514, 
            1.7341627603077623, 
            -0.5171692312858793, 
            2.507568801027804, 
            -0.31569943497828096, 
            0.7526089989559718, 
            0.48187763633997704, 
            -0.8034545472337267, 
            -0.11520499354757749, 
            -0.7510937011373329, 
            -0.3230572729228144, 
            -0.938735544732366, 
            -0.511679106940274, 
            0.7235051765595826, 
            0.9668869247662248, 
            -0.4185810457455632, 
            -0.38890742606577816, 
            0.6533667345920733, 
            0.8024837424759015, 
            0.7847354261190027, 
            1.8298244134010637, 
            0.9231172620151383, 
            -0.8009261495127725, 
            0.5226451360654141, 
            0.1734878431485703, 
            0.962822989827714, 
            -1.059901531220477, 
            0.9237813033403279, 
            -0.7137489401003548, 
            -0.7387380448757925, 
            -1.3096106514432806, 
            -0.4685624218099148, 
            -0.5631300772177323, 
            0.1943476750833203, 
            -0.438851035318104, 
            0.14024738179780932, 
            -0.4293075133140732, 
            0.46522947738456355, 
            -0.6363166444164701, 
            0.4180612569873, 
            0.36630113178933793, 
            -2.3129073359224033, 
            -0.7601923323593149, 
            -0.770694377560713, 
            -0.8836677715047905, 
            1.1968789648045097, 
            0.17783529171087487, 
            -0.787654748239436, 
            -1.2841606374996655, 
            -0.8241697452588543, 
            0.4408056284966759, 
            -0.13887921219771862, 
            0.7886365901826127, 
            -1.4388333995813307, 
            -0.47695207754485675, 
            0.5249220448934658, 
            -0.28731874390703965, 
            1.7089570584074523, 
            -0.4014369393235997, 
            0.46471396972836737, 
            0.9133415808330971, 
            1.5864628094973372, 
            -0.3204615402134436, 
            -0.9948632099028578, 
            -2.2138698982260228, 
            -1.3841929280671976, 
            0.5999168032348741, 
            2.0821939103800977, 
            -1.5482136234245019, 
            -0.6343239487218704, 
            -0.761065313826195, 
            -0.7423043395146396, 
            -1.3152036118889963, 
            -0.07149977512576461, 
            0.014119310560036864, 
            -1.9878932662684823, 
            -0.5266153541470205, 
            0.19841143562536617, 
            -0.8846521909495879, 
            0.013755308333912709, 
            -0.32284838881490907, 
            -0.3348216442794818, 
            -0.3967289795204364, 
            -1.2507205792783114, 
            0.26463929209822673, 
            0.23729561525434684, 
            0.34991932336741893, 
            -0.092195026062015, 
            0.13427146530602782, 
            -0.05284105494918914, 
            -1.0118204453003758, 
            1.1755499874895698, 
            -1.3255481108194949, 
            0.24222680370464206, 
            1.2861055408391164, 
            -1.492352448690953, 
            0.6726551329041361, 
            0.07812045471897357, 
            -1.5798727913868431, 
            -0.22427098221154318, 
            -0.8431333596110494, 
            -2.5177954561529945, 
            -1.1085210228273865, 
            -0.8689886537541505, 
            0.007069845324463566, 
            0.40506789510528335, 
            -0.8883394710415929
        ], 
        [
            0.6096422216481038, 
            0.38962745993678866, 
            0.5117513905759707, 
            0.8079262769550809, 
            -0.30541124703051553, 
            0.7598428847539881, 
            -0.5913098680670386, 
            -1.0776036041811397, 
            1.206364114684076, 
            -0.12129913689472357, 
            1.6888497956549586, 
            2.114808331704945, 
            -0.22239591357615549, 
            -0.42165582914631566, 
            -0.2529236704869643, 
            0.07173811169405943, 
            -0.9839862407257325, 
            -0.28485337661810883, 
            -1.003776614927824, 
            -0.5612685760718097, 
            -0.9603998646644554, 
            -0.9470296452427155, 
            -0.06850404324576945, 
            1.7459998589975136, 
            0.12260551350128066, 
            0.058923308209475854, 
            -0.14419865088437658, 
            -0.5824471591590362, 
            0.5266962721382178, 
            0.5598687399908729, 
            -0.981921140963489, 
            -1.8137252692772596, 
            -1.188444954468511, 
            -1.4551305594825168, 
            1.4599644191087566, 
            1.0355754013542235, 
            1.6005103124828606, 
            -2.135814839768867, 
            -1.922771512244857, 
            -0.650916922395362, 
            0.4165946341875795, 
            0.07908871071907354, 
            -0.6258874482401234, 
            -0.2553325134272517, 
            0.8736498419705508, 
            2.8640241371127444, 
            0.043023605902558625, 
            1.616846364364028, 
            -0.2282805022301599, 
            0.07937897805514561, 
            0.9335651581405361, 
            0.7231507669342536, 
            1.2473398097972341, 
            2.558834255041783, 
            -3.199902209461568, 
            0.23845912155317517, 
            -1.2182527058964918, 
            0.18808592183842843, 
            0.6998351674779633, 
            0.44767414468915057, 
            1.5881146382688534, 
            -1.5514289556657461, 
            1.7952578005942994, 
            -0.5477355413271613, 
            0.4514410298525597, 
            1.7661113418527292, 
            0.6462696327179243, 
            0.5306148303291806, 
            -0.016617211652329093, 
            -0.912170072860211, 
            -0.40629148509246454, 
            -2.1715615633771135, 
            -1.0145026444791185, 
            -1.264559331745801, 
            0.07469679198776014, 
            -0.718080762859055, 
            0.9652338557894803, 
            -0.31327991038298275, 
            0.12904915109082457, 
            0.3111107922243325, 
            0.8018617508291542, 
            -0.6612875895592395, 
            0.6525619422410561, 
            -0.02332189829789546, 
            0.38048476092701755, 
            0.2823805599039962, 
            -0.9362800399875878, 
            0.15252315061760818, 
            1.4137946121594644, 
            0.31917363910007507, 
            0.10574304488867942, 
            -0.943027530723893, 
            0.7459929054269613, 
            -0.5224742630880077, 
            0.25797675218081606, 
            -0.4443815689849605, 
            -0.4895542494108005, 
            0.9789397208222461, 
            1.1057762448841155, 
            0.6121880173988895, 
            -0.8125913924464369, 
            -1.1770867392355076, 
            -0.06478135187835862, 
            -0.9499645451940903, 
            -0.7745226639918913, 
            -0.011829175595381634, 
            -0.7781093834821623, 
            1.3521999183545512, 
            -0.06029990714476276, 
            -0.4069885644346739, 
            1.0447009662928972, 
            0.9294772451325689, 
            0.14219382424134233, 
            -1.1357380071102208, 
            0.09106221828191678, 
            0.22123933229066467, 
            -0.5974405714321505, 
            0.7401509292505443, 
            -1.038321595457196, 
            -0.3792869278076825, 
            -1.7537429905479405, 
            -1.5153960359686656, 
            -2.2720948393061753, 
            -0.8006365060991791, 
            0.9570859487914003, 
            -1.4321526154354471, 
            0.3719800144715501, 
            2.029583385539766, 
            0.2093240887262879, 
            0.5117200352249479, 
            -1.7671835414984034, 
            1.148282319077118, 
            1.892616667553594, 
            0.20500039567915762, 
            0.07542612770131113, 
            0.13007948055143956, 
            -1.7369602280329521, 
            0.21252638106175836, 
            -1.1642687987233804, 
            -0.90099698670673, 
            1.2271856697476484, 
            -0.8127363738831737, 
            -0.7749147697004636, 
            -0.19125385701380748, 
            -0.43204940275522075, 
            1.662794337962275, 
            -0.6696442510729635, 
            -0.13464700307457497, 
            -0.07636902609735084, 
            -1.4403479242200423, 
            0.2702050296171651, 
            1.3408906362708017, 
            0.4446829674842161, 
            1.0312688868741382, 
            -0.17368834024930888, 
            -0.5439886703769375, 
            -1.4661075622712538, 
            -0.11974458794141264, 
            -1.0749365953537293, 
            -1.8074599016920796, 
            0.7270892747256719, 
            -0.20426001786189285, 
            0.360649915189172, 
            0.06106098099960083, 
            -1.118151665437859, 
            1.4215336910573868, 
            0.3266760563537371, 
            -0.6350697331241606, 
            0.07704801711686488, 
            1.059954926625817, 
            -2.1171956682581836, 
            0.008490254585774955, 
            -1.7236013303194242, 
            -0.9597570289971658, 
            -1.1881620376176285, 
            1.5080329675606792, 
            -0.7156262410764359, 
            0.4778615953568343, 
            -1.07147023751599, 
            -0.05715603440934003, 
            1.002054740082272, 
            1.2847877933546183, 
            0.757826106038783, 
            0.7667984097707735, 
            -0.9399994436326808, 
            1.6564593528616744, 
            0.18357723752353575, 
            0.22059274308210125, 
            0.38141266171431126, 
            -1.3395897152860337, 
            -2.477157616924525, 
            0.13394833664040592, 
            0.49784739899769875, 
            -0.5986730184964585, 
            0.09674485893589967, 
            1.0958763292542943, 
            0.0778006760283101, 
            -0.09567604004651106, 
            0.014868436671005717, 
            -1.1569043741383958, 
            2.5820648265677097, 
            -0.21089294900933522, 
            0.8700365619063374, 
            -0.7383817858900478, 
            0.30013183234963525, 
            1.1578611561158436, 
            -1.00397852538291, 
            0.1179717363168572, 
            -0.36399952198045427, 
            0.9264128194157589, 
            -0.017271633163852055, 
            -1.4297639432536369, 
            -1.2525168210663882, 
            -0.19588091972513302, 
            1.583195529354327, 
            0.8320739669384855, 
            0.24130400944209873, 
            -0.3455999656885157, 
            -1.1549989879738658, 
            0.010448254057875746, 
            0.6420882347056812, 
            -0.04816358518563188, 
            0.22829283734341416, 
            -2.1660278262992914, 
            -0.2168126466054108, 
            -0.5013501967771482, 
            1.09032097874667, 
            0.5004509572144311, 
            0.7424390767806016, 
            0.604056018851112, 
            -1.0492464327302615, 
            0.1180001620305077, 
            -2.339803965843736, 
            0.14149512143004128, 
            0.8001804305063803, 
            -0.03295196885337915, 
            2.0688414725707913, 
            0.3233601519933859, 
            0.7959247057306572, 
            -2.2753466338066772, 
            -0.44308338156044785, 
            -0.9357662459152889, 
            -2.3857367385006407, 
            -2.0324243912739917, 
            -0.5927304779507778, 
            -0.33368760977257045, 
            -0.5772905735424412, 
            -0.3589582409639492, 
            0.37506332793572417, 
            -2.027463551192108, 
            2.0807608813806153, 
            0.7697408949477057, 
            0.4911659338505988, 
            0.3820513481612656, 
            1.774282967845033, 
            -1.0969189596391848
        ], 
        [
            1.1481262684534947, 
            -0.019472588439578043, 
            0.7082712090759752, 
            -0.11672991538257603, 
            -0.21403468257756178, 
            1.3496228521996605, 
            0.6535895479173751, 
            0.4028512862141774, 
            -0.7765928661470823, 
            0.1512297017901063, 
            0.7518890660051324, 
            -0.01492716233662966, 
            -0.09771279325861855, 
            1.8145292246865439, 
            0.7008426208691442, 
            0.6543084831673417, 
            -0.6777217543517229, 
            0.5500017195392383, 
            1.1709556886837833, 
            -0.24006082894325753, 
            1.5884359731249569, 
            0.9128910945767537, 
            1.1024026708084587, 
            0.7217201758175397, 
            1.6924412386953125, 
            0.36297215294732493, 
            -0.24021323631550207, 
            -0.15140585364703618, 
            1.5552358675939293, 
            -1.6203025652012237, 
            -0.18958537740252387, 
            0.23800804953618057, 
            -0.919276968559125, 
            -0.7593003618166784, 
            0.765220460914908, 
            3.6322471453153433, 
            0.3360053341719398, 
            0.8041461035163563, 
            -0.09123129340033732, 
            0.8673323288145893, 
            -0.5303782595458869, 
            -0.5656533894416161, 
            0.25116340757463346, 
            0.6489864296142677, 
            -0.21655415259188102, 
            0.03401540999697694, 
            0.6099189010413539, 
            0.5992132138513303, 
            -0.15818043640342516, 
            -0.351157573028986, 
            -1.7611478742360964, 
            0.5809807762438247, 
            1.1960781622485415, 
            0.7444060831334736, 
            0.6621175021231518, 
            -2.0894990378724203, 
            -1.4903701663697344, 
            -0.1360196320694036, 
            0.06463043940459051, 
            -1.0038368490692182, 
            0.8635320679042621, 
            0.47576058255884707, 
            2.3848222078187717, 
            2.8888950736423737, 
            -0.15047479991352522, 
            -0.10528669577279666, 
            0.9559854367439128, 
            1.0309455414942503, 
            0.2150764930096304, 
            -1.9632797041155199, 
            -1.0045056016412162, 
            -2.025113241442925, 
            0.33098226852886165, 
            -1.6689783629338686, 
            0.8917963445319802, 
            1.4061694975275143, 
            0.8448458083243302, 
            -1.9907021927403112, 
            -0.905669035860791, 
            0.9818383386233753, 
            -1.280982460784618, 
            -0.515571242651733, 
            0.5102471496864198, 
            1.1461853432040543, 
            1.282219878839354, 
            -2.5597316736443343, 
            0.785767894626755, 
            -0.5633208114582703, 
            -1.042299201980067, 
            -0.2801055390674833, 
            -1.026249502758704, 
            -0.17329120799404818, 
            -0.22864639057617828, 
            0.7097047603865272, 
            -1.2531902228721248, 
            -0.8106170944595779, 
            1.0606659890275576, 
            2.2569066540312077, 
            0.49795404136625393, 
            -1.7335163917668477, 
            -0.7088537896575272, 
            0.9713365984201241, 
            0.9098310040804582, 
            -0.2621388019345848, 
            0.49687529086276705, 
            0.9190558415553304, 
            -0.45290425858179023, 
            -0.5862005510032602, 
            0.29175419425272564, 
            -2.092075843766777, 
            -1.1354475178760945, 
            -0.36856996706231154, 
            0.20013392139364425, 
            -1.119933277121881, 
            -1.8906427957352419, 
            1.5201956846876583, 
            2.268508787172985, 
            -0.40778506633732725, 
            1.4413346907567601, 
            2.066790703091599, 
            0.06670692277550333, 
            0.7054631635593727, 
            0.5776577605537947, 
            -0.2443148072023624, 
            -1.783324689295969, 
            0.08541386856689309, 
            -2.001916644160173, 
            0.18924907762524554, 
            1.0215967141744378, 
            -1.0639212494860248, 
            -0.2204729923676941, 
            2.3425164508509893, 
            1.3664743117807492, 
            1.3818738049650225, 
            0.6099971040242088, 
            0.59878870429394, 
            0.6891410333517239, 
            1.1821198668515376, 
            -0.6519767515607543, 
            0.6144619481253593, 
            -0.4936620122377757, 
            -0.45784229087335093, 
            0.9683831038616562, 
            1.0496874484445857, 
            0.6660201621177183, 
            -0.25150802895746766, 
            0.9086524214487269, 
            -1.0658876233755883, 
            1.217285614983038, 
            0.6282989197744139, 
            0.4070449801012414, 
            -0.32698324953340147, 
            0.8638718248060503, 
            -1.3252361966964739, 
            -0.25339476568821073, 
            -1.1546690719225363, 
            -1.2144696529018124, 
            1.778458317857586, 
            -0.07376672288418608, 
            0.804582466060788, 
            -0.5458381997800731, 
            1.4294480595784471, 
            0.08516293098016442, 
            -1.7879900179798394, 
            -0.33566566472590376, 
            -1.084648567494506, 
            0.04685762053128702, 
            0.5671686923145399, 
            -1.2449384571004434, 
            -2.479061073910049, 
            -1.6610677152620585, 
            0.9723874670074709, 
            -1.060642956251884, 
            0.3014046972794613, 
            1.4394547575730545, 
            -1.0844207902291618, 
            0.11748948673571624, 
            -0.9867979926423242, 
            -0.3851905597791604, 
            0.08161174778065254, 
            0.18392622819848498, 
            0.4003560706770587, 
            -2.4216392029746086, 
            -0.936671498249375, 
            -2.0073167887032946, 
            0.6599901234382863, 
            -3.113136560396371, 
            -0.3712685482463746, 
            -0.607508477443219, 
            -1.95620711039602, 
            -1.358580147673591, 
            0.46420860269300934, 
            -0.7930414802386734, 
            0.03766959051911324, 
            -0.1255334061850755, 
            0.8070592751454504, 
            -0.13739511182333844, 
            -0.4930905640766369, 
            -0.24262449344833414, 
            -0.09110907521650517, 
            0.5400597907958566, 
            0.7032602734836276, 
            0.3469540075123137, 
            0.24576434851093687, 
            1.1208146062934417, 
            0.7526503135697806, 
            1.1742528617703913, 
            -0.5123126632029635, 
            -1.6880836336048732, 
            -0.3524821415116536, 
            0.8526858353144525, 
            -0.43842536889213074, 
            -0.486806697177414, 
            1.0963126766745783, 
            0.35317424990850976, 
            -0.06958525888752097, 
            0.4387937838765988, 
            -1.2219530369382743, 
            0.04321296964892834, 
            0.12850578781645408, 
            1.1429797021505377, 
            0.04894079652781368, 
            1.3399324283221465, 
            -1.188598980942772, 
            0.058326248596362366, 
            0.46282498442597714, 
            0.40458164356977117, 
            -0.056630887287900986, 
            0.7126102262563588, 
            0.5070625147450489, 
            -0.056561022576220706, 
            1.152539556192629, 
            -0.1899570883382008, 
            -0.6357281792087701, 
            -0.4026312651448323, 
            0.2849414747345442, 
            -0.9315607065370828, 
            -1.1762170624879789, 
            0.22462179406628513, 
            -3.0069357971811073, 
            -0.5531935063299176, 
            -1.8414108170720365, 
            -1.3019053257114874, 
            0.18241563362748509, 
            0.5228572408262416, 
            -0.6391555344068267, 
            0.2725051802651258, 
            0.842606968278875, 
            0.6452000106926928, 
            0.4178971729499515, 
            0.21323021886492527, 
            -0.9209403441479237, 
            -0.21002206523508474, 
            -0.6458791925723718, 
            -1.515896436689346, 
            1.0560787261365092
        ], 
        [
            -0.49688060537896206, 
            -1.377390530087243, 
            -0.43265805144687075, 
            -0.022646037593508084, 
            1.319065724913345, 
            0.049899927657302404, 
            -0.7543767533116155, 
            -0.1307515435290749, 
            -0.2669512947977415, 
            -0.9030603350034442, 
            0.4063055952080121, 
            -0.23434043449159253, 
            -2.030908741066917, 
            -0.15320425998843046, 
            -1.2916057318046814, 
            -0.6933287337381404, 
            -0.6112233719192305, 
            0.5614826787318388, 
            -0.1151182338293879, 
            0.7651765540702776, 
            0.5765533013375778, 
            0.2415153525041446, 
            0.08672732597117186, 
            1.6812417477948465, 
            -0.20855977793429858, 
            2.8114542991806637, 
            -0.6967664087192711, 
            2.0840783441618633, 
            -0.3487411300060102, 
            0.5269635881543255, 
            -1.8934467990780863, 
            -0.053952015537773054, 
            -0.0014189872741842248, 
            -1.1307064819375285, 
            -0.28882101153037976, 
            -0.019744844078132158, 
            -0.5566127667496298, 
            -1.0811025106660301, 
            0.8945485212040889, 
            0.8906237826795195, 
            -1.6063787025866247, 
            -0.9864093967936337, 
            -0.7944841002394659, 
            -1.1853223326508824, 
            -0.24466205725247642, 
            0.602890234499554, 
            -0.1868675713947369, 
            1.2777101071219144, 
            0.014717869850365278, 
            -0.4159634435448324, 
            -0.6326625074523089, 
            0.7696738773810212, 
            0.044463130116424665, 
            -1.3893322175286535, 
            -1.6254093192320445, 
            -0.5606640154837803, 
            0.25105224182685343, 
            -0.7592543494502073, 
            0.4850864203601533, 
            0.3237793456991255, 
            -0.12521937986798937, 
            0.9648103742127363, 
            0.3968767283129949, 
            0.22189697920999416, 
            0.16950523575255919, 
            -1.3610274134544091, 
            -0.7952537355975272, 
            0.9369192205002068, 
            -0.7243685349924763, 
            -1.459895337801159, 
            0.04265432612225319, 
            0.009399875074951124, 
            -0.8651696775277173, 
            0.05384524863086971, 
            0.1546473067435241, 
            0.6125620826109623, 
            0.28066360165223886, 
            -0.20892135167208586, 
            0.07573923597203447, 
            0.69802862615083, 
            -0.13180810239752067, 
            2.415199471698929, 
            1.177454370621432, 
            -0.6806882976438163, 
            0.9613880612772076, 
            -0.8711853459208451, 
            -0.037518183107667906, 
            -0.06290636506939654, 
            -1.944615707478671, 
            -0.8492055879139577, 
            -0.6003380099571641, 
            -0.3749896373802694, 
            1.180022778462779, 
            2.114026563593553, 
            0.8002226674295071, 
            1.1179015067480866, 
            -0.3347543677437075, 
            1.1455609326151697, 
            -0.700502640594974, 
            -0.3189016944771957, 
            -0.09362947898585353, 
            -0.5449903088012297, 
            -0.9072913198259367, 
            -0.8697615442344521, 
            -1.1977104737697988, 
            -1.1388978122388247, 
            -1.6109425154240933, 
            -0.4290222639024279, 
            0.18966619296009082, 
            0.254532580867908, 
            0.25467491303499185, 
            1.9512199703341249, 
            0.2598815474559794, 
            -0.692021201364631, 
            0.40444506606372654, 
            0.02219763850601766, 
            1.4144297146521037, 
            0.6852399787862761, 
            0.15054148259722747, 
            -1.6667350100453746, 
            -1.7711237995504203, 
            0.014151126573455231, 
            -0.5490656170211093, 
            1.1402423032016256, 
            -0.30596139566776853, 
            -0.21464120556660665, 
            0.04641660273572395, 
            0.3062910986938637, 
            -0.037417278639047764, 
            -0.11217904427672556, 
            0.46575369564281044, 
            1.2042728248780281, 
            1.827415463394311, 
            0.05656942076194766, 
            2.23592247487088, 
            0.507395679366835, 
            0.4452048895759579, 
            -0.10667744600184277, 
            0.30009247021560165, 
            -2.7768714578000644, 
            0.1998647549448031, 
            -0.19281059479000984, 
            -1.2039310497999518, 
            -2.4186325478039703, 
            -0.04000092035551123, 
            1.5747087912630575, 
            1.863808076549699, 
            1.3120099282150675, 
            1.5769035327442134, 
            0.8583096928712013, 
            0.09173342929861236, 
            -2.2344103803500057, 
            -0.443802585557773, 
            -0.016321045452761748, 
            1.5560665487043865, 
            -0.8817344365710117, 
            -0.3477247423528685, 
            0.35780269731988285, 
            -0.9730646926166575, 
            -0.9858269131121186, 
            0.045455779235423203, 
            1.1642375264504006, 
            0.09761941591714571, 
            1.7576284366552581, 
            1.9455853631400961, 
            2.92048923275505, 
            0.2920563816872627, 
            2.0211027058024595, 
            -0.4412752947891335, 
            -1.618671489515463, 
            1.5389669914310702, 
            0.13499073885177387, 
            -1.1239622278741161, 
            -1.1214565286952292, 
            -0.3591333721466009, 
            -0.18947626210168256, 
            -0.08454471114223099, 
            0.3573537163080192, 
            0.4798619931202048, 
            -0.6735017648878365, 
            0.7594586241255212, 
            0.6728927307623768, 
            1.239984166359463, 
            0.5698981446946831, 
            -0.521023981199572, 
            1.2921869753902682, 
            -0.3899398882833255, 
            0.011550246946379749, 
            -0.45207724849086944, 
            0.6400436397383515, 
            0.6563119451910409, 
            -0.24889143109850215, 
            0.4650516017510431, 
            1.134474546270783, 
            1.2322105127630667, 
            -1.2620041499318952, 
            -1.3348418484744926, 
            1.392696888909438, 
            1.8341218448233523, 
            -0.22942672685451151, 
            -0.518974083512267, 
            -0.5926786640562041, 
            -0.015166510448828382, 
            -1.1306927744434079, 
            0.35054390355468096, 
            -1.4679043723873748, 
            -1.688642244068869, 
            0.9693495904605709, 
            -0.09404220757145244, 
            1.1474134628596888, 
            -0.21691547280493625, 
            -1.2574704721800318, 
            1.182763811708177, 
            -0.7226066159056477, 
            2.472551710217243, 
            -0.8188166153240763, 
            -1.0987335688818676, 
            0.7346849159363402, 
            0.10601932391644273, 
            -0.7765137577836121, 
            -0.9979886554482116, 
            0.022204351893710093, 
            0.622668970033248, 
            1.71618190942086, 
            1.093902246854314, 
            -1.5140346383555783, 
            0.07540404994635959, 
            1.3881096134314754, 
            -0.44712908119808237, 
            -0.34616861180117703, 
            0.4828556222860023, 
            -0.9080898134245194, 
            -0.46328539806880065, 
            -1.2454108607319427, 
            0.8364203226523509, 
            1.6846661495019493, 
            0.7563843874305756, 
            -2.1057005743977064, 
            -1.3506739489211175, 
            -0.06547124088309328, 
            -1.781759448969802, 
            -0.19874827467465753, 
            -0.5069127354332786, 
            1.0152351561534314, 
            -0.5190841432449668, 
            -1.7291510769006997, 
            0.139207671475088, 
            0.3851581110206325, 
            -0.00138076918283977, 
            -1.7023666043560994, 
            -0.3796685203176137, 
            -1.87077476569789, 
            -1.2248836064472313, 
            0.10918400584280184, 
            -0.3709769315597863, 
            0.07621147797045635
        ], 
        [
            -0.04280750283060952, 
            -0.7146029613942351, 
            -0.34177553547431233, 
            -2.1657331706255767, 
            -0.494241726585873, 
            0.7881890460517532, 
            0.7551026652556706, 
            -0.25766625008276056, 
            1.279778937871329, 
            -1.0251761163547637, 
            0.11361425309476816, 
            -0.30913066166820397, 
            0.6837111104476137, 
            -1.155703784202666, 
            -0.4956611121353822, 
            -2.3171194391727177, 
            -1.7203734672253557, 
            0.673826873568866, 
            0.3119990743261345, 
            -2.2346330149159956, 
            -1.2995917788503444, 
            -1.6901413557809946, 
            -0.44506433732017076, 
            -0.5388596063424359, 
            1.6145822423266243, 
            -0.1493921684134709, 
            -1.6874721065397302, 
            0.721609487444301, 
            -1.1038888748892377, 
            -1.9928841311661247, 
            -2.209225996611511, 
            0.7358420426747442, 
            1.2507324651400045, 
            0.338130065592489, 
            -1.4355204931948764, 
            1.5802982729145858, 
            -1.2764687601014462, 
            -1.2880889220426717, 
            0.20152074646319248, 
            -0.5316189934519236, 
            -0.22851778715319707, 
            0.9634049051814633, 
            -0.3625199367942617, 
            -0.4060804659601415, 
            -0.648888070162395, 
            0.04673698149596235, 
            -1.195182403993243, 
            -0.5485118514437102, 
            -1.331647659274966, 
            0.5931148645799622, 
            -0.1962017571335067, 
            -1.2555969957468804, 
            1.2374923365101145, 
            -0.44130779182714613, 
            0.783989391070028, 
            -0.6210511193659646, 
            0.07244151383738551, 
            -1.2071539520674646, 
            0.5207579088631599, 
            1.2156629592971324, 
            0.6194041774349149, 
            0.6581303614872319, 
            0.12687384147026318, 
            -0.7603826839747769, 
            -0.39270098835739076, 
            -0.7359197083769125, 
            -0.8894560621273995, 
            0.5956085633042982, 
            1.7412043789608378, 
            -0.5317461459005365, 
            1.2411394433678542, 
            1.7304312544381397, 
            0.4473621394359611, 
            0.8714777239065089, 
            -0.08499355676566238, 
            -0.6350626956962869, 
            0.6480998311622103, 
            -1.177927752489533, 
            1.168312951336545, 
            -0.45772816013449735, 
            1.6045379267492232, 
            0.13249197081896313, 
            0.6547486375547061, 
            -1.4638155219953046, 
            0.5526704440556838, 
            1.377864110686702, 
            1.141931481792963, 
            -1.5424769869128345, 
            -0.8778801937839216, 
            1.6108827210686298, 
            1.8966835843290295, 
            0.10536282029923506, 
            -0.4333490252248543, 
            1.0380084045776288, 
            2.0352010263045592, 
            -0.7775321796021305, 
            0.11067809432167942, 
            -1.9269920486380676, 
            -0.9638588499694094, 
            0.15054415809139923, 
            -1.567625575404278, 
            -1.5603041202978924, 
            -0.6242522106359978, 
            -1.4942555118664824, 
            1.0858698664926079, 
            -0.7106348244761025, 
            1.0419889658017778, 
            0.3235440388536379, 
            -0.9977804000009964, 
            0.07789631002339062, 
            1.2996853482923538, 
            0.7621544026069516, 
            -0.09713347330942611, 
            2.1022909530774627, 
            0.3709140030251444, 
            -0.034798624297460105, 
            -1.2084021698719503, 
            -2.1118913424274464, 
            -0.0026224682865377534, 
            -0.3693452069271681, 
            1.0903337466428153, 
            -2.2329932998148494, 
            0.6924624541536365, 
            -0.4412337257345708, 
            -0.9595207493260901, 
            1.123464494464471, 
            0.8318380564593272, 
            -0.841352539772285, 
            0.6327360760006095, 
            0.7979057448882433, 
            -2.7714518671922934, 
            -1.8279521115319355, 
            1.3083698527112648, 
            0.9442827824181652, 
            0.9680839735900375, 
            0.9594885087799223, 
            0.28958134943190333, 
            1.8593989281667376, 
            1.3885730953125717, 
            0.9368327970126917, 
            -0.3413515856008739, 
            1.901745858782179, 
            -0.10212937760302088, 
            -0.7339753090065028, 
            -1.1227002694227521, 
            -0.9229689678941165, 
            -0.3487827153496367, 
            -0.1388783055071822, 
            -0.2709631522674326, 
            1.7763812746650856, 
            0.4576863169876873, 
            0.8106145770572761, 
            1.092519685818417, 
            -0.45622221760764425, 
            0.25225111683068574, 
            -1.0140521715567847, 
            0.08662331869713487, 
            -1.019061452743079, 
            0.7267474439403107, 
            1.896803693416111, 
            1.2517593670525418, 
            -1.4517590324529577, 
            -0.3690520856654746, 
            -1.649042649205515, 
            -0.4497199463885962, 
            -0.6441690160585243, 
            -0.3389352946894389, 
            -0.05922104313364035, 
            3.6818056301759765, 
            0.002011027580868346, 
            1.1858338217724187, 
            -0.18590038860540725, 
            1.064642867109669, 
            -1.729135313259354, 
            -1.4561322392350522, 
            0.24019528188496928, 
            0.9687885081115168, 
            0.843771468638835, 
            -0.11391544590790152, 
            -1.742300434676727, 
            0.5760128363922947, 
            -0.36400363692070575, 
            -0.3602154718144142, 
            0.26612008427453593, 
            -0.32014330970956656, 
            -0.12040433213285487, 
            0.21373536526789372, 
            -1.0968925027883, 
            0.6293189100564944, 
            -0.16401513014167224, 
            0.3524805924231996, 
            2.1427552119407998, 
            -2.221516928915635, 
            -1.3258974747218106, 
            -0.8377329625383765, 
            -0.22076832491641718, 
            -0.44615366419263097, 
            -1.3493715673481912, 
            -0.2962926963970424, 
            0.29910060683395556, 
            -0.43768010839766097, 
            0.19947755917732227, 
            1.027156393380579, 
            -0.0008138310920880247, 
            0.1439214615125736, 
            1.1526898735041071, 
            0.8214571003154055, 
            -1.754614962814808, 
            -0.09081684149114319, 
            -1.3231437612751877, 
            0.2323075768288617, 
            0.24550558172708578, 
            2.152110563245472, 
            -0.6458109273304705, 
            -2.8209630802343852, 
            2.141579951984948, 
            0.5928455154512988, 
            -0.7011221693399348, 
            -0.15870899899308424, 
            0.5075021826881555, 
            -0.9564281491102061, 
            -1.9146291418776913, 
            0.9760674183324626, 
            -0.8366620046219307, 
            0.16407344915788197, 
            -1.0514040878642779, 
            -0.42093708095656734, 
            -0.7825034012091033, 
            -1.6637933473409146, 
            -1.6741842957210118, 
            -0.176261892636358, 
            0.6412710469996328, 
            0.18925518525171092, 
            1.0674618762522385, 
            1.8254728885364107, 
            0.2752064640162538, 
            2.049705102760403, 
            1.6835063223155757, 
            1.706509629591376, 
            0.5916264334037118, 
            0.6381415415901742, 
            0.34275626859600694, 
            -0.9166438122674898, 
            0.45719721209932784, 
            0.897928217116984, 
            1.7645641333455775, 
            0.46937065143119516, 
            -0.16124011133331673, 
            1.06661311829551, 
            1.1817821467529448, 
            0.833753903991578, 
            -0.2626186375573134, 
            0.7968181120354288, 
            0.345706426691913, 
            2.005661428912471, 
            0.43006354241025324
        ], 
        [
            0.6376451060463674, 
            0.08890300375437694, 
            -0.3033542868791747, 
            1.9528104446431458, 
            -0.3251871739137001, 
            -1.4456025147182587, 
            1.1471847247350384, 
            -0.22952844783068113, 
            0.19628389818330713, 
            0.646287658647796, 
            -1.7512745778875727, 
            0.2298988825338283, 
            0.1137025716170789, 
            -1.6884064433613881, 
            0.6271793524560549, 
            1.432805540641401, 
            0.5775627845374374, 
            -2.0290673041972083, 
            -0.5222820609622878, 
            0.47275445908113933, 
            -0.5968331938060877, 
            0.9984592817451049, 
            -1.0863883097491724, 
            0.5798930963279844, 
            -2.3034021794054005, 
            -1.425731479476836, 
            -0.9390026048488, 
            0.21091693722206303, 
            -1.091108872823691, 
            0.735341150096544, 
            -0.8106752146086981, 
            -0.931698749646453, 
            -0.4501258917604062, 
            -0.7324909633498352, 
            -0.1683617695569909, 
            -0.04276386070199006, 
            -1.3362517465560921, 
            -0.18634720816051387, 
            -0.187173289577589, 
            -1.078950094488771, 
            -1.3705029837803364, 
            1.4016497166807966, 
            1.135451549682585, 
            -0.37722327430890973, 
            -2.936765959014327, 
            -1.0279722774060027, 
            0.007113062467328893, 
            0.4143608214600736, 
            0.9175082254428029, 
            -0.6104470078807691, 
            0.41724998826790444, 
            -2.006875436967335, 
            -0.38107437102948555, 
            0.04587179812053479, 
            1.0793033036202622, 
            -0.027051463711330048, 
            -1.5867101883045018, 
            0.17676573445529092, 
            0.39766755460593894, 
            -0.1957787832521091, 
            -0.21902158671643948, 
            -1.3657429854314418, 
            -1.508994856141754, 
            -0.36590327230729075, 
            -0.9323901454702659, 
            -0.32798342387674606, 
            -0.4399510057028847, 
            0.6261906376630413, 
            -0.5369994974072292, 
            -0.5551778102760867, 
            -1.9856634658397825, 
            -0.2862799729655048, 
            -0.232190694069069, 
            0.7490763881947439, 
            0.6400912627896638, 
            0.5390609703382376, 
            -0.08168485524882999, 
            -1.3426331265141835, 
            -1.3250709235780087, 
            0.5610754003907673, 
            -0.06511425438197571, 
            0.4200456345422748, 
            -0.0982943486586527, 
            -0.8828515610713251, 
            2.3853349931655288, 
            -0.3933475791363834, 
            -1.8976503042163801, 
            -1.383917343278369, 
            -0.8300223937340636, 
            0.19402019550566513, 
            -0.06617016769805714, 
            0.5097319837340324, 
            -0.5650188634380318, 
            0.12457315472675713, 
            -2.263134634090934, 
            -0.8540148884714542, 
            -0.6206853003065326, 
            0.10600942084083675, 
            -0.27274720811172837, 
            1.894926567399845, 
            0.4754179905838327, 
            -0.4025201680187331, 
            -1.062168027862792, 
            0.00463762013511063, 
            0.42532343110602283, 
            -1.0415059607476422, 
            -1.5990685373876994, 
            -0.2936737857808464, 
            0.15678278042337446, 
            -1.8280581700123668, 
            -0.3238162563098803, 
            -1.0972397629058392, 
            -0.9727970817555969, 
            0.4874135830849972, 
            1.8174865217992981, 
            0.21231384967479902, 
            2.1213523239977388, 
            0.9590261122622739, 
            0.9626090148014587, 
            1.119321696628276, 
            -0.6469453955212427, 
            0.43911214207297655, 
            -0.08676245074902751, 
            1.7709925109460394, 
            0.43336386060367615, 
            0.864593330996024, 
            -0.8043962442948512, 
            1.1656497902754466, 
            0.0729317858459942, 
            1.3220688607421378, 
            -0.616145133237506, 
            1.1395506688735186, 
            0.31515747701352154, 
            -0.3007466544168297, 
            -1.1972999607332973, 
            0.15034437504200324, 
            0.4297897276315173, 
            0.16095672371323808, 
            -1.1907717604167922, 
            -0.8910998345545719, 
            0.8156744062434804, 
            0.7775489470228999, 
            -0.7502675993832186, 
            -0.23577531908588284, 
            1.319547147752733, 
            -2.142747520983984, 
            0.581200638809152, 
            0.5639501150990734, 
            -2.4191597809242578, 
            0.5835392133900796, 
            -0.06564745153799918, 
            -1.4479251046732813, 
            -0.9542761330923845, 
            0.37041847712932946, 
            -0.017119118036819106, 
            2.5697493406819105, 
            -0.20420743260047944, 
            1.288077110235639, 
            1.7768413684930107, 
            -0.18689696762366426, 
            -0.46824768793931865, 
            -0.6258024146413718, 
            0.8744332740421918, 
            -0.46741323361867815, 
            -0.3497477841061159, 
            0.3264791377104481, 
            -0.403913879443891, 
            -0.5231393108069305, 
            -2.3191693459188367, 
            -0.043035354543514745, 
            -0.007885166837919401, 
            -0.26880358460995063, 
            1.0958217556441203, 
            -0.3853872638407318, 
            0.0796073421278858, 
            0.27389752707183534, 
            0.44585204424701397, 
            -0.04941600598974572, 
            -0.253807081941326, 
            0.3662429337631135, 
            -1.8158540710657176, 
            -1.0547351729379726, 
            -0.08992142463607859, 
            -1.0230954540155988, 
            -0.23812694802610454, 
            1.7138474059459576, 
            0.45202987465189154, 
            0.20068350581801425, 
            -0.5185367108783051, 
            -1.1429092375177181, 
            0.45968194639419785, 
            -2.0589163805347694, 
            -0.8873886093404729, 
            0.09601907145636979, 
            -1.035025410415859, 
            -0.8759157442024649, 
            0.9303623986970116, 
            0.7673459280393842, 
            -0.4186724624633947, 
            0.2225019002634013, 
            0.2318433338841442, 
            -0.8978720513844958, 
            -0.636025885057145, 
            -0.4056723467304982, 
            0.2974713162784935, 
            -0.1028938833669485, 
            -0.6111535874762503, 
            0.08402981048509643, 
            0.3250474446200271, 
            -1.5990947569383043, 
            -0.20001872790159242, 
            -0.3395174709215987, 
            -0.08446059634808747, 
            1.2198064801734838, 
            -0.30038953199373747, 
            0.6669018764706961, 
            -2.0429434448507306, 
            -0.1578689393435107, 
            1.4078775291506427, 
            0.6672980596146636, 
            1.1445705032633968, 
            -0.49275902002779565, 
            0.1612340463268317, 
            0.2961184362523655, 
            0.3678422667205214, 
            -1.4847633831577063, 
            -0.23052625636200208, 
            -2.420041441102296, 
            -1.6748591640065178, 
            1.879498393206406, 
            2.3834998916956365, 
            -1.2299662320640439, 
            0.3618753485241536, 
            1.3140453482461045, 
            -1.385117556475236, 
            -1.4294149249778496, 
            -0.313330894907613, 
            0.12387239595709325, 
            -0.3098671483916859, 
            -0.5507408159099446, 
            -0.13494649744801088, 
            -2.8526922588697974, 
            -0.5271534867224049, 
            1.961219483101555, 
            0.037953355441196164, 
            0.4735019434602292, 
            -1.4208383606048471, 
            0.10074652159799906, 
            0.6338500973585591, 
            0.37727058024037496, 
            -0.590920251753629, 
            -0.06317092082114653, 
            0.3910858373353429, 
            -0.32511957731283625, 
            -0.07962253343246455, 
            -0.5447410747377459
        ], 
        [
            1.9527706994428309, 
            0.24798862924740947, 
            -1.9021718821775757, 
            0.528272115184506, 
            -0.16456292503843511, 
            -0.6777676963008321, 
            -0.08602932734719668, 
            2.2151073040433897, 
            -0.26747675194802145, 
            0.36917012412378714, 
            0.4392228633150687, 
            -0.11035867909635386, 
            0.8924438215908723, 
            0.41191232794046156, 
            -1.7742399572574423, 
            -0.023437479905645764, 
            -0.4912856968929008, 
            0.08250843849972489, 
            1.0318448051627511, 
            0.4639635677494292, 
            -0.12736228612742317, 
            0.37235747082313403, 
            1.169700802806312, 
            -0.5061779330046758, 
            0.23855560264271827, 
            0.8388073334445107, 
            -0.1674465126083045, 
            -0.15098489243832833, 
            -0.2816377369635342, 
            2.7943559968843865, 
            1.0341492043661433, 
            -1.018427654783342, 
            -0.043764449852448484, 
            1.0991052142908617, 
            0.2892951027246075, 
            -1.7717560732606186, 
            1.6596087368848287, 
            -0.35593780385913387, 
            -0.656753632826958, 
            -0.4251162587912319, 
            -1.5405263522215271, 
            -0.335630079851763, 
            1.1169111808768935, 
            -0.1398992633024103, 
            0.04843518237340561, 
            0.5744006008818564, 
            -0.7383010043228586, 
            1.4765213282935339, 
            -0.21294825431322864, 
            1.2088239386840975, 
            1.0517684018922473, 
            -0.6644151639103802, 
            1.5238747123200131, 
            1.1439681915122242, 
            -0.43354169721072267, 
            -1.4576874523646906, 
            -0.7842513200264111, 
            -0.4178516985286746, 
            0.45440746257364156, 
            -0.1766820973639714, 
            1.7122962579755687, 
            -1.311755674303355, 
            -0.2700870615682202, 
            -0.9158676601883355, 
            0.7489809599762934, 
            -0.6380091481421617, 
            0.9771118204917921, 
            0.4840021413672566, 
            0.25401350872304607, 
            1.628560280657333, 
            -0.3498368192456041, 
            -0.32162014360607005, 
            -0.5826090229764221, 
            -0.3803232662381771, 
            -0.6425065585146836, 
            0.06312316952781448, 
            -0.002585304392453699, 
            1.0789312230860169, 
            -1.4692178503801565, 
            0.3983479681273423, 
            -1.8030251736047385, 
            -1.0412866272288697, 
            -0.04141357378603488, 
            1.2078430218809613, 
            0.35880122185414176, 
            -0.10886601827466307, 
            2.506662106374423, 
            -0.4895493417455538, 
            0.5190850245202752, 
            2.4693222888479807, 
            -0.12872288001138976, 
            -0.23450366937508896, 
            -0.5904148328865905, 
            0.3489194460618521, 
            -0.39388944333685116, 
            -0.14738548566751436, 
            -1.5087351366678678, 
            1.0950332142227346, 
            2.0335755188029063, 
            0.86800216611533, 
            0.793003643542917, 
            0.7607361713226978, 
            -0.3296645798802297, 
            -0.8486983815093425, 
            0.9033505084849348, 
            1.2630179330770712, 
            -0.36138664668681203, 
            0.5783166235954129, 
            -0.5935008102845053, 
            -0.12763219432853773, 
            0.19371837470811673, 
            1.5730218617604523, 
            -0.3555058644988824, 
            2.355711482252416, 
            0.7179865971828686, 
            0.8666269767920619, 
            -0.2575422328160466, 
            0.9823980023782484, 
            0.03984013917181532, 
            -0.621960066760018, 
            -0.08882166015597832, 
            -0.4562979358216446, 
            1.4948494715269158, 
            -0.9098618015213562, 
            -1.1707240884667551, 
            1.7644304863369749, 
            -0.23486409222489893, 
            1.5335462368112227, 
            1.110517267666686, 
            0.47878723600037804, 
            -0.4149643783267348, 
            0.715123873850943, 
            0.4443951941949161, 
            -1.413293274278864, 
            0.42128599807544037, 
            0.20967774700741154, 
            -1.6530168654032498, 
            -0.7688371833978922, 
            0.9121326464571522, 
            -1.4246198512633854, 
            0.5921431047127897, 
            0.02741048726761914, 
            0.584885906216806, 
            -0.02286329505007045, 
            0.2644990327570728, 
            0.41369167164696563, 
            -1.1765185201296353, 
            1.1142367556113735, 
            -0.7229705552191668, 
            -0.5958820808628129, 
            0.1725954731213456, 
            2.408045973131874, 
            1.4794437937181817, 
            0.4607732260280651, 
            0.620192593285955, 
            0.08839798015305496, 
            -0.7056392404314078, 
            1.354076452390374, 
            -1.5474290833241773, 
            0.6362734960537314, 
            1.220752640637125, 
            0.5623005164309574, 
            -0.6777032509870422, 
            0.2862073114632404, 
            -0.6991305610926173, 
            1.0052060696018268, 
            1.1032112979219788, 
            0.1543973822113031, 
            -0.9223181435012409, 
            0.9638643461243304, 
            1.8555627760864677, 
            0.6648535301830916, 
            0.49820780574317003, 
            0.024590987442029394, 
            0.3117374539918186, 
            -2.3276481191394387, 
            0.39360348585783445, 
            -0.8856417349208936, 
            -0.9280523726088091, 
            -0.24480851228719372, 
            -1.8418432877509658, 
            0.43100161771086837, 
            -0.13287282222337723, 
            1.948954363939345, 
            0.33705695879825887, 
            -0.9092495734262297, 
            0.6282319289665981, 
            0.8562919744052271, 
            -0.2932657396803041, 
            1.5888416418635123, 
            0.4067858255141667, 
            -0.33526562174586344, 
            0.8481806928237272, 
            -0.2365923898877624, 
            -0.5967988165807807, 
            -1.194761856004647, 
            0.859791993017507, 
            1.7919664006019813, 
            1.120859733911265, 
            0.6871059025619112, 
            -0.4128734761725923, 
            -1.1185109216253764, 
            -0.1600008716312876, 
            0.6878099652609413, 
            1.2069370467012444, 
            -0.7541283774211807, 
            -0.5019412497144624, 
            -0.18695458932930015, 
            1.4233216915862184, 
            0.24120418251182532, 
            -1.1142161901237981, 
            -1.142185548889021, 
            -2.0299738986436204, 
            1.3078786437294172, 
            -2.8336369205671295, 
            0.71141111030622, 
            0.16717709805197392, 
            1.0880921964476866, 
            1.4747096992185615, 
            2.3465372587734374, 
            -0.6306756158586889, 
            0.026725157897586088, 
            -0.35451164311816324, 
            -1.1946413114787475, 
            -0.599605593141594, 
            -0.6370747529839776, 
            0.8603621860191987, 
            -0.11020169775961396, 
            1.1516130918088252, 
            -0.16357797064077617, 
            0.45666684298809107, 
            -1.1326052849090533, 
            0.3832893461776235, 
            0.3172913091509261, 
            -1.904792261613684, 
            -1.5663267211880847, 
            1.5464358040985389, 
            -1.1300489210344644, 
            1.9860975297310373, 
            0.6660286248139171, 
            1.7951690880237057, 
            -0.6501415029835061, 
            0.6260709754089154, 
            0.844689580774049, 
            -0.7135454798095985, 
            -0.1679591072126876, 
            1.861237296335604, 
            0.28308279872398767, 
            -1.0376215435775984, 
            0.8479608422597633, 
            1.1741175825672296, 
            -0.7350775436801906, 
            0.5977687641863803, 
            -0.21806325009682329, 
            1.2317947720575473, 
            0.2917698027937837
        ], 
        [
            -1.1947966916812902, 
            0.15413381204090632, 
            0.5962175389008613, 
            -0.7219638533675123, 
            0.6351507287749854, 
            -0.7195263080739431, 
            -0.03844235494865348, 
            -0.01574346451602767, 
            0.7906683522324123, 
            -0.1552025502542161, 
            -0.5459751759763339, 
            -1.505443134612845, 
            0.30813750156750924, 
            0.7509745336397128, 
            1.4489994705652993, 
            0.026012092316933647, 
            2.2892789551597024, 
            -1.4711685676698891, 
            -0.6134105304453618, 
            -1.3752519156978624, 
            -0.7634576043097274, 
            -1.1706581790521298, 
            -0.9885038126001862, 
            -0.31532167468068445, 
            -0.019561921408994605, 
            -1.2091596847019894, 
            -0.757171875221723, 
            -1.0999617256115257, 
            2.085029092930742, 
            -1.0722188485298159, 
            -0.23916096804537765, 
            -0.003507785432549024, 
            1.2752367911484548, 
            -0.38625200851517844, 
            0.10971105186351729, 
            -0.49492562512656224, 
            -0.25206587212239395, 
            -0.5548862469207797, 
            -0.2230108712113493, 
            2.283104177515258, 
            -0.6125229063346225, 
            1.0854382520628616, 
            0.009309899711034337, 
            0.9765194754656119, 
            -0.6124404633348735, 
            -0.19525825776907074, 
            0.3375733522323559, 
            -1.3825205663533917, 
            1.5358515672216264, 
            0.13600005295393597, 
            0.34484780416847005, 
            0.3153528029809664, 
            -0.3662135856784295, 
            0.6801726938951924, 
            0.9217401652175271, 
            1.1603861910182338, 
            -1.3141464028943435, 
            0.25473403420011065, 
            -0.27843440001607617, 
            -0.5117443090228724, 
            -1.501639787654297, 
            -1.6607286724398906, 
            -0.2680432769644272, 
            -0.1705316804310394, 
            -0.14545583860002798, 
            0.21513637183530965, 
            0.6841215098509073, 
            -0.10761989105847415, 
            -1.1508330399179776, 
            -0.36300017367112797, 
            -0.6885557326317411, 
            0.7530639059920534, 
            -0.8308917051534617, 
            1.3946218886057578, 
            -0.36528351755502164, 
            -1.821718522606774, 
            0.06322986056529784, 
            -0.3819134202862478, 
            -0.13868565156372548, 
            -0.15347414121981884, 
            -0.6766853780583312, 
            -1.3905977929105007, 
            0.6522214247166845, 
            0.7993570738968271, 
            0.7389471997162115, 
            1.2203312843924463, 
            0.25610098546256355, 
            -1.1809549985201162, 
            -0.4267479595281057, 
            -0.9086230818124942, 
            0.1373645978315423, 
            -2.6391467432027764, 
            -2.6865162107273175, 
            -1.5593264442371237, 
            -0.3498612629556627, 
            0.712620320324797, 
            1.6797242762606908, 
            1.6388666944260475, 
            0.4591798447185986, 
            1.0943492053410473, 
            1.0172721659577217, 
            -0.25013823718103256, 
            -0.5345140917269703, 
            1.2255595793286413, 
            1.2173840991395048, 
            0.36900001385314946, 
            1.4898384306602321, 
            -0.6021182161081642, 
            -2.165720769330532, 
            -0.11817774103693843, 
            -2.316924039739013, 
            -1.065421041099692, 
            -1.5823382962781525, 
            1.5075406507027607, 
            1.8198980724541434, 
            1.0980092149411047, 
            0.7458521066353238, 
            0.6513026131450064, 
            -1.2696008681587192, 
            -0.5330453818372853, 
            -0.8280899052493464, 
            -0.6781466053058047, 
            1.4099753140308444, 
            2.1627460597294643, 
            1.2865124072069098, 
            0.8839615595726953, 
            2.7647480170461596, 
            1.705682726898819, 
            -0.039444763939060254, 
            0.3659429341350785, 
            0.8886629403661587, 
            1.2816165153358965, 
            0.24726812768141113, 
            2.799632075160991, 
            -1.1887395709851012, 
            2.08573437744043, 
            -1.6721943096708776, 
            0.4617474351156453, 
            1.1738555873398013, 
            0.6741534436631513, 
            1.8962967279444833, 
            -0.5250690651443866, 
            1.6274908559754344, 
            -0.6554481066550204, 
            -1.293431229698881, 
            0.10715125197305954, 
            -1.538197811325154, 
            0.8182777477831539, 
            -1.8513659967968288, 
            0.22507675578864972, 
            0.9481836121305031, 
            0.8727278141305161, 
            1.0181073070831805, 
            -1.2662760133697082, 
            0.4776326761081843, 
            0.7847697615245057, 
            2.4063788745933334, 
            0.6554644824403673, 
            0.7276692592748442, 
            0.6950447953891337, 
            -0.9088873075614996, 
            -1.2415730519530943, 
            0.038857838320635434, 
            -1.3518008245302628, 
            -3.0627712216228775, 
            0.5724678968230518, 
            -0.7588875645309013, 
            -0.04163227202808371, 
            0.7848827099432324, 
            0.7486795481406369, 
            0.7274959557839443, 
            -0.16973438252180162, 
            -0.15708428182797982, 
            -2.9253799059624055, 
            1.5368576037209527, 
            -0.04801779334912779, 
            -0.5075837352991053, 
            0.2944492635176224, 
            -2.9310420598343434, 
            0.26374545016816175, 
            -0.6454914093725793, 
            -1.875900863944786, 
            -0.21784346587195932, 
            -0.5255170073659826, 
            0.5296934387260586, 
            -0.1499459149085295, 
            0.5222995624157424, 
            -1.5556994644727433, 
            -0.5364879029774, 
            -1.6811539550413115, 
            1.6834917103945521, 
            1.8495786815510868, 
            -0.8826184155800466, 
            -0.7183420727435369, 
            0.16680584907150378, 
            0.6516289392517127, 
            -1.8108309008010057, 
            0.39477131307981045, 
            -2.004469833450358, 
            0.30919493037773804, 
            1.4294696755292746, 
            2.0124518377873457, 
            1.4560851143465803, 
            -0.36181238391514836, 
            -0.6820836303185055, 
            -0.09412453117892687, 
            -0.17574052986586983, 
            -0.19275504632137555, 
            1.5505202559465738, 
            -1.5711007319124222, 
            -2.20586248221123, 
            -1.188617948538306, 
            0.8054442807119773, 
            -0.09760294393594071, 
            -0.5509457062775381, 
            -0.45713142168669074, 
            0.584199670107099, 
            0.22607316256660295, 
            0.7733705842860371, 
            0.8497457611323734, 
            -0.18902926383730295, 
            -0.9389612710623974, 
            0.034246259741416284, 
            -0.3441339235274927, 
            -1.4033641562285009, 
            0.6680494257311883, 
            1.135846358526241, 
            -0.748876680456083, 
            -1.7160751020888088, 
            0.7247545335805969, 
            0.5293116713051644, 
            -1.1987508559083841, 
            0.579869302959775, 
            0.22416048043733844, 
            -0.16808928275410512, 
            -0.881379204838257, 
            1.4425490988858936, 
            0.5725083767595266, 
            0.3418269910115917, 
            -0.2536945793203451, 
            -0.4935863473130609, 
            0.4651093500391139, 
            0.8892973492041738, 
            0.4463891443399183, 
            -0.5008521508040594, 
            -0.3964882711093113, 
            0.8539636430354327, 
            0.5686630554865177, 
            1.13310752192694, 
            -0.9292065483488569, 
            0.0665631578211433, 
            -0.9384871628166569, 
            -0.1006318971115455, 
            0.9392290380394274, 
            2.3296646018433793, 
            1.956477332958749
        ], 
        [
            1.10886314819666, 
            0.3200502777459729, 
            -0.2778785001213654, 
            0.9020611066328232, 
            -0.43369114237671585, 
            1.363715412291318, 
            0.03680628707330857, 
            -0.5242934494985181, 
            -0.6332373868386918, 
            -0.9128315510531075, 
            -0.13741076739436828, 
            0.2015394245589619, 
            -0.02029829258641255, 
            -1.722979167764591, 
            -2.1215552661361476, 
            0.684677255761475, 
            0.7496733710517373, 
            0.5542504586587406, 
            0.8036242568266616, 
            -0.5080475022711642, 
            1.5633308373270964, 
            -0.18457348704595378, 
            2.7599832226832253, 
            0.20516138046150662, 
            -0.5580034574399173, 
            1.1960201758108377, 
            0.7471482189779733, 
            -0.7149186264154257, 
            -0.6315462300791537, 
            0.8910270309887616, 
            -0.3419715267706981, 
            -0.5634114457232068, 
            0.6692986954225675, 
            -0.475730384738376, 
            -1.8174341541502224, 
            -1.1010078205790832, 
            0.6023038548926202, 
            0.36242205506451525, 
            -1.24817874317187, 
            -0.6385163094886208, 
            -0.7162369285601933, 
            -0.5852121709791231, 
            0.3293909993585672, 
            0.6863904784124691, 
            0.28406886810701343, 
            -0.3784990585891603, 
            -0.20400235031854078, 
            0.5788337856928365, 
            0.7426609459020096, 
            0.23543900101451423, 
            0.24664661603510113, 
            0.08682076514164382, 
            -0.10607194621735695, 
            0.9575529945222893, 
            1.0675589253162225, 
            2.153701045180191, 
            -1.7392579225216804, 
            0.553142128546657, 
            -0.05674199324372535, 
            0.819328746160563, 
            0.8992344802320792, 
            -1.2331497048878066, 
            -0.2030018222205525, 
            -0.903295583020224, 
            -0.8961715604617602, 
            1.036229827339323, 
            1.086287068853952, 
            2.4375119180934646, 
            1.6788046515261221, 
            1.131775000934224, 
            1.0503312500718613, 
            0.874890040252857, 
            -0.12525360126849372, 
            -0.9726012267919706, 
            0.6878063299045667, 
            1.2318455006402973, 
            0.9288082464964054, 
            -0.8752678410737191, 
            -0.8970994173149824, 
            -0.6994351730356061, 
            0.19931132713580274, 
            -0.3360062897644886, 
            -0.30388809085887347, 
            0.1157042342564973, 
            -0.27012956732333826, 
            1.0058186868497796, 
            -1.6541853303676044, 
            1.3112751184875133, 
            0.5535422595318701, 
            0.2573512628329576, 
            0.1175205865277004, 
            1.1877885384359796, 
            -0.6515697295934204, 
            0.7675664229494477, 
            -1.9073758834175167, 
            -1.3249571382878467, 
            0.5693245170809753, 
            -0.4305873898193928, 
            -1.8037685788578162, 
            0.5080601608889836, 
            1.3653293944793234, 
            0.444612952451773, 
            0.1610121303998236, 
            0.8245277386598067, 
            0.8045351052640185, 
            -0.11931417678201024, 
            0.20220953562455893, 
            -0.015036331133819556, 
            -0.9971140940443458, 
            0.5122218732794509, 
            -0.4781958492267887, 
            1.446162726915007, 
            -0.13906627361720042, 
            0.27347008731242384, 
            -0.42552112447616647, 
            -0.9135419731688483, 
            1.967793810741558, 
            1.3323448373645028, 
            -0.6570930347444146, 
            -0.012162283296034825, 
            1.0034608047940823, 
            0.17393050075187438, 
            0.945484941753939, 
            0.18617773636426763, 
            -0.6445777559429577, 
            -0.1092693147037493, 
            2.011623718793507, 
            -0.2039709352425805, 
            0.2521522451521671, 
            0.7031944017179022, 
            -0.027447181732127658, 
            0.42085756454233453, 
            -0.553419886345043, 
            0.1188058170554835, 
            0.9833939944427011, 
            0.9415949106586772, 
            -1.0247426282132572, 
            -0.432325709563965, 
            -0.5643985028375933, 
            -1.2004508066474575, 
            -0.8956017220582388, 
            0.11470456800631885, 
            0.8808795286671245, 
            -0.4642901361762714, 
            -0.482207229373151, 
            -0.3977506176285233, 
            -3.010518197244883, 
            1.070487563307067, 
            0.4745412760628251, 
            1.5512111418602432, 
            -0.8224794548928155, 
            0.04796634384962988, 
            1.4764647861520936, 
            1.0554919115912993, 
            0.7283523235472819, 
            -0.4894510348824671, 
            -0.9923212761141768, 
            -1.4606712803552928, 
            -1.0715777114130678, 
            -0.045756370957467166, 
            -0.3639132140550598, 
            -0.276948509336946, 
            -2.256424954901402, 
            0.3521927244940746, 
            0.08447357808856455, 
            0.7434724811664783, 
            0.2197690797530479, 
            -1.385786707106296, 
            0.2248106846319247, 
            -1.0288772150467969, 
            0.41343791171439676, 
            -1.0150568080073574, 
            0.12232227449006708, 
            -0.44312750457842404, 
            1.5499112942382638, 
            -0.10182777980582443, 
            1.3155843895847814, 
            1.0252757130894836, 
            -1.1380007009541082, 
            0.45762954599167044, 
            1.8047438520825008, 
            1.2074069052632, 
            0.10627948710893174, 
            0.6058353837428456, 
            0.4703181813405133, 
            0.20917324094195683, 
            2.948754227712633, 
            0.14863786748689825, 
            1.4048758963798613, 
            -0.024502565794612227, 
            -1.8175006232456463, 
            -0.21940770841481544, 
            -0.7036409154689506, 
            -0.08545030159872848, 
            1.0883425181229753, 
            -0.0787810959167147, 
            0.5584798811294518, 
            0.3697897360899139, 
            1.0937668635296782, 
            0.3607822241141496, 
            1.043922883470466, 
            0.2300019674670039, 
            1.1619317086021124, 
            1.0335229198317137, 
            -0.4600913493961257, 
            -0.07941314866257314, 
            -0.42830471739451637, 
            0.13049493463002662, 
            -0.4535075822216305, 
            -0.4975799048577067, 
            0.38048299345301045, 
            0.31489800922942474, 
            -0.7185817718404632, 
            -0.2501030005865003, 
            -1.5696717960427344, 
            1.143798775679094, 
            -0.45384399101911355, 
            -0.7155973204965855, 
            -0.18326855246326407, 
            1.1441774888529157, 
            2.5161282589984046, 
            0.3390094404099523, 
            0.14842347509679232, 
            0.2980552280764637, 
            2.3027472284729726, 
            -0.7575418092659382, 
            1.025447223779588, 
            -0.024532614881477274, 
            -1.3393405016005633, 
            -0.5938258418253599, 
            -0.5293449770326579, 
            -0.18066230378347503, 
            0.6236309309564875, 
            0.2852163495285936, 
            -0.951238439044021, 
            -0.6235169559214045, 
            -0.570271750470731, 
            0.5972416569049966, 
            -0.9765039416403216, 
            -2.25456113814898, 
            1.3085655822948343, 
            -1.997440760473643, 
            0.36397899788057897, 
            1.8667697934328138, 
            -2.754247640188848, 
            0.36154975546386964, 
            2.0509820613627077, 
            -1.6783302876504462, 
            -0.00969663460062385, 
            0.4852223692078452, 
            -0.42643186184125675, 
            -0.39364751392729735, 
            1.0491141322202109, 
            0.3259012082372797, 
            2.7731097689428097, 
            1.7368382733872436
        ], 
        [
            1.6422768427766337, 
            -0.38310199381444854, 
            0.028308409755105075, 
            0.7116095603665651, 
            1.5602005825784522, 
            0.06590360256793372, 
            -0.828951457048649, 
            -1.3170953077689291, 
            -0.8164944515185203, 
            1.1842467677620538, 
            -0.6684917362210607, 
            1.3394904642176655, 
            0.4206865196689618, 
            2.2064998478930775, 
            -0.8919744387725986, 
            0.003548985843904075, 
            1.3866848539299463, 
            0.9111795384050463, 
            0.08876011048245375, 
            2.30656793710994, 
            0.17177792453672486, 
            0.4214574576434959, 
            1.1054155093467157, 
            0.55296600158872, 
            0.9955082614986293, 
            -0.5676676341690642, 
            2.0803891770006286, 
            0.6839511740794246, 
            0.20553305680595751, 
            -0.8779812921994453, 
            -1.8443865681797076, 
            -1.169452700187289, 
            0.8783782453816312, 
            0.021911842399376345, 
            0.960631905071252, 
            0.5152804795261118, 
            -0.18368423106717297, 
            -1.0189931704404454, 
            1.0307858617262629, 
            1.0281721697015764, 
            1.196726572055658, 
            -0.9879702148391117, 
            0.4017994862445866, 
            0.010327415500158109, 
            -0.05626069236785876, 
            -1.150349183997511, 
            0.703393100219554, 
            0.5260508865019458, 
            0.4581385996752955, 
            -1.3151478069999483, 
            0.3467605666164602, 
            -1.2022116067753847, 
            0.6697595439480267, 
            0.5891206561761639, 
            -0.424185768183471, 
            -1.5469880625944896, 
            0.10982396931029431, 
            0.4050976595553354, 
            -1.0593787123463196, 
            -0.8974770231045152, 
            0.22119737649387788, 
            -0.7101578772132597, 
            -0.44217939093552083, 
            -0.9506250565243635, 
            -0.22039941568714333, 
            0.3554415422326302, 
            1.4367576317887156, 
            -1.4981675240815324, 
            -0.518250418483659, 
            -1.6511113185093227, 
            1.2232637106901203, 
            -1.1119344943448957, 
            -0.3853140409286469, 
            0.4949291467648083, 
            1.4070545536163823, 
            0.7856107263457863, 
            0.5500513062020628, 
            -0.9214848284835879, 
            2.140651808780209, 
            -0.24473685565350894, 
            -0.8488266943166102, 
            -0.9927776563026, 
            1.1782674497377477, 
            -0.8650438508560843, 
            0.6807978311672431, 
            0.5889823614318977, 
            0.1629054550472354, 
            -0.22494331144974397, 
            -1.2796659894287103, 
            -1.1667153013271734, 
            -0.5327318655501841, 
            0.3669437307059448, 
            0.4905735555758269, 
            -1.164312287289697, 
            1.5388938883873258, 
            -0.3007242825444284, 
            -0.31508559902956634, 
            0.9979434565978648, 
            -0.5329565331465408, 
            0.3263394850845011, 
            -0.6975892166776795, 
            0.6755703891705112, 
            2.7381413858099912, 
            0.20971869332949478, 
            -1.493996694114218, 
            -0.5558856114917649, 
            0.21825317369908107, 
            -3.114485757766435, 
            1.566960017914882, 
            -0.4719912622262708, 
            -0.053834895803238185, 
            0.48049621478142207, 
            0.31943829495416654, 
            -1.3009209250431941, 
            -0.7328417794652906, 
            -0.3908535483837168, 
            0.4047535202719591, 
            3.0431349667380894, 
            0.6077806937037292, 
            -0.8574492050957908, 
            0.2266543751286848, 
            0.2003936154465753, 
            1.0863067611037565, 
            -0.07197774693378789, 
            0.8331377632008853, 
            2.823570833484172, 
            -0.29992712348186323, 
            -1.3799172459668714, 
            -1.403536326318909, 
            -0.19168437534422292, 
            -1.0269720096901946, 
            -2.761295714103521, 
            -1.1041920931312577, 
            1.0847485513027406, 
            1.2050062196263307, 
            2.1052846171587767, 
            0.24500402754931924, 
            0.48218896494141145, 
            0.5506745655371247, 
            0.20672692305888338, 
            0.09889059187647885, 
            2.904258165280201, 
            -0.882600387895524, 
            0.8345003149852438, 
            0.9249628157888202, 
            -1.0407052842776592, 
            -2.0049498220569397, 
            0.30413293586618007, 
            0.011791444591447648, 
            1.272624821298812, 
            0.6116108652894988, 
            0.682439934171797, 
            -0.44361629112560513, 
            1.185267624247758, 
            1.5691692296118502, 
            1.0745614413340658, 
            1.7056336858454824, 
            -0.15246499946649056, 
            -0.35344157022382194, 
            -0.027455316055553253, 
            -0.8482829746731015, 
            0.14838095150356684, 
            -0.8820317542022921, 
            -1.1360921626721252, 
            -1.3032227564371108, 
            0.42563844913251175, 
            0.6781083453370735, 
            0.06553577532184547, 
            0.37862075362281905, 
            -1.0639330094316617, 
            -0.5611336748787635, 
            1.7365745378419006, 
            1.1532548681129504, 
            0.8085772223880134, 
            0.7485698856302684, 
            -0.042358182250146904, 
            0.14777039885294516, 
            -2.7858183876772777, 
            0.18389742903381837, 
            -1.1467864084398451, 
            -0.7524131142706646, 
            1.113742602622982, 
            0.9690319519882911, 
            -0.4133194565467125, 
            0.9872184120328068, 
            1.5423799032404522, 
            -0.3966074127229598, 
            0.7744867313736016, 
            -0.2698220806500549, 
            2.0769209159611983, 
            -1.3637563280263407, 
            1.456523704269518, 
            0.9036316236185657, 
            0.5563354242769137, 
            -0.7003503988607712, 
            0.26265573738292786, 
            -0.6693419450620574, 
            1.096399547426261, 
            -0.22977999284502917, 
            0.4610989476885023, 
            -1.5226373094391095, 
            0.2403959664236664, 
            -0.5121199860486999, 
            -1.657904510690394, 
            -0.13117778812413353, 
            -1.1259697221495544, 
            0.7569864597284143, 
            -0.9532981499211278, 
            -0.1830426195889008, 
            0.07106885453042182, 
            0.8187293159079551, 
            0.049871497596409374, 
            0.40132142141471433, 
            0.4017353510325083, 
            -1.5266221306846675, 
            -3.0489135169652015, 
            -0.6355251335251436, 
            -1.0528942600163385, 
            -0.04581708368101038, 
            -1.3047930864493946, 
            0.04494589350696182, 
            0.6785049780481052, 
            -1.3582160182337655, 
            0.2756262752725781, 
            1.0479380197297483, 
            -0.29219347803614304, 
            1.5674707462579012, 
            0.045688254852284484, 
            -1.0168710826361684, 
            0.6577332522221524, 
            0.2341043118972995, 
            -0.9151394731055824, 
            -2.329289765995622, 
            -2.7039815312081243, 
            1.147227382342504, 
            0.22553520404260677, 
            -0.6067079710766948, 
            -1.998343019225608, 
            -0.8737411897519176, 
            -1.8925478614051265, 
            0.9562725334586397, 
            -0.13151897412108557, 
            -0.3413417423202844, 
            -0.35869224346379786, 
            0.3205377332512477, 
            -0.8219984675364862, 
            2.390258085469464, 
            -0.7563716039554818, 
            0.843430801930518, 
            -1.3615748023271086, 
            -0.16716320132948323, 
            -0.32779447961033437, 
            -0.6271431915656938, 
            -0.3833023385528543, 
            -2.3255055286379043, 
            -1.2532578463121993
        ], 
        [
            -0.892386291833536, 
            -0.12353672384688688, 
            -0.8523541699799752, 
            0.6626168529700146, 
            -0.4226206028000272, 
            0.9859296568025088, 
            0.6853985432970103, 
            -0.48312964121182544, 
            1.1054418641227919, 
            1.2417819597240134, 
            0.13777165999630708, 
            -0.056071516899374854, 
            -0.605136276724665, 
            0.43439388259251205, 
            0.7228278511605011, 
            1.794118245141629, 
            0.05458090417576489, 
            -0.2907079904075699, 
            1.0799402603466346, 
            -0.11320714325478033, 
            -0.4629394343574685, 
            -1.3893989634354365, 
            -0.056978509579247154, 
            0.7687925075530181, 
            1.7797116198752854, 
            0.6257402600746326, 
            1.044959670317686, 
            2.4964335588680555, 
            -0.11959768012471977, 
            -0.6741140988579754, 
            1.470627938017225, 
            0.9513316997604135, 
            -0.8007927816697124, 
            0.07270372440165541, 
            0.10852515270848276, 
            0.9376384348137263, 
            0.6858307409909442, 
            -1.7967587767497224, 
            0.32914713059519973, 
            0.2684027869235144, 
            -0.7132514209365058, 
            0.7371627762535733, 
            1.0810527768425946, 
            0.8677144818322434, 
            0.09468044540130281, 
            0.5990744541634357, 
            -0.22051870354471706, 
            0.4825271982654911, 
            0.9190192817937539, 
            -0.905434030017369, 
            -0.330208936869418, 
            -0.7421425205946488, 
            1.156037265083088, 
            1.9719359537693237, 
            -0.837425402876702, 
            -0.13048637237014885, 
            -0.6817716425337284, 
            2.2274641327450797, 
            -0.22557115512791207, 
            -1.0586607610537035, 
            -0.002124315031492669, 
            -0.17674741723650597, 
            0.935981338597818, 
            -0.14425479378701753, 
            0.7806905800358612, 
            0.5990721564257543, 
            -0.11297293235715376, 
            -0.16383936819369926, 
            0.44321999905783105, 
            0.7271351401179373, 
            0.39632573911438673, 
            -0.1795341215693343, 
            -0.2640098375424964, 
            0.06010931400994168, 
            -1.605062737894091, 
            -0.7195524918814986, 
            -0.04989086982617484, 
            -0.1739669813574714, 
            0.9477515787162506, 
            -0.2008954967388647, 
            -1.9687367081519502, 
            -0.5159707970156896, 
            1.0625831514532078, 
            -0.96555037145927, 
            1.1874633541222843, 
            1.1614628803418399, 
            -1.0494870272317314, 
            -0.7975511105400713, 
            1.1316539576461173, 
            -1.4188176411482178, 
            0.554218308193564, 
            0.15615502765441996, 
            -0.3295246721657022, 
            -0.7692250163597171, 
            -0.28374244594390796, 
            2.2086633030843448, 
            1.6043610385788023, 
            2.195068063707168, 
            0.8665770317365279, 
            -0.3055308142031768, 
            -0.7289193675479371, 
            -1.9491877054313598, 
            -1.259918791129369, 
            -0.48750593781652835, 
            -0.05539033355747228, 
            0.36040401266555816, 
            -0.44780191002081926, 
            0.13120204858764647, 
            0.2455341669792302, 
            0.24092730209714047, 
            1.5174779026529905, 
            1.5900571277215185, 
            -1.2003397104979607, 
            0.44460985551692933, 
            1.2071989398406504, 
            0.0890454490614327, 
            -0.26250051176467987, 
            -2.203835277695803, 
