{
    "layer_1_bias": [
        [
            -1.0128911892576045
        ], 
        [
            0.9943570029911718
        ], 
        [
            -1.9064906363245173
        ], 
        [
            -0.2555840146459342
        ], 
        [
            -0.3068653468788401
        ], 
        [
            0.28431494114941425
        ], 
        [
            -0.47473649630746567
        ], 
        [
            -0.5068504707882957
        ], 
        [
            -0.8509975045657157
        ], 
        [
            -0.4115815000835575
        ], 
        [
            0.467237983269175
        ], 
        [
            1.0041512047696473
        ], 
        [
            -0.16047529649708622
        ], 
        [
            -0.4587021498851616
        ], 
        [
            1.501072970221407
        ], 
        [
            1.0672055381476657
        ], 
        [
            -0.7292143197897026
        ], 
        [
            -0.1906410004143935
        ], 
        [
            -0.5169113897744043
        ], 
        [
            0.29591839060875796
        ]
    ], 
    "layer_1_weight": [
        [
            1.0917372665245642, 
            1.790205553174642, 
            0.4764983596717664, 
            0.17349813548394588, 
            0.055528677202473085, 
            -0.1260008252232115, 
            0.040179290526102474, 
            -0.8122440011574702, 
            1.040741634981346, 
            0.6288068052120955, 
            -1.459129460454993, 
            1.4796651014752673, 
            1.5808313697518628, 
            2.0236587348729653, 
            -0.04889572696158418, 
            0.8533268583845514, 
            0.3749015693943589, 
            0.5574367748945783, 
            1.1797266963247401, 
            0.8269362946731166, 
            2.8040744413136443, 
            -0.19850321358927206, 
            2.0976833466802813, 
            0.5182806973640935, 
            0.6305329725183508, 
            0.6973382666456115, 
            -0.14670562643918744, 
            -0.598564263211477, 
            -0.5454959419709992, 
            0.3637056439192946, 
            0.37192119704344834, 
            2.649335855604419, 
            0.5530473272800545, 
            -0.5979831290521942, 
            -0.31417329984271775, 
            -1.1389512567655222, 
            -0.4878591051766143, 
            -0.4603079279453133, 
            1.770986511443594, 
            0.4336436563152852, 
            0.676526430666978, 
            1.1005904492560703, 
            -2.2217110457127203, 
            -0.17319245721475895, 
            -1.852694283224723, 
            0.3469564100477096, 
            1.3231781292509555, 
            -0.2958560181684016, 
            0.21719662662930447, 
            -0.36599265351345084, 
            -0.9394882251795378, 
            1.7739390095340892, 
            0.2244494744552217, 
            1.5817394419061275, 
            -0.22570480500557202, 
            -1.306423224005384, 
            0.5040340025010973, 
            -0.5157011963385023, 
            0.23428139426556568, 
            -0.37407388714768114, 
            1.2374371743262553, 
            0.20972276839123585, 
            1.213455983098685, 
            1.723204980843538, 
            0.350805386044117, 
            -1.0523424035521363, 
            -0.8061868010293067, 
            -0.265262702788099, 
            0.002219416079831797, 
            1.5723713431608617, 
            -0.6886465246541387, 
            -1.1229682692955019, 
            0.8471580212735531, 
            0.23829621215814842, 
            -0.4933537061130944, 
            0.1897618062356131, 
            -0.22642481341406068, 
            0.8779264874811409, 
            0.4763496878923187, 
            -1.279032305772878, 
            0.7779087612023395, 
            0.10688081571109924, 
            -0.10248164765966473, 
            -1.3664759709386738, 
            0.762348438330031, 
            1.4004264611143973, 
            -0.5964601235840609, 
            -0.7280655590496633, 
            -1.2641176203934963, 
            -0.27288055835845654, 
            -0.23298483522998759, 
            -0.5635648677991646, 
            -2.5277324364602176, 
            -1.0110333155579303, 
            -1.1155208720463992, 
            -0.014160454858061165, 
            1.450965738253253, 
            0.0012841260525159061, 
            -0.3818017560597639, 
            -0.48210613787340323, 
            -0.7904192278450968, 
            0.47216884534254844, 
            0.2968496774101084, 
            1.4751776837114567, 
            -0.4968943723032687, 
            -0.6415226411718665, 
            0.6345995174793884, 
            0.7833758311271015, 
            -0.2543716596285807, 
            -0.4199746730843468, 
            -1.4755300044443154, 
            -1.629495729622541, 
            -1.6655594648183925, 
            -0.8687451264310669, 
            -1.372900641998077, 
            1.411024032484195, 
            1.1229216558532722, 
            0.38292402265196773, 
            0.7398176861516134, 
            1.6203133561472403, 
            0.8570420412921526, 
            1.2518084181734122, 
            -0.2888362293393749, 
            0.7945494035431558, 
            0.9986139068850501, 
            0.7054954585985046, 
            -1.0498986669968218, 
            -2.133391471762044, 
            -0.3790869728662554, 
            -0.6657639601164835, 
            2.0057995337763024, 
            -0.4257467600380701, 
            0.5050034455592222, 
            0.058891089977058, 
            -2.1872768855653395, 
            2.962149879391754, 
            0.01289155934379555, 
            -1.1140003142038832, 
            -0.3591295488294837, 
            0.6478621108022528, 
            0.37247496297051963, 
            -0.05573617228879503, 
            -0.4333083811927539, 
            -2.088791002385526, 
            0.5025863871215074, 
            0.19411193938018906, 
            1.2577044845076357, 
            0.19869524970319866, 
            -0.6986588159791882, 
            0.37136821823516497, 
            0.6940133350097945, 
            -1.5785053030752656, 
            -0.4431429079567721, 
            0.4724329615007365, 
            1.4991465146262035, 
            0.20923088020933203, 
            -1.2541977214707678, 
            1.7465444771682819, 
            0.6422730700868489, 
            0.5264276333459424, 
            0.06826126944116082, 
            -0.23465848368813289, 
            -0.3754558573846197, 
            -0.02540807599476798, 
            -0.6704708806953906, 
            -0.9347673822777328, 
            -0.06923577051813223, 
            -2.439135365062788, 
            -1.287403280583646, 
            -1.45172855492468, 
            -2.4163591928030574, 
            -1.014659468747965, 
            1.6762269798554623, 
            -0.8966769079781135, 
            -0.32073436685964113, 
            1.2803243195250829, 
            0.481378489929276, 
            -1.3440575947857702, 
            0.0805448726954509, 
            0.49280965936408055, 
            -0.37007700316762665, 
            -1.2946759172963536, 
            -0.9332773954302896, 
            0.1210520779893296, 
            -1.848673190483551, 
            -0.9475805774913972, 
            -0.17763713258675545, 
            1.1147275996455874, 
            0.9854667636438653, 
            -0.267762234629536, 
            0.5909686064364266, 
            0.6782956961322611, 
            1.2098537141155843, 
            -0.07656652138516118, 
            0.3429306695328517, 
            0.1562473050916228, 
            -0.22767682179469745, 
            -0.5952177008425397, 
            -1.2092635296409535, 
            -0.4436850370394051, 
            -1.0574429392355496, 
            -0.8898973136154673, 
            -0.9387772779145142, 
            -0.714465448608944, 
            1.028710037260065, 
            -0.5224238978969027, 
            0.21180348506170318, 
            1.270180831458992, 
            1.3364956651889364, 
            0.6639464621148068, 
            1.1064177814109684, 
            0.5050802560848904, 
            -0.475991847568941, 
            0.46107244033468386, 
            0.7900568384248116, 
            -1.1758935503801098, 
            1.068282285678501, 
            0.6113755661633999, 
            0.1310379807771505, 
            1.2117013614619991, 
            0.21853361322139273, 
            -0.4745187897350175, 
            -0.07752352672747312, 
            1.0028314879942004, 
            -0.20110695004219262, 
            1.631677409295058, 
            2.5780571585339582, 
            -1.0734480052710988, 
            0.20494619209902612, 
            -0.3950864041990025, 
            0.636323078639107, 
            -0.5239692485379667, 
            -1.924335656359005, 
            0.3303270007181437, 
            0.7189952448421273, 
            -2.6000037250551045, 
            -2.0668120243689057, 
            0.16287773402067696, 
            0.3695828466969378, 
            -0.4832216800818015, 
            -0.010133870379254119, 
            -1.0306442559444826, 
            1.4959021061575921, 
            1.7965156338317552, 
            1.0616000103268373, 
            -1.3431895441941488, 
            1.0482124716437604, 
            0.5111035128121043, 
            -0.27334789065413145, 
            -1.039991815961024, 
            -0.9250286082737449, 
            0.17789421615020332, 
            -0.4580286119848976, 
            -1.2044213393202603, 
            -1.2573809531279039, 
            -0.6465330546452284
        ], 
        [
            -3.046198498613334, 
            -0.6807402972942593, 
            1.5556930164788638, 
            -0.2706802724217463, 
            -1.1752879180534497, 
            1.0275304197070663, 
            0.3238090440842867, 
            1.2123095837432993, 
            -0.6548813507475622, 
            1.2380816673885822, 
            -1.0317836663880868, 
            -2.6521880610836073, 
            -2.813771419932302, 
            1.473166838422947, 
            -0.9859878379394955, 
            0.2677160840499456, 
            -1.9801833156013833, 
            1.1689523788321547, 
            -1.4110421930582187, 
            0.08062635652679437, 
            -1.4146089082720408, 
            0.004145795771125897, 
            -1.2779202318860008, 
            0.013364844823964698, 
            -1.3311325590187677, 
            0.4062097163985557, 
            -0.2163744491230153, 
            -0.780501496073156, 
            -1.8632915582575653, 
            -0.5378198961829286, 
            0.45812673864787185, 
            0.2651705607610442, 
            0.43250757443084586, 
            -1.1412376708890128, 
            0.9722860429020262, 
            -0.23816777463574892, 
            0.3114520373569035, 
            0.04680507890054989, 
            -0.5887430027881725, 
            0.2618007955141082, 
            1.1975134388554938, 
            -0.31867204728475373, 
            -0.708631813287053, 
            -0.1632539168705589, 
            0.487999971544896, 
            -1.7104818053583952, 
            1.0874572560446476, 
            -0.6256204310624546, 
            -0.7029603577158825, 
            0.5528148064065306, 
            -0.6919846262082411, 
            -0.9640894766578274, 
            0.010476416240156572, 
            -0.15084200578957616, 
            0.06110607389819845, 
            1.2782977748222886, 
            -0.39215772827564116, 
            -0.12348506059508989, 
            0.41920960276973157, 
            0.21431923946424072, 
            -1.176319858437013, 
            -1.425302144298781, 
            -1.4055662334222192, 
            0.6632968601252582, 
            -0.00549152051964597, 
            -0.7399065088094341, 
            1.119939208517575, 
            0.6669508566277403, 
            1.1647510699706096, 
            1.3986292172512438, 
            -0.002618539607278931, 
            0.9101731624761191, 
            0.8562169417842866, 
            0.8454586802796556, 
            -1.612466195629514, 
            -0.49369313075040644, 
            -1.0004934772208485, 
            -2.463870898930823, 
            -1.1783228499142562, 
            0.12071050737388025, 
            1.0425946917964721, 
            -0.629944140746279, 
            1.4672625977077198, 
            1.9660308325879925, 
            1.0565276067905338, 
            1.5060072805711024, 
            -0.1747286949877437, 
            -1.8920084549007719, 
            -1.3354725475318097, 
            -0.008424390710576744, 
            -0.25497762921443246, 
            -0.37258633232698396, 
            -0.37297016509010555, 
            -1.354832385075747, 
            -1.0221021966053898, 
            0.8700932810716421, 
            1.276539016043501, 
            1.7123916208904715, 
            0.5754699350585287, 
            0.8089507648433447, 
            0.146506818930092, 
            0.6431495967670193, 
            0.18550259612600983, 
            -1.2646569509484367, 
            0.5864630403672876, 
            -0.5357941690267928, 
            0.36008093608018876, 
            0.0497481585545419, 
            -1.6926408073025394, 
            -0.9384808047403991, 
            -1.008590014407683, 
            -1.1857545607042401, 
            0.6455046388203628, 
            0.5911454280799904, 
            1.51020479864129, 
            -0.5739208294321824, 
            -1.40954364954176, 
            -1.2549411183134949, 
            0.3199656214715993, 
            0.6216620776197531, 
            -1.6031315503022503, 
            -0.6114303845242286, 
            -1.4060046854996513, 
            1.0053928178109506, 
            1.643533588996923, 
            0.5879318251581049, 
            -1.2158713651258022, 
            1.5701564472648406, 
            -0.7499932210929113, 
            0.049883887047323605, 
            0.8914667889954043, 
            0.4889325483934361, 
            -0.5852314278957522, 
            -0.3787232621488238, 
            1.370476217250364, 
            0.6432070510265413, 
            -0.8841809791616972, 
            1.3801916703639006, 
            1.2320983121083156, 
            0.8337835106895822, 
            0.06734442875526557, 
            1.486909383439996, 
            0.41030389425046826, 
            2.301552304446975, 
            -0.5708331543279573, 
            -0.9998506321444657, 
            -0.5817527264489717, 
            -1.1342050623026962, 
            0.777957063566082, 
            1.4086805278319754, 
            -1.411462626798094, 
            2.469545214833919, 
            1.4933030878092253, 
            -0.345146367770096, 
            -0.20320113409252819, 
            0.3841758160214195, 
            0.14843093146614297, 
            0.6828103158374208, 
            0.12249957986014354, 
            0.7783137346034075, 
            -0.5955294926020013, 
            -1.5510202369474424, 
            -1.406866702088101, 
            -1.3079506584842668, 
            -1.8772693142276058, 
            1.4995665169543033, 
            0.05079540221882852, 
            1.692012803872424, 
            1.7403033519069766, 
            2.4933574137048367, 
            2.710957500568326, 
            -0.31713197378873087, 
            -0.46963343090722787, 
            1.0779203381345883, 
            -0.5848251758682943, 
            0.16105189865488145, 
            0.36900153242831724, 
            -0.7196187110331114, 
            -1.4640092059139078, 
            -0.685138893292322, 
            -0.11361144681067024, 
            -0.5594433067818466, 
            -0.5283480166639047, 
            1.939541830770474, 
            -0.3263380129332637, 
            -0.8058390228712008, 
            1.1925955014570073, 
            -0.9839850748926001, 
            -0.7406746110478065, 
            0.23336148388857264, 
            -1.3063993083505023, 
            -0.7425464203744887, 
            -1.3574719238545636, 
            -0.14022713380847832, 
            -0.5699554644537135, 
            -0.21732834185031322, 
            -0.5447253261882944, 
            0.031443414960621016, 
            -0.18416193164770772, 
            -0.1100239349791428, 
            -1.0815002910243225, 
            -0.8858253150728651, 
            1.2391930328475473, 
            0.07840744546948825, 
            0.1993706918799816, 
            -1.2105401302025243, 
            -0.59973770785144, 
            -1.7557045142072254, 
            -0.977132214862106, 
            -0.1427657029566773, 
            -0.10900184768374459, 
            -0.8751285729690546, 
            0.3305512376415099, 
            0.22213287975014645, 
            -1.2603758779142245, 
            0.9897763273506606, 
            0.17371722086655011, 
            -0.8713150078547378, 
            -1.549543580229651, 
            0.6121085697464095, 
            -1.36199127163029, 
            -0.5766629625163786, 
            0.36377150574912964, 
            2.2863922438418194, 
            -0.05174459034307937, 
            -0.14689508180623237, 
            0.6594881034794812, 
            1.0976469968662474, 
            -0.16420633817713962, 
            1.0075545337804903, 
            0.25469773218402914, 
            0.3300521540319224, 
            2.430039519660333, 
            -0.8158663079644074, 
            0.8845325653659478, 
            -1.85482864899091, 
            0.46109855544568124, 
            3.514161657585861, 
            0.05691641663476427, 
            0.39388421064111095, 
            1.1818523239597878, 
            1.6852430497707713, 
            0.6908093183831797, 
            -1.6711809649593339, 
            0.30223626675118775, 
            0.3613117069574615, 
            0.9864486688758554, 
            -0.37986662705654106, 
            1.159625090820197, 
            0.29251400018720924, 
            1.7150402196019725, 
            -0.6445111081486435, 
            -0.10719976855615684, 
            -0.41067037673511536, 
            0.5292832695491462, 
            -1.2558061970038803
        ], 
        [
            -0.7840342341585439, 
            0.9375364431545454, 
            -0.8635735275207046, 
            -0.8144504427912045, 
            -1.7212873437082274, 
            -0.4678740344687848, 
            0.7390960397927825, 
            -1.314792917467159, 
            1.717195940775748, 
            1.0591334727874153, 
            -1.6779169048395537, 
            -0.6373327595348177, 
            0.8119264376504407, 
            0.01659281109023738, 
            -0.22057834880725904, 
            0.023243501685968688, 
            -0.720313769596762, 
            1.215123867187884, 
            -0.22962721788296547, 
            0.4164596603942044, 
            0.3867064848528659, 
            0.7153522147569438, 
            0.5829613315810883, 
            -0.26674397996757787, 
            0.27541257930181523, 
            -1.1175488324770488, 
            1.2608770096005093, 
            2.575879847496229, 
            -0.26925691402233565, 
            0.9548816328065459, 
            1.7740020385297555, 
            1.2769496589637805, 
            -0.045174586882138386, 
            0.27893648590787545, 
            -0.31290293210694725, 
            0.18658272835067236, 
            -0.549894520342639, 
            -0.06071891659312918, 
            -0.41267491007145857, 
            0.2026911035110159, 
            -0.01572441187009598, 
            0.5003045676549813, 
            0.4458828467019491, 
            0.46365869416095734, 
            -0.841548661130931, 
            -0.780307638106936, 
            0.552090950253995, 
            -1.6476423147017771, 
            -1.123659236986327, 
            -0.923545766466279, 
            -0.16956330133862074, 
            1.0777729504568825, 
            -0.014336955239927465, 
            -2.9358275061582515, 
            0.6894284907190413, 
            -0.8606960543931064, 
            0.9367078253598261, 
            -1.7904002358107622, 
            1.0711443454409695, 
            1.0718569808860157, 
            -1.6819195765643735, 
            -0.9342886526132537, 
            -2.1289903301411806, 
            -0.20470287820807154, 
            -0.12279959471453102, 
            -0.8720039441182695, 
            0.41039813576988815, 
            -0.3986238823928058, 
            -0.4623840285230048, 
            0.9528276736124899, 
            0.06393072246391383, 
            0.9466920208454297, 
            0.24870569464250378, 
            -0.7268434536953744, 
            -0.8323893523896754, 
            0.3814039655099282, 
            0.10376409297195228, 
            0.32115454108010943, 
            -0.6715448344320208, 
            0.3058178960485576, 
            0.26065142538263936, 
            -0.8325957549712685, 
            -1.270717367256284, 
            -0.7210892595903355, 
            0.8504634225657376, 
            -0.6304731418898754, 
            0.16962137281324663, 
            0.839426933566323, 
            -1.0251083027216372, 
            -1.1439943756089206, 
            1.14229190835056, 
            -1.0441804319591825, 
            0.027592377397066305, 
            -1.0898034536175194, 
            0.7398847766680767, 
            0.0775252828218564, 
            0.05622858254422832, 
            0.49275114915225887, 
            0.7238209206827727, 
            -0.053339014396369004, 
            2.003158368253151, 
            -0.3968898014649679, 
            0.7291431165268446, 
            -0.07907556714206318, 
            0.17817325759048228, 
            -0.5236497833058431, 
            -0.2243755180506083, 
            -0.2743051178763691, 
            -0.2952064205300551, 
            0.7510559470561852, 
            -1.0321828056889675, 
            -0.1449877209728078, 
            -0.40908206355239185, 
            0.8149469976405765, 
            -1.0930679634260956, 
            -0.5378590773857977, 
            -0.10832386632972174, 
            -0.9276687475510899, 
            -0.22771076473718382, 
            0.4592011291782619, 
            -0.427226293594403, 
            0.5814423537971032, 
            -0.8600781567753011, 
            -0.7351749000646803, 
            0.6494465697417665, 
            -0.32443376868485047, 
            -0.5511844916432854, 
            1.0020289866741021, 
            -1.1480115914798394, 
            2.7478865830299513, 
            -0.14925858733111405, 
            -0.2284327988144768, 
            0.060074582511629296, 
            0.8015469741783303, 
            -0.16287039294729097, 
            -1.5890468815417709, 
            1.1089991661392125, 
            -1.7873894768092664, 
            0.9375356158528181, 
            -2.0864444716598713, 
            0.12472790048682825, 
            -1.4462037339729865, 
            -1.3856324141216476, 
            2.0290775006021304, 
            -1.2545312033581333, 
            0.6668056554905841, 
            -0.5180688508990733, 
            -0.7524668605389825, 
            0.15641672901292922, 
            1.1130820162861668, 
            -1.4044420396594177, 
            0.5263320627152032, 
            -0.6708867857076513, 
            -1.072365690689133, 
            0.5528785542733711, 
            0.10516632736227813, 
            -0.013332970902540976, 
            -0.22526257140386644, 
            0.7463244377709574, 
            -1.7506913389857812, 
            0.0064237258406220545, 
            -0.7111168940494331, 
            0.06273584945022419, 
            -0.09812538009489348, 
            0.6463820594905065, 
            -0.7035223271136304, 
            0.7353887010668514, 
            -0.11032916503320515, 
            1.3491090141328785, 
            -1.3334040157368576, 
            1.4476575450617302, 
            0.10771502857281368, 
            0.44495424026951275, 
            2.23583871280495, 
            1.1793266258211272, 
            -1.8323788943268333, 
            -1.1430866998351965, 
            1.4514611604142804, 
            -0.8005184953763999, 
            0.27312896731298303, 
            -0.25964214401367963, 
            -1.6147473244662824, 
            -0.8405660952022471, 
            -0.7409816568901417, 
            -2.389623749443107, 
            0.6498911761755377, 
            -0.8942720088020161, 
            1.0164292856795376, 
            0.31986354525624766, 
            0.03431660644572038, 
            0.2891763134707552, 
            -0.45462596901725744, 
            -0.1948539882426554, 
            -1.1997957704234428, 
            3.2714575705086437, 
            1.782256434677401, 
            -0.0388347433597218, 
            0.10317201610491641, 
            0.37254820788094184, 
            1.9683417422425242, 
            0.9231844658946161, 
            -0.3502045264919026, 
            -1.3042395196804148, 
            0.20405917544863236, 
            -0.09701125123443131, 
            -0.3305071638604975, 
            -1.1119651581075247, 
            0.4341026272845804, 
            0.21150628499672017, 
            -1.4680826454362492, 
            0.23580588237082842, 
            -0.006143835339643498, 
            0.0761227274450938, 
            -0.049511624600653024, 
            -1.6944423523665488, 
            -0.5909310403566728, 
            -0.9567713639076634, 
            -0.061411581723362085, 
            -0.1718094528536852, 
            -1.1353774818865832, 
            -1.214899620529088, 
            -1.1645030155767502, 
            -1.1471521343424507, 
            -1.0966203219968154, 
            -0.3671595395634099, 
            -0.9969225044108248, 
            -0.7204180082136044, 
            1.6651385755417303, 
            1.402975320259024, 
            -0.09579594992775013, 
            -0.9037268003767867, 
            -0.4116084335669853, 
            0.06017155622257497, 
            -0.7437734510698268, 
            -0.33148074829558105, 
            1.1899752099611034, 
            -1.5846302786056823, 
            -0.10815201464625726, 
            -1.2631729912044805, 
            -0.19496106459094326, 
            -0.5363651732842312, 
            -1.131056575735802, 
            0.21580833211590292, 
            -0.1390708066908926, 
            1.2888383905917653, 
            -0.8126825793871325, 
            -2.5676873611336273, 
            -1.6692408416452331, 
            -0.68555586049276, 
            0.25951604464663575, 
            -0.2961549571219669, 
            0.8094415005470231, 
            -0.5794302358992427, 
            -1.6199699010934678, 
            1.2542996502747716, 
            1.0004162870482545
        ], 
        [
            0.6371122895426883, 
            -0.5835070589676817, 
            -0.11919099198152427, 
            -0.6663812230160191, 
            -0.1604203929892957, 
            1.0584701290345004, 
            0.3263541653931124, 
            -0.5516510814797684, 
            -0.24893808082318974, 
            -0.7400023763074636, 
            -0.2700624650256841, 
            -0.44098025123470047, 
            -0.47489467167246807, 
            -0.22263319158859524, 
            -0.7800022303773083, 
            -0.4338289624314318, 
            -0.5287276226377893, 
            0.5707886830072373, 
            -0.037813059499709416, 
            0.3350333388041931, 
            -0.195943250116233, 
            0.8711930351501231, 
            0.36552864414586905, 
            -0.14609114630755626, 
            0.46531900621421896, 
            0.5547641577478674, 
            1.432914436696459, 
            0.4768790454001901, 
            -0.7185340351209427, 
            -2.9825472194618596, 
            -0.22898742599222635, 
            -1.5784822059035906, 
            0.2648518740581094, 
            1.6443650603966797, 
            -2.6744234853328455, 
            -0.6878859477142795, 
            0.7124815068391265, 
            0.715484917055998, 
            -0.44448511007110486, 
            -0.26920642673499384, 
            0.8459582142482873, 
            -1.6810114081162455, 
            0.646290544074454, 
            0.2922570444313295, 
            1.134708967693011, 
            -1.3464437423475675, 
            0.3863669646818304, 
            0.5425964120813047, 
            0.04597402391392687, 
            0.4041003992457596, 
            1.8145172068809678, 
            1.6074595833698666, 
            -1.6058245219533362, 
            -1.3441941250314444, 
            -0.23380786436647014, 
            -1.2278486000722277, 
            -0.9392235007162281, 
            1.0503382008117226, 
            0.3718605627638653, 
            -0.241042146496416, 
            -0.6555418079140407, 
            -0.47810256116510896, 
            1.8026045558154358, 
            0.7946360399160426, 
            -0.8477755079567292, 
            -1.6737699901576337, 
            -0.8148182597915231, 
            0.5943594620992269, 
            0.5702845226796275, 
            0.41796157265162015, 
            -0.3355981331902506, 
            -0.24104514600626073, 
            1.4491004009319413, 
            -1.5458879060985835, 
            -1.8837995249951671, 
            -1.0987570772116344, 
            -0.6418268503775023, 
            0.7373017675074905, 
            -0.14019945976283354, 
            0.7898177393482589, 
            -0.059959641069612386, 
            0.7285008848683081, 
            -0.3654031507729415, 
            0.5397314418430859, 
            0.7198648882115367, 
            -1.2758286303569661, 
            0.6856713895781569, 
            -1.7409001720789838, 
            0.3879461964257764, 
            -1.9485840704644026, 
            -0.630682344139559, 
            0.4460197805292946, 
            -0.19524440804480506, 
            2.042493489652796, 
            3.1267685065410493, 
            0.9687873193797598, 
            -0.5342137770611236, 
            -0.38306619714504864, 
            -0.68724945669926, 
            -0.8986185432680464, 
            0.3350042202611075, 
            -0.949885275324396, 
            -0.48381331938264005, 
            -0.2832866527145341, 
            2.2861296577631607, 
            -1.3513683222203394, 
            -1.8584422508995748, 
            -1.0360968110830913, 
            1.019247018302814, 
            1.7966065330686947, 
            1.340284993167303, 
            1.2220483433627707, 
            -0.881522574160451, 
            0.6690380772974661, 
            0.8227649593699712, 
            -0.6537338275822513, 
            1.5051034683839444, 
            0.36126587915576835, 
            -0.34067631713233115, 
            -0.05132816413181455, 
            0.05874711027957717, 
            -1.2918057753404577, 
            0.8222087891328722, 
            -1.1187569302083928, 
            -1.049139219298893, 
            1.6158696684307625, 
            1.5258526613095258, 
            2.1780576019562052, 
            -1.0037757640222669, 
            -1.5030584070720565, 
            -0.4553426646105071, 
            -0.4750289563528523, 
            2.0631167787538613, 
            -0.1681337356911784, 
            1.0540250938541333, 
            1.734219854538073, 
            -0.49598131263100204, 
            0.20050658221282552, 
            -0.5190812035843664, 
            -0.9385179862899203, 
            0.7128445838770162, 
            -0.7390915565983315, 
            -1.1080516486399632, 
            0.14199918315427262, 
            -1.3171232263566899, 
            0.5755837663944587, 
            -0.6402536385791172, 
            2.0732320284208208, 
            0.6490460349141066, 
            0.9890445046819615, 
            -0.14027326096376774, 
            -0.6205136196539074, 
            0.6174752550052988, 
            1.7692142045073724, 
            0.3653372596231884, 
            0.5631722908432192, 
            -1.0599413358562646, 
            0.3914692719351379, 
            0.1698711718297698, 
            0.42737120709242077, 
            -0.9260234960236791, 
            -0.29710691366913944, 
            0.7977275798570499, 
            0.4167677257447989, 
            -0.9777356932653025, 
            -0.012629897258596706, 
            1.2102123520900059, 
            -1.2170129884682668, 
            -1.0633119638997142, 
            -0.29889166175433934, 
            1.5755128045133335, 
            0.44776693598364437, 
            -0.05369926051233947, 
            3.181337205317376, 
            -0.0689472261579133, 
            -1.2878059038801146, 
            0.8381687548843914, 
            1.0692234346920113, 
            0.37203677653779177, 
            1.0055212194212537, 
            -0.702412249646564, 
            1.2649975099217567, 
            0.33091640223711816, 
            0.3890910393750486, 
            0.45835891752312236, 
            -0.9470098568354753, 
            -0.6701778092453311, 
            0.931362156370795, 
            -1.421449826106403, 
            0.9146100720164331, 
            -0.7965977434059667, 
            -0.14521922441955912, 
            -0.2721262335504307, 
            -0.962179679490839, 
            0.8250852081354856, 
            -1.144072454613622, 
            -0.5813173867949251, 
            2.2895309426474024, 
            -0.03755610113255278, 
            -1.8931087388330075, 
            -1.4440301806326803, 
            0.16984496816021427, 
            -0.8051178530268261, 
            -0.49924466721840804, 
            -0.79424338838348, 
            -2.452688497038279, 
            0.21863474196653157, 
            0.43809806473683327, 
            1.0401168493404838, 
            -0.35990090130216756, 
            2.371424694376902, 
            -0.4013335668664824, 
            1.3979174235618814, 
            1.3181119582033278, 
            1.8897996432183926, 
            0.2979342602865241, 
            -0.04057370547568197, 
            0.6965916361187992, 
            -1.218383852218484, 
            0.4852901826870539, 
            -0.16249412060033278, 
            -0.6638116715762491, 
            -1.1724759571947276, 
            -0.10858856179954077, 
            -0.6859264705715391, 
            0.7407264881949275, 
            -2.066394950045101, 
            -1.0804205329891192, 
            0.9357673685420046, 
            -1.0122135500990708, 
            0.295181901350775, 
            1.1455910607178286, 
            0.050057939251490345, 
            0.4837526964411179, 
            2.182471185598518, 
            1.3290602962873215, 
            -1.012628604579061, 
            -0.290613712395487, 
            -0.8855801428847052, 
            0.1393001259080446, 
            0.06709168067839005, 
            -1.0511380616038022, 
            2.5008348738108634, 
            -1.1023909448754048, 
            0.5928650793377026, 
            0.7766106010353676, 
            0.8653923834987229, 
            -2.0711071615512844, 
            -1.1908164057186503, 
            -1.010080305139087, 
            2.5186899073295805, 
            -0.38788546709855504, 
            0.5036816683932133, 
            0.650731550701849, 
            -0.5453751562529552, 
            -0.8350410943601779
        ], 
        [
            -2.0704308846512625, 
            -0.004421527753755703, 
            1.0653577867682138, 
            0.3978463326309779, 
            0.7546387011601293, 
            -0.9560813658278664, 
            -0.45757217589069166, 
            -0.14592880528837956, 
            0.3444611193105695, 
            0.4521837177622264, 
            0.5371231182836055, 
            0.15191986817756017, 
            1.0511522217700817, 
            -0.7157443425397343, 
            -1.135882323449359, 
            -0.4199206515079693, 
            -0.024550036426272567, 
            0.8415341346683479, 
            -0.5949620862757207, 
            0.07248950745161435, 
            -1.351301729421437, 
            1.2247521257642722, 
            -1.7421457362473949, 
            -2.0529303199076545, 
            -0.2502787785580167, 
            -1.9430839370510122, 
            0.2813276087442706, 
            0.6621233065260937, 
            -0.5419380702112037, 
            1.3628451003873723, 
            -0.41494416327296757, 
            -1.0183795305587084, 
            0.14568234950380146, 
            -1.1382941021600899, 
            -0.48581431170262157, 
            -1.3398299114961958, 
            -2.25162675821099, 
            -0.4870762633769192, 
            0.13884217703784757, 
            -0.4889791209554665, 
            1.0109773591030353, 
            1.3260382889240867, 
            0.2951414400713586, 
            -0.29539559321417563, 
            0.21693157202182184, 
            0.3469367929086225, 
            -0.36673306583530296, 
            -0.9929649172836499, 
            -0.9287203406316463, 
            0.9581592170940398, 
            -0.3333407613531381, 
            1.337542956359501, 
            -0.03228613945370572, 
            -0.5025775343139278, 
            -1.3965337005455751, 
            0.6059761990666137, 
            0.08263173529152505, 
            -0.8611630783438706, 
            -0.1216073808195148, 
            1.5816284691172906, 
            -0.3951278510364442, 
            1.0573683827110893, 
            2.8076417037385406, 
            -0.06448640377873006, 
            -0.4267768557030227, 
            -0.6065002128269616, 
            0.6644835034051245, 
            -2.456688115967992, 
            -0.8618656053961687, 
            -0.42585447734017484, 
            -0.520428761054795, 
            0.22761920110706524, 
            -1.6177577834265768, 
            -1.22424543626502, 
            -0.12338526881102585, 
            -0.8999442240222941, 
            0.6846724396995951, 
            1.2555217622660353, 
            0.5396438377622953, 
            0.7709971915352009, 
            0.21032897663308728, 
            -1.0061952132051728, 
            1.3077623526941329, 
            -2.04927815100171, 
            -0.48253072288252397, 
            0.37213014187742294, 
            1.4471436137424114, 
            -1.881751930574654, 
            -1.6562013786758332, 
            -0.27219362143674036, 
            1.5632279914369633, 
            -0.7413679860003918, 
            0.22439787050492463, 
            0.4368835951486882, 
            -0.7900282028113362, 
            0.8403010299182425, 
            -0.13029188862365926, 
            0.03784973480358851, 
            -0.8134601835596079, 
            -1.8510523367598066, 
            1.6906953436891197, 
            -0.3806141113559868, 
            0.24806016132269623, 
            -1.3317126600265614, 
            -0.14337377977478685, 
            -1.2848597656123295, 
            -0.4633930773712915, 
            0.26834091301941043, 
            0.43225171711955296, 
            -1.2113818642772374, 
            -0.29360361976440436, 
            -0.5395789008843036, 
            0.22012305058327383, 
            -0.6232869575962285, 
            -0.023076056452786316, 
            0.2999831159916297, 
            1.4177241329185906, 
            2.292728317320414, 
            0.18153608552726538, 
            -0.9291797619204019, 
            -2.4911040741981716, 
            0.1206403887409069, 
            -0.8200795583507433, 
            1.41639429069584, 
            -0.23299231742494356, 
            -0.9110701331723068, 
            -0.8538409876334428, 
            1.1668694517478058, 
            -0.38815554300691485, 
            0.6600575487514652, 
            0.2787478274736552, 
            0.6438517175344587, 
            0.4535096055952079, 
            -1.9500846402703262, 
            0.31066243851748615, 
            0.2895685584445955, 
            -0.8082038773613802, 
            0.8708593001410959, 
            0.057040370713962514, 
            -0.6650880119467696, 
            0.5922700602716983, 
            -1.0415072331563004, 
            -0.2051804609350425, 
            -1.1927063262991384, 
            2.4315913897434913, 
            1.782667724814965, 
            0.7074960052358176, 
            -0.3992685112752692, 
            0.10182124240612227, 
            1.5443973252958783, 
            0.5159341066260231, 
            -1.403302271571068, 
            1.2776443441413199, 
            -0.09622202511974162, 
            -1.3374585998225432, 
            -0.49767733392721686, 
            0.33045126210451403, 
            0.019091071690208423, 
            -0.98985434696399, 
            -0.1213601369394792, 
            0.2245748773724469, 
            1.4506543151404958, 
            0.24953335959434245, 
            0.7475605520945052, 
            0.6243853748511213, 
            -0.6037889884115811, 
            -0.4757088349218831, 
            2.0502924840648458, 
            1.10488536285691, 
            -1.9881434561454638, 
            -1.3023179547204966, 
            -2.094123032225462, 
            0.11534738901036792, 
            -0.40570582823441, 
            1.7958313117619245, 
            1.930053164032035, 
            -0.8313241109390631, 
            0.17543590197830058, 
            -0.41050566797496696, 
            0.6876663761857927, 
            2.2151161070297056, 
            -0.6251949270934015, 
            0.5727598707939543, 
            0.6184007225822187, 
            -1.8627661613406867, 
            0.7807199250488501, 
            1.7199090339626593, 
            0.8420571751775661, 
            -0.7667488168403988, 
            0.19162316428642548, 
            -0.580273577444941, 
            1.5178446779741706, 
            0.07908065041646098, 
            1.7513598888678548, 
            -1.4659147537398811, 
            -0.0719252609028726, 
            1.3287987195707158, 
            -0.24227094307817193, 
            0.3509195559872975, 
            0.27561268558019236, 
            -0.5879337259395169, 
            0.11894148364577707, 
            -0.42821603967679306, 
            -1.2350810079991381, 
            -0.7628663273803505, 
            0.025809545409424102, 
            -0.6379005356974309, 
            -0.9955941374791198, 
            -0.9022440455506272, 
            0.828535602090978, 
            0.22550460351018398, 
            0.42600936486432334, 
            1.2503181759289643, 
            2.220838307316552, 
            0.76779770281365, 
            -0.5027100730038472, 
            0.28122895012011595, 
            -0.1773092956050784, 
            0.17723381416952066, 
            1.269532243586062, 
            -0.8668455393360829, 
            0.38239326587304523, 
            -0.7066829858739371, 
            -0.08733336289006871, 
            -1.3850528979912953, 
            -0.9281796537670047, 
            0.691821839018456, 
            -1.2688863619852018, 
            0.47753742706836133, 
            -0.5524118819576996, 
            0.9058209924703143, 
            -1.0799177754693663, 
            -1.4675566951570438, 
            -0.08075346550127496, 
            -0.9307202197845215, 
            -0.44976904042180654, 
            0.2105472033098585, 
            0.5698260048899187, 
            -2.241611858499837, 
            1.2679801424210375, 
            1.230624846903609, 
            0.3783252511149472, 
            0.9082719332829783, 
            -0.8697905594677796, 
            -0.67046826152741, 
            0.609776216447179, 
            0.1149726477577384, 
            1.6021548980430331, 
            1.5779116890598652, 
            -0.5998136272591893, 
            -1.293903062078802, 
            -0.821227696269269, 
            1.324509074208931, 
            -2.149060959695671, 
            1.6824034832908161, 
            -1.4841587367355176
        ], 
        [
            -1.6746755581502393, 
            -0.8192870629910857, 
            0.6530598808869627, 
            0.12710070706447738, 
            0.834225093905657, 
            -0.03979007426369528, 
            -0.775461298606655, 
            -0.021605766968616897, 
            0.22633661166998997, 
            -1.5402816042582392, 
            -0.3242824332343888, 
            -1.3860853580929493, 
            0.9159345826886276, 
            -0.8319912103208176, 
            -0.6502277856629063, 
            -0.20813928799652523, 
            -0.1896306342666362, 
            0.1859375361870711, 
            0.659405372677643, 
            0.17619767708825174, 
            0.31497874319908625, 
            -0.0996922871830686, 
            -0.28766590060522984, 
            -1.101362964580696, 
            -2.1106432061080027, 
            1.0681218863413389, 
            -1.839479052904084, 
            -0.7963224788738864, 
            0.5669490695952996, 
            1.2871217843235667, 
            -1.5412491568768394, 
            0.14717202976585522, 
            -0.9112499111329003, 
            0.12691740267043727, 
            -1.2931493483739418, 
            -0.8522448123118156, 
            1.4877476380790693, 
            -0.37632622160399537, 
            0.017800854741331855, 
            0.6653810484159262, 
            -0.1872379276548888, 
            -1.946176678020608, 
            0.13733387774271003, 
            -0.47843288303757164, 
            0.2762804132997885, 
            -0.9388165385569759, 
            0.374496348780711, 
            0.22560471515315075, 
            -0.10195714124187978, 
            0.42834221699913827, 
            -0.2503457900370683, 
            -1.6422527349825442, 
            0.06323521124899538, 
            1.1637710745499843, 
            0.8832349868010569, 
            0.052568398712946204, 
            -1.685486955567682, 
            0.9981945315071952, 
            -1.2036409407177298, 
            -0.6325919749737379, 
            0.4731973155258749, 
            0.013382498537579095, 
            -0.4097558970178518, 
            0.44373117306962967, 
            -0.6314576877496152, 
            1.5350708081431925, 
            0.17389597913210225, 
            -0.758461785222821, 
            0.16393811324921326, 
            -1.2812986680419947, 
            -0.12099486347236182, 
            -0.9781289847498569, 
            1.255951478612917, 
            0.6471427070978161, 
            -0.8403552617077092, 
            0.006379023432980127, 
            -2.6963186808116277, 
            0.2903434749928093, 
            -0.24580456786250854, 
            -0.5753346656027333, 
            -0.8468461205846899, 
            0.6370533696831332, 
            -0.9605573540244852, 
            -0.549870749917653, 
            0.7225873359957278, 
            -0.8804973562210802, 
            1.6972436221057405, 
            1.035385849268927, 
            0.5790800150638684, 
            -0.8435879335257999, 
            -0.10469263769196341, 
            -0.9046976244513231, 
            -0.6667343252272884, 
            -0.8898266901701825, 
            0.012980385316971432, 
            -0.07129200104155534, 
            0.7957775704137227, 
            0.7313729780217008, 
            1.034982355583827, 
            1.0878478235456543, 
            -0.07985335652039463, 
            -0.5498967889860085, 
            -1.4931053462024166, 
            0.9242066392494175, 
            0.3634691706717086, 
            0.8933706493017269, 
            -0.0650124730719535, 
            0.18146356929893306, 
            -1.3135050764358793, 
            -0.41747313245294854, 
            0.1472327791182912, 
            1.700724247941654, 
            -0.6890339859052329, 
            1.5287027088959513, 
            2.200040834327416, 
            0.21722267073549198, 
            -0.22997201853155488, 
            -1.1018887713030783, 
            -1.470614362374238, 
            -1.188762317102828, 
            -0.16129163102206595, 
            0.612062515915201, 
            -0.6098326588868433, 
            -1.4108028732518794, 
            -0.5587784236453229, 
            -0.2239626718550743, 
            0.2543420718243366, 
            0.6432907250521576, 
            0.05383887702235328, 
            1.1898426141585912, 
            2.6872404434786046, 
            1.0881166892914769, 
            0.4811085126850012, 
            0.28979368159314267, 
            0.1752560579551949, 
            0.14551561508530397, 
            0.2661542482819695, 
            -1.204968858675475, 
            -0.07825653892730564, 
            -0.14560341792508277, 
            0.754522605615798, 
            -0.686437346881285, 
            1.614933377279787, 
            -0.5961569864326528, 
            0.2691561849273069, 
            1.4449658377611243, 
            1.4600926279908395, 
            0.1360526222101082, 
            0.7103130970157104, 
            0.7305770201962307, 
            -0.5878485164941988, 
            0.6752561095420054, 
            0.3519896979785829, 
            -0.11914429366769973, 
            1.3107909010656416, 
            0.3606202054266387, 
            -1.6193399727848763, 
            0.47082111610028243, 
            1.252239796812104, 
            0.3239485858907172, 
            0.07985221384393787, 
            1.909313923371719, 
            0.6437626015460399, 
            0.5246572408077591, 
            -1.628507364602239, 
            1.2264860016585892, 
            -0.9040239507587483, 
            -1.469997650029137, 
            0.6918270808563917, 
            -0.5190075867504491, 
            -1.160191527538039, 
            1.7618052112510314, 
            -0.6905178564908949, 
            -0.9977630920064194, 
            1.175581842346569, 
            -0.08664771669757348, 
            0.3426368867637443, 
            0.38829444635531535, 
            -0.24846908278385918, 
            0.5368895939149734, 
            0.1327552357469561, 
            -0.7779941567413541, 
            -0.5406290176116529, 
            -0.2681698767275951, 
            0.6585341497079552, 
            0.4082709375700282, 
            -0.5474971010261045, 
            -0.1753362901580231, 
            0.6247224943689597, 
            -2.510297095718601, 
            0.1184587101341684, 
            -1.3215070992172757, 
            0.28201668735364815, 
            1.2665947251098268, 
            0.7283075204479763, 
            0.14730758965537413, 
            -0.44387138450379937, 
            -0.44885261754883304, 
            -0.6529726898271061, 
            0.254483343753752, 
            1.1541834998360756, 
            -0.425830369789661, 
            -0.059107976578383965, 
            0.23145008661249147, 
            -0.912126526718336, 
            0.13556180805674223, 
            -1.974944802280243, 
            0.9855340958634493, 
            1.2036606069737819, 
            -0.7490533002080263, 
            0.006915742904760459, 
            -0.25446103981753226, 
            0.4119208131577776, 
            0.6221786856726035, 
            0.7956569926371108, 
            0.7343034531927938, 
            -0.4775998728985337, 
            1.4836257873622225, 
            -1.188230990018532, 
            2.289225592035951, 
            -1.0839244509303176, 
            0.9816019504394571, 
            0.2851555161302738, 
            -1.12972459742585, 
            0.046777703078716336, 
            -1.114728513931678, 
            0.5440415027801089, 
            1.9448203693431279, 
            1.3634592978609417, 
            1.1039319856233178, 
            0.08053200948276686, 
            1.5726373782937577, 
            1.9219646924307534, 
            0.6093315093331997, 
            1.58910458628598, 
            1.318328508389074, 
            -0.09528128348945406, 
            0.7365945322947897, 
            -0.2698475604242832, 
            0.770894054719141, 
            -0.7096841898775503, 
            -0.49387058909455156, 
            -0.5021497535622447, 
            0.473015192822158, 
            1.196481006397934, 
            0.5361808042717046, 
            1.0145092916335121, 
            -1.155834924645434, 
            -0.6611021313178952, 
            -1.3779974806340036, 
            -0.97686890875994, 
            -1.9461095681927756, 
            -0.800280338044127, 
            -0.34654750643317683, 
            0.17295877804123477, 
            1.7601757255956312
        ], 
        [
            -0.8269401764166214, 
            -0.3520276898216968, 
            0.015219869760180369, 
            -0.8148629735661939, 
            -0.49462118153466883, 
            0.6143564274315095, 
            0.33330155735620143, 
            -1.105373024963076, 
            -0.924351570910698, 
            0.011566927122888713, 
            -2.001431325327809, 
            -2.6062021007034675, 
            -0.9664915252705513, 
            -0.6150844926223199, 
            0.903665169127218, 
            -0.7288007150508773, 
            -0.08342417254885495, 
            -1.5846633790138331, 
            -0.13438406407120598, 
            -1.3430733023208419, 
            -1.3715405525908364, 
            -0.7476735630368855, 
            -0.8148672801079827, 
            -1.5294980278147148, 
            -1.985737006799632, 
            -0.9072923112723208, 
            -1.0336191692385357, 
            0.5204908320262258, 
            -1.2505737395509002, 
            0.8167475347036188, 
            -1.147921029082514, 
            0.7759761304412116, 
            -0.7535470844582689, 
            0.5792074149119911, 
            -0.9193178148976852, 
            1.70365928946569, 
            0.28298643681613467, 
            1.2802061935320252, 
            -0.8550459544947486, 
            -0.4308196448970567, 
            -1.1538912642074912, 
            0.5974121818671224, 
            0.04840328765177341, 
            -1.0143883816968988, 
            0.33680780835066476, 
            0.9248952670498395, 
            0.13616738199961032, 
            -2.01620016390963, 
            -0.6890278624852573, 
            -0.23517492840078072, 
            0.8102262994941782, 
            0.8658079606632398, 
            0.47617234676918047, 
            0.0962595441537976, 
            0.5931295471228603, 
            0.9340488084601225, 
            -0.6519104588830401, 
            -0.5256904862652321, 
            -0.0861238618252436, 
            0.9343335855313126, 
            0.4713815957732338, 
            0.45831336124147654, 
            0.15830280719699832, 
            1.0398327819110749, 
            0.13698981589838047, 
            -1.0111257789293986, 
            -0.4659862410796294, 
            1.3015719285312615, 
            1.5796326502124434, 
            -2.6710087081238427, 
            0.9037406174163927, 
            1.7814871406938577, 
            2.8947742552429556, 
            0.8505202085279921, 
            0.8953205454319798, 
            0.4519045777704695, 
            -0.08874377611098962, 
            0.49839473255037303, 
            2.0417230400419997, 
            -0.10360987201022895, 
            -0.7716933809908457, 
            -0.44303908982178025, 
            -0.17937110386974842, 
            -0.592605297609759, 
            0.34014241288568153, 
            -2.4823180370791684, 
            -0.18474318657719555, 
            0.4951007916710733, 
            0.7107650565529865, 
            0.921447871213716, 
            0.9468443192240898, 
            -0.9464729281102456, 
            -0.857688562776073, 
            0.8894982293690589, 
            -0.3838831514732598, 
            0.8512730617899085, 
            1.372662420050444, 
            -2.0310208875920504, 
            1.4685356083694094, 
            0.3870381637787441, 
            -0.1706434805467345, 
            -1.1236196054617866, 
            -0.532585131296752, 
            0.7955487959951634, 
            0.426962687861651, 
            1.074368734826853, 
            -1.799465253154688, 
            -0.14336739783553112, 
            -2.216547770293962, 
            0.002921507061480214, 
            0.4885162478271955, 
            -0.5254230665630951, 
            0.8587558795874007, 
            -0.5542721012225547, 
            0.15239819583817185, 
            -0.27480723671214213, 
            -2.79425694325427, 
            -1.716675971461486, 
            0.8178885846510211, 
            1.4296558255589393, 
            2.952601328523196, 
            1.0632506602750509, 
            1.4853880698133828, 
            0.9033039403289812, 
            -1.4898501568589637, 
            -1.8497433904390455, 
            0.8166631301704443, 
            0.1017861646946862, 
            1.0631235095935687, 
            0.06811058550156528, 
            0.09059436996603507, 
            0.1645042872783119, 
            -0.3823351296280639, 
            0.3345383745011385, 
            -0.3564118969685516, 
            0.21459361457144016, 
            0.6148004497724965, 
            1.6786385284128398, 
            1.2390961423718627, 
            1.0222274536321712, 
            -1.421597488994837, 
            0.41984322225590165, 
            1.7204927208073224, 
            -1.1782229075865343, 
            1.2024717074072224, 
            0.8093316666611996, 
            1.7856185352314713, 
            0.45976195010326504, 
            -0.17942454931965338, 
            -1.109812916445102, 
            -1.3846782384408602, 
            -0.872664131392877, 
            -0.4354189466914805, 
            -0.9467306133135933, 
            -0.008055951019393551, 
            -0.5427611222515409, 
            0.449324904587275, 
            1.1144370267861703, 
            0.3013526602062726, 
            -0.722269180711743, 
            -0.47383801444056095, 
            -1.0037538458282538, 
            -1.099279878696721, 
            0.2670834965915121, 
            -0.11442552574066757, 
            0.47095669902473736, 
            -0.9454644042830439, 
            -0.6557718528703175, 
            -2.070331187747031, 
            1.474387677487719, 
            1.0521168835185888, 
            -0.6796898497506295, 
            -0.5245473019465732, 
            -2.16257324255391, 
            0.623844002292202, 
            0.9285748739792935, 
            -0.3312654694250026, 
            1.3465208996294429, 
            1.438012998237818, 
            0.24921389827691268, 
            -0.638982193268137, 
            -2.1746537855598276, 
            -1.9960927092603582, 
            -0.26409028552580155, 
            -1.2641054001032845, 
            0.8224337283177711, 
            0.17813486757639949, 
            1.4166397985567767, 
            0.6443684703139625, 
            -2.4800535156557566, 
            2.1875212791811807, 
            0.5053741811059087, 
            0.8798116477266713, 
            0.19181918887893584, 
            0.39190780613586995, 
            0.7259296304845306, 
            -1.358707843868454, 
            -1.810547205053174, 
            0.8961975357860624, 
            -1.3875204983535314, 
            0.8688152968402492, 
            0.9590799720311264, 
            -0.9891228872337238, 
            0.4483548925153899, 
            1.2528919091256092, 
            -0.5005042121669253, 
            0.8495705943446029, 
            -0.874745094073154, 
            -1.1341258987295346, 
            -0.8424269017887807, 
            0.9933884699047965, 
            1.3420804851602524, 
            -0.6588511943344947, 
            -0.24291684336746236, 
            -1.749772693655625, 
            0.2859020538321071, 
            -0.20121292204022567, 
            0.14573006864316654, 
            0.7699872654917197, 
            -0.0766817312421332, 
            0.49028660167596977, 
            2.432038417568956, 
            2.548883642594417, 
            -1.4635228117853818, 
            -0.5733725686742855, 
            0.8055323372407077, 
            -0.1931947628051223, 
            0.7077292183901609, 
            0.5999429484832893, 
            0.36791118699622843, 
            1.117420892254195, 
            1.5595768309575186, 
            -0.4027502682879561, 
            1.7290054934468093, 
            0.7609504889991511, 
            -1.5534755478005011, 
            -0.09667880161835454, 
            -0.45580097618875665, 
            1.5799344512559583, 
            0.32305884745646724, 
            -0.37021652651100184, 
            0.6666820325237558, 
            -0.9714507426778616, 
            -0.1539214819994713, 
            1.5365959937738496, 
            -0.6796898231170104, 
            -0.6291085953908947, 
            0.8430832090281029, 
            1.5459597256330817, 
            -0.4476650092526296, 
            0.24027235281968606, 
            -3.5478613454974277, 
            0.9236193344306276, 
            0.5643630917035352, 
            1.7479335386343133, 
            -0.942593358428926
        ], 
        [
            -0.07913981522604822, 
            0.34606906704984197, 
            -0.8128013194052298, 
            0.1849337859102085, 
            -0.136778132440147, 
            0.2339965109832197, 
            1.2636203469623644, 
            0.3041217898168756, 
            -0.5146892468514664, 
            -1.176227497701446, 
            0.5930879689145734, 
            -0.3254801887426328, 
            1.6947740003612108, 
            -0.68667858628745, 
            0.9305928542070449, 
            -2.3432977782415993, 
            0.18713646715823515, 
            -0.6030851276658543, 
            0.2389800539613223, 
            -0.0853543120850544, 
            -0.1735801905516758, 
            0.8545144824223634, 
            0.3518052607973549, 
            -1.0391713684071786, 
            -1.0821788843474396, 
            1.300866384620264, 
            0.5847803568480442, 
            -1.1456014868640596, 
            0.1456707528645096, 
            2.4639170712591887, 
            3.3180572443278615, 
            -0.3602612219844077, 
            0.47350056444252736, 
            -0.0578322412532948, 
            0.3284295197027608, 
            -1.112592015008294, 
            -1.9987185009946464, 
            1.790066679165557, 
            0.5704275185779907, 
            0.507919549728797, 
            -1.1883786280610078, 
            0.07851693353985888, 
            -1.1921870690785756, 
            0.4785574834352485, 
            0.5710508096248631, 
            -0.7392657774760523, 
            0.20382681730248653, 
            1.338332965520438, 
            1.9347148411565493, 
            1.0126650233959542, 
            -0.35894417157816977, 
            0.9552682189970375, 
            0.1846962887130714, 
            0.2994795428265819, 
            2.0854038422788785, 
            0.38835837288709535, 
            0.29661823336934146, 
            -0.04918508813352637, 
            2.110822290601183, 
            -0.2921987166644415, 
            -0.5436872375320713, 
            -1.1005618929449377, 
            0.7374900158767299, 
            0.3209515003125091, 
            -0.058223768160189954, 
            -0.42909609544857624, 
            0.6280224127575285, 
            0.7016302168419581, 
            1.19098588249728, 
            0.9057020177864505, 
            0.5674016138685166, 
            -0.4982506033847472, 
            0.17228071735053616, 
            0.20380070890699425, 
            0.028265096119935586, 
            0.5973389831869002, 
            -1.4830621433914575, 
            -1.5562432276357203, 
            -0.18038638110400448, 
            0.10453963080465563, 
            2.87421328061075, 
            0.314287274556928, 
            2.373865632152053, 
            0.3323145329393994, 
            -1.842109305793401, 
            -0.022912800006300235, 
            1.0201604864648168, 
            0.6490611245697904, 
            0.07968410371590945, 
            -0.4090565188557795, 
            -0.18276940515882448, 
            0.2790123500862325, 
            -0.0754436575864508, 
            0.15886235237578442, 
            -0.5811132387025508, 
            -1.6781255115349574, 
            0.6298559476839359, 
            -1.0416677304336508, 
            1.8733498620900046, 
            -0.753478412082446, 
            -0.27568455778073087, 
            1.709554713788177, 
            -0.04532073247920064, 
            1.0249804495514319, 
            -0.20630714930866997, 
            0.4945412940705001, 
            1.0585191318745892, 
            -0.5768293226547574, 
            -3.3055429455548375, 
            0.43482436024050697, 
            -0.2099825007651595, 
            0.5916512095643883, 
            -0.04603490512587298, 
            -0.8461665521112225, 
            -1.1351685355791514, 
            0.049784138374074596, 
            0.8434649316845031, 
            -0.14764544738680713, 
            -1.188902884590406, 
            0.16967927449196807, 
            0.5499594076937039, 
            0.723848238588403, 
            1.858998210004, 
            -1.48574057271929, 
            -0.6734757876411703, 
            0.5310180602472547, 
            -1.1223797788768333, 
            1.5505514776892595, 
            2.407980705176932, 
            -1.30513775455312, 
            0.0910288054484959, 
            0.10842522795981324, 
            0.43935160721914207, 
            -0.40774402356993256, 
            -1.574130111031349, 
            0.26000072594813795, 
            -0.5704702041475834, 
            -0.545719572187397, 
            -1.382180461957166, 
            -0.09698520500762149, 
            -0.8258857541622961, 
            -0.6455672393328195, 
            1.1007520657611076, 
            -1.28344704249719, 
            0.8802093100195519, 
            1.911558631269857, 
            0.13172364319596278, 
            -0.6487947019130375, 
            -1.7727556335061132, 
            0.9076438837761357, 
            -0.5927094493449596, 
            0.10400416385388392, 
            1.2695586939046422, 
            -0.903125833367973, 
            -0.2541637710251387, 
            0.5196238893279548, 
            -0.07695264594896882, 
            -0.2068976815848735, 
            -0.1245198810966825, 
            -0.7139217917550116, 
            2.951602232101967, 
            -0.45151850939131144, 
            -0.6373146181747064, 
            -0.8018024427878697, 
            0.5682811349490877, 
            0.9757921233417041, 
            -0.36310007110240883, 
            0.9482558120794782, 
            0.5390275678518254, 
            -0.0012402087462624622, 
            -0.5172913550945154, 
            2.9397320533637266, 
            0.2006996677534418, 
            -0.3676357587964262, 
            -0.050748936470098184, 
            0.01168359197307702, 
            -0.03324193856921515, 
            1.7665281519766851, 
            -0.2928967061259978, 
            0.2825009878436611, 
            1.1207026657357777, 
            -0.5807786737085731, 
            -0.9938509446034632, 
            0.9353466331482081, 
            2.3904539651834624, 
            -1.1108918424959506, 
            -0.7780249756607526, 
            1.0141066506626073, 
            -0.3643566620199628, 
            -1.2263407449295218, 
            0.6760768509774462, 
            0.696016746366837, 
            1.79662325220486, 
            0.43744113484730257, 
            -2.9950599700333864, 
            0.42762433300052105, 
            -0.3245901169715468, 
            3.1831364180800312, 
            1.085805687400032, 
            0.9949189679151942, 
            1.0386538457375252, 
            0.27856677008535363, 
            -0.40106524952408834, 
            0.6079484465119385, 
            -1.2237973269770857, 
            -1.6189207808325943, 
            0.03429174061120098, 
            -0.47581975434063567, 
            -0.5720369936865445, 
            -0.3930477491131171, 
            -0.5326349280824052, 
            -0.13457934964859417, 
            -0.07222351823696584, 
            -1.0926418564824718, 
            1.9674971110511401, 
            -1.8947156165456238, 
            0.7691641758142261, 
            0.12009653370773998, 
            0.37116486013486033, 
            0.9199867597478845, 
            1.2227275576683287, 
            -1.2834240075571375, 
            0.6956173645614371, 
            -1.3813835625404003, 
            0.7369747543340971, 
            1.3281790525044805, 
            1.1479259973810347, 
            -0.2668008501496109, 
            -0.9263750630985172, 
            0.7851018912820998, 
            1.3046946077099886, 
            1.2772945558356943, 
            -1.1469661101502684, 
            -0.3517138483281407, 
            0.02196605791422507, 
            -2.014609271832048, 
            0.37982933142581177, 
            0.4076794105618285, 
            0.620555081347721, 
            0.12671740941380033, 
            0.1298835482025571, 
            0.6091451695836013, 
            -0.7379592319694197, 
            0.5962978907421361, 
            0.7916618178963312, 
            1.3917970371014863, 
            0.719088573287718, 
            -0.8280301581995559, 
            1.1521256925786176, 
            0.4556533674332854, 
            1.65038395358342, 
            0.1552001071854419, 
            0.9379431666665714, 
            -1.270345406799321, 
            1.3701645151794177, 
            -0.44663568550173954
        ], 
        [
            -1.493595381831277, 
            0.7913520251161256, 
            -1.3872108183438827, 
            -0.3805569129144177, 
            1.6141812900093113, 
            0.5831691390574626, 
            1.3457493713286053, 
            -0.8069391928023129, 
            0.6203958511746823, 
            -0.9958443365201693, 
            -0.5991568749253132, 
            1.1778982421747626, 
            -3.1344672251369823, 
            -0.7430721517146714, 
            -0.28792775947849697, 
            0.45523932783754945, 
            0.5707240672944497, 
            -0.23661832522945966, 
            0.9647981008784736, 
            -1.6601108457251306, 
            0.5441262946517447, 
            -0.05069273493185735, 
            -0.7362597351830543, 
            1.3198781543459515, 
            0.24525525592088301, 
            0.6036922237113234, 
            0.10057650464487063, 
            -1.6703594616033666, 
            -0.27400023206188956, 
            0.6968184047201418, 
            -2.4091245120405045, 
            0.6441766059896702, 
            -0.5457253868003236, 
            -0.629532332836965, 
            -0.37748657734529273, 
            -2.0789810927972527, 
            1.9155799987536555, 
            -0.5967814786806899, 
            -0.04144700856899464, 
            -1.795041828238229, 
            -1.3880699823373808, 
            -0.3112346353593481, 
            -0.47418589999419114, 
            -0.5940798970496719, 
            -0.7642311062734205, 
            0.28767124077523887, 
            1.266507227774685, 
            0.2669544937268978, 
            -0.5506762275646956, 
            0.5677682852598142, 
            -0.1269826773383353, 
            0.16992237375521893, 
            0.2555257435336256, 
            -0.5521610131459985, 
            -1.3719166853115965, 
            0.2113846359386924, 
            -2.1994659445088116, 
            0.6741641442294986, 
            2.8165017046038243, 
            -1.1004543738425336, 
            -2.5526121645847355, 
            0.9188689948882189, 
            0.023453535973631714, 
            -0.1630790877645669, 
            0.9454217109993165, 
            -0.7438177538521598, 
            -1.3469953203220393, 
            -0.9480783956338258, 
            -0.2699103857609716, 
            2.1288692771567734, 
            -0.6063830914608037, 
            -0.7431861258013173, 
            0.8296997620317436, 
            0.5798768361905189, 
            0.5815489680908188, 
            -1.0923233881224896, 
            -1.4987266521959528, 
            0.09222715435300242, 
            -0.9728981516431298, 
            0.8979476694699485, 
            -0.1524473994618885, 
            -0.6462041327558423, 
            -1.1814793861305484, 
            2.466794607193036, 
            0.6245211903822311, 
            1.2726954388695708, 
            0.9358601906386214, 
            -0.7958475631968418, 
            0.48998174631835045, 
            -1.4672417210991548, 
            -0.23242151288064417, 
            -1.1732153838207542, 
            0.0635626903322713, 
            -0.7340607314585941, 
            -1.7708484119098, 
            0.10717771021519351, 
            0.5926299898325366, 
            -0.03175531020766021, 
            -1.1198070882927382, 
            1.2141792440588015, 
            -0.03770848267979793, 
            -1.5999830429261832, 
            0.5755767354726317, 
            -0.12168533317731862, 
            -0.4761568464768213, 
            -0.5116082794134251, 
            -0.6423203174838811, 
            0.3056646911094213, 
            0.5100028178195087, 
            0.8735934755668954, 
            -1.717071393702302, 
            1.092948158105267, 
            -0.4211994139433689, 
            0.7085749107073754, 
            0.28151031737593235, 
            0.3876146432121158, 
            -0.625956922066809, 
            -1.5690306817677875, 
            1.1769125799051263, 
            -0.7876057117118026, 
            -0.9326584840636746, 
            1.775785412032956, 
            0.4577021375200602, 
            -1.1128927415440302, 
            -1.9051220800158162, 
            -0.618838419184192, 
            -1.114282826840176, 
            -0.1430872000639323, 
            -0.940558867909542, 
            -1.5935499968544151, 
            -0.4486978391614803, 
            0.34059019236595645, 
            0.14058227145796726, 
            0.21479710830697227, 
            -0.47527324499428314, 
            0.10439183139312004, 
            -0.5554676335748874, 
            0.5838861353468671, 
            0.7227398976742196, 
            0.2905603324945309, 
            -0.7120336906251653, 
            -1.0923403620010084, 
            0.6665724216708657, 
            -0.6801645682496095, 
            0.346510034682578, 
            0.25772297536385824, 
            0.274287579039947, 
            0.2752718562517251, 
            -0.8250053129733482, 
            0.7743834411019868, 
            -0.6541723650034036, 
            -0.7506442339520485, 
            -0.538972387140836, 
            -0.5841614682267323, 
            -0.9505791209518365, 
            1.0474553129016262, 
            -1.1771765042918256, 
            -0.20169386404773026, 
            0.6641656446469542, 
            1.3087993151025636, 
            -0.06602171029195246, 
            0.9342080596558975, 
            -0.5979544781603235, 
            1.8133391241866652, 
            -0.2642677699448146, 
            1.7150128442686114, 
            -1.165544608692182, 
            -0.2499626724518318, 
            -0.4939434493277834, 
            0.059190025246260825, 
            0.5711544395324166, 
            -0.09849263716196224, 
            -0.8501839247582073, 
            0.276618913228027, 
            -0.7131098768781812, 
            0.21136809583603308, 
            -0.18636706984370002, 
            -0.30290056880257044, 
            0.44208563725246186, 
            0.27515417143207954, 
            0.3281348598079073, 
            0.6507719697491348, 
            -1.2621081551254105, 
            0.3815668778827354, 
            0.5812615801246416, 
            0.4181981714509037, 
            0.28862585077796193, 
            0.12084747116973664, 
            -0.6866604512141119, 
            0.056243616814120656, 
            -1.169644957290245, 
            0.07230312412855264, 
            0.46602304137354494, 
            -1.1248331735602934, 
            0.06619154696152452, 
            1.3568760089599468, 
            0.695877357730581, 
            -0.3009208247264598, 
            0.08941332408850103, 
            -1.265747601712091, 
            1.5443846367573209, 
            0.4162516757793953, 
            -0.683168221264667, 
            0.22404747647833598, 
            -0.6122559842097862, 
            1.4616261021392658, 
            -0.473679834528616, 
            -0.332368930432875, 
            -1.0712541234511128, 
            -1.468073786442981, 
            0.0631689884047126, 
            1.0795211152315087, 
            0.9746767195804288, 
            0.801753227997925, 
            0.12003362891935797, 
            -1.3226755184109442, 
            -0.8493882520564595, 
            -0.49250226910040573, 
            -0.24682957323744578, 
            -0.8313870409399684, 
            1.091403099909604, 
            -0.5016691852268307, 
            -0.03089438266406832, 
            0.3702112694986344, 
            -1.2766361734295166, 
            -0.6606333061494666, 
            -0.5218045269601338, 
            0.13637767302924575, 
            -0.31211138899216273, 
            0.16065766857477626, 
            -1.2502860535929234, 
            0.7017814488285401, 
            -2.23721323577963, 
            -0.8698573041443008, 
            -0.09378912854350395, 
            1.578909929977675, 
            0.8522505371662591, 
            1.2728777033190197, 
            -1.47240083117186, 
            0.5331794785103764, 
            -0.045540076335105366, 
            1.447151203390489, 
            -0.13704588174223215, 
            -0.711771498119396, 
            1.0465993949250547, 
            0.21503952065212278, 
            -0.46350556116509456, 
            -1.3314140520130973, 
            -1.2844168339270714, 
            0.5670023257206158, 
            1.582478442532283, 
            -0.10564902273166767, 
            1.4787113552369258, 
            -1.009033911013098, 
            0.15431230130365425, 
            0.38660526686775615
        ], 
        [
            -0.7666343307852966, 
            -0.3160931576470944, 
            1.4749309785022688, 
            0.2855588616087408, 
            0.7026808736461194, 
            -0.8892957560298695, 
            -1.232530525280323, 
            -1.0986635368615183, 
            -0.30528443638106906, 
            -0.1637096986371059, 
            -1.1392723806918843, 
            -0.24834495731120315, 
            0.3456014751224155, 
            0.05499984068969124, 
            1.8557780822833494, 
            -0.8244725162640285, 
            0.8857330879210729, 
            0.3657296770807747, 
            -1.5363900218315316, 
            -0.18980499551943708, 
            0.4789034071943183, 
            -1.6542498056089388, 
            1.175848302535025, 
            1.228372238963776, 
            -0.00973617890899844, 
            1.2299374854717577, 
            0.6837556232283862, 
            -0.045086843679005825, 
            1.0255864528259344, 
            -1.2182106151578882, 
            0.6946785870839907, 
            0.6038982383599433, 
            -0.0428921279906945, 
            1.528350246685849, 
            -0.20890396496515048, 
            0.32046710849114274, 
            -1.0598371165708116, 
            0.16013281123428527, 
            0.013737743790856622, 
            0.16131786055556813, 
            0.1376558646122911, 
            0.9929933212099697, 
            -1.1443620729847404, 
            0.33245561938516954, 
            -1.067873634894747, 
            -0.03721744124492, 
            -1.8014431410549387, 
            -0.9537872823379471, 
            -0.1821218489522185, 
            -1.9584080236819617, 
            -1.0264759652509645, 
            -1.0063532631010226, 
            0.9943593540218911, 
            -0.5448670854622991, 
            -1.2958818344831273, 
            -0.8057618609284226, 
            0.6542903837106797, 
            0.09889235401850134, 
            0.22224595315323623, 
            -0.030489367923813276, 
            -1.770094061761422, 
            -0.4061525339705674, 
            -0.9169389223529687, 
            -0.30687443550006566, 
            -1.0671869756640944, 
            0.1795524969053623, 
            -0.3384068329457197, 
            -0.264449068392393, 
            0.48833556927760413, 
            1.4257845354108862, 
            -0.13550650291433533, 
            -0.4950428234287808, 
            0.06904356088521563, 
            -0.9243054793738303, 
            0.4174719268344154, 
            1.4422552254747136, 
            0.8269984776120044, 
            0.1548214079484533, 
            1.2722575594937122, 
            -0.22623083783252865, 
            0.4139877623924495, 
            -2.0758138907876056, 
            -0.7099154920258695, 
            1.8593114037519, 
            -1.203750585958945, 
            -2.007571241996695, 
            -2.0930327403698104, 
            -0.28329367459140337, 
            -1.3465895067691143, 
            1.0499408388362037, 
            -1.6238451089273256, 
            1.0185819439560917, 
            -0.9250857724169821, 
            -1.4899118857536977, 
            0.39620204582465846, 
            -1.8948534731838114, 
            0.124532510450419, 
            2.132855977797911, 
            -1.5026348126816436, 
            0.40638832335177616, 
            -0.9798458292457535, 
            -0.9059932293709553, 
            -1.5784443455480022, 
            -0.2628150455316413, 
            0.17875568279346435, 
            1.0878514760408822, 
            -0.09467701765629105, 
            0.2525549938472111, 
            -1.6372413717533565, 
            0.15482357918979928, 
            -1.61330396294242, 
            1.005109080699229, 
            1.7207919362031814, 
            1.7014501855903912, 
            0.22327606937858135, 
            1.1504573404291687, 
            1.3069633799432523, 
            0.27902898252252084, 
            -1.681384049095846, 
            -0.45529679655020444, 
            -0.12786628756890128, 
            0.26169480905138454, 
            0.317827606861543, 
            -1.4138201888311281, 
            -0.30832444500628725, 
            1.582473699175761, 
            1.2552705649439977, 
            0.7337365355900647, 
            -0.07569372631875093, 
            0.6653535656980578, 
            -0.9769896973961885, 
            0.07458111852627651, 
            -0.5008651277497463, 
            0.7637396494687787, 
            -1.239259798967141, 
            0.10252339549361592, 
            -1.4371918089525113, 
            -0.7460221248056711, 
            -0.4366685646559699, 
            0.3799734698388714, 
            -1.206362056903386, 
            0.6491931341158412, 
            1.072397113914465, 
            0.7392479595305221, 
            -0.1565923232108471, 
            1.0315599205519093, 
            -0.6259613776670611, 
            0.8930479815375137, 
            -1.122796978684913, 
            -0.8256442709495618, 
            -1.6693943457721299, 
            -0.8189770239315153, 
            -0.4892725412427963, 
            -0.21957399966585203, 
            -0.5809829929620941, 
            -0.9304367134295726, 
            -0.6242703091159616, 
            -0.7334339752770341, 
            0.5948424278977325, 
            0.09425306295148227, 
            -0.864291683596223, 
            0.15222040517017335, 
            0.6685074405282965, 
            -2.9300656126499054, 
            0.21572500039302683, 
            0.8876676316659277, 
            0.3158191181198902, 
            1.7571822869664497, 
            1.044659667483763, 
            -1.0281393379636965, 
            -0.30602448005553706, 
            -0.7327395924472859, 
            0.6633506702867114, 
            -1.163352027824891, 
            -0.7703970219200773, 
            0.2579090899946196, 
            -0.18228650929901075, 
            -2.179873900492172, 
            -1.1130037424157238, 
            0.6010945798843337, 
            -0.284260401840183, 
            0.8443187159585408, 
            0.3370199513008275, 
            0.11291731385441718, 
            1.8281531130213957, 
            0.6472614849627168, 
            1.7694692817792166, 
            -1.0407998911209995, 
            -1.2416511931623446, 
            0.5508602233894108, 
            -0.8702932961599896, 
            0.2385194115950222, 
            -0.9697873571795047, 
            0.3589272367805573, 
            -0.7032338433222186, 
            -1.228087893838482, 
            1.9691071756034588, 
            0.30145690399382313, 
            0.4604001106966438, 
            -0.4516441475668393, 
            -0.5509930797992078, 
            0.5292799870132173, 
            0.6890602183071626, 
            0.45257683301523555, 
            1.1555689642012423, 
            1.3817622997734922, 
            -0.70606851214357, 
            0.36157744576655465, 
            0.14003901484386042, 
            -0.8601288148281202, 
            -0.49310720727305646, 
            -0.20353054522805428, 
            0.9194066572412837, 
            0.2912875488835415, 
            -1.0512175032714535, 
            -1.6971673768982962, 
            0.9328084173360631, 
            0.9614454866587051, 
            1.534733522484556, 
            1.4275157561115106, 
            -0.5510779626417031, 
            1.6415904360958211, 
            -0.3583048828104548, 
            0.09518929478810147, 
            0.18361055397092013, 
            -0.1749900299503677, 
            -1.6185466579764127, 
            0.7323534037799971, 
            -1.6651003241871631, 
            1.7949399484907242, 
            0.1773625859536025, 
            -1.210724975615536, 
            1.4435462652076636, 
            -1.066560601990487, 
            -0.4149040715346603, 
            -2.3917775401785697, 
            -0.27194093021411947, 
            0.559134027021848, 
            -0.6439425640988478, 
            -1.937614752203464, 
            -0.34426273283993564, 
            -0.10226045105009438, 
            1.107536526334984, 
            0.09063341566135132, 
            0.023845650550973995, 
            0.9177981127817905, 
            -1.145665530631684, 
            0.608926197690723, 
            0.47455658250780175, 
            0.7973111765723702, 
            -1.4761997756210112, 
            0.6941553780154801, 
            0.44929690589189164, 
            1.070482889074363, 
            0.38411967745865694, 
            0.07102019681554085
        ], 
        [
            -0.9355767473363715, 
            1.5860318586142295, 
            0.7371922588106331, 
            2.6920719870089855, 
            1.4957347325351347, 
            1.8578986364952974, 
            -0.40874237327429486, 
            -0.12138168382636227, 
            0.052264663517082297, 
            0.27699991353568393, 
            1.1344181179814072, 
            -0.6327544851602268, 
            0.6813468348356675, 
            0.6135579318551565, 
            2.8878157099675454, 
            2.4271789540376854, 
            -0.7346525163320042, 
            -0.34396281512270976, 
            -0.94175253735514, 
            0.258352133742953, 
            -1.1058498009386326, 
            0.5711305535959453, 
            -0.4188935062210219, 
            1.0045102666762051, 
            0.31451997644068536, 
            -0.6092377398500793, 
            0.21356161287353648, 
            0.05535672698327275, 
            0.6739467546410237, 
            3.0209430561554256, 
            0.3106711796325894, 
            2.124712119612816, 
            -1.0396410937642295, 
            -0.08181812373373655, 
            0.7272757023117269, 
            1.3597580606805606, 
            -0.138658242623374, 
            0.7831919764906159, 
            0.45869181412040627, 
            -0.06743838511404113, 
            0.08814397782915699, 
            2.1775809818965697, 
            0.4230541101738459, 
            1.082569349282484, 
            1.04119515461234, 
            1.3798089676737357, 
            1.0104432146391755, 
            0.6719738898403296, 
            0.4875010068029828, 
            0.27472068717415987, 
            1.8672918201129896, 
            1.0361178169751788, 
            1.0372941957967463, 
            -1.446862182764504, 
            -0.02554565823572365, 
            0.250558382492982, 
            0.6680745083741947, 
            -0.7717567170660573, 
            0.13955862785836284, 
            -0.7054564537162262, 
            -0.27106043387205553, 
            0.6494019168675894, 
            0.1263038626011777, 
            -0.24590655869502942, 
            0.43037046701113474, 
            -0.16880009190145082, 
            0.9623137874889534, 
            -0.9906627617856212, 
            0.9156281631175591, 
            0.6648289406383998, 
            -0.655018370570131, 
            0.9687481227143354, 
            0.39184320930479993, 
            1.0283550206158514, 
            0.7706563236250022, 
            0.20789604192473432, 
            -1.0364420857359729, 
            0.45769519305122625, 
            -1.7695928724462457, 
            -0.37358184317078086, 
            0.06479249067513498, 
            -1.658039166090707, 
            1.2974500838556706, 
            0.36901813151708596, 
            -1.827701037518668, 
            0.5772504666813503, 
            1.3002814608331625, 
            0.6075026986923098, 
            0.47798753459184623, 
            1.3963868736923613, 
            0.4544037200685003, 
            0.2741843819435233, 
            -1.2494719761085171, 
            -2.477501454207336, 
            -2.202151221292917, 
            -1.6891157995039952, 
            0.21629025270481544, 
            0.8756628445806222, 
            1.174475735272952, 
            -0.02394147565572373, 
            0.6102858426076064, 
            -0.09222996781166953, 
            -0.6584954119053787, 
            -0.4181867672675285, 
            1.9865778547991517, 
            1.4451540854824911, 
            0.13382562781119106, 
            0.7714354358249179, 
            -2.0466759227122417, 
            -0.3220062517071461, 
            -0.006625551006421253, 
            -0.6802589336733369, 
            0.7758672720976283, 
            0.7935994272267453, 
            0.6013928347899657, 
            0.3791006434170919, 
            0.4247006381346573, 
            -0.36006098312091894, 
            -0.9647652115130649, 
            0.14540448798338612, 
            -0.18777819964343864, 
            0.7859828230684687, 
            0.5465381009060886, 
            0.5493767410429088, 
            0.5677050396776194, 
            -0.6463096950075953, 
            0.1709024837594476, 
            0.8881219189126993, 
            0.4901034259253749, 
            -1.5092791816487503, 
            -1.23972790703024, 
            0.08741357292544315, 
            1.1970428717445063, 
            -1.1717297462723109, 
            -0.6482606371982416, 
            0.17433853511910208, 
            -1.013288732281586, 
            -0.12217357543062449, 
            0.0705860616937108, 
            -0.21422019077962104, 
            1.0364335408341376, 
            -2.1377170519197204, 
            1.1919473681130484, 
            -0.38907369921644847, 
            -1.3315162357520642, 
            -0.9193362939124757, 
            -1.203055558061889, 
            -1.7891992151915805, 
            -0.2961832576523389, 
            -1.881827887207662, 
            -0.41426528472777724, 
            -1.9765243213852368, 
            1.6355668221679662, 
            0.41261218299763913, 
            -0.126783748600738, 
            -0.6453627438202608, 
            0.39785975708320065, 
            0.4423237457027013, 
            -0.46298358367276227, 
            -1.7583167639660342, 
            -1.3092543985295395, 
            -0.6040302001406292, 
            -0.7365948032026215, 
            -0.7692626932254067, 
            -1.1540653775503151, 
            1.0141867048648734, 
            0.6794970810033553, 
            -0.3273907922112893, 
            -0.0731137238167405, 
            -0.009101190543845245, 
            0.09471511182402165, 
            -0.33109384100363165, 
            -2.907403922384724, 
            -1.1344708134330403, 
            0.37424161210364126, 
            0.0399164036598556, 
            1.414076895260085, 
            -1.3476119987839017, 
            0.6583798240989021, 
            -1.0100742723966012, 
            -1.281191967041795, 
            -0.9777554965531525, 
            -1.0074138238194663, 
            0.01552162127747711, 
            0.6114656155670337, 
            0.39951401365978423, 
            0.19871975169011105, 
            -0.5429259875520337, 
            2.0305179576930144, 
            -1.5681014437112444, 
            -1.027639792227239, 
            -0.2653381283534443, 
            -0.17457450211790843, 
            -0.19239795877507837, 
            -0.5462016091784448, 
            -0.824668771779168, 
            -0.11852095296192292, 
            -1.3138912063973267, 
            -1.0186697899523558, 
            0.16708458299691195, 
            1.8467730006035992, 
            -2.5723615978026677, 
            -0.9373744460701001, 
            0.3042341198139186, 
            0.08419489089500455, 
            0.7350349933200563, 
            -0.5438035176057852, 
            1.5989622686733078, 
            -0.1661676206669144, 
            0.1480831823025217, 
            -0.4971325475189617, 
            -0.9025274275303075, 
            0.02087319640076216, 
            -1.3522792821642988, 
            0.20905728872788276, 
            -0.39395832408176545, 
            1.6655679142975968, 
            0.7930023887182777, 
            -0.9105309700534874, 
            0.7399853758403657, 
            -0.2175230940530861, 
            -1.1145517159057676, 
            0.5663285668954885, 
            0.3912211478805383, 
            -0.24490923350089397, 
            0.8136998373804807, 
            -0.8486698147977085, 
            -1.3637057107532558, 
            1.5338372330360435, 
            -1.2983063902616614, 
            0.22909408841113826, 
            -0.13023973210489004, 
            -0.500782532614303, 
            -0.09009867364366649, 
            -1.7820656334918483, 
            1.2154237467810785, 
            1.2209880310191084, 
            -2.067254551217698, 
            1.1418853839555196, 
            -0.17006127332815754, 
            -0.7959778265942369, 
            -1.120182752391895, 
            -1.0447357850171126, 
            0.3746401699538688, 
            0.22748513868343298, 
            0.046291442539610074, 
            1.9066104765785241, 
            -1.7077937478657257, 
            -1.5532690196839531, 
            0.14379091807318317, 
            0.27644367099741507, 
            -0.2982280448223607, 
            1.1481869602991357, 
            0.17791511448236488, 
            1.845806180202783, 
            -0.0037775735314496328
        ], 
        [
            -0.6640923503997495, 
            0.10729660162970303, 
            0.8233006650037218, 
            0.7942150981418424, 
            0.4746516705922492, 
            1.1037529606161434, 
            -0.3980131833134846, 
            0.06437083061048966, 
            -0.1412640212584638, 
            0.44171716350450174, 
            0.8477575559842124, 
            0.9637908204393636, 
            -0.3865753318674565, 
            0.5304277183244764, 
            -1.0652206963170734, 
            -2.8934262237248003, 
            -0.02198936761682404, 
            0.9798971976234387, 
            -0.8475122036698631, 
            -0.19065365260826772, 
            -1.1414557896732704, 
            1.0922666555189433, 
            0.7214153294487704, 
            0.6631269466864455, 
            -0.5846127976248058, 
            -1.3150168086474356, 
            -0.6793119783163222, 
            1.2246926418001431, 
            0.828450589303938, 
            -1.9189348076363604, 
            -0.4209329439130204, 
            -1.3733543615881476, 
            0.9377912347269343, 
            0.5498276531318821, 
            1.5463438332744908, 
            0.8867140775303227, 
            -1.0216530430641517, 
            1.2655539307356034, 
            0.5127843963955581, 
            0.7887857939700753, 
            -0.0067534967641218165, 
            -1.563361820983275, 
            0.28694346468874204, 
            0.9655950273269993, 
            -1.1417156493221654, 
            0.6435278739543735, 
            -0.7914850010840877, 
            0.44996628935990435, 
            0.44225424235223154, 
            -0.12342125190368579, 
            -0.43848287691705273, 
            -1.1122779311500872, 
            -0.6578914427432135, 
            -1.236707499203276, 
            -0.9220893233195526, 
            -0.4384947515878898, 
            0.022961449946750128, 
            0.8580054094378814, 
            0.4101115174153384, 
            1.8648399874222228, 
            0.09772677442881217, 
            0.8710550464720743, 
            1.1560725438025234, 
            1.194205493498363, 
            0.18845053070034712, 
            -1.229937012236039, 
            -1.095961709718192, 
            -1.6387274958318747, 
            -0.3839526684502227, 
            -1.4128970844967101, 
            -0.2730202533200481, 
            -0.22068645419414964, 
            -0.27005245166379166, 
            1.5444044320612171, 
            0.10722289707932323, 
            1.0024408911286238, 
            1.1729949325054576, 
            0.03459387425988044, 
            0.7618443484648713, 
            -0.8078121203547165, 
            -1.424802010249436, 
            1.2515482239306368, 
            -0.8151800171061581, 
            -1.2481323494507885, 
            -0.8932055032486054, 
            -1.1464397873533845, 
            0.3096569843162524, 
            1.688957952362455, 
            -1.2077652808074628, 
            -0.41515627443390946, 
            1.7637285373001177, 
            0.35850952625137084, 
            0.05243334114336189, 
            1.1986699248622363, 
            2.641723270148187, 
            -0.23058959247321617, 
            -0.8352886670290264, 
            -1.350622020140933, 
            -1.1329467523716932, 
            0.36942844856425283, 
            0.01951817188247694, 
            -0.962876434733814, 
            -1.451790769145356, 
            -0.8306961776828281, 
            -1.0036035388912232, 
            -0.0841722388307775, 
            0.36700514579020577, 
            0.5811776299115184, 
            -0.7245572224623985, 
            -0.42214804407550854, 
            0.1905317694136144, 
            1.675656690313988, 
            0.7240718683650254, 
            -1.0334161930366506, 
            1.1865128520009633, 
            -0.3267997977904172, 
            -1.3161093597663132, 
            -0.47556291374575926, 
            -0.3684349462813892, 
