{
    "layer_1_bias": [
        [
            -1.0088745201920197
        ], 
        [
            0.9927513892558519
        ], 
        [
            -1.9061259572472162
        ], 
        [
            -0.2608975718783926
        ], 
        [
            -0.30150959251171916
        ], 
        [
            0.30956015864466985
        ], 
        [
            -0.4722929695336998
        ], 
        [
            -0.5073359470926804
        ], 
        [
            -0.8493262779615679
        ], 
        [
            -0.41179236246068646
        ], 
        [
            0.45911825288862684
        ], 
        [
            1.0055012073658725
        ], 
        [
            -0.15877440551173078
        ], 
        [
            -0.45608619061035904
        ], 
        [
            1.499603823471571
        ], 
        [
            1.0738892935259676
        ], 
        [
            -0.7155445263083298
        ], 
        [
            -0.18327131705969454
        ], 
        [
            -0.520192210527959
        ], 
        [
            0.30245300547494236
        ]
    ], 
    "layer_1_weight": [
        [
            1.0882397783502675, 
            1.7875881385664767, 
            0.4720223735458152, 
            0.16561140729075055, 
            0.04838129240544569, 
            -0.1318404321794254, 
            0.056470215931312885, 
            -0.800521105486011, 
            1.0533243269153387, 
            0.6235708700002033, 
            -1.4644442708370342, 
            1.4751052897422037, 
            1.5670132602594142, 
            2.0083984585338213, 
            -0.05539165305292635, 
            0.8489305990244935, 
            0.37419227942424294, 
            0.5569373201364812, 
            1.1779449417673, 
            0.8312885346165881, 
            2.8077581347768406, 
            -0.17884655915169903, 
            2.1051353656290783, 
            0.5187323675887983, 
            0.6409562547958804, 
            0.7186382645177767, 
            -0.12589739008630615, 
            -0.6037227544832834, 
            -0.5499510602449267, 
            0.3611723469764786, 
            0.3578086650008158, 
            2.6411514311359663, 
            0.5544404942387798, 
            -0.5984194117005716, 
            -0.31553322684551705, 
            -1.1438944491282363, 
            -0.47402979753043006, 
            -0.4546092311907399, 
            1.7727226383814563, 
            0.4296840893192783, 
            0.6753524305253743, 
            1.0995407979112453, 
            -2.2023585774869163, 
            -0.16680947115348374, 
            -1.863230045280137, 
            0.33663991991910625, 
            1.3217027189330708, 
            -0.309169212785224, 
            0.21185822074795974, 
            -0.35898822801778113, 
            -0.9417523896017381, 
            1.7676389687091647, 
            0.20229894568810897, 
            1.5791148066622078, 
            -0.23670449078923056, 
            -1.3048481082133512, 
            0.50214351287307, 
            -0.5316145797477403, 
            0.2358071732294278, 
            -0.3652713446611388, 
            1.230505393307959, 
            0.20467364210607122, 
            1.2074500493921916, 
            1.7198893244105342, 
            0.3526827951273949, 
            -1.052348743534536, 
            -0.809496483492668, 
            -0.2729084226745569, 
            -0.004556694493716925, 
            1.5524675313776266, 
            -0.6880503630528205, 
            -1.1216473971454635, 
            0.8450716039656508, 
            0.2235971635275082, 
            -0.4912309771965293, 
            0.2024440101933114, 
            -0.23043126719123724, 
            0.8737196279581846, 
            0.47371750591396844, 
            -1.2707875198005, 
            0.783207071510522, 
            0.1088798286992307, 
            -0.1037697701385284, 
            -1.3691685941291738, 
            0.7587975348189269, 
            1.3885402833916687, 
            -0.6044651063197587, 
            -0.7252678724842685, 
            -1.280255344978634, 
            -0.2848179395601486, 
            -0.23281162273724942, 
            -0.5443213240516721, 
            -2.5278005424597256, 
            -1.0089030163396993, 
            -1.1126111275641244, 
            -0.005929884762660886, 
            1.4488006737924646, 
            0.004122203485547355, 
            -0.38338671628235305, 
            -0.4818989188900109, 
            -0.7779344587173929, 
            0.46900836344508134, 
            0.2805615713424658, 
            1.4541247513155942, 
            -0.5114328116729712, 
            -0.6451451024936142, 
            0.6402281405336337, 
            0.7783120555478438, 
            -0.25805375775915385, 
            -0.41616248478649925, 
            -1.4683942101606957, 
            -1.622577702815274, 
            -1.6692967299247987, 
            -0.8644039624378398, 
            -1.3694533688179136, 
            1.4149698962530337, 
            1.127986476653784, 
            0.37724055653073046, 
            0.7407819584945026, 
            1.6371105926264244, 
            0.8691480199552792, 
            1.2559076195256702, 
            -0.26967060510074664, 
            0.7894153505967934, 
            0.9933455183954015, 
            0.7055920015083736, 
            -1.048158116140615, 
            -2.1271371609702845, 
            -0.38281261741899214, 
            -0.668051085061629, 
            2.009322274110235, 
            -0.4162990328216965, 
            0.5175634720900292, 
            0.05852980494107771, 
            -2.169093440920681, 
            2.9754876408234963, 
            0.021210202313922816, 
            -1.1256844846381495, 
            -0.3732621300483352, 
            0.6512093228487402, 
            0.36817827225175, 
            -0.05653313845139884, 
            -0.4338582572166062, 
            -2.08662351292078, 
            0.5012358412288694, 
            0.1978317053039437, 
            1.2611462770014057, 
            0.2052335618126138, 
            -0.6988416185492047, 
            0.39346968480226957, 
            0.7008577357577824, 
            -1.5583147637472137, 
            -0.44046883907483997, 
            0.4604315903676504, 
            1.496202941964625, 
            0.20409814230393272, 
            -1.2597743188530597, 
            1.744794999725325, 
            0.6392852138998576, 
            0.5333908227119983, 
            0.0754279607616853, 
            -0.23086977357969712, 
            -0.37229225202390226, 
            -0.025035320575151815, 
            -0.6630541170874075, 
            -0.924582617760657, 
            -0.04885852540378377, 
            -2.4407110716558575, 
            -1.2901932126987268, 
            -1.455096340711764, 
            -2.427506627470548, 
            -1.020385124505558, 
            1.6746211776400346, 
            -0.8977410027156221, 
            -0.32504466484275024, 
            1.281219367321755, 
            0.49033169211449484, 
            -1.3408851299799518, 
            0.08428653114541017, 
            0.4888525029131782, 
            -0.36010726486435907, 
            -1.2976517040233733, 
            -0.9307610718535871, 
            0.12210021812309732, 
            -1.8501304862360999, 
            -0.9405704611144242, 
            -0.17946781310544824, 
            1.1049352168323192, 
            0.9842050926558976, 
            -0.27099418060654284, 
            0.5879041606772152, 
            0.6758661163789791, 
            1.2113500823663048, 
            -0.07525768022333724, 
            0.341596395473341, 
            0.16826076309405383, 
            -0.22633975838011988, 
            -0.5953654745194381, 
            -1.2236025147311727, 
            -0.4436820560196018, 
            -1.0496725265324474, 
            -0.8788651905934894, 
            -0.943748751310547, 
            -0.7207264665417323, 
            1.0265810506870383, 
            -0.5258772367287126, 
            0.20543743492215802, 
            1.273473189418314, 
            1.3451096125535886, 
            0.6656654847422186, 
            1.10293239644695, 
            0.5082977540201976, 
            -0.4655681727596619, 
            0.45628688390220207, 
            0.7894939109865948, 
            -1.1667258560433513, 
            1.0848651695545652, 
            0.6259360248189012, 
            0.14264863916461346, 
            1.2097467267151951, 
            0.21706644197309824, 
            -0.4831702699415871, 
            -0.07807859306749715, 
            1.0062395472798593, 
            -0.19525830359727053, 
            1.6389346847097306, 
            2.5725225478223415, 
            -1.0865548026585459, 
            0.2134355945505075, 
            -0.37779601513063915, 
            0.6499232023786435, 
            -0.5150183993910977, 
            -1.9113903482319217, 
            0.34172186072470945, 
            0.7399700335164966, 
            -2.598389174934081, 
            -2.07474028657176, 
            0.16193564318984785, 
            0.373228930945519, 
            -0.476973154229641, 
            -0.003497146919650439, 
            -1.0327542899539788, 
            1.5018318811571816, 
            1.806317381866999, 
            1.065494260082292, 
            -1.3406846145214537, 
            1.0478265220853014, 
            0.5103262271592787, 
            -0.2760421346415192, 
            -1.0423192154875536, 
            -0.9288327880647786, 
            0.17831663872998, 
            -0.45356848463445815, 
            -1.2044172148999865, 
            -1.2507115506444004, 
            -0.640309337438006
        ], 
        [
            -3.02525091997433, 
            -0.6606601364131538, 
            1.5662038371023828, 
            -0.28026455473283907, 
            -1.175585247132695, 
            1.0177544672426304, 
            0.31349756389741773, 
            1.2023326772816454, 
            -0.6573720778432967, 
            1.238661630761793, 
            -1.0258979383497668, 
            -2.6304469903050345, 
            -2.799698312886304, 
            1.4976028872128293, 
            -0.979507833393124, 
            0.26718106391559815, 
            -1.9614805711603998, 
            1.1662032876172457, 
            -1.4222012581852597, 
            0.08322834884076595, 
            -1.4091424777879078, 
            -0.006344370509906216, 
            -1.2845890856700346, 
            0.013202507648324391, 
            -1.3240824240841957, 
            0.40831071543056124, 
            -0.22211190908933084, 
            -0.7634620568696677, 
            -1.8466167160142184, 
            -0.5228764010360335, 
            0.46996356923444904, 
            0.2779629133440025, 
            0.4310028647928925, 
            -1.1584312515258046, 
            0.9612877158166191, 
            -0.23770183232951822, 
            0.2853270519362324, 
            0.04276167568309925, 
            -0.582899622585772, 
            0.274309578432868, 
            1.2012238687666834, 
            -0.32560676450763015, 
            -0.7186702267238211, 
            -0.1677794178167049, 
            0.5102982879919747, 
            -1.6928604455601872, 
            1.1092863015558707, 
            -0.6300305602025698, 
            -0.7062469404630944, 
            0.5513725265132317, 
            -0.7141143033715298, 
            -0.9633404674569038, 
            0.021481888497953315, 
            -0.13303746584209192, 
            0.08651181629063759, 
            1.2797839498527064, 
            -0.3938304713645913, 
            -0.11933610201959771, 
            0.4203303903504245, 
            0.21286683590828478, 
            -1.1576923246832838, 
            -1.4074922683481252, 
            -1.3948642962998181, 
            0.6452889903807923, 
            0.014745086450575932, 
            -0.72591225342435, 
            1.1084478735943235, 
            0.6584244879741847, 
            1.1544977594506922, 
            1.4075143215328503, 
            0.007738198299148281, 
            0.8981586807414392, 
            0.8428316449586872, 
            0.850145112803621, 
            -1.6233628736877013, 
            -0.4825019724113875, 
            -0.9815547895849928, 
            -2.460241681494711, 
            -1.201801008081412, 
            0.10203737407122801, 
            1.0410579477266924, 
            -0.6370418272437883, 
            1.4540382055623098, 
            1.9638977484594784, 
            1.0515634996462837, 
            1.5172147370428362, 
            -0.16406106554344088, 
            -1.8872402834740694, 
            -1.3259722076816025, 
            -0.0049271847326005725, 
            -0.26309010996903837, 
            -0.3580248807301824, 
            -0.3567472524196897, 
            -1.3658976120183313, 
            -1.0166306880934717, 
            0.8688718131206482, 
            1.2813460923520035, 
            1.705002620125957, 
            0.5623260479130165, 
            0.8093519863347068, 
            0.13749330296391304, 
            0.6510767491251853, 
            0.19608329265463126, 
            -1.2509845221984794, 
            0.5887049881057579, 
            -0.5474839282251401, 
            0.3588925148620197, 
            0.07197082424008977, 
            -1.6895987611670642, 
            -0.9400222385272782, 
            -1.0113938752963012, 
            -1.200465334290873, 
            0.6511741282981386, 
            0.5873929573692946, 
            1.4966064362016198, 
            -0.5852145150296104, 
            -1.424392828178422, 
            -1.2589111842772487, 
            0.3416899239060426, 
            0.6202173505322879, 
            -1.6126322369011095, 
            -0.6163628667792839, 
            -1.4302250156408887, 
            1.0010528672170151, 
            1.6439077926736607, 
            0.5863145671702216, 
            -1.2304164250330092, 
            1.5638506310706808, 
            -0.7462596384595225, 
            0.049363616832086635, 
            0.8775720530523596, 
            0.48025477453098786, 
            -0.603185851026922, 
            -0.37579168928609025, 
            1.3421213234515974, 
            0.6214530197348992, 
            -0.8926166308992212, 
            1.394789303523036, 
            1.232917755709749, 
            0.8217702348160232, 
            0.061491161905134685, 
            1.4952797849713124, 
            0.4223762887797632, 
            2.2922062387457918, 
            -0.566786211753579, 
            -0.9918817203030396, 
            -0.5789300887497227, 
            -1.1374428453147336, 
            0.788537604778164, 
            1.3941090043698372, 
            -1.4250218018825132, 
            2.4581285628052063, 
            1.500700620904495, 
            -0.3452838190254374, 
            -0.20165741400137316, 
            0.3840566015764463, 
            0.1561275100790243, 
            0.6805106167755418, 
            0.13157315876161244, 
            0.7794782002663978, 
            -0.5879461315369235, 
            -1.5525879980690476, 
            -1.395485896309048, 
            -1.3102293757623085, 
            -1.8932015602267578, 
            1.4853033694148385, 
            0.04154661438066351, 
            1.696545257210845, 
            1.7501224583485369, 
            2.4900988992378816, 
            2.702852854298459, 
            -0.31361587958779663, 
            -0.46975602223169916, 
            1.0829363008650776, 
            -0.5787054709524091, 
            0.157429322370466, 
            0.3700928919814295, 
            -0.7169799065332301, 
            -1.4518353916172908, 
            -0.6897801962194495, 
            -0.13328860574175316, 
            -0.5576887415063586, 
            -0.4918549392235957, 
            1.9599399542869482, 
            -0.3175802426693021, 
            -0.8044292086940322, 
            1.192011272416699, 
            -0.9804559111003903, 
            -0.7350538945942492, 
            0.24575003004309073, 
            -1.2947835070217277, 
            -0.7458488717956523, 
            -1.3605702455033046, 
            -0.14716147204698085, 
            -0.5739440340310963, 
            -0.22673348807314872, 
            -0.5564427392762625, 
            0.037860193932855085, 
            -0.15377261825065563, 
            -0.0989768847095813, 
            -1.0705681687417037, 
            -0.8807808441382967, 
            1.2388558951553856, 
            0.09811889285968048, 
            0.21942836864637505, 
            -1.1985821110803052, 
            -0.5963211198784661, 
            -1.7612688228002227, 
            -0.9803643614894276, 
            -0.14573417266543795, 
            -0.10773329182538868, 
            -0.8646083096169116, 
            0.3257736826410714, 
            0.2400311505064376, 
            -1.2401786913743782, 
            0.9856308775393087, 
            0.16771114424129654, 
            -0.8806254020040256, 
            -1.565460780772828, 
            0.6442615042350435, 
            -1.3503351125972283, 
            -0.5697996929797402, 
            0.3671780356925151, 
            2.2826834677095063, 
            -0.059536888917580674, 
            -0.14333168633686763, 
            0.6659585645034217, 
            1.1044157696077515, 
            -0.18794544574629002, 
            1.0106153864277088, 
            0.25423530021828833, 
            0.3221975930549489, 
            2.42333835393182, 
            -0.8306047777050151, 
            0.8784092591995482, 
            -1.8662499457727673, 
            0.45172979151497245, 
            3.504538891355388, 
            0.03762560986851786, 
            0.3754869640509785, 
            1.1886073894783167, 
            1.6919972494507554, 
            0.6865077357849406, 
            -1.679584402748818, 
            0.29945578566215625, 
            0.3808973741818969, 
            1.0003994392367235, 
            -0.36831164639371416, 
            1.168369155718097, 
            0.2887696011072895, 
            1.7093245275081377, 
            -0.6580863764970809, 
            -0.10874732872478561, 
            -0.4311597371669299, 
            0.5029305435660617, 
            -1.2728443034361236
        ], 
        [
            -0.7837040556650237, 
            0.9378236777899208, 
            -0.8632915561850432, 
            -0.8141687021080588, 
            -1.7210051238795296, 
            -0.46771127336778634, 
            0.7392345954637364, 
            -1.3147925679875612, 
            1.7173157474251453, 
            1.059274680920675, 
            -1.6776587689770588, 
            -0.6370548263397428, 
            0.8121944568936784, 
            0.01691330706160298, 
            -0.22025098189919937, 
            0.02356943096644313, 
            -0.7200265667728545, 
            1.2154102854039572, 
            -0.22946484729577182, 
            0.41658130314583414, 
            0.3867112507555405, 
            0.715357034534627, 
            0.582962265714097, 
            -0.26674302898912117, 
            0.2754132513827441, 
            -1.1175481796486542, 
            1.2608776211271815, 
            2.5758803708192968, 
            -0.2691371982003203, 
            0.9550127830478512, 
            1.774322851307611, 
            1.2772772241379156, 
            -0.04488777413944174, 
            0.2792213799049287, 
            -0.31287717267368204, 
            0.18662939229004244, 
            -0.5498520222238515, 
            -0.06066911103118358, 
            -0.41262492487608204, 
            0.20274189249739458, 
            -0.01566391325330872, 
            0.5003124764121875, 
            0.4458839909527621, 
            0.4636591923939489, 
            -0.8415482213365179, 
            -0.7803069266667475, 
            0.5522006950782729, 
            -1.647341422116233, 
            -1.1233827616595087, 
            -0.9232698711932584, 
            -0.1695410147051361, 
            1.0778573518367756, 
            -0.014253825848314014, 
            -2.9357417139839064, 
            0.6895141371298907, 
            -0.860609620189809, 
            0.9367774202123169, 
            -1.7903731052609235, 
            1.0711444647848027, 
            1.071857555730721, 
            -1.6819191573159558, 
            -0.9342884619458451, 
            -2.1288706957701633, 
            -0.20457125432900075, 
            -0.12243475364829572, 
            -0.8717786688360659, 
            0.41062302756953767, 
            -0.39840045550849723, 
            -0.4621588275671149, 
            0.9530512317828996, 
            0.06415545000917103, 
            0.9470530589387508, 
            0.24891220996527985, 
            -0.7266269270936094, 
            -0.8322477705588156, 
            0.3814026387165556, 
            0.10376440805118531, 
            0.3211546226229001, 
            -0.6715546283345726, 
            0.30592746779580005, 
            0.2610146521977567, 
            -0.8323661206381753, 
            -1.2704878746639712, 
            -0.7208597700772044, 
            0.85069209930443, 
            -0.6302466648108104, 
            0.16998279941231084, 
            0.839787692211691, 
            -1.024770852232053, 
            -1.1437782808640067, 
            1.1424330273302703, 
            -1.0441800114645259, 
            0.02759235522821404, 
            -1.089805224415938, 
            0.7398846387669764, 
            0.07768528562050261, 
            0.056593090696780333, 
            0.49299740065744757, 
            0.7240782964290248, 
            -0.05308146526146792, 
            2.003415273017308, 
            -0.3966332797864589, 
            0.7293962211883074, 
            -0.07870445760846928, 
            0.17850970475344624, 
            -0.5233882788790234, 
            -0.22435873288693256, 
            -0.2743053843476019, 
            -0.29520578431919076, 
            0.7510458164827988, 
            -1.03219489169926, 
            -0.14479865461367458, 
            -0.4087167759495312, 
            0.815322404035916, 
            -1.0928093955829108, 
            -0.5376009333041528, 
            -0.10806588533889017, 
            -0.9274330239526595, 
            -0.227514206123111, 
            0.4593983268498895, 
            -0.42708257289053275, 
            0.5815603571233584, 
            -0.86007865611309, 
            -0.7351749801099465, 
            0.6494463994178113, 
            -0.32439101643467183, 
            -0.551121821143637, 
            1.002338496048107, 
            -1.14764656159504, 
            2.7482512350850494, 
            -0.14900148575814043, 
            -0.22817574735645, 
            0.060331285435691585, 
            0.8017824739932103, 
            -0.1626741122588596, 
            -1.588909677715169, 
            1.1091192541986667, 
            -1.787389320482586, 
            0.9375354916407156, 
            -2.086444546957141, 
            0.12472741439884806, 
            -1.446153077941206, 
            -1.3854698474099332, 
            2.029404019501232, 
            -1.2541666037676422, 
            0.6670525341686857, 
            -0.5178218712289611, 
            -0.7522195249389799, 
            0.15666360980032537, 
            1.1132544083587304, 
            -1.4043322074853444, 
            0.5264431889991322, 
            -0.6707675841718083, 
            -1.0723645570911309, 
            0.5528793886105262, 
            0.10517234689542425, 
            -0.01327521146380284, 
            -0.22520462995561522, 
            0.7465201523393683, 
            -1.7504606420578854, 
            0.006788054161367257, 
            -0.7108699398518775, 
            0.06298277796510636, 
            -0.09787861729644451, 
            0.6466270810419551, 
            -0.7033528283286559, 
            0.7356355887058049, 
            -0.11019913276982644, 
            1.3492390540148393, 
            -1.3332734406178688, 
            1.4478519546474453, 
            0.10777407913716672, 
            0.44502994844351645, 
            2.236034428823738, 
            1.1795223403932464, 
            -1.8321485278056608, 
            -1.1428398066596583, 
            1.451707713930892, 
            -0.8002795889358996, 
            0.27331619343302227, 
            -0.2594735030074875, 
            -1.614579099501923, 
            -0.8404366764943781, 
            -0.7408516737796255, 
            -2.3894924010719816, 
            0.6500806381818353, 
            -0.8940645197157164, 
            1.0165061172156153, 
            0.3200586980007817, 
            0.03451218431029494, 
            0.2893720283048299, 
            -0.4543956098292826, 
            -0.19460737711608156, 
            -1.1995555816041215, 
            3.2716452359690043, 
            1.7824257633952605, 
            -0.03866695247023613, 
            0.10322122413379083, 
            0.3726784732863162, 
            1.9685245715848412, 
            0.923373717160269, 
            -0.349997008264438, 
            -1.3040425509165323, 
            0.20425458679816214, 
            -0.09681733305677788, 
            -0.3303128181335529, 
            -1.1117708087082196, 
            0.43433296554922524, 
            0.21182042028482825, 
            -1.4678861363962814, 
            0.23595263345356873, 
            -0.005997953327835372, 
            0.07614932490879034, 
            -0.04948264796179799, 
            -1.6944515916957765, 
            -0.5909397478881422, 
            -0.9567277768151625, 
            -0.061358568204764936, 
            -0.171809267611342, 
            -1.135379560693112, 
            -1.2149034332956143, 
            -1.1645051965135085, 
            -1.147154683954971, 
            -1.0965878268701574, 
            -0.36684501908625206, 
            -0.9966475434628104, 
            -0.7202611774366582, 
            1.6651759658461418, 
            1.4030126743980103, 
            -0.09575656181852053, 
            -0.9037262041065074, 
            -0.41160820828602696, 
            0.060171910441012395, 
            -0.7437733004588807, 
            -0.33148073488042434, 
            1.189973195407815, 
            -1.5846326780819413, 
            -0.10815445124008616, 
            -1.263174898610033, 
            -0.1949161867048683, 
            -0.5360608292509952, 
            -1.130782879745701, 
            0.21596273984347436, 
            -0.13903319341639891, 
            1.2888757700243074, 
            -0.8126431547579898, 
            -2.5676871254022995, 
            -1.669240849418981, 
            -0.685556094402932, 
            0.2595154717082634, 
            -0.29615569237989786, 
            0.8094289826673987, 
            -0.5794421766412378, 
            -1.6199813158319785, 
            1.2544624866372593, 
            1.0006979714075044
        ], 
        [
            0.6365470912822566, 
            -0.584174621880333, 
            -0.11646766426950904, 
            -0.6607269311858049, 
            -0.15478606597089498, 
            1.053185625998066, 
            0.3088317849857178, 
            -0.5738829794154793, 
            -0.2627644520340933, 
            -0.7481984681919862, 
            -0.27003012069144133, 
            -0.4234913566747246, 
            -0.4819106413649641, 
            -0.22668645300912818, 
            -0.8044756413817764, 
            -0.45210629159509785, 
            -0.5291110176112142, 
            0.5722262230909663, 
            -0.03956689885157562, 
            0.32573261780344337, 
            -0.20639726095761207, 
            0.8631799347985993, 
            0.34100902441518877, 
            -0.17220480487449374, 
            0.4299520673135845, 
            0.5506522923959642, 
            1.4284225685861365, 
            0.4792782061875653, 
            -0.6849691128051616, 
            -2.957175408651853, 
            -0.2086029844759365, 
            -1.5885552833194825, 
            0.25830716381206875, 
            1.6411742441736905, 
            -2.687842304793672, 
            -0.7021614250479222, 
            0.702562165386645, 
            0.6996294631088311, 
            -0.4728832135359227, 
            -0.30585316086091585, 
            0.8214526974738684, 
            -1.7123613580982882, 
            0.6751231500160869, 
            0.3341348413883694, 
            1.1388697199254796, 
            -1.3451205713268448, 
            0.3798371164943354, 
            0.5318945345873751, 
            0.03955059761702112, 
            0.3969757887159478, 
            1.8034980229701632, 
            1.599096484117713, 
            -1.6228962367274131, 
            -1.35429638387829, 
            -0.2606168856480123, 
            -1.2179167070704426, 
            -0.9109907544574789, 
            1.0541138050291505, 
            0.35140145854394034, 
            -0.23333167039020328, 
            -0.651723478846098, 
            -0.4858199643872198, 
            1.796182900335349, 
            0.7879647688342929, 
            -0.8484943840214842, 
            -1.674240349931164, 
            -0.8154671468414564, 
            0.5914428396558576, 
            0.5612625010580203, 
            0.41672617692472175, 
            -0.3167756331276776, 
            -0.2169437474182572, 
            1.4819171569272778, 
            -1.5616393870792822, 
            -1.90962749140257, 
            -1.0972084404437639, 
            -0.6394549335417328, 
            0.7117095054083253, 
            -0.15382148784792968, 
            0.7902061853556606, 
            -0.061973790201574425, 
            0.7259608668669988, 
            -0.3677395935564427, 
            0.5325549277131814, 
            0.7065269703832864, 
            -1.2814378619354736, 
            0.6661760043200027, 
            -1.7414790858165952, 
            0.3796883502547009, 
            -1.961371557601697, 
            -0.6479887754119908, 
            0.4531821630012802, 
            -0.21267143520326393, 
            2.027489872620598, 
            3.101296397492493, 
            0.9595523109286654, 
            -0.5314838120244603, 
            -0.38149358475363243, 
            -0.6891875921555645, 
            -0.8995803443331644, 
            0.361810576346356, 
            -0.9658070274858077, 
            -0.5108640200529689, 
            -0.27842832661693473, 
            2.2952205491970434, 
            -1.3531640024040759, 
            -1.8440380543458097, 
            -1.0144272239551881, 
            1.0095158236755795, 
            1.7662140765498844, 
            1.310103893476147, 
            1.2148053584534442, 
            -0.8784459156952878, 
            0.6715081324129482, 
            0.8316537895977102, 
            -0.6239361558565611, 
            1.5145432579784872, 
            0.36260628826865354, 
            -0.371509754988575, 
            -0.05379397601936581, 
            0.0922045356234107, 
            -1.2457067580186192, 
            0.8774656544735084, 
            -1.0784446489371127, 
            -1.0673769906221136, 
            1.5861359935597676, 
            1.5149650529659127, 
            2.170568511455771, 
            -1.002222117819659, 
            -1.4963846927328084, 
            -0.42170726198240144, 
            -0.43757061338824155, 
            2.0796895867690406, 
            -0.167777989108877, 
            1.082413769346429, 
            1.77258103846515, 
            -0.4576699424661899, 
            0.22663376332863808, 
            -0.5039171096155326, 
            -0.9128490489638227, 
            0.731746262540273, 
            -0.7128303071753451, 
            -1.105104338660172, 
            0.14175888229416025, 
            -1.3136870313477096, 
            0.5848433622559471, 
            -0.5999216257112571, 
            2.0979167680264004, 
            0.6012795560662176, 
            0.9801311534234687, 
            -0.14373947967941625, 
            -0.6080933912115389, 
            0.6164136808398245, 
            1.7544059017359646, 
            0.3774548720340785, 
            0.5748354152244499, 
            -1.0466744915718937, 
            0.4422827826516904, 
            0.19719779451084257, 
            0.4302590671254105, 
            -0.9214328123644596, 
            -0.25728967233558775, 
            0.8297849753470288, 
            0.4121153475073793, 
            -1.0115576719181982, 
            -0.010300305702252375, 
            1.2274462456326847, 
            -1.2123662812034433, 
            -1.057353932655525, 
            -0.2844245110739196, 
            1.546874083575539, 
            0.4423058234321248, 
            -0.015340885070446036, 
            2.951148216779758, 
            -0.04167739374712687, 
            -1.2804630357733673, 
            0.8477437400955719, 
            1.1014057006607574, 
            0.3977509253255292, 
            1.0161249957615222, 
            -0.7064091937791735, 
            1.2487841225876606, 
            0.3409773643114107, 
            0.41420984651468473, 
            0.4801430248251072, 
            -0.9306418130103524, 
            -0.6990780848859647, 
            0.9278923125834809, 
            -1.3690975047660634, 
            0.6641903988714594, 
            -0.7810329978000403, 
            -0.13366858689948802, 
            -0.27135544101294046, 
            -0.9296259142212258, 
            0.8448819859139601, 
            -1.1623063438339687, 
            -0.6215064481079529, 
            2.2573209018600564, 
            -0.05054816154854224, 
            -1.8780242484991632, 
            -1.4257984239516488, 
            0.16233415580456712, 
            -0.8138010374952402, 
            -0.4898511721112512, 
            -0.7523985677593051, 
            -2.4478581249371696, 
            0.22672938979671994, 
            0.44547366638426533, 
            1.0721682157597299, 
            -0.35096634070212995, 
            2.3980792562495905, 
            -0.4260764494281211, 
            1.3898037850846592, 
            1.3040023005617007, 
            1.8768003356714495, 
            0.2748004456750568, 
            -0.07159090048402167, 
            0.6546326174133815, 
            -1.2333883987080838, 
            0.5580049693094832, 
            -0.14707725863539467, 
            -0.6583355748481061, 
            -1.1721772109801287, 
            -0.11543522626367869, 
            -0.688186505553565, 
            0.7512787161553701, 
            -2.045154578283714, 
            -1.1021997310645635, 
            0.917839581181672, 
            -1.0146021313133091, 
            0.25720178714263087, 
            1.1010591518139246, 
            -0.00521299377975593, 
            0.47988251152301786, 
            2.1953374499703635, 
            1.3478237871062033, 
            -1.0245516336274618, 
            -0.2891408216878498, 
            -0.9026583592518649, 
            0.12143168982683518, 
            0.03062480330899202, 
            -1.03892079204829, 
            2.505325231906955, 
            -1.0984133473302038, 
            0.5807905813139314, 
            0.7676364105598436, 
            0.8449005312427774, 
            -2.0535430573808218, 
            -1.1735851804491044, 
            -1.0281495557148126, 
            2.522662376472693, 
            -0.38205568256416156, 
            0.49996968402818176, 
            0.639309365641345, 
            -0.5641097231435054, 
            -0.844253019866352
        ], 
        [
            -2.074824679518253, 
            -0.003514640957589316, 
            1.0524939241300675, 
            0.3925444205811973, 
            0.7463998465265973, 
            -0.9748999001811551, 
            -0.479914650161225, 
            -0.1731465726771904, 
            0.3308170244725563, 
            0.44214862893911583, 
            0.5281346260162091, 
            0.14384606200761907, 
            1.0464088761906392, 
            -0.7120918514650117, 
            -1.1212623026209383, 
            -0.39168585844027, 
            -0.031183184717182035, 
            0.8348778895388717, 
            -0.6154868213654502, 
            0.06541759872579767, 
            -1.368290734570659, 
            1.2220420263109564, 
            -1.7387363073039097, 
            -2.0455954954878943, 
            -0.2360452946649507, 
            -1.9386877010100867, 
            0.2902446987003138, 
            0.6660212745759738, 
            -0.5388957969670243, 
            1.3639739506029478, 
            -0.40984086695948047, 
            -1.0031262095333493, 
            0.14619147867182103, 
            -1.1320138409254688, 
            -0.5041875107528538, 
            -1.338091427135008, 
            -2.2350229191032396, 
            -0.4931649199761556, 
            0.138883841011364, 
            -0.4911769484450419, 
            1.019326595037904, 
            1.3279567078121601, 
            0.2914759564169141, 
            -0.27388317122644074, 
            0.20458125122966156, 
            0.3436586885400433, 
            -0.3569686804838143, 
            -0.981261768200022, 
            -0.9247293592015957, 
            0.9713122039246321, 
            -0.3430330774750941, 
            1.3515792498900308, 
            -0.010235151123223063, 
            -0.4813080403579636, 
            -1.3762354802135999, 
            0.6261819369180276, 
            0.09216018370878115, 
            -0.850020425200109, 
            -0.10357195412726918, 
            1.6216125917983555, 
            -0.40270558281246227, 
            1.0561103232927898, 
            2.8287498388088173, 
            -0.058845902296488, 
            -0.41337900059025307, 
            -0.6024355038623476, 
            0.6698534325268363, 
            -2.426701238977332, 
            -0.8174365818383706, 
            -0.38626538500842766, 
            -0.5265517085940118, 
            0.2386814584110208, 
            -1.6366039416422564, 
            -1.2183689343112523, 
            -0.10702480584964968, 
            -0.8573423390132406, 
            0.6862554005292553, 
            1.2558976997247675, 
            0.5373281161278093, 
            0.7777272053261547, 
            0.20964949195313434, 
            -1.0177408165573132, 
            1.3020440599168066, 
            -2.043444845281805, 
            -0.468259030015828, 
            0.37408695770930267, 
            1.4387959653465625, 
            -1.887461636738299, 
            -1.6465756598126313, 
            -0.27227944500350404, 
            1.585872400388819, 
            -0.6967490706329181, 
            0.22008397834288884, 
            0.44394071316343225, 
            -0.7998833350571211, 
            0.8552552537227618, 
            -0.12714061461009754, 
            0.03611971075635779, 
            -0.8208225335928868, 
            -1.8458512059902306, 
            1.7072470893934293, 
            -0.3928077385307591, 
            0.24391202779422805, 
            -1.3335362429723243, 
            -0.13571866040218064, 
            -1.273748168035404, 
            -0.474322974652738, 
            0.28153482918269807, 
            0.4231910399234538, 
            -1.2160872137379335, 
            -0.29597622158088766, 
            -0.538565121112668, 
            0.20801997464925295, 
            -0.6297147537084737, 
            -0.03139956546935314, 
            0.3075560245803955, 
            1.429023749697786, 
            2.2831776160304607, 
            0.17778550081966715, 
            -0.9355569249054292, 
            -2.4899179355162238, 
            0.12522529596897078, 
            -0.831546911124041, 
            1.4325385573765155, 
            -0.24853195394642758, 
            -0.9274773265142244, 
            -0.8518760590046212, 
            1.1729576224525782, 
            -0.40036002928547537, 
            0.6477818456936643, 
            0.27096727633390616, 
            0.6572370024446939, 
            0.461854240467265, 
            -1.955411097426565, 
            0.29723572287390027, 
            0.2691634056694886, 
            -0.8270285006061753, 
            0.8540820186409283, 
            0.05012210085306865, 
            -0.6399200034816791, 
            0.575910979194923, 
            -1.0561612104114602, 
            -0.2047859942756013, 
            -1.191514215118939, 
            2.4198049306604474, 
            1.7708966235524002, 
            0.6946298596476269, 
            -0.3878915546178809, 
            0.11935121390303424, 
            1.53753865863154, 
            0.5154800297085737, 
            -1.4080477159996454, 
            1.258049270279461, 
            -0.11184321722436465, 
            -1.3386953683857836, 
            -0.4705158013815392, 
            0.31547451931996356, 
            0.004047568275247931, 
            -0.9894233272783193, 
            -0.13296618124316373, 
            0.22608756781362396, 
            1.448032106234358, 
            0.23437455417389666, 
            0.7608373495238201, 
            0.6463019073393621, 
            -0.6008493252870454, 
            -0.48001466887822203, 
            2.023859991863921, 
            1.083004837639781, 
            -2.0036385411335753, 
            -1.2934261075194005, 
            -2.0541219767270666, 
            0.09851777649824757, 
            -0.4008638296020448, 
            1.8106151113835875, 
            1.9263011643422405, 
            -0.8383717455473781, 
            0.16291510184978256, 
            -0.4189662585195708, 
            0.7035317908772177, 
            2.2403103776897217, 
            -0.6150658505577236, 
            0.5569260161459727, 
            0.6053028604267533, 
            -1.8760612061327784, 
            0.7686362754793454, 
            1.726296963934687, 
            0.8896464171670568, 
            -0.7646272505176064, 
            0.21074896468429627, 
            -0.5671246154132975, 
            1.513338304031635, 
            0.07194046962444207, 
            1.7470034774607706, 
            -1.4726022496609048, 
            -0.054416619083188573, 
            1.3513524099478458, 
            -0.25060766173399635, 
            0.3415089870699453, 
            0.2588246192139805, 
            -0.601015926473472, 
            0.10524065812841546, 
            -0.42770953634238423, 
            -1.1854110133637172, 
            -0.7576540534096967, 
            0.03901999608388561, 
            -0.6250867370408458, 
            -0.9916715739356219, 
            -0.9005700833299102, 
            0.8249533062572056, 
            0.21682948852154257, 
            0.4418459367542219, 
            1.2537286936538123, 
            2.2065372389387035, 
            0.7570233266896264, 
            -0.5134387073618416, 
            0.28411995513489896, 
            -0.18390352739043728, 
            0.17000137222443762, 
            1.309309564907588, 
            -0.8745877614308865, 
            0.3864916354076555, 
            -0.7043213971846589, 
            -0.09453149981993776, 
            -1.391114954758701, 
            -0.9410333147603016, 
            0.6785200229310927, 
            -1.2676639583826599, 
            0.4810785895128207, 
            -0.5815955597739085, 
            0.8796564521015607, 
            -1.1078487443696912, 
            -1.4767018961420486, 
            -0.07338693904884659, 
            -0.9362772627061658, 
            -0.424033811920915, 
            0.2009765512511825, 
            0.5716038455340325, 
            -2.247184866321821, 
            1.2637122692867488, 
            1.2182211672083234, 
            0.3627602800723007, 
            0.8752833408460997, 
            -0.8815675249491917, 
            -0.6795528630587582, 
            0.602497033391135, 
            0.10916009767978872, 
            1.601327901553372, 
            1.584545496785439, 
            -0.581803209983691, 
            -1.2735136583867663, 
            -0.8090207235185349, 
            1.318226874089366, 
            -2.137944493737153, 
            1.67856910646959, 
            -1.4797519892149693
        ], 
        [
            -1.6494303616915702, 
            -0.7929083291443958, 
            0.6764919616775205, 
            0.1523747374408132, 
            0.8389655423626344, 
            -0.03506870261296193, 
            -0.781963135484854, 
            -0.04722528647369991, 
            0.20204025978059076, 
            -1.5374643863621356, 
            -0.32697077071889485, 
            -1.373544795464549, 
            0.9459459468672012, 
            -0.8038261036204842, 
            -0.6221706954023069, 
            -0.17957593637708474, 
            -0.17118420219407524, 
            0.2060280126145886, 
            0.6650441566638027, 
            0.24579046425061493, 
            0.36187145879512966, 
            -0.05797466790254493, 
            -0.22340065232385584, 
            -1.0382316576206208, 
            -2.0649866082305, 
            1.100937913225111, 
            -1.795322622209225, 
            -0.7518135738633595, 
            0.5399176413640957, 
            1.2946605526735828, 
            -1.5223859675253522, 
            0.16524698838872307, 
            -0.8922195404638037, 
            0.14908881023469306, 
            -1.2992816409730528, 
            -0.8408457481359701, 
            1.417790776534767, 
            -0.407519516380885, 
            -0.017192717191212476, 
            0.6756175878983594, 
            -0.15935393047487179, 
            -2.0313619595620915, 
            0.0685386606349759, 
            -0.5465066701822446, 
            0.2528303264706538, 
            -0.9485080685566489, 
            0.3703773341929085, 
            0.2170131267415109, 
            -0.08234980999696533, 
            0.4138801991356737, 
            -0.28089558148233457, 
            -1.637260456797416, 
            0.033507591416719884, 
            1.1947860222069928, 
            0.9257212734463618, 
            0.10717370069927953, 
            -1.6267268957767647, 
            0.9809675103014625, 
            -1.244649393143747, 
            -0.6728699169609801, 
            0.45203582326615965, 
            -0.015301764468221589, 
            -0.41249888941759716, 
            0.4368294605218666, 
            -0.6228324369316868, 
            1.5112410844844508, 
            0.14332788140977173, 
            -0.7556871741483271, 
            0.12955290722637702, 
            -1.2420843157399932, 
            -0.09131230983098665, 
            -0.9261985451211369, 
            1.3157423475535779, 
            0.6253910407873227, 
            -0.8661566203402853, 
            -0.029987894148127976, 
            -2.6982450506129116, 
            0.27132403226381524, 
            -0.26534671368351664, 
            -0.5699362959546629, 
            -0.8638114608767892, 
            0.6042452788415154, 
            -0.994780005578683, 
            -0.5473578581930649, 
            0.770480181808307, 
            -0.8497291308985735, 
            1.6717187572589485, 
            1.0279269921549261, 
            0.618753405105371, 
            -0.8277135722893837, 
            -0.12451064231874151, 
            -0.9098763341013231, 
            -0.6578011533347606, 
            -0.8876012657727674, 
            0.01118662308722578, 
            -0.05403371855907737, 
            0.781373275462887, 
            0.6985057329610662, 
            1.00449147908434, 
            1.1101564758630786, 
            -0.12498179391550418, 
            -0.6005665417515234, 
            -1.5305986278587744, 
            0.9065261683204391, 
            0.41583474801871023, 
            0.9205130050500224, 
            -0.08828942652468866, 
            0.1374726687557664, 
            -1.3248427395060756, 
            -0.4166197717794045, 
            0.1432416399601606, 
            1.7100871519541319, 
            -0.7092206079306363, 
            1.4867450634762467, 
            2.172404922056932, 
            0.21915494054854529, 
            -0.28580349772431196, 
            -1.1656521666145487, 
            -1.5118329517466786, 
            -1.2090586083288672, 
            -0.10812291561824469, 
            0.6320676332615877, 
            -0.6368755222403503, 
            -1.4695372385137349, 
            -0.5822380391304114, 
            -0.25901820788592217, 
            0.23300912705493537, 
            0.6252979312770002, 
            0.02487153472181397, 
            1.1576836484188333, 
            2.6588991463434968, 
            1.1034445662069272, 
            0.4233912273973673, 
            0.23752282533103178, 
            0.1170442228661283, 
            0.13940731272679582, 
            0.3208738463664725, 
            -1.1774419680537676, 
            -0.12195646541547607, 
            -0.18045232103587502, 
            0.7199825160278994, 
            -0.7254983637957008, 
            1.5751726435687214, 
            -0.6264011649533143, 
            0.25124297628001857, 
            1.4337567253406511, 
            1.4410657631096138, 
            0.15735283665750913, 
            0.6746310678592247, 
            0.6830096928043076, 
            -0.6270296332090338, 
            0.6631816967586277, 
            0.3871982709393535, 
            -0.10260760812596839, 
            1.2703646344058948, 
            0.3343134515498012, 
            -1.6582365329843278, 
            0.4354967956769853, 
            1.2140123845116448, 
            0.3046870409718455, 
            0.09868565022423244, 
            1.8970337601597718, 
            0.6331130053002019, 
            0.5513951607197364, 
            -1.668220101178559, 
            1.1914541274591648, 
            -0.9425126530036589, 
            -1.4922675950733384, 
            0.7290976833238487, 
            -0.4982175522390912, 
            -1.197381569520945, 
            1.7238328206457572, 
            -0.7129342935719617, 
            -0.7566856364254246, 
            1.1409999203663115, 
            -0.10270495276798568, 
            0.3735896775221345, 
            0.37596013448077276, 
            -0.2603846230737625, 
            0.5677630255409566, 
            0.12208434209476715, 
            -0.7952843875679632, 
            -0.5708923162579094, 
            -0.2761084098423571, 
            0.7101407757267788, 
            0.4388915793582167, 
            -0.5814281935771599, 
            -0.21778295664626704, 
            0.6025379123710243, 
            -2.270162820470834, 
            0.11016710348071884, 
            -1.316578195204606, 
            0.31678867917974085, 
            1.2874533142025963, 
            0.7107003840301863, 
            0.15984346261955165, 
            -0.4920268545200366, 
            -0.483514861054923, 
            -0.6806139190421996, 
            0.24680539121047051, 
            1.2051920966122927, 
            -0.40124709006144066, 
            -0.0975799564362549, 
            0.18885363403648636, 
            -0.9357060230571538, 
            0.10780145046650855, 
            -2.000656956680191, 
            0.9899060450095573, 
            1.2341599995739716, 
            -0.731889042998368, 
            -0.014052958550019605, 
            -0.24118415551382594, 
            0.3411662655201753, 
            0.5754559627629405, 
            0.7675878044794565, 
            0.732185610008651, 
            -0.4233010100941635, 
            1.5113964746571886, 
            -1.24361187021877, 
            2.2323597743867514, 
            -1.108451934900352, 
            0.9755800558532025, 
            0.29135109482036864, 
            -1.1273737587057997, 
            0.07431062764602894, 
            -1.0900721758460439, 
            0.560811691497602, 
            1.9587401419075918, 
            1.3033628133946595, 
            1.0263986150694189, 
            0.01231689390088511, 
            1.5177624894692268, 
            1.885960685224158, 
            0.620213408786727, 
            1.5197824558315558, 
            1.2603697413201294, 
            -0.11092486562554313, 
            0.7481048260879491, 
            -0.2645827499769898, 
            0.8043769113029628, 
            -0.6796938834184434, 
            -0.46881978761084864, 
            -0.4819869466674465, 
            0.43796290336884497, 
            1.1568761262183689, 
            0.49308161839305337, 
            0.9434811676985774, 
            -1.2249985336139237, 
            -0.7268292459051433, 
            -1.4378094208569407, 
            -1.014640872778428, 
            -1.9962543853927046, 
            -0.7904309770075547, 
            -0.3394673367848878, 
            0.19847022696688846, 
            1.785724053139285
        ], 
        [
            -0.8106061954103757, 
            -0.3461390179539252, 
            0.02200001480970612, 
            -0.7919172626319023, 
            -0.46022357127970875, 
            0.634380300134871, 
            0.36975100117083687, 
            -1.0995978985063313, 
            -0.9272203088657495, 
            -0.0043414251613627134, 
            -2.002680008203191, 
            -2.6168294160529744, 
            -0.9610769970850301, 
            -0.608804514803718, 
            0.9214857657687852, 
            -0.714006906041946, 
            -0.09316706915551898, 
            -1.5895197895945103, 
            -0.1397102436388988, 
            -1.3232715202875491, 
            -1.3713519172921258, 
            -0.7230564951517421, 
            -0.8025272189559093, 
            -1.5381710333024328, 
            -1.9642658310636163, 
            -0.9178815265280462, 
            -1.0180972133843138, 
            0.5123752978823377, 
            -1.271346503101024, 
            0.8057150436018854, 
            -1.1477931711539953, 
            0.7880229772191841, 
            -0.7518807407980967, 
            0.5770067074957328, 
            -0.9486519740577033, 
            1.719140566430096, 
            0.2877010247771881, 
            1.2840388378008334, 
            -0.8464671779448744, 
            -0.42350756656968463, 
            -1.1502611327223407, 
            0.5568201688096245, 
            0.040387524632864685, 
            -1.0285218442414281, 
            0.35997049669419806, 
            0.9174264269636602, 
            0.13426331344391773, 
            -2.004706995624673, 
            -0.6836968087589655, 
            -0.24456022842571262, 
            0.7882800642380676, 
            0.8707385006652101, 
            0.4613626052254519, 
            0.10672365392787048, 
            0.5834874771624975, 
            0.9336848621985016, 
            -0.6332925000339416, 
            -0.5562710945296733, 
            -0.10324917492372342, 
            0.9318983871656474, 
            0.48773762804455173, 
            0.44272289614745175, 
            0.13843311632679503, 
            1.0503778334882143, 
            0.13034492033530973, 
            -1.0236798690824807, 
            -0.4548813570403909, 
            1.3322632452182945, 
            1.5977520644642313, 
            -2.6678699007832263, 
            0.8921792896682761, 
            1.7806640683883872, 
            2.887002773281535, 
            0.8125268656412984, 
            0.8876256623123158, 
            0.4274834894038321, 
            -0.07718913543859651, 
            0.4630820783250768, 
            2.0176291576751777, 
            -0.09396474958262623, 
            -0.7755758402624734, 
            -0.459722026531521, 
            -0.16800628809395393, 
            -0.5578497230002022, 
            0.3565826492699763, 
            -2.4772317698034554, 
            -0.17348643534023694, 
            0.5066240856999958, 
            0.7061748823190144, 
            0.8954504207284162, 
            0.9360335428748342, 
            -0.9735781541722349, 
            -0.8410578210671229, 
            0.8696995035055851, 
            -0.38561651671626757, 
            0.8670697236874548, 
            1.3757715060418982, 
            -2.0442634615365596, 
            1.48418325087936, 
            0.40229247245438865, 
            -0.16467293520355628, 
            -1.1532629349425054, 
            -0.5385269265950047, 
            0.8022933517327429, 
            0.4209088549818832, 
            1.07965948041336, 
            -1.7932949115457961, 
            -0.1627361664577298, 
            -2.1881995011632402, 
            -3.867667014264188e-05, 
            0.49854083156153944, 
            -0.5102038825816948, 
            0.8600550471687787, 
            -0.537944328274023, 
            0.1742987460377483, 
            -0.2730306376393253, 
            -2.8338910256853627, 
            -1.7275722427447135, 
            0.8376804256751281, 
            1.4405828277447674, 
            2.965142234995039, 
            1.042600690839313, 
            1.4732820747412736, 
            0.873295246477149, 
            -1.469077077382756, 
            -1.829055588896967, 
            0.8443591217445107, 
            0.09523681344221982, 
            1.03735165897264, 
            0.06666903298403194, 
            0.08816262341631008, 
            0.1612970918986384, 
            -0.41361068683467267, 
            0.3527217206731136, 
            -0.3275440371010482, 
            0.22466687910881905, 
            0.627222145939751, 
            1.6965539735081059, 
            1.2528979284668407, 
            1.0051313455684296, 
            -1.414628189981695, 
            0.40630537906386305, 
            1.7290839172798234, 
            -1.1528020641875576, 
            1.18931671790283, 
            0.7799669392547571, 
            1.7684235867448537, 
            0.47320251026392435, 
            -0.1817895547140901, 
            -1.0740255691535958, 
            -1.3465352301680495, 
            -0.8482126009096067, 
            -0.42986186876425475, 
            -0.94714843847831, 
            0.01745722276501995, 
            -0.5592406222624811, 
            0.46019835328066694, 
            1.0964771940087408, 
            0.2850879996207983, 
            -0.7274309401162745, 
            -0.49579715937007524, 
            -1.0388228783676385, 
            -1.1136344489911278, 
            0.2570427128729968, 
            -0.09932236496886067, 
            0.5113885527126731, 
            -0.8990633396188351, 
            -0.6458348287180604, 
            -2.0478090952864916, 
            1.4772538598388276, 
            1.0485036888525654, 
            -0.7014745583043787, 
            -0.4910017147946364, 
            -2.2295228555154654, 
            0.5986795902068185, 
            0.9165596513632226, 
            -0.3564578196746074, 
            1.3111401238799745, 
            1.407860029437962, 
            0.22896933321880275, 
            -0.6275543986974245, 
            -2.1444335046123495, 
            -1.9787992555147502, 
            -0.2546365548226124, 
            -1.2644119893304033, 
            0.8115246675396137, 
            0.17800054858851808, 
            1.4187071318877256, 
            0.6860223174936516, 
            -2.558331014033786, 
            2.1730721081317212, 
            0.49521174882054725, 
            0.8674715646619836, 
            0.18704957679356837, 
            0.35963355328160923, 
            0.7283699877652253, 
            -1.3241636532349201, 
            -1.800450486646527, 
            0.8872674336498027, 
            -1.384336082512434, 
            0.8806012249017051, 
            0.9555225172433371, 
            -1.0052581629538626, 
            0.45655201904221404, 
            1.2867769673520935, 
            -0.5088273933788843, 
            0.8377058830582844, 
            -0.8922459344200916, 
            -1.1376332470027162, 
            -0.8357138514321213, 
            0.9993892474241624, 
            1.367863564325791, 
            -0.6492042867984723, 
            -0.22810745803068486, 
            -1.7420704067890056, 
            0.2907475248851498, 
            -0.21080000932681434, 
            0.15177747590212562, 
            0.778913279896311, 
            -0.11018969288140243, 
            0.5257001421461878, 
            2.4217064168660385, 
            2.536743866015404, 
            -1.4850816772372601, 
            -0.5693697445456971, 
            0.7751930914772535, 
            -0.21784169689146418, 
            0.6925413642333026, 
            0.6010400644584859, 
            0.3611714302060189, 
            1.1260232125005503, 
            1.5549187880194124, 
            -0.42093107027683646, 
            1.7129777619039344, 
            0.7444552123762229, 
            -1.5569464711105778, 
            -0.061539938597903396, 
            -0.4675029076717036, 
            1.5785772253400139, 
            0.3056707057226059, 
            -0.37138723301643567, 
            0.6401809736175339, 
            -0.9809049959937785, 
            -0.18123647041182447, 
            1.556142250251917, 
            -0.6573475873380126, 
            -0.6060483348572847, 
            0.8458825105561114, 
            1.537330320793692, 
            -0.440771111028907, 
            0.280901938185561, 
            -3.4868247683084403, 
            0.9348561284535037, 
            0.5600304186176934, 
            1.7311446810029159, 
            -0.9490766831878228
        ], 
        [
            -0.07962528679702703, 
            0.34558359487138646, 
            -0.8132867072385105, 
            0.18444845300507084, 
            -0.13738464103846115, 
            0.23360539996136206, 
            1.2632357338618614, 
            0.30374082497442445, 
            -0.5150699835608604, 
            -1.1766082326243101, 
            0.5927084455049954, 
            -0.32595732922132276, 
            1.6942986263112294, 
            -0.6871581686708073, 
            0.9301132593672099, 
            -2.343777269832837, 
            0.18665108227673144, 
            -0.6035705130097114, 
            0.23848603642811436, 
            -0.08594384499244469, 
            -0.17416842574174266, 
            0.8544683898421014, 
            0.35176559946905134, 
            -1.039211065061402, 
            -1.0822187585362577, 
            1.3008266843037184, 
            0.5847424503607737, 
            -1.1455212662021619, 
            0.1451939558454345, 
            2.4634400174714237, 
            3.317579556010445, 
            -0.36074443132112455, 
            0.473015178049749, 
            -0.05822414909083612, 
            0.32804246981173873, 
            -1.112928363240892, 
            -1.9990545528980808, 
            1.7900641710383574, 
            0.5704245227304822, 
            0.5079146510375491, 
            -1.1883873909361586, 
            0.07851077383077026, 
            -1.1921898183476114, 
            0.4785452705212949, 
            0.5705701051033859, 
            -0.7397464986665861, 
            0.20334613067302448, 
            1.3378516885921654, 
            1.9343300808624992, 
            1.012283556592729, 
            -0.3593254573484536, 
            0.9549377874756663, 
            0.18448107228418195, 
            0.29959034733170775, 
            2.0855171792516995, 
            0.3883521491183071, 
            0.29661209023386376, 
            -0.04919123163758365, 
            2.1108179112234806, 
            -0.2922134083902734, 
            -0.5441704854784317, 
            -1.1010425178256855, 
            0.7370093989123988, 
            0.3204665066499532, 
            -0.0584886946545344, 
            -0.4293554696177528, 
            0.6277617429069856, 
            0.7014237022255374, 
            1.1907774017840298, 
            0.9058194230292161, 
            0.5675106510467837, 
            -0.4982567937205567, 
            0.1722745326904088, 
            0.20379447541881424, 
            0.028260803308550755, 
            0.5973338034001827, 
            -1.4835454001369437, 
            -1.5567264791958981, 
            -0.18086974213713386, 
            0.10405387363251278, 
            2.8737342321023194, 
            0.3138126265902607, 
            2.373394464371178, 
            0.3318936229357335, 
            -1.8423182030642649, 
            -0.022796745803972812, 
            1.020271396637133, 
            0.6490567624268028, 
            0.079679759586604, 
            -0.4090608872462401, 
            -0.18277372166286895, 
            0.27899959286183473, 
            -0.07592487743164078, 
            0.15837899308913592, 
            -0.5816002415254072, 
            -1.678611270834234, 
            0.6293769452029568, 
            -1.0421386877578955, 
            1.8728787403143419, 
            -0.753898697753609, 
            -0.2761110909815464, 
            1.7096719732919345, 
            -0.04532046508146782, 
            1.0249780538673303, 
            -0.20630584284979028, 
            0.4945413567217424, 
            1.0585184055862744, 
            -0.5768377976241388, 
            -3.306019765991315, 
            0.434347495763602, 
            -0.21046445817803355, 
            0.5911654502350094, 
            -0.04651390678695984, 
            -0.8466418630522973, 
            -1.1356438380143037, 
            0.049359670670735316, 
            0.843250823077632, 
            -0.1475309658834138, 
            -1.1887910220137157, 
            0.16968010948770001, 
            0.5499589707360137, 
            0.7238476126879596, 
            1.8589982121833355, 
            -1.485749120530639, 
            -0.6739528396926182, 
            0.530537340714409, 
            -1.1228590543948518, 
            1.5500721777654622, 
            2.407501703692159, 
            -1.305616756642818, 
            0.090549812104005, 
            0.10799707186856461, 
            0.4391375292404133, 
            -0.40763424842134405, 
            -1.574023055788678, 
            0.25999575004897446, 
            -0.5704765093285409, 
            -0.5457258970302247, 
            -1.3821810914336576, 
            -0.09699569828708854, 
            -0.8263627787179614, 
            -0.6460479795435154, 
            1.1002727530540632, 
            -1.2839262484932046, 
            0.8797303106107912, 
            1.9110796298197954, 
            0.13124464177010522, 
            -0.6492235176013954, 
            -1.7729723980128642, 
            0.90775163947891, 
            -0.592598705963909, 
            0.10399790859741312, 
            1.2695524587305185, 
            -0.9031322058761823, 
            -0.25416818617121867, 
            0.5196127675622265, 
            -0.07743167470698692, 
            -0.20737715348470406, 
            -0.12499913245212409, 
            -0.7144008295561374, 
            2.9511232306283905, 
            -0.45199751081966805, 
            -0.6377936196706556, 
            -0.8022332667246698, 
            0.5680644138440731, 
            0.9759065053406384, 
            -0.36298969808116716, 
            0.9482495749782729, 
            0.5390213324164171, 
            -0.001246530589975638, 
            -0.5172976826886218, 
            2.939502619844901, 
            0.20021637245229937, 
            -0.3681147321706, 
            -0.051228344101570365, 
            0.011204554096281379, 
            -0.033720940348603345, 
            1.7660491504312283, 
            -0.29337569680036807, 
            0.2820722280868243, 
            1.1204859088652928, 
            -0.5806625827105002, 
            -0.9937403053187511, 
            0.9353403901281454, 
            2.3904476372986703, 
            -1.1108981181464521, 
            -0.7780295333375242, 
            1.0140908634580288, 
            -0.36483993496970935, 
            -1.2268197183047753, 
            0.6755975941295942, 
            0.6955377066866977, 
            1.7961442584453315, 
            0.43696213878474005, 
            -2.995538921742531, 
            0.4271961571964738, 
            -0.3248048758408915, 
            3.183252430104327, 
            1.0857984994350982, 
            0.9949126560665936, 
            1.0386475709870977, 
            0.2785605121971048, 
            -0.4010715885588521, 
            0.6079348878316746, 
            -1.2243925158684517, 
            -1.619400193609049, 
            0.03381248359897815, 
            -0.47629874710948583, 
            -0.5725179437568104, 
            -0.39352672695918817, 
            -0.5331135403642562, 
            -0.13479309817599383, 
            -0.0724335768912404, 
            -1.0925330747946742, 
            1.96749598163527, 
            -1.8947200089109344, 
            0.7691596417153412, 
            0.12009574661471106, 
            0.37116413615851523, 
            0.9199752623321975, 
            1.2223474859912924, 
            -1.2839033530802104, 
            0.6951380660084505, 
            -1.3818689897485856, 
            0.7364897823155154, 
            1.3277975307183074, 
            1.1475447750179775, 
            -0.2671312405825755, 
            -0.9266998758124051, 
            0.7851030517382714, 
            1.3046944843023607, 
            1.2772944307076513, 
            -1.146966247270643, 
            -0.3517139344651806, 
            0.021962324931502075, 
            -2.0146125519012736, 
            0.37945021721506184, 
            0.4072983301147182, 
            0.620168823632757, 
            0.12632718225821193, 
            0.12961235510178457, 
            0.6087594317717295, 
            -0.7383432361524384, 
            0.5959652728145315, 
            0.7913348405398024, 
            1.3917957185018608, 
            0.7190037740921719, 
            -0.8280315055951067, 
            1.1521242217378536, 
            0.4556522410109318, 
            1.6503792562911273, 
            0.1551966543436816, 
            0.9375601482859476, 
            -1.2707328858543459, 
            1.3697769590342752, 
            -0.447021087980805
        ], 
        [
            -1.4929342370243328, 
            0.7921895083731002, 
            -1.386920428283145, 
            -0.3800614206110471, 
            1.614615909313957, 
            0.5818076931037753, 
            1.3441837253148043, 
            -0.8085231532219638, 
            0.6208448268092331, 
            -0.9953475890767072, 
            -0.5991529376372229, 
            1.1779732836784538, 
            -3.1326399122403132, 
            -0.7412124448693106, 
            -0.28597951946946587, 
            0.4584598443279772, 
            0.5713837843867638, 
            -0.23645118162874673, 
            0.9635137012938924, 
            -1.6614443950732547, 
            0.5444554799141643, 
            -0.05035524876726417, 
            -0.7361087232108252, 
            1.3192118338116365, 
            0.24518398488587925, 
            0.6037630673407115, 
            0.10070490042684901, 
            -1.6703632168438052, 
            -0.2722171879608932, 
            0.6985287034026448, 
            -2.4075145533262656, 
            0.6470696780839076, 
            -0.5438161531385415, 
            -0.6266290344808203, 
            -0.3760189476916248, 
            -2.0772921868771994, 
            1.9168266711572413, 
            -0.5959733917058141, 
            -0.03993020616243722, 
            -1.7941204592368865, 
            -1.3870731596188657, 
            -0.31099284223737883, 
            -0.4745851513055848, 
            -0.5943731677692298, 
            -0.7645224086257733, 
            0.28762932489708987, 
            1.268264958510083, 
            0.2695083430590053, 
            -0.5488378643221643, 
            0.5707863471350801, 
            -0.12531422943075862, 
            0.1715374150091433, 
            0.25662490845101804, 
            -0.5518380276958287, 
            -1.372277216396712, 
            0.21161661943434756, 
            -2.199304832435473, 
            0.6746595322484052, 
            2.8166349485412656, 
            -1.1002877919950549, 
            -2.5530919858948846, 
            0.9199505083803694, 
            0.026182501456610087, 
            -0.16056306552578062, 
            0.9472878747739437, 
            -0.7419427194620025, 
            -1.3454591681542574, 
            -0.9480709134379661, 
            -0.2704984974217298, 
            2.1283217810388972, 
            -0.606893311281284, 
            -0.7416532342784584, 
            0.8297668379586906, 
            0.5801150068269734, 
            0.5815241057703628, 
            -1.0928164414218122, 
            -1.4991414272724881, 
            0.09328969914169477, 
            -0.9721030798645967, 
            0.9006298546207713, 
            -0.15086953210105672, 
            -0.6455982896491825, 
            -1.1809439469691843, 
            2.4673511750234276, 
            0.625433368101211, 
            1.2733738931923368, 
            0.9364099319110489, 
            -0.793344480509083, 
            0.4914269963950275, 
            -1.4665051119570174, 
            -0.23141495899272624, 
            -1.172994604297715, 
            0.06402227080460315, 
            -0.7336374602353339, 
            -1.7702109053160306, 
            0.10954667791029725, 
            0.5929246317098211, 
            -0.03155987408263452, 
            -1.1195877931794576, 
            1.214387923246265, 
            -0.03729521299218663, 
            -1.5992549514101435, 
            0.5758319963050295, 
            -0.12000531509590846, 
            -0.47505388302556784, 
            -0.5105115982249687, 
            -0.6426456726673879, 
            0.30513418819269356, 
            0.5094294002529496, 
            0.8743101195023574, 
            -1.7159711452813804, 
            1.0964355714721916, 
            -0.4210051695219668, 
            0.709117838101729, 
            0.28204489014784834, 
            0.38838523247718376, 
            -0.6248634307050964, 
            -1.5686745267719395, 
            1.1772076163175087, 
            -0.7861644237027107, 
            -0.931942148059344, 
            1.777208594602537, 
            0.4573319283179666, 
            -1.1134187683872465, 
            -1.9052912286373496, 
            -0.6183196632299668, 
            -1.1143059735229575, 
            -0.13958506152416822, 
            -0.9389881711239182, 
            -1.5919329754790035, 
            -0.44690906855195683, 
            0.342639519273651, 
            0.1426780193958464, 
            0.21562523877801076, 
            -0.4747552142956153, 
            0.10640033513965218, 
            -0.554183911690592, 
            0.5834648189719142, 
            0.7223748640842556, 
            0.2903678042649623, 
            -0.7120585077792929, 
            -1.0928716803266958, 
            0.6684827775615553, 
            -0.6781379910349762, 
            0.3483234252398353, 
            0.2595538941375007, 
            0.27617140314241, 
            0.2769638811499932, 
            -0.823099696357625, 
            0.7762352938779786, 
            -0.6525474706232438, 
            -0.7475236621845402, 
            -0.537022763905676, 
            -0.583999892741315, 
            -0.9498123171500572, 
            1.0475733273161327, 
            -1.1776632110617524, 
            -0.20187710923886465, 
            0.6655927958853457, 
            1.308763682473345, 
            -0.06418454920450811, 
            0.9360684316712833, 
            -0.5961258104767927, 
            1.8149766594283459, 
            -0.2626541791103841, 
            1.7170727798630472, 
            -1.1635548146359427, 
            -0.24781692166202962, 
            -0.49183948395672067, 
            0.05979287474374676, 
            0.5708997232902636, 
            -0.09834721596198139, 
            -0.850631380166832, 
            0.27816639803258364, 
            -0.711525535885906, 
            0.21135580290897713, 
            -0.18457526875368382, 
            -0.30106768600462674, 
            0.44390676676509344, 
            0.276973668673366, 
            0.3297725828999467, 
            0.6523390000615837, 
            -1.2621417109552988, 
            0.3831263190955984, 
            0.5828204310312421, 
            0.4185952068685442, 
            0.28844025342370433, 
            0.12067930022831307, 
            -0.6853723873414417, 
            0.05767996426164706, 
            -1.1682884099151818, 
            0.07210271676418853, 
            0.4671506204369898, 
            -1.1235993017735917, 
            0.06741204823937741, 
            1.3580799981813518, 
            0.6969930526374168, 
            -0.3009360281044085, 
            0.09087765809691441, 
            -1.264170754513163, 
            1.5458989394375944, 
            0.41667549121046393, 
            -0.6829642640067143, 
            0.225382372939911, 
            -0.6106544241361364, 
            1.4629768767974263, 
            -0.47195483744486355, 
            -0.3323464460771983, 
            -1.070290757489175, 
            -1.4675681514946413, 
            0.06393736925722553, 
            1.0802960274883122, 
            0.97455013469284, 
            0.8019185502409183, 
            0.12103599354835705, 
            -1.3225593150048442, 
            -0.8498666326831191, 
            -0.49279938890310604, 
            -0.24692472591545492, 
            -0.8318985333724683, 
            1.0909868714455448, 
            -0.5017296193599972, 
            -0.03108215796602009, 
            0.36994757044148774, 
            -1.2752157417163232, 
            -0.6595370431545765, 
            -0.5203758433186356, 
            0.13575257525673537, 
            -0.31272424171769203, 
            0.16023271470397474, 
            -1.250980844072661, 
            0.7014033099639777, 
            -2.2372649518678016, 
            -0.87004743121822, 
            -0.09397398300451998, 
            1.5781784248201232, 
            0.8515288619630126, 
            1.2745226704289616, 
            -1.4708913537074697, 
            0.5330640905680327, 
            -0.04359219958947166, 
            1.4485900796236568, 
            -0.1372635995241759, 
            -0.7116723287374364, 
            1.0465321346845404, 
            0.2149999579123622, 
            -0.46372258628066665, 
            -1.3313644551135204, 
            -1.2846225882811, 
            0.5665768987112306, 
            1.5817866330327857, 
            -0.10513076803743789, 
            1.4790300957905926, 
            -1.0074567793522506, 
            0.15579166239871814, 
            0.38826890881711495
        ], 
        [
            -0.7668448948758003, 
            -0.3179631619820829, 
            1.4705668881631342, 
            0.28470345384849155, 
            0.7018761783186953, 
            -0.8983693270583136, 
            -1.2435799699743701, 
            -1.1078396920217208, 
            -0.312675406856613, 
            -0.1654688336270999, 
            -1.1517823146834594, 
            -0.24548086118840737, 
            0.34938880480113405, 
            0.055627957009550213, 
            1.852176388510843, 
            -0.8289410911311398, 
            0.8852497284731986, 
            0.35250505881820493, 
            -1.543517887985036, 
            -0.19783344929070684, 
            0.47206258945693647, 
            -1.6603440855312137, 
            1.1712066594885902, 
            1.2188523768121262, 
            -0.011612062545199642, 
            1.22237730522513, 
            0.6843853416652891, 
            -0.04667875409706282, 
            1.0204699024890638, 
            -1.215959959343959, 
            0.7006154277726315, 
            0.6082517047740984, 
            -0.04425720053327551, 
            1.5242367173804519, 
            -0.21292632201183764, 
            0.31913369898462013, 
            -1.0645466958055088, 
            0.15291366834294406, 
            0.007390915602867255, 
            0.16210947691346578, 
            0.13545793507284673, 
            0.9835109044130375, 
            -1.1571530778892574, 
            0.31542439389415977, 
            -1.0748615440766256, 
            -0.04230165438767549, 
            -1.8023553586252532, 
            -0.9524746834019092, 
            -0.1795679766788244, 
            -1.9569157643441568, 
            -1.028313214964859, 
            -1.001859157249792, 
            0.9983743409925925, 
            -0.5444697602388641, 
            -1.2868847394948149, 
            -0.8064752862219261, 
            0.6546871299631303, 
            0.10557736585388561, 
            0.21628332327295638, 
            -0.04054682602781445, 
            -1.7824249857068517, 
            -0.41091049336016255, 
            -0.9166484710552985, 
            -0.31501187958704474, 
            -1.0642208016216161, 
            0.18014781091691018, 
            -0.3320085104096512, 
            -0.25963749398795155, 
            0.48500270063468265, 
            1.4274839938723656, 
            -0.13085568502977155, 
            -0.4905031480427734, 
            0.0705146021865012, 
            -0.9328558295327831, 
            0.4119426434668876, 
            1.436861740602941, 
            0.8268350944937605, 
            0.14991189174536937, 
            1.272746181834378, 
            -0.23406194068404712, 
            0.41653531830729545, 
            -2.076131356175456, 
            -0.7002250355347103, 
            1.8647487279737565, 
            -1.208504675250525, 
            -2.0013055686727776, 
            -2.0917433509297965, 
            -0.2844688273635452, 
            -1.3462620944167367, 
            1.044678545881206, 
            -1.6218877172166228, 
            1.010125745004687, 
            -0.9304459969877741, 
            -1.4910124943483802, 
            0.3893775220249921, 
            -1.9016952994734106, 
            0.12619565489600484, 
            2.1383617667198513, 
            -1.4966662091554785, 
            0.4155916267888527, 
            -0.9754788690661317, 
            -0.9019244044421707, 
            -1.5765115194863715, 
            -0.26145304911284784, 
            0.17553465047802966, 
            1.0936183828660724, 
            -0.1025421032200806, 
            0.24582817486084638, 
            -1.6409524653413645, 
            0.14686801773101066, 
            -1.6200505142281327, 
            0.99858808622408, 
            1.7223587947852421, 
            1.7028248652443412, 
            0.2252717558340831, 
            1.1546934228728694, 
            1.304959843865467, 
            0.2836367497867727, 
            -1.6781033183174998, 
            -0.45250187536389364, 
            -0.12904260390358419, 
            0.27110608501610595, 
            0.31508669275709666, 
            -1.417900690881178, 
            -0.32066961008370143, 
            1.5622825347921023, 
            1.2392388951850444, 
            0.7263524075975253, 
            -0.07657159829731756, 
            0.6645659644954137, 
            -0.9732683878037276, 
            0.07440195403712842, 
            -0.5008781786025921, 
            0.772488852633978, 
            -1.237464135278563, 
            0.10948256136510368, 
            -1.4353032372126524, 
            -0.7433410436305231, 
            -0.43762611764789827, 
            0.3710656262895116, 
            -1.2142640786849046, 
            0.6410891967766413, 
            1.0695476178759453, 
            0.7428948478140521, 
            -0.15605207259155637, 
            1.0390797490769477, 
            -0.6206048733123188, 
            0.9082270769576525, 
            -1.1198389519479224, 
            -0.8235221465405339, 
            -1.675932107998969, 
            -0.8330214821624253, 
            -0.5042399852109355, 
            -0.22523270959492084, 
            -0.5799415884452654, 
            -0.9238046839397176, 
            -0.6197619382718428, 
            -0.7303430698922303, 
            0.5985239179034675, 
            0.098546367686303, 
            -0.8576337530790769, 
            0.15549721096088187, 
            0.6842537959949666, 
            -2.9228960235439434, 
            0.20982917343423652, 
            0.8804543306179641, 
            0.3014402470485653, 
            1.741075760754991, 
            1.0355523757003835, 
            -1.0242812318021326, 
            -0.31283637368422057, 
            -0.7269061014097901, 
            0.6690330543543461, 
            -1.1597609001756275, 
            -0.7607139874112956, 
            0.2695187622214568, 
            -0.17706811708683334, 
            -2.174166372560059, 
            -1.1046269832139513, 
            0.5982015578715008, 
            -0.29302390544476614, 
            0.8411467801342978, 
            0.3246734359338689, 
            0.10402118596159157, 
            1.8164188741247695, 
            0.6467564919840789, 
            1.7655507897597775, 
            -1.0397772582154445, 
            -1.2419675441458355, 
            0.5522877493798442, 
            -0.866478957744601, 
            0.2440797883931091, 
            -0.9609424856684844, 
            0.3680273733500668, 
            -0.699593288931508, 
            -1.2322796367193454, 
            1.9534038578687605, 
            0.28731264412174934, 
            0.45151862007761184, 
            -0.4565282448661311, 
            -0.5501710512654204, 
            0.5284513314140233, 
            0.6856860572848072, 
            0.4558640067585264, 
            1.1575118996503095, 
            1.3861666086230524, 
            -0.699147929264752, 
            0.360768974410919, 
            0.1547548754221514, 
            -0.8551211700530332, 
            -0.48831051024505034, 
            -0.2059137329380504, 
            0.9164584513558823, 
            0.28161005860757776, 
            -1.055811728212909, 
            -1.7005253114740952, 
            0.9365734783779995, 
            0.9618781800074928, 
            1.5402139185549928, 
            1.435553921356866, 
            -0.556554770333967, 
            1.642728719629262, 
            -0.3568319642318587, 
            0.09020648837252425, 
            0.19290473617626636, 
            -0.17052333722484347, 
            -1.608168798845249, 
            0.7393700065429825, 
            -1.6579418387172034, 
            1.7888726986592283, 
            0.16774040295955048, 
            -1.213291630991584, 
            1.437831533409612, 
            -1.0702194504706033, 
            -0.42135778860374595, 
            -2.4100486132157797, 
            -0.28193843459862816, 
            0.5536866545115656, 
            -0.6469103995992057, 
            -1.9378101103060947, 
            -0.3533175862389445, 
            -0.10828022978512379, 
            1.1062350354758959, 
            0.09417266983405641, 
            0.02765776299862463, 
            0.9238530854984767, 
            -1.1396652888245098, 
            0.6173954086615053, 
            0.48034918821153655, 
            0.8003551569708225, 
            -1.4867094470711513, 
            0.6841897042919034, 
            0.436288615389584, 
            1.055923889301602, 
            0.3753201032830667, 
            0.06619351494076875
        ], 
        [
            -0.9454177453031934, 
            1.5684153296398153, 
            0.7234596244089678, 
            2.6775819157275875, 
            1.4830776988393057, 
            1.8641055781505653, 
            -0.402490050599713, 
            -0.1206719777268002, 
            0.051295974477146074, 
            0.27593612285966485, 
            1.142056796871736, 
            -0.628891872708264, 
            0.6832854048453548, 
            0.6176148912374504, 
            2.889798598297448, 
            2.4236032317239173, 
            -0.7529342876549635, 
            -0.35809781630571225, 
            -0.9489054086963192, 
            0.2572422512325808, 
            -1.0797624131777972, 
            0.551141122870266, 
            -0.4462704928287397, 
            0.9866861078178996, 
            0.3102343137936353, 
            -0.6396888494007377, 
            0.20486431842906583, 
            0.05205510827844748, 
            0.6749863757918877, 
            3.013173615054738, 
            0.29450684548149214, 
            2.1088177748343786, 
            -1.055923311642719, 
            -0.09369414468601779, 
            0.7246451585132241, 
            1.3701815104868005, 
            -0.1131889125672353, 
            0.8042870931635785, 
            0.46489426716851806, 
            -0.06940524045924087, 
            0.07463823541836398, 
            2.1544502877675606, 
            0.4448635730713836, 
            1.0728196621928041, 
            1.0650801338274771, 
            1.3808245696440298, 
            1.0120350632666448, 
            0.6590769642638957, 
            0.4605284696367172, 
            0.25410142166532207, 
            1.8668955115739658, 
            1.0456166933660918, 
            1.0381371809508728, 
            -1.461742584007396, 
            -0.033254787604903996, 
            0.2444733629856748, 
            0.6770220273955414, 
            -0.7867057689141809, 
            0.14637443190706317, 
            -0.7282428331070698, 
            -0.25715869220254417, 
            0.6564483969780947, 
            0.12435654772600654, 
            -0.2402285530226892, 
            0.42505307574710377, 
            -0.15728123414028725, 
            0.9579601199096066, 
            -0.9849691342377342, 
            0.9131306713157287, 
            0.648990516978194, 
            -0.6544829571189738, 
            0.9674986011763725, 
            0.38542898221998934, 
            1.0171520030721433, 
            0.7846780644060225, 
            0.17508758150908255, 
            -1.009005613843476, 
            0.4628684802051001, 
            -1.7584680711510392, 
            -0.38074463722122687, 
            0.05927757129192978, 
            -1.662223303229547, 
            1.291962243895768, 
            0.3729225728467789, 
            -1.818696740936577, 
            0.5800182761697056, 
            1.3082284415156606, 
            0.6185178822568395, 
            0.45607280342906303, 
            1.3881630895905048, 
            0.45526843197613504, 
            0.2379625242650127, 
            -1.2333926086782727, 
            -2.476056433022934, 
            -2.1878705393731654, 
            -1.6990798185238105, 
            0.2114107151033268, 
            0.8707496827836847, 
            1.1634237434270607, 
            -0.02947965569264429, 
            0.6213405714913306, 
            -0.09181068415243616, 
            -0.6605315911785379, 
            -0.4144208256421112, 
            1.9813168071260794, 
            1.423519135703393, 
            0.14813305150930553, 
            0.7402972320260088, 
            -2.0236229704476627, 
            -0.3131532887273895, 
            0.007602151114323934, 
            -0.6907805018238061, 
            0.7710036451111054, 
            0.7861319183142372, 
            0.5903993067151475, 
            0.37576980516601255, 
            0.433290886156721, 
            -0.36089839689694647, 
            -0.9587822436077974, 
            0.15700896011313403, 
            -0.17776052617658306, 
            0.7820469282534145, 
            0.5487626914428586, 
            0.5266801439319364, 
            0.5931282521106365, 
            -0.6377652062115814, 
            0.16323155889397883, 
            0.8768826403318463, 
            0.4855489962824704, 
            -1.5136616571536652, 
            -1.2497866729916407, 
            0.09732629699063201, 
            1.2058279943068444, 
            -1.1803207385070875, 
            -0.6438583753880187, 
            0.17802447215934003, 
            -1.0072556698003186, 
            -0.12753555042949916, 
            0.08611003527204035, 
            -0.23116449400642383, 
            1.0624116378250261, 
            -2.12488183447336, 
            1.1784829583067171, 
            -0.40217705910488327, 
            -1.3356423262990211, 
            -0.9226378111102074, 
            -1.2064094007625323, 
            -1.7679428184982826, 
            -0.2729253083959523, 
            -1.851126756462702, 
            -0.40688654496390514, 
            -1.9695518140766815, 
            1.6401505450577853, 
            0.40979949683208283, 
            -0.10474027702707438, 
            -0.663310843412068, 
            0.4215435390931927, 
            0.4295911978801767, 
            -0.4773743449245844, 
            -1.7663929918185537, 
            -1.3120236023086032, 
            -0.6070329334234816, 
            -0.7395608818465759, 
            -0.7503480283643538, 
            -1.1231944870583381, 
            1.046268589903324, 
            0.6785437456281563, 
            -0.3303817805887957, 
            -0.07092920414689986, 
            -0.02447134722743952, 
            0.09161491248405167, 
            -0.36634088756150324, 
            -2.8859989287797028, 
            -1.1018930942990224, 
            0.36209012550835523, 
            0.029780191170010337, 
            1.4137989292109763, 
            -1.3473235722353354, 
            0.6717201529579565, 
            -0.9935259387092997, 
            -1.2561808856005248, 
            -0.9810026998170016, 
            -1.0048376565918786, 
            0.02687612289553711, 
            0.6156237249115748, 
            0.38626807457954665, 
            0.20215252261053077, 
            -0.5692668280728636, 
            2.029206025766554, 
            -1.5328724696541827, 
            -1.040010308745481, 
            -0.27005445790519095, 
            -0.17965648377284416, 
            -0.19967788935738132, 
            -0.5421687136859925, 
            -0.8101282917311624, 
            -0.09060682000155662, 
            -1.2950259113609084, 
            -1.0053934105502291, 
            0.1802842313463896, 
            1.8358093745259396, 
            -2.58878398397491, 
            -0.957667043519782, 
            0.2761655168014145, 
            0.08948458100163424, 
            0.7230326170746771, 
            -0.5567990723331188, 
            1.598178219997558, 
            -0.17003288142765594, 
            0.15307384925146822, 
            -0.4915821056739648, 
            -0.8852375663391644, 
            0.0703146852452359, 
            -1.3321523096887564, 
            0.21414538719576448, 
            -0.39968164632011915, 
            1.667135532936605, 
            0.7789583301800563, 
            -0.903868181792834, 
            0.7196217555855136, 
            -0.20477206184591906, 
            -1.1201082970203502, 
            0.5802707806433206, 
            0.4026410679730326, 
            -0.2576622667138542, 
            0.8170299495668505, 
            -0.8693606787086285, 
            -1.3629329827543326, 
            1.565734314214674, 
            -1.2715605394705594, 
            0.2506808003816143, 
            -0.12332075243085433, 
            -0.4894282726545586, 
            -0.0905715976440382, 
            -1.7755231449322348, 
            1.1863139225173303, 
            1.2512380439108548, 
            -2.0720596615907088, 
            1.149297486111345, 
            -0.17586727142805061, 
            -0.7864103585341423, 
            -1.1224193663632094, 
            -1.0469924957984182, 
            0.36971580139857657, 
            0.2550407862842316, 
            0.02689481749318831, 
            1.892535837414884, 
            -1.7253320361402635, 
            -1.5695249031292924, 
            0.11196398232121185, 
            0.26382833323152327, 
            -0.30249030394463666, 
            1.1691236478978697, 
            0.16874624072329697, 
            1.8398635638130865, 
            0.0037362841991243315
        ], 
        [
            -0.6641946979620623, 
            0.10711189419212126, 
            0.8226916697144002, 
            0.7940120042262072, 
            0.4754178758466686, 
            1.1045602891160091, 
            -0.3974074812701248, 
            0.07118780546027895, 
            -0.1402522246992262, 
            0.4466991849577934, 
            0.8542610912053299, 
            0.9557825473024116, 
            -0.38937529135022475, 
            0.5300315842389645, 
            -1.0606725164897668, 
            -2.885337056734661, 
            -0.022598429638591183, 
            0.9793116552443698, 
            -0.8461958702633892, 
            -0.19261185005741457, 
            -1.133516910041797, 
            1.096563578490565, 
            0.7167984760597874, 
            0.6558797489415905, 
            -0.5975278166576087, 
            -1.3252572068831971, 
            -0.6832466231697806, 
            1.2219485866177966, 
            0.8373752224298008, 
            -1.9132311445118455, 
            -0.42183488702846234, 
            -1.3733572713913815, 
            0.9388649090440234, 
            0.5525281166417609, 
            1.556867315774781, 
            0.8983365668650759, 
            -1.0228273353421025, 
            1.2645494939852495, 
            0.5063055097430514, 
            0.7809914663850664, 
            -0.008736558062643649, 
            -1.567163041864478, 
            0.2838807853110081, 
            0.9650113588660664, 
            -1.1451515069625269, 
            0.6467850524410276, 
            -0.7873699961427694, 
            0.4558988347988795, 
            0.4436568766437522, 
            -0.11558567027346323, 
            -0.42696651078688663, 
            -1.1101469484706008, 
            -0.6600673159430385, 
            -1.2468022661039835, 
            -0.9266149504420139, 
            -0.44070066739638486, 
            0.024010145589517917, 
            0.8554840108003094, 
            0.4086402916498719, 
            1.8669991262296861, 
            0.08835444306995173, 
            0.8615681214791949, 
            1.1618544315254902, 
            1.194806627680372, 
            0.18560123690794264, 
            -1.2210586701265347, 
            -1.088136734166413, 
            -1.6279312720907286, 
            -0.390508855135293, 
            -1.4240290458407596, 
            -0.2823390644684578, 
            -0.21756198221728731, 
            -0.27071485330375833, 
            1.543543495100126, 
            0.11025411026667627, 
            1.008138201128136, 
            1.1665200246980023, 
            0.03367821601753246, 
            0.7694917912751443, 
            -0.816703278622855, 
            -1.4266911383998677, 
            1.2591182798327871, 
            -0.8065726468807746, 
            -1.2437127693088645, 
            -0.9002935552940607, 
            -1.1584035865983315, 
            0.30406182087814376, 
            1.694300675544191, 
            -1.2112173934551291, 
            -0.41302755503924005, 
            1.765407204109481, 
            0.3588817997498712, 
            0.04580604021890954, 
            1.1921355213865779, 
            2.637190200191165, 
            -0.23940499558448747, 
            -0.8341173496706231, 
            -1.352111619106207, 
            -1.1246185467077323, 
            0.37413080910081187, 
            0.019114108033499916, 
            -0.9604416280647652, 
            -1.4532977266723444, 
            -0.8388684675596113, 
            -1.0042272427767576, 
            -0.0803238293304556, 
            0.37060556566550706, 
            0.5806405201218904, 
            -0.7322569252942246, 
            -0.4270400711199861, 
            0.18610128194603853, 
            1.667162935290725, 
            0.7260493317582039, 
            -1.0312104270211537, 
            1.1908808622230012, 
            -0.3261683595373343, 
            -1.3094673807362913, 
            -0.4615968855882315, 
