{
    "layer_1_bias": [
        [
            0.45680336153222745
        ], 
        [
            0.3179967326308415
        ], 
        [
            0.49200679196907604
        ], 
        [
            -1.6779526270718044
        ], 
        [
            1.139604107281499
        ], 
        [
            -0.3242822906388682
        ], 
        [
            -0.4786337528710645
        ], 
        [
            0.3869717850616431
        ], 
        [
            1.1130623295275373
        ], 
        [
            -0.6386414624397078
        ], 
        [
            0.05986023697489262
        ], 
        [
            0.03227842315597029
        ], 
        [
            -0.3099031309306467
        ], 
        [
            -0.1380215006441338
        ], 
        [
            -0.09565051063441056
        ], 
        [
            -1.6205032312895835
        ], 
        [
            -0.5517020911918261
        ], 
        [
            0.48977713658553335
        ], 
        [
            1.6261808468294812
        ], 
        [
            -0.7764208992393715
        ]
    ], 
    "layer_1_weight": [
        [
            1.1234233721667577, 
            -1.1733607053567479, 
            -1.6747429082497545, 
            0.21180757667077849, 
            -0.8275332663123354, 
            0.2110672907833069, 
            0.037134177961952404, 
            -1.118580201609029, 
            -0.18755743432352026, 
            0.8321534037449257, 
            -0.6677561163614055, 
            -1.5961185877773432, 
            1.0691449849713546, 
            -1.4512527367143053, 
            -0.02516706243436016, 
            0.7330468663693737, 
            -2.0326178694164567, 
            -0.7578813023523832, 
            -0.15300356371752397, 
            -0.08991578248407868, 
            -0.18561262851536037, 
            -1.5916718742980507, 
            1.1730277082965057, 
            -1.5365357364248002, 
            -0.07022237167937975, 
            -0.4385092677203128, 
            0.9853155114119457, 
            -0.5267560989808557, 
            0.09567588249421116, 
            1.1599699910696553, 
            1.1963513759777291, 
            0.41644946946458034, 
            0.4051501333987533, 
            0.1712184116773902, 
            -0.1713113683387782, 
            0.16113273191427796, 
            1.2554621573465767, 
            0.3651765824007941, 
            0.8486971671507466, 
            -1.9315135428995793, 
            -1.557965234099985, 
            0.09157133349039401, 
            0.21962295960476202, 
            -1.9475982460392098, 
            0.021840840416384354, 
            -0.1422291733898362, 
            0.7506481405029053, 
            0.3517018510442479, 
            1.9683050495173662, 
            1.4317460186228348, 
            0.6602186536746678, 
            -0.8642411583605535, 
            0.6179825101701887, 
            0.5849526849810368, 
            1.4831733570727337, 
            0.3695675471614655, 
            1.1252347488230656, 
            0.5419035722919823, 
            0.40769662347159236, 
            -0.1952829219342309, 
            0.08032316322642852, 
            -0.64574040550265, 
            -0.20615195468101738, 
            -3.2627957583685836, 
            0.5894413361472864, 
            0.17909479327706213, 
            -0.866881707645471, 
            0.2619783878896967, 
            -0.04118479110959557, 
            -0.17948282346996655, 
            -0.9540785404859857, 
            -0.3191048690466026, 
            2.245277117796041, 
            0.9695552663375204, 
            0.06630441081817195, 
            1.0090137635608072, 
            -0.9529434847846135, 
            0.15097732274069856, 
            -1.059220865122591, 
            -0.2644513130737378, 
            -0.8403632735981178, 
            0.46645367790643194, 
            -0.32903038258505657, 
            -0.6388117674665104, 
            0.5395452420809813, 
            -0.7009497183875315, 
            0.8708384748005172, 
            -0.21652050731477482, 
            -0.5148570285867029, 
            0.1624206766808697, 
            0.5698398463970769, 
            1.7717257009114507, 
            -0.06643720045605168, 
            -0.8312861764903273, 
            0.3427878279967356, 
            -0.26252658626894376, 
            0.5638401151129305, 
            -1.003654718163446, 
            -1.7067722984718117, 
            -0.8884756554903284, 
            0.7282178627161394, 
            -1.8711426880523343, 
            1.1315764738882057, 
            1.1439217848456436, 
            -0.39695619256768916, 
            1.3257524542855266, 
            1.409677875005203, 
            1.159108521530229, 
            -0.040406350832140954, 
            -0.11516876486751677, 
            -0.07092455013576206, 
            -1.146826285232235, 
            -1.0696503541824356, 
            1.1624618296518572, 
            -0.6052557088210001, 
            -0.5166533762163473, 
            -0.2629110614495842, 
            -0.502657017835842, 
            0.2184783721097142, 
            1.085556202699425, 
            0.7605642500903428, 
            -0.5917563200108816, 
            -1.5506557355973605, 
            1.277307184687207, 
            0.5276804546912095, 
            -0.6875147367438513, 
            0.0325152096204652, 
            -0.932669159758235, 
            -0.5899242567997616, 
            1.534926009938216, 
            -1.4072623527123613, 
            0.20503022231958054, 
            -0.17818599260208234, 
            -2.587328373786722, 
            -1.693972585433032, 
            -0.8352106841002641, 
            -0.8445697051505672, 
            -0.28363142990248497, 
            1.5196067193345673, 
            -0.9740316603683112, 
            0.32489139334877865, 
            -0.8597780316046967, 
            -1.5820945171723535, 
            -0.2947897386082488, 
            1.2066990477009703, 
            -1.336997280490391, 
            0.9422781913409896, 
            2.3502210709301816, 
            0.13311727386307817, 
            -0.9870395131729002, 
            -0.0003776909108326877, 
            -1.0339753249980541, 
            -0.3614862298917234, 
            -1.2266686211718747, 
            -0.9807012607290466, 
            0.6890864329729459, 
            0.07758705288456226, 
            0.22515281127459583, 
            1.263274871645471, 
            -0.6523432033258045, 
            0.4309543609891287, 
            -0.11741375655592991, 
            1.242416611795275, 
            1.012702873133693, 
            -0.7141274010456464, 
            -0.04750430824052544, 
            -1.5669180766590007, 
            -0.29765383183964156, 
            -0.45024327297411443, 
            -0.07678490624049104, 
            -0.2116948663977441, 
            0.6533949758131097, 
            0.3416075447403794, 
            -0.40630778030879, 
            -2.551258682393775, 
            -0.9600700408868015, 
            0.6829583712688476, 
            0.14159245124123204, 
            1.0906055117374036, 
            0.9527617202175086, 
            1.2028870048368308, 
            0.7892209502503565, 
            0.209542617157078, 
            0.6016807865258308, 
            -1.088749186172694, 
            0.8848940180295799, 
            -0.4844906482531437, 
            -1.994772717643544, 
            -0.8779123655405024, 
            -0.8948316655703158, 
            -0.11548310332231881, 
            -0.4235430001365405, 
            2.8484387384166627, 
            0.6906527446879551, 
            -1.472829097269801, 
            -0.20409847830650366, 
            -0.900587869103251, 
            -0.11050370730020061, 
            -0.0037963712683825312, 
            -2.191918140598533, 
            -0.4186172205668443, 
            -0.6169956799270396, 
            -1.4615069618520178, 
            0.7397633601930409, 
            -0.3040854097223781, 
            0.011832306224922979, 
            0.16760474506829479, 
            -1.2477178898134895, 
            -0.49527777272269946, 
            0.18619799122618672, 
            -0.18227716747442235, 
            -0.5524926170413388, 
            -0.6990984676261781, 
            0.7410844533007247, 
            0.8250221046887529, 
            -0.8431331488410327, 
            1.608825158798297, 
            -0.425465783432214, 
            -0.10470050977680011, 
            -0.12385361479597644, 
            1.4173659321346903, 
            0.9089395829349024, 
            0.09662007883764677, 
            -1.122967552077138, 
            -1.2962623878871746, 
            1.1477200223388764, 
            -0.5370086198124443, 
            -0.6788315197604242, 
            0.20483959570893268, 
            -0.3076729641719962, 
            -0.675360948062439, 
            -0.5862760222517974, 
            0.34505409632585393, 
            -0.5070035088523492, 
            -0.1813845224604519, 
            -0.19923936640814266, 
            0.7702856140705683, 
            1.2982495170248993, 
            -0.4660903410579363, 
            -0.9932101465873785, 
            -1.4772130568132413, 
            -0.9901127977894674, 
            -0.9527970165739899, 
            0.12895468577305036, 
            1.745054981156524, 
            0.1252778316862896, 
            0.41581456066104994, 
            -0.45372285926638206, 
            0.2551573699586343, 
            2.2734030753724133, 
            0.806583869188061, 
            0.9980669800419106, 
            -0.6131827130421219, 
            -0.3494546166548892, 
            1.2460582660108352, 
            0.3296970304277876
        ], 
        [
            -0.009765826787529635, 
            -1.9974032666741202, 
            -1.251739124874469, 
            -1.0660582414800053, 
            -0.9345739099899215, 
            0.4726013029266991, 
            -0.8099959681804003, 
            0.31093665971158535, 
            -0.04926272191156636, 
            -1.5210414080912948, 
            0.25152020338194564, 
            0.8648980827792143, 
            -1.8464624934096412, 
            0.1363910318698007, 
            0.7632945373218001, 
            0.563177750243845, 
            1.1104609753491415, 
            0.3438655653432471, 
            0.15180806711987196, 
            -0.9680362904750645, 
            -0.866944972999509, 
            1.1532655438754975, 
            0.006560488119062589, 
            -2.0840945274131113, 
            -0.768662533870405, 
            -1.1697917698775033, 
            0.6951150066399313, 
            -0.3187805658418823, 
            1.4724389802854212, 
            -0.2866921814762134, 
            0.6139775295704382, 
            -0.2670742594664153, 
            -0.8243119439345133, 
            0.06852943493851088, 
            -0.15510393079385848, 
            -1.8280158017188233, 
            -0.5893854956848059, 
            0.37735026072500505, 
            -0.08694132588112091, 
            1.0500292671886808, 
            -0.03855171642170657, 
            -1.5810918998072725, 
            0.14397591553213887, 
            1.6908960238786643, 
            -0.9744949078921256, 
            -0.17957356750645603, 
            -0.2842351013356032, 
            -0.5703491497203598, 
            -1.9510921409090023, 
            0.8555299239628223, 
            2.1549844715658923, 
            0.8798434725041516, 
            1.692825457520214, 
            -0.6708338607265721, 
            1.190231849150112, 
            0.37476914968143155, 
            1.3840744871897177, 
            0.6927049240290611, 
            0.6159473186086283, 
            0.024600988151107, 
            0.30483230650417875, 
            -1.974647995103543, 
            -0.277187379739066, 
            0.4967027269569401, 
            -1.1363654837705621, 
            0.6025688533004958, 
            -0.2517748292505953, 
            -0.4982406166899206, 
            -0.8143035436202769, 
            1.6065898485189898, 
            -1.0935276188209115, 
            0.9432188125870447, 
            0.08360067467688419, 
            0.3318969095389801, 
            0.17068016940076, 
            0.13120927089154427, 
            -0.7746265162000648, 
            -1.2402260754420742, 
            -0.09053689813537176, 
            -1.0849528156718282, 
            0.4898083976662985, 
            1.1646840968053067, 
            0.08756390905455458, 
            -0.8240389348153583, 
            -0.4881324863299199, 
            0.4120750077666208, 
            -2.242013803820805, 
            -0.31028265244103703, 
            -1.2088228702759518, 
            -0.5198264666578393, 
            -1.1160313804911088, 
            -0.7894042065032663, 
            -0.632275737951687, 
            -0.7304141393142837, 
            -1.402862749374323, 
            -1.1444637743447004, 
            -1.6593669423249933, 
            1.3131767327153276, 
            0.7523151158250525, 
            1.0418731696896388, 
            -0.01817017226383333, 
            1.234352105025349, 
            -2.1287234248523, 
            0.013558121224265923, 
            0.9678156499355388, 
            0.895016042133125, 
            -0.053661126709165376, 
            1.4729655049410508, 
            -0.8421702173446846, 
            0.767679459677845, 
            1.6150965964911244, 
            -0.6385648941818475, 
            0.178898281793086, 
            1.0742847487234821, 
            -0.0720362020197158, 
            0.3539911830502154, 
            -0.19445429992741614, 
            -0.23760604052856912, 
            0.36726763300371257, 
            0.7570003317762097, 
            0.36468034446718844, 
            1.879685911180125, 
            0.6554599099734861, 
            0.5129630768565885, 
            -0.06971754373101817, 
            0.4265734955467142, 
            1.0179064563971594, 
            -0.09365284331615494, 
            0.5615674329824984, 
            0.03226092065860313, 
            -0.26117855984487576, 
            0.7608620198769162, 
            0.2914449461818298, 
            1.0246444500857328, 
            -0.5203355088909918, 
            2.7433446895681763, 
            1.3768591945631434, 
            1.731272198312036, 
            -0.16352007466239388, 
            0.07310312116407904, 
            -0.7366549391618163, 
            -0.0329480607255126, 
            0.47479074225975076, 
            -0.1110554975803253, 
            0.03355671228916703, 
            -0.93973921002442, 
            0.4285354707802043, 
            -0.8385036626184533, 
            -1.7456773939116583, 
            1.4772450651005964, 
            -0.7932327373562033, 
            0.5649742003196957, 
            -0.16255541655075367, 
            0.009260447688084867, 
            -0.2995993672014423, 
            -0.31204879439451877, 
            -1.673883115566489, 
            -0.3676598571631398, 
            -0.4897944096535476, 
            2.186094593177565, 
            0.002183126897992252, 
            -0.13518091192412443, 
            -0.11414984049234077, 
            0.26296208946508465, 
            -1.1314181051535954, 
            -0.8689917158452388, 
            -0.17279094327938038, 
            -2.5777445156188525, 
            -1.1348614545718902, 
            0.36151720828039186, 
            0.3998811104135675, 
            1.0919976103599174, 
            -0.25748407600891904, 
            0.05929961721672634, 
            1.2592716184728356, 
            2.21054478335923, 
            0.048656356512434655, 
            -1.1624515531879274, 
            0.1383618018367499, 
            -0.6202739713946082, 
            -1.3095205182917227, 
            -0.5622437310257122, 
            -1.2981998427123937, 
            -2.086229484472064, 
            -0.6074801905797186, 
            0.6463053137355128, 
            -0.16830206877250525, 
            0.5134065269594887, 
            1.345874006641583, 
            -0.24950323413672962, 
            0.592545769357982, 
            -0.35770657898104086, 
            -1.1044891111720436, 
            -0.7183809457314607, 
            -0.40728434814660164, 
            0.4521450481987414, 
            -1.247066743935886, 
            -2.10529334282369, 
            -0.9164660498566932, 
            0.299980012864576, 
            -1.3291607589784442, 
            0.3773389975692513, 
            1.6611375327179618, 
            1.711504687093199, 
            -1.4887222959756756, 
            0.7838346052809515, 
            1.2558299880284178, 
            2.2095277167184806, 
            1.2203271291487712, 
            0.4583823415135026, 
            -0.5850470996400404, 
            1.1291228447092558, 
            -1.4539249548809008, 
            0.6898985023955918, 
            0.025850273913857854, 
            -0.38041487525750034, 
            0.7718376521538328, 
            0.005619125217989785, 
            -0.1393482951593535, 
            -0.7534019769485089, 
            -1.0300291991310202, 
            1.136857223979792, 
            1.4443669080135109, 
            -1.2432868211751509, 
            -0.29314343517027325, 
            -0.4798366134322571, 
            0.7668121969075832, 
            -0.8797041775988873, 
            -0.4439902833290395, 
            -0.1272101789751791, 
            1.3288367565016428, 
            0.5523606048741765, 
            0.6953939235782056, 
            -0.6631450899310221, 
            -1.0879355626960578, 
            -0.5255819347052462, 
            -0.7448266033201609, 
            -0.457113050022745, 
            -0.020551718285428476, 
            -0.12521002329858064, 
            1.4830314604308892, 
            -0.23983647380556217, 
            1.4664654810651039, 
            1.19412117724128, 
            2.6534037022872137, 
            -0.33217821221433774, 
            -0.18556622615919516, 
            0.03200470126242333, 
            -1.6235338186992614, 
            1.1360542454991835, 
            0.9059065323600259, 
            -1.596520926306969, 
            -1.1934662920139574, 
            -0.02367949422872479, 
            -0.1186273122473347, 
            0.11936507263346255
        ], 
        [
            0.26789478879014217, 
            1.2767580767187008, 
            1.3768151099470325, 
            0.7983494924460062, 
            0.3126311905662957, 
            0.08469139814528553, 
            -0.08005625012253817, 
            0.7011950448377618, 
            0.657455293303811, 
            -1.2670530056400722, 
            -0.5235471915981029, 
            -0.20785960092927908, 
            -0.8045252269387712, 
            -0.1178275899315901, 
            -0.09679937228302465, 
            0.5479688973944521, 
            0.7325472153464163, 
            1.4261744225406268, 
            -0.46142410870336453, 
            0.5027174956119551, 
            0.5841779054187751, 
            0.4349941399226734, 
            1.9397063352277653, 
            -0.003542566264191713, 
            -0.12979779506926936, 
            0.20200775786062536, 
            0.22208831471669324, 
            0.3084572737717119, 
            1.4579002821597873, 
            1.2625762687379753, 
            -0.1293804602583311, 
            0.23507006615995144, 
            1.3279170748397506, 
            0.9815594235541844, 
            0.7029602239220748, 
            0.9841769121966568, 
            -0.7943365183906834, 
            0.9419063883959229, 
            -0.8634425369076756, 
            0.6265955130318612, 
            -0.21443107062339387, 
            0.6597175396654332, 
            0.3869745262452513, 
            -0.5476443434689766, 
            -0.6271305237143908, 
            0.6810379756677521, 
            0.1266218010414419, 
            -0.7459434593564781, 
            0.8457127809821227, 
            -1.812059317580151, 
            0.48035638898944055, 
            0.8809843015506951, 
            0.18028375982110242, 
            1.6892628609089468, 
            0.5954352957236405, 
            0.1993237317008196, 
            -0.6500110702333318, 
            -0.8931756074701811, 
            -1.3095472531440284, 
            -1.023645433083424, 
            -1.6144122098169889, 
            0.09687911659024974, 
            -0.4115899896481663, 
            0.46487592376623305, 
            0.25413414044980576, 
            -0.8753990808501225, 
            -0.5305053258235075, 
            0.8344990984536812, 
            -0.22018445888517454, 
            0.6554384126082855, 
            -0.5987410601670453, 
            0.41701813477841587, 
            0.1574961234121532, 
            -1.875847647485376, 
            -0.676678937754867, 
            0.04930025468945968, 
            -0.5471283421555688, 
            -0.4722189650846426, 
            0.9194225654447129, 
            0.5510042493595838, 
            -0.8515176745246968, 
            0.5536860928961421, 
            0.273537266883068, 
            0.5383837892451462, 
            -1.7649931953664473, 
            0.027324527232393075, 
            0.5622908355381392, 
            -0.8373593223547295, 
            0.4252727691281022, 
            -1.9392653222756489, 
            -1.1627502801434937, 
            2.592625537151818, 
            -0.12953374180833993, 
            -1.42620404274246, 
            0.9210196667803203, 
            -0.5782645630629758, 
            -1.1379604367061786, 
            -1.2428196936858424, 
            0.3541618340149923, 
            -1.2958349836064982, 
            0.22528756330770364, 
            0.2635693966905417, 
            0.7816966359815636, 
            1.7893432846007897, 
            0.25935570904456845, 
            1.737362943007665, 
            -0.6578030670033865, 
            -0.07493156006910902, 
            0.17829880653917632, 
            -1.0840622768181702, 
            -0.05384816375070993, 
            -1.4928592611232372, 
            -0.012666039848725434, 
            0.35024805976410167, 
            -0.7181065393207221, 
            -0.6193212131463873, 
            0.021334486056051732, 
            1.0109534650334697, 
            0.17931286908262595, 
            1.0340165864242983, 
            0.8938044260472714, 
            1.9008713304110365, 
            0.8531527764456395, 
            0.8979875797278133, 
            -0.2199324099999067, 
            0.15192273439474316, 
            1.2924015553560553, 
            -1.476912076404694, 
            1.1250982567271821, 
            -0.17812893387888484, 
            -0.02684354726590499, 
            -1.4629810976011832, 
            -2.0742427457489367, 
            -2.5059289422405526, 
            -0.9224710055957889, 
            -0.8629105473316515, 
            -1.5131402958009168, 
            -0.697711897280659, 
            0.2140999028543423, 
            -0.12865196307215615, 
            0.02372306480437578, 
            -0.5354820602485748, 
            -0.43814685861369196, 
            -0.9664934583498008, 
            -0.7367551058231838, 
            1.0976465823472221, 
            1.340755243050037, 
            -0.015984083361961665, 
            0.09631185967935456, 
            -1.5743848618319398, 
            0.1926037422930309, 
            -1.2447714868450606, 
            -0.9814744514602207, 
            -2.047851271941622, 
            -0.7414633129406261, 
            -0.3736351185899053, 
            -0.6051888098509448, 
            -1.306766764338099, 
            1.5089700784360098, 
            -0.23122954821780087, 
            1.0783007646240501, 
            1.498282655122858, 
            -0.36291503795173435, 
            0.26022269711012064, 
            2.224021578464128, 
            -0.8073344942154607, 
            -0.39706655996397155, 
            0.012250883941708595, 
            -2.2407622075071365, 
            -0.3938202237696331, 
            0.7934358742681454, 
            1.8323904630662666, 
            0.781779327142812, 
            0.8755063842724553, 
            -0.5226984080634494, 
            0.5619585658726313, 
            -0.6505607760702434, 
            0.007555273643718001, 
            -0.6791750449437902, 
            0.9293082097610385, 
            1.2362141236889537, 
            -0.2966527202609853, 
            1.4157579183241698, 
            -1.3827902590537504, 
            -1.932583688785752, 
            -1.4889437094252735, 
            -0.4189678207709105, 
            0.5004614449026994, 
            -0.17110325332108253, 
            0.615889078157294, 
            -1.0932767272767705, 
            -0.8334627645287715, 
            0.5469818648177192, 
            1.0051472877792098, 
            -0.5957819493315912, 
            0.42696344046331014, 
            -0.16563375572330413, 
            0.3511735444037176, 
            -0.7620173870318889, 
            -1.347635822082959, 
            -0.6604848991812318, 
            -0.6755040904677991, 
            -0.9997225591076632, 
            -2.3085447650728965, 
            0.3359618913152685, 
            1.4037615442906457, 
            -0.9690793177710602, 
            1.0810212188253394, 
            1.1791904059772544, 
            0.6063351876744072, 
            0.566717171031443, 
            0.08775832714505513, 
            1.2659438048963259, 
            0.3439854759812917, 
            1.6720509361937137, 
            0.9674002714487556, 
            -0.8691016629734959, 
            0.6661719999184976, 
            -1.1210093336343172, 
            0.37160762093395183, 
            -0.1390059416732858, 
            0.006617258695836521, 
            -0.33844803821062475, 
            2.287849238418665, 
            -1.4760772812097516, 
            0.17101327748149658, 
            2.6774408301519497, 
            -0.5329639808522358, 
            -0.2882126981029849, 
            -0.23175577689817276, 
            -0.2334523054557945, 
            1.992295090074299, 
            0.603963524399805, 
            -0.14177614784923012, 
            0.5301674938872492, 
            -0.5294480385883733, 
            -0.8202038376221055, 
            -0.41622892649092424, 
            -0.07478171845126738, 
            -0.1548730277143681, 
            -0.49514068190364124, 
            0.9340866738426113, 
            0.03240560379663954, 
            1.0926158406511202, 
            0.738943129528528, 
            0.5996776530340323, 
            -0.6094455980541081, 
            -1.3435694097558961, 
            -0.35585178814293517, 
            1.949615860503591, 
            -0.11748839001614972, 
            0.03742519957074542, 
            1.3662303075761448, 
            -2.5171557866324745, 
            -2.666740269026867, 
            -1.523766881805614
        ], 
        [
            -1.842065594265024, 
            0.42626503364965157, 
            0.012809007940475809, 
            1.1787835065250774, 
            -1.2268490459945927, 
            -0.7418718813778065, 
            -2.0607249131950334, 
            -0.1416807093322173, 
            1.3198991460494471, 
            -1.4332189930708306, 
            0.17712764484887003, 
            -0.19118785959262644, 
            -0.1932278096223311, 
            -1.086192337821439, 
            0.8891174833430584, 
            -1.340929445674589, 
            -0.7490204986428735, 
            -0.542979474703398, 
            -0.01642040799339743, 
            0.13272954922818367, 
            -0.719042022973947, 
            0.1907336907688899, 
            1.2249447436750514, 
            0.5487724461995959, 
            1.007879820648962, 
            -0.07469612714952943, 
            0.25415803081595423, 
            -0.1778778860497786, 
            -0.8556440719788544, 
            2.194349745059721, 
            -1.9740506167259866, 
            -0.8162729615859743, 
            0.09652646203889285, 
            1.2937430684305382, 
            -0.9117462922175449, 
            -0.4650589334008954, 
            0.6634669254690732, 
            -0.34512174926806233, 
            -1.0634269843233397, 
            0.6289504343822084, 
            0.5275562195747535, 
            -0.2113426696965097, 
            0.03640225356010813, 
            0.33541738124367115, 
            -1.7352297960021774, 
            -0.9327452225885547, 
            -0.9359092266826946, 
            -0.3922926829631566, 
            -1.389203772071101, 
            -0.22198749983639568, 
            -0.3832595828302367, 
            -0.3648103334838765, 
            1.0485499417844502, 
            -0.666250402197821, 
            -0.36533456825783167, 
            -0.7061247631285977, 
            -1.7167683250120809, 
            -1.0024799105896256, 
            -1.9653450667609773, 
            0.8898080260900063, 
            0.051865859582338185, 
            0.22219649724700333, 
            0.32208279626144654, 
            0.7039234540229, 
            0.16824445475689723, 
            -0.44631884128094956, 
            -0.03682124003246502, 
            -1.5894892868886294, 
            -0.8538898925502983, 
            0.3050569919823065, 
            -1.3021397847434135, 
            -0.39943623084475227, 
            1.0371578145284615, 
            -0.0975856991856011, 
            -1.2296819179122203, 
            0.9508258038229722, 
            -0.6806787456641273, 
            -0.5280870628630885, 
            1.9908326976801134, 
            -0.871829567528938, 
            0.444155291376081, 
            0.7266438154558903, 
            -0.28611825100723154, 
            -1.09257720230693, 
            1.5124007622167916, 
            -0.995451185977914, 
            0.4397540607936506, 
            -0.4954370916969118, 
            -1.3163281306796726, 
            -3.3755916234972787, 
            0.3089691179971763, 
            -1.2221421016785612, 
            -1.4831031373714936, 
            -0.310669983501083, 
            0.2984044241962743, 
            -0.8801512667889287, 
            -0.4227708352152213, 
            0.105893133030275, 
            -0.91460658223763, 
            0.5142931846173487, 
            1.06601739346189, 
            1.0877256422527284, 
            -0.0037951494899666712, 
            0.41246088615650894, 
            1.9486802987270233, 
            0.17706163767576055, 
            -1.6088074894422526, 
            0.24269015894109328, 
            -0.6603536470913522, 
            -0.36250264647185476, 
            -1.1413950404774218, 
            -0.6771644098364086, 
            1.5539369537900083, 
            -0.736136211661014, 
            0.7574948828067398, 
            0.9194532650748871, 
            1.534061019666498, 
            0.6342243422480468, 
            3.2847060223863047, 
            -0.25358817979443266, 
            0.6516398951967216, 
            1.35713521369401, 
            1.0574251804369095, 
            -0.09608202239446537, 
            -0.8073980878192631, 
            -0.217877000544924, 
            -1.2746908681487117, 
            0.7027548218974152, 
            -0.1887822893923658, 
            -1.5446923203367364, 
            1.4337351454013705, 
            -2.0145979234972335, 
            2.1042045571690022, 
            1.3597916033298028, 
            -1.2236986281293831, 
            -0.6158259453444258, 
            0.41513048524496754, 
            -0.5793572719310626, 
            1.4679215353558632, 
            0.0029128061787974317, 
            1.9009399672643712, 
            1.8838087349123829, 
            -0.27928874496843265, 
            0.9159959980559195, 
            0.23562661068940857, 
            0.48895546640097626, 
            1.4946763698705525, 
            -0.2815800287086899, 
            0.17881944673108072, 
            0.2474446937852653, 
            0.19877767498446336, 
            -1.2929194019681391, 
            0.4734415262500654, 
            -0.7301533703567075, 
            0.44101166077111753, 
            1.3369947491164367, 
            -0.20775394952491733, 
            1.8297876528883854, 
            2.08180288659965, 
            -0.4761917862004583, 
            0.4357781660626004, 
            -0.21817285958212196, 
            1.1634413104803563, 
            0.380032753437434, 
            0.21784322791259028, 
            0.012574377585132204, 
            0.009533600020645709, 
            1.06913744680415, 
            -2.9351806887021255, 
            -2.0315831220078846, 
            0.3075378504744148, 
            -0.6448085282301405, 
            1.1769649602197312, 
            0.8860783402133293, 
            0.30490946717216527, 
            0.45421510211458793, 
            1.7879741985906408, 
            0.17833214462557015, 
            -0.3973362257244536, 
            -0.5206852610337304, 
            0.5685725552054863, 
            -0.7061607364368703, 
            0.2037304876487138, 
            -0.5709325360994709, 
            -0.13270124318594526, 
            1.4842772697087843, 
            2.059235601670225, 
            0.5683489307420628, 
            0.9746748115794911, 
            2.194321212485105, 
            0.48635542217318456, 
            -0.862866075527925, 
            1.8172368247674435, 
            0.8088066899022384, 
            0.44650802036139897, 
            0.48268798654625145, 
            0.370408853314027, 
            -0.5889544992510974, 
            -0.05637695006852703, 
            -0.8575252672410766, 
            -0.8517314185554975, 
            0.23324798268976574, 
            -0.27536618732439805, 
            1.0373264590923885, 
            -0.6095943686934266, 
            0.993620354853645, 
            0.9329286627795921, 
            0.4502155191132531, 
            0.8807669816189356, 
            -0.12544091114583258, 
            0.22845083115317877, 
            0.9215087776035346, 
            0.26406892478365024, 
            -0.6991805274986833, 
            -1.3565401873196925, 
            0.05398562048438961, 
            0.13595069380211505, 
            1.5486418680704261, 
            -0.6319840025233958, 
            0.6568776337484029, 
            0.06583001051947097, 
            -1.2495738586591725, 
            0.0845448046870012, 
            -0.8820698285433386, 
            0.635313644398768, 
            2.3281953487858633, 
            -0.694143312637208, 
            0.5399220230652346, 
            -2.367622827046313, 
            0.9004044082498712, 
            2.032691768902836, 
            0.5620652943954302, 
            -0.06339813164392873, 
            -1.2844362011863502, 
            -0.16371784458572222, 
            0.0655259408329197, 
            0.6071545699272342, 
            -0.49292685860842894, 
            -0.5363096267237372, 
            -0.6762922320253997, 
            -1.3371340558192957, 
            -0.3274776710462507, 
            0.6093120738632206, 
            0.5179423981203747, 
            -0.26928271581850055, 
            -0.2916423506446606, 
            1.3113740881187914, 
            -0.635953386240665, 
            -0.8143419394017929, 
            0.4667096893757781, 
            -1.6655339621951428, 
            -0.4469430433386423, 
            0.42287071725771547, 
            -1.368949556821481, 
            -1.347942810020787, 
            -0.8131239897346985
        ], 
        [
            -0.5626636755949308, 
            0.7416188457639327, 
            1.22898535229209, 
            -0.07540622547309872, 
            -0.1969950770816973, 
            0.9455896054427793, 
            -1.544096731202783, 
            0.16446577661447034, 
            -0.4221181391330198, 
            -0.4900029933319023, 
            -0.2606345280857103, 
            1.3749589172462133, 
            1.4088151262534478, 
            0.3129053922692492, 
            1.7968304079352406, 
            -2.0829342061390204, 
            -0.9124795438978686, 
            2.219301255796953, 
            1.5554646409857433, 
            0.27795850763780605, 
            -1.1547043673112203, 
            -0.0498575778716314, 
            -1.527150161457666, 
            -1.1187264457499553, 
            0.17970999574289304, 
            -0.11662648570114627, 
            -0.2648662938064477, 
            -2.4925018492129576, 
            0.11550830276130279, 
            1.9850870368985662, 
            -1.7123652011147732, 
            0.14060985761273417, 
            -0.7113502671223746, 
            2.000681486343474, 
            -1.7562529735695405, 
            -1.7946597975210148, 
            -0.26413160397991803, 
            1.36108525693501, 
            -2.0353680067460234, 
            -0.38652982040554035, 
            -2.6315318383429354, 
            0.16878177351928111, 
            -0.8231348359974192, 
            -0.4144774131807547, 
            -0.26500575760234324, 
            0.6905748360329521, 
            0.7897237573791481, 
            2.041181698462493, 
            1.406876064063373, 
            -0.963143533862784, 
            -1.127624623246399, 
            -0.16174484531842745, 
            0.8103762474101688, 
            -0.4847849389835896, 
            -1.8750457027459477, 
            1.748750316254059, 
            -0.1760551862483179, 
            -0.2558224774205746, 
            0.9348501266226205, 
            0.48785661126445723, 
            -0.08341633114941666, 
            0.7495790882841973, 
            -0.8363451565551112, 
            -3.15209269737147, 
            0.9415493649836274, 
            1.4997663618575678, 
            -1.0057780613572442, 
            0.06486431894267534, 
            -0.26622269254840175, 
            0.45619017951957697, 
            -0.45968237075979, 
            0.44636769335785714, 
            1.1580473478662856, 
            -0.9390833804093477, 
            0.5796730539130179, 
            1.6224243486365608, 
            -0.7817891190461588, 
            -0.5181599818396947, 
            0.2396287291182296, 
            0.19260335562591094, 
            0.12211996341662874, 
            0.16553659177392022, 
            0.43146338069291684, 
            -0.6190137357122734, 
            -1.5951126782988456, 
            -1.9949091251754418, 
            -0.2232053752016536, 
            0.22373282927424937, 
            -0.921093209296924, 
            -1.5462926145561395, 
            -1.3826608867053554, 
            0.5136392429125646, 
            0.2286940071217131, 
            0.3190154056072201, 
            -1.0601376126312965, 
            0.5000963691845354, 
            -1.392636992227367, 
            0.21810888469066395, 
            0.16288781118289267, 
            -1.364731678304092, 
            0.03439447288350411, 
            -0.11748951015210338, 
            -0.8510797347605731, 
            -0.010660772871941532, 
            0.11690589831068486, 
            0.12999124002606988, 
            -0.11988668232412152, 
            0.0024144632959031275, 
            -0.8499021655912457, 
            -0.19688392000573335, 
            -0.3193767888257207, 
            0.47530905100457793, 
            -0.244585122599705, 
            -1.0614549777602853, 
            -2.0928632649083094, 
            0.12470742375150858, 
            -0.5885211883219814, 
            0.3147827323382829, 
            0.7318221962854432, 
            0.49741958382953505, 
            -1.7626164668027513, 
            -0.8749332378330619, 
            -0.8238593425445574, 
            -0.32653194029293137, 
            -0.46964023911883757, 
            0.9470047713150561, 
            1.1474783199755776, 
            -0.006495119616033696, 
            -0.027443470636095785, 
            -0.09376244931293123, 
            -0.2976221669362968, 
            0.14743595237162113, 
            2.4003762553222088, 
            -0.6137200115521088, 
            1.6934565781764024, 
            -0.2759381184355521, 
            -1.0745766429272758, 
            -0.05336104216436403, 
            1.461464970181449, 
            -0.9079520602407843, 
            -0.665453947384637, 
            -0.4361794588197566, 
            0.3990902804620951, 
            -0.9046434096308187, 
            -1.0404841249463983, 
            -0.40560951432487735, 
            0.4306644894569061, 
            0.9156383691696625, 
            1.828734941824079, 
            0.24227338381908323, 
            0.8047474722307222, 
            -1.1274844604761176, 
            1.4716528221650027, 
            -0.046239785826555226, 
            1.8009496388195902, 
            -0.8367097282606307, 
            -1.7583312522420003, 
            0.0937860872946755, 
            0.16747644853047083, 
            -0.031053218854599066, 
            0.3307519432001488, 
            -0.12659788397994723, 
            1.2006916854478522, 
            -0.062321236245710454, 
            0.9206517609606493, 
            1.3440155909659257, 
            1.667643852861088, 
            -0.5819414164932969, 
            -0.2834022048323292, 
            1.389232459323888, 
            0.00655639160888038, 
            1.0956269609783635, 
            1.4437699717344343, 
            -1.3444690462258648, 
            -1.952603130876875, 
            -0.6301366935867455, 
            0.4993943532612479, 
            1.3338168503768677, 
            0.8678922449850337, 
            1.013559415193522, 
            -0.3308351453527564, 
            1.0979904926438104, 
            2.138211659833819, 
            0.4783609490568849, 
            0.6307777380910063, 
            0.5035296434931833, 
            1.7206554458130705, 
            -0.21258170562839324, 
            -0.8341902938799565, 
            1.1306472356225585, 
            1.2622508088646345, 
            -0.14968134984457424, 
            0.894358871345076, 
            -1.0686486532392767, 
            0.21627680885039155, 
            0.37931680022888065, 
            -0.3661188406903693, 
            1.6518895152136002, 
            1.7173383072385613, 
            -0.15063039594292107, 
            -0.788601737176665, 
            1.8106217223998884, 
            1.4852102741998265, 
            1.781632526053245, 
            -0.22842760584600647, 
            0.25856654360367903, 
            0.6435267241670936, 
            0.29381819003463955, 
            -1.6561752165147594, 
            0.5228507388173429, 
            2.1134226158118845, 
            -1.0774292339346432, 
            -0.02194612272279842, 
            -0.6108154701533617, 
            -1.301755196598577, 
            0.2825987943489869, 
            0.14281624257816913, 
            0.24008848391522333, 
            0.4051821484967989, 
            0.6307623744246675, 
            1.829119625636745, 
            0.31462288033431385, 
            -0.3647964366247593, 
            -0.15901110523927192, 
            -0.5216404388965366, 
            0.9429864226326812, 
            0.43090180835368064, 
            0.8529582273740903, 
            -0.2788117193505274, 
            0.18891495505283212, 
            0.6581402187545188, 
            0.3334670967630676, 
            1.0345787659358332, 
            1.6137355912571185, 
            0.6426125604804688, 
            -0.09133185879041442, 
            1.2205415649853693, 
            1.3720292055214076, 
            -2.1661008954009793, 
            -0.3036748432641601, 
            1.633853674755425, 
            -0.3940116890026075, 
            -0.7482239083451834, 
            -1.7902370157897538, 
            -0.9700366282289452, 
            1.2417839477774086, 
            -0.8291098100139357, 
            0.9311028594826157, 
            0.6730936678207591, 
            0.13190773945474157, 
            0.1478951324022722, 
            -0.24034770222060015, 
            -0.09782980867819376, 
            -0.05260241830523913, 
            -2.2370682708310636, 
            0.48210472467589244
        ], 
        [
            0.14201663039840395, 
            1.6909880651108975, 
            -2.379411887940013, 
            -0.7352025198959248, 
            1.1628012841865252, 
            -0.28989882633298425, 
            0.7384160262919321, 
            -0.4938271768657551, 
            0.6606432201866781, 
            -0.24766179510052747, 
            0.7027651328148372, 
            -0.23891427946604746, 
            -0.22610174061026939, 
            0.13679687600090473, 
            -0.4610214795205008, 
            1.1233785510649839, 
            -1.0959037247967627, 
            -0.3284363226826563, 
            2.2355096486813273, 
            1.5541986459516206, 
            0.1051888989850009, 
            1.3664676913563836, 
            0.2550045961293776, 
            -0.6189332202232043, 
            -0.7770752041689805, 
            -1.0849044266988843, 
            -0.4384909206601084, 
            1.4595339029041436, 
            0.9131736871973264, 
            -1.3390056793970533, 
            -0.054376710917964366, 
            0.9193187164563437, 
            1.5564644168755133, 
            1.0334416147054275, 
            -1.746495498350927, 
            0.27033317401425117, 
            0.9700865923083722, 
            0.2745202079902249, 
            -0.5188917459074903, 
            0.8180453546420988, 
            0.6336957272132421, 
            1.5450284516439847, 
            -1.1767210970207003, 
            -0.4116567383966971, 
            -1.9659986030961283, 
            1.1615552613555011, 
            1.0150077992721964, 
            -0.20681026454949328, 
            0.8558803901387962, 
            1.8428721724766373, 
            0.8444027510884713, 
            -0.7500097888809221, 
            1.276310653867186, 
            2.695411342809506, 
            1.159729310941726, 
            -2.672741976980311, 
            -1.0350327048414945, 
            0.4872227737178899, 
            -0.7603670573738199, 
            1.4154386815566247, 
            0.3271547124080247, 
            1.2791235742082157, 
            1.0400620418848825, 
            0.2908085360969829, 
            -1.6688416971349718, 
            0.9493100777924875, 
            0.9518644582084785, 
            -0.595551330486166, 
            -0.7425639657037642, 
            -0.3295618691603125, 
            0.22238725819744237, 
            -0.7073786297199872, 
            -0.13349712751728104, 
            -0.8898917796474326, 
            0.31516049921454387, 
            -0.9212279065920775, 
            -2.372796661764817, 
            0.11238656456665377, 
            1.4506087438969886, 
            -0.8783799151045243, 
            1.478923723347036, 
            1.1555793128998668, 
            -0.2579679851278759, 
            0.6631505257104933, 
            2.4133431927908937, 
            2.1162552042301925, 
            0.6724363632106024, 
            -0.10461642730794962, 
            -1.0381662905556608, 
            -0.21959672680611356, 
            1.1701575571737854, 
            -0.29520493255083535, 
            2.7703990032185244, 
            1.3383702059898839, 
            1.8230810660381105, 
            1.8627410500264245, 
            0.166318513225191, 
            -0.9697741067891854, 
            0.5135898016709741, 
            -0.7378151274858851, 
            -0.027599782894920315, 
            -0.3543461008832699, 
            1.3160680317410147, 
            -0.7880243656504191, 
            -1.2805879406936207, 
            -2.234512228010471, 
            0.4604276426573558, 
            0.018967998352907956, 
            0.8571145289695068, 
            0.8801993552461522, 
            0.626775151321184, 
            -0.44075549396576463, 
            -0.22610972948130031, 
            0.18156294067767306, 
            -1.017227559001447, 
            0.08143283950837947, 
            1.299960427439124, 
            -0.06815830834279107, 
            -0.3736703513382265, 
            -0.7064181990584008, 
            -0.1562533368213055, 
            0.3059735607678062, 
            -1.9725202564310496, 
            -0.8335202760118785, 
            -0.5552473118615383, 
            -0.6315949810895518, 
            1.7228198582404164, 
            -0.06430118362782018, 
            -0.4894189725866196, 
            0.03716808074412818, 
            0.23342436741847927, 
            -0.9453122259967194, 
            0.6209831143199683, 
            0.1728842241244839, 
            -0.2454804584954152, 
            -0.011348992004659315, 
            1.1542663529340023, 
            0.31930380263768665, 
            -1.6700059259147622, 
            -0.7433195351373639, 
            -1.6850431928232796, 
            -0.6460695313043253, 
            -1.1996255305159969, 
            0.03292717862104316, 
            0.10347077392865392, 
            0.14808884088099383, 
            -0.6438830382208008, 
            1.8333374896636292, 
            1.1523430852649452, 
            2.4431728069186334, 
            0.31158497137105934, 
            0.015723906482103124, 
            0.3772359359785854, 
            0.32249987643727673, 
            2.81538985614772, 
            0.5905028742090225, 
            -0.02299360876576816, 
            -0.9597028443380509, 
            1.3558050184458645, 
            0.8166086432054336, 
            0.6833872472030219, 
            -0.607952037104896, 
            0.773793324825347, 
            1.3126010367682073, 
            0.5781317383136729, 
            -0.24060015080689148, 
            0.021070878318749937, 
            -1.0548595892292563, 
            -1.6001133133147831, 
            -2.1173758901466613, 
            0.5795466059481742, 
            2.0050536820764937, 
            -1.6332697573025519, 
            -0.7828594205238457, 
            -1.8703465815129063, 
            0.7539479786871045, 
            -1.3641587389020382, 
            1.4904618111903651, 
            1.779503273863414, 
            -1.7416950426237194, 
            0.7033311401945506, 
            -0.8563686321144589, 
            0.14820712367190872, 
            0.918940540536204, 
            0.7856580655961607, 
            -1.5495698412039016, 
            -1.1595707320863688, 
            -0.7199310402674137, 
            -0.5785264373780561, 
            -0.4821869639389396, 
            -0.9500584162056406, 
            -0.47998275316583494, 
            0.031056519080054367, 
            0.42489854248495507, 
            -1.2523481478334446, 
            -0.07920322485375698, 
            -0.37401902999581327, 
            -0.551918970146731, 
            1.0266242012701334, 
            -0.6114595711839655, 
            -0.17340325294092182, 
            -2.681231690748821, 
            1.2149956259197923, 
            -0.23055696429694275, 
            -1.2871339161783633, 
            1.1715413352707311, 
            -0.9100339839187808, 
            0.2773171397444864, 
            -0.14156532082533552, 
            0.8079926502580692, 
            1.8000467593386755, 
            0.16079352411725883, 
            1.2548712886401596, 
            -0.004120822609123552, 
            0.8635735355897509, 
            -0.15921674809971678, 
            0.7373582062965595, 
            -0.13181215990922632, 
            -0.07896574406751293, 
            -0.6660610947596873, 
            -1.9112175145997135, 
            -0.4446163092404879, 
            -2.2752405653128163, 
            -2.644456157871375, 
            0.3512804155153948, 
            -0.9881150763498598, 
            0.4094333694167773, 
            0.044852048555759784, 
            -1.1846721985975943, 
            -0.5100909652793356, 
            0.9428014560201494, 
            -0.5548500942190169, 
            -2.0479041122990074, 
            -0.2857654994661715, 
            -0.6564008029940193, 
            1.5125994640678952, 
            0.11143935639143113, 
            -0.25076375816111507, 
            -0.5448762913340666, 
            -2.0942130575647546, 
            0.0873331637731282, 
            -1.6060156582403418, 
            0.6730420524550819, 
            1.1656319892562343, 
            -0.2922255703555473, 
            -0.6570928917876134, 
            -0.9706685889147276, 
            -0.11877448454003382, 
            -0.06694670039942001, 
            1.2988274758594602, 
            -0.3589921946841401, 
            0.7947749447772567, 
            -0.762999754284226, 
            -0.6163574804888987, 
            -0.7205292042483458, 
            -0.03873303508914439
        ], 
        [
            1.632223152719145, 
            0.23619516779352193, 
            0.7691313908332303, 
            1.265962631475696, 
            -0.006223497833401787, 
            -1.7613072499136055, 
            0.6283044120104024, 
            1.3533179838306086, 
            -1.4841005783583707, 
            0.3299142210313294, 
            1.0646842179451634, 
            0.4346563449510136, 
            -1.0197312369294549, 
            0.7509946691193189, 
            -0.3912317077441215, 
            -1.4828184980984416, 
            -1.0905109993256088, 
            -0.6814017636315345, 
            1.0755102847036453, 
            -0.2345998290806839, 
            -0.4980757531888522, 
            2.813289279648529, 
            2.3247918877534817, 
            0.04357554971377434, 
            2.138676271294427, 
            0.34107208978637465, 
            0.2882283351410309, 
            0.8178236250689745, 
            -0.44201055554734053, 
            -0.43348710447611, 
            0.7006647483004282, 
            -0.2968747358415239, 
            0.423758702258073, 
            -0.6653237355939472, 
            0.3381506263054338, 
            2.1057540681979443, 
            -0.35801091856118533, 
            -0.4574838767518023, 
            -0.5667491671860269, 
            0.39077463892270087, 
            0.5895656024486741, 
            -1.1530331677288932, 
            -0.726330587564526, 
            0.7034421021271434, 
            -0.15668075917272214, 
            -0.560934079136051, 
            -0.9234035519137848, 
            0.0786128446507205, 
            0.3642692624289102, 
            -1.2801724201362206, 
            -0.10666056582380551, 
            0.5247919453045321, 
            -0.7565182909365933, 
            -0.06081802097359275, 
            1.4574914852922423, 
            -0.60304244534435, 
            1.8242571087572639, 
            -1.2602549855286387, 
            -1.0545231180440922, 
            -2.197310368709683, 
            -0.9666026826699791, 
            -1.6998163522304592, 
            -0.5306013736918975, 
            -0.08343056049261076, 
            -0.40806854644462615, 
            1.099904479036241, 
            -0.2553956101595187, 
            0.1447618449597815, 
            -0.520650200946521, 
            0.5978132677219761, 
            0.727441081995266, 
            -0.46876023633582076, 
            0.552825166963427, 
            -0.13035183610920803, 
            0.5364546298261902, 
            -0.4274173118088942, 
            0.9318447914852659, 
            0.6509609918118496, 
            -1.6518885095948512, 
            -0.820984119694403, 
            0.0037447592253455637, 
            0.8013007420808377, 
            0.6273989201458997, 
            1.6691222212569516, 
            0.2834284810976746, 
            0.7115610009068228, 
            0.2151963463782333, 
            0.7633151070597411, 
            -1.656909070549271, 
            0.9218089133741787, 
            1.4666882396683545, 
            0.8882230683730995, 
            0.018825348564091692, 
            -1.1399775297994839, 
            -1.9363863716772811, 
            -1.5463385607593916, 
            -0.0867585542633341, 
            -0.38650651385703116, 
            -0.9641073374430748, 
            0.5532096609876078, 
            -0.021587571094887948, 
            0.9273472723526838, 
            0.3311725073343663, 
            1.0649092273411922, 
            1.4719470566320414, 
            0.402309002712614, 
            -0.5319407734748591, 
            -1.0328223021321048, 
            0.7624692733336699, 
            -0.36535918812041535, 
            -1.3676988771486966, 
            -1.8353206397718589, 
            -1.1561066616167195, 
            -0.6955157786666515, 
            -0.23797858780518905, 
            1.133422758835302, 
            -0.6919875662391475, 
            -1.317416689729077, 
            -0.27671483843971073, 
            1.2910047053957496, 
            1.2558355457783337, 
            1.763217406897846, 
            -0.32911105970789056, 
            0.1836568839391145, 
            -0.6183164499342522, 
            -0.6268715797625218, 
            -1.0973611229834181, 
            -1.8066406675050015, 
            -0.050842432402908096, 
            0.5225423004580754, 
            0.7509738757643742, 
            0.4960091181113546, 
            1.6249189132946047, 
            0.7592753053974935, 
            1.6382881635648934, 
            1.3298735096471979, 
            0.42916266829009403, 
            1.3194155944204293, 
            0.4604005547769957, 
            -0.19278197927499785, 
            -0.5539890769781943, 
            1.129108965636672, 
            -0.8934270141711351, 
            0.4102860502340024, 
            1.3229686215940837, 
            -0.18450374771472144, 
            0.24643373329919172, 
            1.4977274143086352, 
            1.6997807276371695, 
            -0.35483367539595473, 
            1.3044342828821707, 
            1.375889277564959, 
            -0.7834684671590793, 
            -1.770931115725796, 
            -0.4713932268423711, 
            0.706296761853596, 
            0.9884718251452481, 
            -0.2899846006491091, 
            -0.567322600792027, 
            -0.8906814664893933, 
            -1.2856914990756654, 
            0.41051554674829666, 
            2.042066585278506, 
            0.5767588097295644, 
            1.0196315058139456, 
            -0.14828855083905104, 
            0.24397905853445281, 
            0.7359142591296183, 
            -0.8215857153069009, 
            -0.6461113713821209, 
            -0.3637531597748527, 
            -0.2626292034080499, 
            -1.5344443815151774, 
            -0.9197197440918647, 
            -1.0349306972904833, 
            -0.8823026030361146, 
            0.3534152747177638, 
            2.032454730739116, 
            1.1170191558245233, 
            1.2527726370113221, 
            1.2854256058749776, 
            -0.36319092776782197, 
            1.3674558359059803, 
            1.6646421198013648, 
            -0.10535258380296256, 
            0.8386419462885822, 
            -0.7449747461270885, 
            -1.088981476825823, 
            -0.8136087160630668, 
            1.286284552766328, 
            -1.2479713197120437, 
            1.5398985322534886, 
            -0.911528160329017, 
            0.27933735827161954, 
            0.2917691765388525, 
            -0.9607086006034374, 
            1.4525882728216652, 
            -1.0088471894030797, 
            0.2814088910368872, 
            0.30232486906306605, 
            -0.3731995840397249, 
            0.4090675249376369, 
            0.05918042315899932, 
            -2.552557733249635, 
            1.1465973204322462, 
            -0.8095949273411113, 
            0.5892112471188196, 
            2.0072141497777034, 
            0.01915519324855285, 
            0.32281234392057284, 
            0.578769276459883, 
            1.2204988930836855, 
            -0.3397149254040214, 
            -0.016016941029762297, 
            -0.015898638348820743, 
            -1.5793219011988882, 
            0.41380333485630305, 
            -1.964985981709785, 
            -1.149012274629092, 
            2.035673226548326, 
            -0.4374931726110621, 
            -1.3934032301735588, 
            0.6041714701356292, 
            0.6572541935158288, 
            -2.2559283171568643, 
            -0.5787856292008088, 
            -1.8391262863087252, 
            -0.7482790975548291, 
            -2.364121488737648, 
            -0.40694777876772115, 
            -1.0747649250306013, 
            1.0924632509898462, 
            0.6711238088752328, 
            0.11225082550379152, 
            2.119849886709145, 
            -0.7621731338764544, 
            -1.194011189450568, 
            -0.3413519459077646, 
            -0.7572704783469051, 
            1.5705667055006853, 
            0.4576222524856393, 
            -1.1526544259769118, 
            -1.8542948113713236, 
            -1.9616600179589632, 
            -0.4427123933224317, 
            -1.4975718497785158, 
            1.2713145198358244, 
            -0.2853055567671136, 
            1.3984171593479247, 
            -1.6965341244214411, 
            0.4995138004173548, 
            -0.5764807452321564, 
            -0.31640869310288905, 
            -1.4383728209158066, 
            0.12658928334685618, 
            -0.022281550767437888
        ], 
        [
            0.47364608529650054, 
            -0.13203328125871827, 
            0.5419623311656183, 
            0.39819518764227035, 
            -1.9434609537566998, 
            0.07846810593247498, 
            -0.6724895199745834, 
            -0.6151869016284162, 
            -0.2994935599064893, 
            -0.4816755359757782, 
            0.6634129625929829, 
            0.22002284738168207, 
            -0.22636913550827456, 
            -0.45762361787409533, 
            -0.6164006170683667, 
            1.0896808819010506, 
            0.9768644091071765, 
            -0.24375272771870313, 
            0.06645788374879284, 
            1.0103479690105432, 
            0.6220875499772366, 
            0.6119890713289361, 
            -0.5375680329517338, 
            1.258678759513148, 
            -2.0091655779349473, 
            0.7191010141147905, 
            1.3006253877757903, 
            0.1423842776997324, 
            -0.1633624709895467, 
            -1.7141939006047897, 
            -1.0443254799676809, 
            0.9415492139845267, 
            0.782616624800464, 
            1.0943953996159508, 
            -0.5894403510713061, 
            -0.8694177862192934, 
            0.23593623830414567, 
            0.484329973940718, 
            0.3375098896427615, 
            2.079142982647596, 
            1.238487240391167, 
            -1.1974652980881462, 
            -0.18809644536537107, 
            -1.0685620444606687, 
            1.2965540726135254, 
            -0.8346992256167244, 
            0.8014469862637282, 
            0.9295832382613506, 
            -0.2422622364836811, 
            0.04769485202954562, 
            0.20813982915095244, 
            0.16878954439712449, 
            -0.2488912044200511, 
            0.2958587004933888, 
            -0.8073173698945054, 
            -0.4334802345604809, 
            1.367181342674745, 
            0.27933405718198434, 
            0.18537718224930885, 
            1.2700098460236329, 
            -1.246026100065842, 
            0.7362496998936827, 
            -1.166763083122499, 
            -2.4148110333543595, 
            -0.23643285838887762, 
            0.6492076610421762, 
            0.3549121241023592, 
            0.3472000463178361, 
            -0.5627174348427046, 
            -0.34818253266267485, 
            -1.5169785299708618, 
            0.7493203446003008, 
            0.7903894601289059, 
            0.13188721608402196, 
            0.6016262065015484, 
            0.11923133074806419, 
            0.19232453284741868, 
            1.7300226706303892, 
            1.6976454887452745, 
            0.312484463288665, 
            -0.043803108562251884, 
            -2.2317409148246528, 
            0.5232149467966282, 
            0.009871664426798425, 
            -1.453323489768312, 
            -0.2962312415973558, 
            -0.5105651054015377, 
            0.47489413223493904, 
            0.3304906628524669, 
            -0.16578234648489049, 
            -0.12343102790769572, 
            -1.1641117049989858, 
            -1.1578762534114813, 
            -0.7385402431624633, 
            1.0924371285560996, 
            2.4546160368256995, 
            0.6261022653280932, 
            0.6692639247571716, 
            -0.32662499028410225, 
            0.7995664472561905, 
            0.669733814321552, 
            0.1769957159207085, 
            -0.11921737911801625, 
            0.09282863794374956, 
            -0.6391890363502419, 
            0.5862745051552066, 
            -0.13515345986810418, 
            1.554876408594233, 
            -0.1010957121057819, 
            -1.9817781691157437, 
            -0.06444722481762592, 
            0.17579737747360735, 
            1.045844096239043, 
            -1.0393300615102807, 
            -0.5636530355237264, 
            0.11470797028158333, 
            0.6450073505529126, 
            -0.03626273788596522, 
            -1.4004993265727972, 
            0.4666816292365077, 
            0.3596312229803152, 
            1.7713213904206184, 
            0.8220893251230842, 
            -1.4784641385895132, 
            0.27916565442514274, 
            -0.6210596560766882, 
            -1.2602782804126273, 
            0.7551085253655268, 
            0.9617320399955479, 
            1.1293029276229092, 
            0.4176419082978145, 
            -0.16026934317499408, 
            -0.6918247844021613, 
            -0.12141456766295915, 
            0.6362666698716208, 
            0.6359973359481168, 
            0.5558401752161766, 
            0.7849043944020823, 
            -1.2780032245955615, 
            1.151231410699791, 
            0.7793534897190691, 
            -0.7486394761705694, 
            -1.7757837799219103, 
            0.24414629070291782, 
            -0.19042663695558434, 
            0.19151740715538043, 
            1.285295298935369, 
            0.11777156615205794, 
            0.5169849222846166, 
            0.19595761272518872, 
            -0.6071094116090714, 
            -1.6840589282610299, 
            -1.320867888924105, 
            -0.044778549013434976, 
            0.8500083729689101, 
            1.4050550040524201, 
            -1.402992956462025, 
            0.8691281134622977, 
            1.6889547653466301, 
            0.2551686243388538, 
            -1.1075794464787418, 
            -1.1262483746394394, 
            0.6149041534542143, 
            -0.9152984036520613, 
            1.7140873138935138, 
            0.4874589523565192, 
            0.31926403117998076, 
            2.4584206672515916, 
            0.06558138229136191, 
            -0.0320915426295298, 
            -0.029803126246428092, 
            0.8417269278538232, 
            0.5030728387924569, 
            -0.8606151286178703, 
            0.7651811334509888, 
            0.20757456916218406, 
            1.5672060217127903, 
            -0.13176157237314626, 
            -0.1798366623034954, 
            -0.8831067287367077, 
            -1.4080916008658366, 
            0.224997419862997, 
            0.05895346072209524, 
            -0.23052644473683206, 
            1.5327154284608913, 
            -1.536423456122331, 
            0.5476533883200224, 
            -0.9744374373894455, 
            -1.092872852833976, 
            -1.188906984675853, 
            2.467023312514897, 
            -1.4825365392199419, 
            0.6545277195579994, 
            0.4143835727460562, 
            1.4540193619771762, 
            -0.3626308613348303, 
            0.23275448304368423, 
            -0.8437117037485158, 
            -0.06669042812320772, 
            1.431630615803544, 
            1.0717853214875086, 
            1.4888092278402885, 
            -0.2641059954127053, 
            -0.16431689241598266, 
            1.7695703988340863, 
            -1.0207838824857487, 
            -2.2309344352030136, 
            0.3146201104773772, 
            0.40598128451084564, 
            -0.967445858559236, 
            -2.0085168105930045, 
            0.39555915449442514, 
            -0.14306759265942354, 
            0.9670581256906022, 
            -0.503872528221718, 
            -1.092248719769556, 
            -0.038109058294791984, 
            0.7966313632868651, 
            -0.4051152975871322, 
            0.20051676108433447, 
            -0.5293070468982571, 
            0.38279848224275753, 
            2.455018790776219, 
            2.2181565378515553, 
            0.25564112549629536, 
            2.2289500200141465, 
            1.5593594564205908, 
            0.06756366065947547, 
            0.09773900223288642, 
            -0.6931118057096239, 
            -0.27431389344210855, 
            1.3369976174547624, 
            0.2667938429268755, 
            -0.5876213055917391, 
            2.524092581541183, 
            1.069607958810298, 
            -1.589980174323944, 
            -0.8331335645235431, 
            -0.8676195583018335, 
            0.5682367079324483, 
            1.1139131367704986, 
            -0.42575961397141965, 
            -0.48446882502788613, 
            -0.5997257331509697, 
            0.15531933701923342, 
            0.0363247775256479, 
            0.6654134403271644, 
            -0.9904348028765242, 
            0.05479916059571243, 
            -0.14372735628924874, 
            0.1800947523957068, 
            1.1032537315123017, 
            1.036858195404153, 
            -2.251220708700844, 
            0.46235810413305184, 
            -0.2446748796885299
        ], 
        [
            1.3801730220492334, 
            -0.72323885847536, 
            -1.204473556614775, 
            -1.4531718819678037, 
            -0.17970021836063185, 
            0.05530945803134226, 
            0.660238821389305, 
            1.3721258355530046, 
            0.5652017501803885, 
            -0.3640706736022037, 
            -1.7243847482518873, 
            -0.9488311870012369, 
            -1.290992440020902, 
            -3.0624505025194897, 
            1.7874792565996838, 
            0.2709230681997457, 
            -0.4008115135610149, 
            1.3063675666152632, 
            1.2535617247441786, 
            1.3375163443195823, 
            0.3127201905588738, 
            0.14926868550937553, 
            -1.685297918016543, 
            1.884824441275062, 
            0.4082040896152177, 
            0.978969596095333, 
            0.9588288541515892, 
            -0.45803696167616265, 
            0.3732299268973788, 
            0.45026455779242297, 
            1.0402053254359638, 
            -0.021936623754611036, 
            -0.07299932895761854, 
            1.4322922261741782, 
            -1.2066154669265363, 
            0.0894997880847637, 
            0.6557520535084266, 
            1.8252720148686463, 
            1.0180456405564182, 
            -0.706647185368351, 
            0.6945394182404194, 
            1.5792857599339556, 
            0.6995108199714253, 
            0.5660464412814487, 
            -0.861563690615838, 
            -0.44862273127873425, 
            -1.5970472485244502, 
            -1.6188727851277793, 
            -0.5392169862089522, 
            0.5334710224335281, 
            1.133737696589368, 
            1.2896918181654946, 
            -0.1637021964305206, 
            -0.27702882236627435, 
            0.2575622857507717, 
            0.03397491686750147, 
            -0.9583315003050321, 
            1.286663305095235, 
            0.07381753412827582, 
            -2.1740268926765305, 
            0.07678540192518804, 
            -0.7027691618652507, 
            -1.3968810042139579, 
            0.377644724131235, 
            0.5442467477484798, 
            0.2831234160225536, 
            -0.5969083204692864, 
            -0.33264870868386576, 
            -1.193514978674062, 
            0.018791759651038284, 
            0.22490731350347176, 
            0.3631246046568687, 
            0.7055711351605971, 
            2.120628140181599, 
            -0.8591859115804746, 
            0.6618614707571668, 
            0.5996714567236552, 
            1.127822665545395, 
            -1.1699888542427308, 
            1.7988741050906516, 
            0.4821762482193255, 
            -1.8161588992952133, 
            2.1850129715561017, 
            -0.845594815609061, 
            1.5380247765801498, 
            -2.06935145739568, 
            -1.2839857349365502, 
            1.8296806265714822, 
            -0.5671694235932815, 
            0.22512528177155786, 
            -0.7966850431397907, 
            -2.3360941789251006, 
            0.628685179557955, 
            0.61288083926831, 
            0.3201653543686946, 
            -0.4202130167382745, 
            0.5104168698891686, 
            1.7757531885928741, 
            -0.2678338193835156, 
            -0.11838280942748704, 
            0.3380528986280556, 
            0.5987045216351538, 
            -0.09122122578158343, 
            1.3054346699292279, 
            -1.2659058212081453, 
            0.3522832302461067, 
            0.5679507159629301, 
            1.0364468955210213, 
            -1.0803451444011927, 
            -1.2586377027589102, 
            -1.0139244501740732, 
            0.2366638852726288, 
            -0.37262066745734096, 
            -1.0019934373956645, 
            -0.9039073418510748, 
            -0.6359709655711702, 
            0.1539198666070856, 
            -0.5737996004551842, 
            1.2589187040627214, 
            0.010638438176873892, 
            3.531708980932522, 
            -0.1395364694102149, 
            0.6218483306137729, 
            0.46267005703290964, 
            -2.2663183646961955, 
            0.10944922524473401, 
            -0.6655436441797573, 
            -1.1038456296056371, 
            -1.1001943893520052, 
            -0.510537205738437, 
            0.42161890876847097, 
            -0.02237212059943699, 
            -1.2374615600166952, 
            0.9275359119532587, 
            1.4203050188263258, 
            0.6075298484268502, 
            -0.48319615883251826, 
            -0.7787532022525145, 
            0.09966994014591309, 
            -0.5715491594582329, 
            1.9002237084563782, 
            0.6256678698554703, 
            0.4193166999965641, 
            0.16672302487287616, 
            0.22968584321152974, 
            1.1493426337738941, 
            0.8057798442404003, 
            -2.0972974857952362, 
            -0.5165649353529792, 
            -0.3050793698034048, 
            1.1142977659767224, 
            0.47642942118045967, 
            1.9765718288654723, 
            0.04976157221587353, 
            1.641422104328821, 
            -0.540604475120231, 
            -1.7370773913587314, 
            -0.8706010182630683, 
            -0.4115570521317671, 
            1.0454852765905838, 
            0.26268364534901506, 
            0.10578816249181064, 
            -1.1263561528220583, 
            1.486344217367819, 
            -0.21098394918139612, 
            -0.033160047829858486, 
            0.13062836292153282, 
            0.4007069130325511, 
            0.7901814713877056, 
            -0.09773797321023572, 
            0.8636171150391929, 
            0.200457301498443, 
            0.4066789982782691, 
            0.8426176182627815, 
            0.4748285854836941, 
            0.2060612991891128, 
            -1.239949275897605, 
            1.4175739199998543, 
            0.49563576808870474, 
            0.6171760382870228, 
            -0.010837430453400035, 
            -0.5545351410701541, 
            0.022732184868837782, 
            -0.7984364157152201, 
            -0.7321961367015477, 
            0.5944635647813892, 
            1.4085091142149133, 
            0.9991302056235547, 
            1.2116553440894133, 
            0.7417740292813618, 
            -1.0023185797010286, 
            -1.5970286145787769, 
            -0.545937527139799, 
            -0.9868202113184106, 
            -0.10158657038108437, 
            0.12636953121773792, 
            0.6043155879317652, 
            0.09185766960096736, 
            0.31397541238903354, 
            0.44185104256893704, 
            -0.4465676857424204, 
            0.927361621624352, 
            0.43030533889893435, 
            -1.0029015303798212, 
            1.2761185838056854, 
            0.84234850541376, 
            -1.5148443646725644, 
            0.10143747541306722, 
            0.5181599274249445, 
            1.1246502230668949, 
            -0.13768830128058132, 
            0.0749888167981726, 
            0.17690145705647276, 
            -0.46740016144415225, 
            0.07165560433021585, 
            0.7066385494727057, 
            -0.7172654779309469, 
            0.7971249371304324, 
            -0.8529686470544221, 
            0.5068536661289443, 
            0.41309660561574396, 
            0.060663802693276106, 
            -0.7799095576685338, 
            0.12868573692549817, 
            0.3976054285329258, 
            -0.05079675480959814, 
            -0.45601739597493696, 
            -0.811019769871691, 
            1.1924656759342342, 
            -0.6868814634837265, 
            1.1714270826952504, 
            -0.18133041110069192, 
            0.5837525145435701, 
            2.384062328099177, 
            -0.4065516426231208, 
            -1.0705314080532513, 
            0.17425945508553994, 
            -0.9717789065896631, 
            0.3269637777615058, 
            0.9341765193179378, 
            0.6170340375930145, 
            0.8524810429001329, 
            0.16495321993165074, 
            0.012281347949457453, 
            0.12857139483070093, 
            0.9676382175862993, 
            -0.5263933352875543, 
            0.27486057942880865, 
            -1.2108108347115285, 
            0.5571639891723984, 
            0.7476902431963367, 
            0.14586861025757422, 
            -0.9570348535205778, 
            1.31493884120759, 
            0.37073352774081686, 
            1.3528493301125604
        ], 
        [
            1.4866721025775524, 
            0.9949431574191941, 
            2.8890558165386544, 
            0.8737268907402651, 
            0.08824538542152824, 
            -0.06503414976501412, 
            -0.036605062419250524, 
            0.581022469181765, 
            1.8329649750504966, 
            0.16991499253455788, 
            0.01931361962012708, 
            0.24514391236121258, 
            1.6052379023851517, 
            1.4473231969547538, 
            1.7426237588686548, 
            1.1493722558683042, 
            0.17137271647435506, 
            0.7720942420782962, 
            -0.6364436110026841, 
            1.1958101053511296, 
            -0.8615497537634652, 
            0.39662249540791106, 
            0.8503673837669754, 
            1.3115171288017977, 
            0.16646382614205105, 
            1.6927750086108884, 
            0.4099958986071532, 
            -0.38925999225504354, 
            0.39311704647256596, 
            -0.676957011978679, 
            0.7949006904398065, 
            2.446274435043348, 
            0.9734881706993661, 
            -0.024362251802761106, 
            0.6018108973162087, 
            0.14280904937070765, 
            0.18127730619633683, 
            0.5998037553030334, 
            0.3143580377365194, 
            0.17715734293879068, 
            -0.2680064411992301, 
            1.4876196915772464, 
            3.127084691908048, 
            -0.08533733300589934, 
            -0.5308878690901114, 
            -0.9218212719211346, 
            0.6314344061703483, 
            0.21617907933192543, 
            -0.1814253689582997, 
            -0.5842934865276981, 
            0.5470120454432823, 
            -0.010702119924128077, 
            -0.015476682204213983, 
            -1.1962470449547773, 
            -1.063662708797074, 
            -0.4401407655167127, 
            -0.7942760191334233, 
            0.37075520563400005, 
            -0.25275216721559873, 
            -0.8912897112793119, 
            0.3434918577195474, 
            0.2308047083013257, 
            -2.6748213873075333, 
            -0.7923697502147851, 
            0.7632889429885192, 
            -1.4968974665319925, 
            -0.27021698773976965, 
            -1.4797940390474602, 
            0.501831790559346, 
            -0.02057754528949365, 
            -0.2696364589587412, 
            -0.26016428725328133, 
            0.022675455046706667, 
            1.197952802775127, 
            0.8291600401769191, 
            1.0975231775875598, 
            0.5240788375721936, 
            -0.752344879200698, 
            -1.9772340792039242, 
            -1.9991030986104108, 
            -0.24588538958454273, 
            -0.28344859126369243, 
            0.4796630491840797, 
            -0.46595982846660866, 
            -0.539608405794504, 
            0.5678867502909296, 
            1.0247105327645232, 
            -1.0373776847429277, 
            0.19770180595278086, 
            -0.9031738629588814, 
            -0.7025745153374208, 
            -0.24948019045400324, 
            0.5239337100187306, 
            -0.2905650091386427, 
            -0.3818035011856225, 
            -1.5260514466491955, 
            0.04507917077823605, 
            -0.7793420770512136, 
            1.3970536396505768, 
            1.6560921629140362, 
            -1.1201373511949015, 
            0.23359616779331938, 
            2.561656856319278, 
            0.3730131799853322, 
            0.07140999493827827, 
            0.9106104617516372, 
            -0.5094454040546221, 
            0.7545799195848046, 
            1.4796316531921934, 
            1.0523967525443252, 
            -1.614054586511444, 
            -0.5039815794504129, 
            1.4174165940247794, 
            1.5407153218272647, 
            0.8807011032734912, 
            -1.2850408925765442, 
            -1.3392298389243256, 
            0.010704365554101092, 
            -0.24749811417189319, 
            0.4084681888247318, 
            -1.3359879133106458, 
            -0.05611663961095042, 
            0.08763882456422567, 
            0.4928227371572469, 
            0.8270842268913903, 
            1.4252530324898405, 
            1.2438968358867633, 
            -0.0833970097601829, 
            -1.7907279328606458, 
            1.2043367877186468, 
            -0.4243243740015697, 
            0.833156909954233, 
            0.1772616362285954, 
            2.137963694424579, 
            -0.9543652235576298, 
            -1.2902332303228354, 
            -1.7391631959808946, 
            0.5217549979587813, 
            -0.40595076016429493, 
            -0.6294161469954115, 
            -0.6380540325941997, 
            1.1433103990898577, 
            -1.6878063250961297, 
            -0.6132404929917151, 
            -0.9059539451576942, 
            -0.8087319149695057, 
            -1.4019481398011164, 
            -0.8629785150465854, 
            0.9514258256053791, 
            -0.4232111069979351, 
            0.21124622456114037, 
            0.7892162134517919, 
            -0.02637774546291828, 
            -0.9036121761324966, 
            0.03224848380983824, 
            -0.11285729439859152, 
            0.08374088503067556, 
            0.5928761753082006, 
            -2.6311205723230153, 
            0.48923958731557976, 
            0.7364645832216543, 
            -0.8608594361010736, 
            -0.9102718698054488, 
            -0.8366825295176225, 
            -0.25881103988956033, 
            0.3014400942901022, 
            -0.7353916395741641, 
            -0.5177322620812905, 
            -0.12584972649310838, 
            0.7968137320618189, 
            0.41045346280016803, 
            0.8449991900958606, 
            0.5833927813193213, 
            -0.3504012859460443, 
            0.3429459029206973, 
            1.096569763638994, 
            -0.754969601024842, 
            0.05747767029439743, 
            -0.09057435603519319, 
            0.4099743049068486, 
            0.9584874614997992, 
            1.1230478257455743, 
            0.5390163911235167, 
            0.5246531060601234, 
            -0.8617776257761615, 
            0.5009173105003079, 
            1.6123755267029878, 
            1.3408272779342387, 
            0.5116231603147933, 
            1.3651800238499838, 
            -0.9179297598975389, 
            1.0350322422297096, 
            0.1449656751139313, 
            0.41499623774835415, 
            -0.9017911840480752, 
            -0.5170064370840953, 
            -0.11903512021971198, 
            -0.4428039360121, 
            0.7419318632572753, 
            0.020406699821381505, 
            -0.31320823218895055, 
            0.18131768036692936, 
            2.2817636325651653, 
            -1.130262305214669, 
            0.7210038416208734, 
            2.6345331083431094, 
            1.089581522548299, 
            -1.2359677869001455, 
            0.09837176783235099, 
            1.3463339335405566, 
            -1.36425896844322, 
            0.01603251004668069, 
            0.7327701959452728, 
            1.8616219605751705, 
            -1.4628148782172863, 
            -0.3639389560686216, 
            -0.42659682567255536, 
            0.7516741194030129, 
            0.0044573974713017685, 
            -0.20283819059866878, 
            0.5819774894844143, 
            -1.7656285230250655, 
            -0.6433935387931881, 
            -0.17512171643199576, 
            -0.17871951238430453, 
            -0.9273521208714199, 
            -3.0525608734926934, 
            0.394015088014785, 
            1.0799116405654414, 
            -2.389746644396523, 
            -2.789684140905245, 
            -1.529137668292297, 
            -1.0756816729319945, 
            -1.5386839806876162, 
            -1.6543975252789223, 
            -0.5000353848516643, 
            -0.22556968258085347, 
            0.2285318166873047, 
            -0.6535052703573274, 
            -1.108410908409159, 
            1.5083732827731302, 
            -1.0280960261923158, 
            -0.2386847796826266, 
            -0.21778434900222327, 
            -2.2935740835590814, 
            0.49033960814788663, 
            -1.6306197216092613, 
            -0.9370069129621827, 
            -1.0905744980157943, 
            -1.3268916970046625, 
            -0.3452347535493693, 
            -0.6451175049159908, 
            -1.9321204158642757, 
            -0.45419935871858724, 
            0.37854107072438753, 
            1.0309559781155586
        ], 
        [
            1.188361686586721, 
            -0.5174738896881181, 
            0.6392680072393255, 
            -1.2976623729091674, 
            1.2703865534785959, 
            0.928411850489929, 
            -0.7182471247271937, 
            -0.2800254104511237, 
            0.16470489708141892, 
            -0.7396651273707526, 
            0.5625227228789457, 
            0.4813618261433305, 
            -0.22241657325734626, 
            1.15604073570165, 
            -0.06270691858964995, 
            1.1664405862383296, 
            1.6269661680735572, 
            0.7585670996189741, 
            0.928564267167378, 
            -0.05609828261057786, 
            0.823816294434539, 
            0.6462251780686442, 
            1.8734376733951479, 
            -1.6764517558778067, 
            0.2932902319045549, 
            0.3477593005779838, 
            0.9293031950729999, 
            -1.453702111271772, 
            -0.6361114555837336, 
            -0.07472923777398743, 
            0.6525711324471268, 
            1.6775022478633734, 
            0.8952491556704991, 
            -1.041863513160814, 
            0.8817581078746637, 
            0.15726268404970728, 
            1.9311379867392797, 
            1.1450985997709826, 
            -0.1441311516903061, 
            -0.6810717679743952, 
            -0.4411793332071291, 
            -0.4116584870614375, 
            1.2603494463801468, 
            0.15257096600526857, 
            1.3744008007126522, 
            1.077510270324831, 
            0.8320068732723513, 
            1.6372594130147937, 
            -0.7681497940232608, 
            0.7660675221742305, 
            -1.2207758285882766, 
            0.5527945731419884, 
            -1.3569875113779888, 
            -1.3602578554269587, 
            -0.0997708336954527, 
            0.03184740384629422, 
            -1.9152705271137715, 
            1.3055853064158214, 
            -0.21579963758683016, 
            0.3283621035504881, 
            -1.019420930647566, 
            -0.43417445893621304, 
            -0.09715557005598774, 
            -0.9302501498808863, 
            -0.5104072014211487, 
            -1.3719021084170262, 
            0.48851483038762716, 
            -0.8037462787170085, 
            1.2749848112661062, 
            1.0093178026498577, 
            2.1516585561403003, 
            -0.9341140965566493, 
            1.6702154470244257, 
            0.6440152372100213, 
            0.6564025306460192, 
            0.2887761190984771, 
            0.9757116497871399, 
            -0.2860300431388641, 
            1.0432847343913545, 
            -0.9700873788463532, 
            -0.8246385106690307, 
            -0.7941962939986176, 
            -0.7205747233636726, 
            -1.0918175832673287, 
            -1.4604981661011511, 
            0.3346818309989832, 
            -0.15197154167628232, 
            0.9780335471724888, 
            1.1014630030192565, 
            -0.3725799710490803, 
            0.09117224546779591, 
            -0.5063533957538872, 
            0.0852707116644954, 
            0.2010027631720594, 
            -0.9963765081524734, 
            -0.7670253369400027, 
            -1.4104717408313716, 
            1.2569259701292637, 
            -1.2338772302386398, 
            -0.8636796971003599, 
            -0.2558706115782775, 
            -2.0118853843513813, 
            -2.176236579700945, 
            0.17434141096893307, 
            3.5010828766667603, 
            0.7412673577593704, 
            0.5975322602367207, 
            -0.061768864213023425, 
            -0.9468845283765791, 
            -0.6462630645697891, 
            -0.429268121677341, 
            -0.531521403202504, 
            -0.6652548749217019, 
            1.8440390633015096, 
            -1.3854968529397893, 
            -2.8713530459078873, 
            -1.081975354179304, 
            -0.6728144248950161, 
            -0.7010210205809855, 
            -0.5682235299829956, 
            1.6680806015545024, 
            0.05094439814684103, 
            1.5634790303264001, 
            0.1599565200880592, 
            1.7061053875074141, 
            1.41724930999825, 
            0.49243650030366803, 
            1.107730628985267, 
            -2.1684497769763484, 
            -0.6185599770152395, 
            -0.3453123621364442, 
            -0.32979546348638583, 
            -1.4830800272832485, 
            -1.3748857251095545, 
            -1.2747188500504403, 
            0.21992969153104897, 
            0.09332251821450131, 
            0.40459005667207076, 
            0.41834221964250373, 
            0.5521081337855754, 
            0.013037999098247448, 
            -0.9323673042628362, 
            -0.5853311931611528, 
            0.5905412523501704, 
            0.15589552794144884, 
            -1.4798980920368163, 
            0.07749362423073185, 
            0.15338346920156506, 
            -2.923797393583151, 
            0.04777251252754766, 
            -0.5566028680653323, 
            1.3072942570442057, 
            -1.6901894920813179, 
            0.518076649950425, 
            -1.9311173914595896, 
            -0.8766836349127988, 
            -0.24375003390915245, 
            0.2150810329309234, 
            0.39581950994229403, 
            -1.098955981665753, 
            -1.600010016944221, 
            -0.8142389560926246, 
            -1.0910799147133738, 
            -1.4162678992183144, 
            -0.7835122134137201, 
            -0.5061592936974659, 
            0.40874698836048, 
            0.757658794066719, 
            -0.9195068898075971, 
            0.7066015633978754, 
            2.0740753161048575, 
            -0.9325660983484169, 
            -0.42365114204822907, 
            -1.4711513446791862, 
            -0.5707543935828492, 
            -0.5401466144163097, 
            1.5923505925328634, 
            -0.7603946771009918, 
            -1.71845969853352, 
            -1.110984062677938, 
            0.06551956972711748, 
            0.0764908159724836, 
            -0.09499381193074241, 
            1.3063976528286296, 
            -0.11838478691867464, 
            -0.24468628229731357, 
            0.5270990283114535, 
            -0.018811798986831, 
            0.9247399468196144, 
            -0.13296832547319598, 
            0.9319760768471341, 
            0.5452810160916612, 
            0.28461857353541864, 
            -0.8265870015566313, 
            -1.35214291296664, 
            0.07022433889891001, 
            -1.3395927703584265, 
            -0.21434036688963604, 
            -0.49329302213831455, 
            1.2611017211636855, 
            -0.1730012005830628, 
            -0.31628408207806674, 
            -1.3329025612541698, 
            1.0209006901396807, 
            -0.3440927985546437, 
            -1.168282215944724, 
            0.6099940041559099, 
            -0.5310166605769906, 
            0.12860821782755838, 
            -0.23297264502093737, 
            1.3792188937081447, 
            -0.14610769810598534, 
            -0.5258261097929715, 
            1.003811362911861, 
            -0.24677294920640577, 
            1.558168507692554, 
            -0.5541203439768007, 
            -0.4865690115198908, 
            -1.1632030494013985, 
            -0.401676781656221, 
            -0.027401598907436406, 
            -1.0544091217552525, 
            0.8022441447684339, 
            1.413830773223777, 
            -0.23876531746503463, 
            0.47888054627147797, 
            -0.8255173189364376, 
            -1.379261468340641, 
            -0.13369690176456522, 
            0.45172620416335063, 
            0.4571048836445636, 
            1.5076310074815138, 
            -0.2875194163357401, 
            0.622596132988176, 
            -0.2908351936483457, 
            0.4016449386830486, 
            -0.0749803958896381, 
            2.116539500083063, 
            0.3480533393903738, 
            -0.23587458053576035, 
            0.08489382192197399, 
            0.5724882750968407, 
            0.48129515849820786, 
            -0.9468423490653235, 
            2.52281773662489, 
            -0.040802922358174974, 
            0.7933583652508611, 
            0.8281197572022665, 
            1.441178524606518, 
            0.9411993639815973, 
            0.34806146211922967, 
            -0.21948439247932405, 
            0.5873401922809619, 
            0.7303107643803178, 
            1.410732651444697, 
            0.5739808604233225
        ], 
        [
            0.4888335099195568, 
            -1.7041624261918302, 
            -0.3250052568829702, 
            0.9433808700713667, 
            0.353288510416716, 
            0.2209312343558434, 
            0.7740909372206738, 
            -0.3053601124159067, 
            -1.3341068085031174, 
            1.5547177402552201, 
            -1.0601369573523212, 
            -0.9111636265879346, 
            0.29884067381826196, 
            0.2614071455769603, 
            -0.6816461519375815, 
            -2.3464323491669314, 
            0.37814249916115267, 
            2.014452888613709, 
            -1.9715765593872419, 
            0.9651845779133487, 
            0.28222789028493883, 
            1.0614593450774432, 
            0.1960529601802778, 
            1.255472897057143, 
            -1.784863451498387, 
            0.7053907910444388, 
            -0.38007950702898324, 
            0.2838993113020254, 
            1.1765415173149667, 
            -0.21086558762808347, 
            -0.4344113098682033, 
            -0.13722991376847038, 
            -1.0475696468053768, 
            0.04013620790377007, 
            0.12093460755159692, 
            -0.5343987607162645, 
            0.8301245242527101, 
            -0.7359080849513713, 
            -0.39795158520983964, 
            -0.4881681687554186, 
            0.0683740535789468, 
            -0.7981760489414128, 
            -0.4650358597652438, 
            -0.9297036511543849, 
            0.1583740757224043, 
            -0.942315325830711, 
            1.6247306445129275, 
            -0.18105388128792754, 
            -0.6248328206765879, 
            -0.722397543963645, 
            -1.210964885678436, 
            0.6803827452045524, 
            -0.9570924266512423, 
            -1.3439286319221695, 
            0.37260825744103726, 
            -0.46664350632451407, 
            -0.5284852064311358, 
            1.2170156030537014, 
            0.7754893467934729, 
            0.6474788456235371, 
            1.1542978905613093, 
            0.5671556457151603, 
            -0.48321960152938687, 
            0.4341082318212059, 
            -1.069843927726568, 
            1.327710463583462, 
            -0.5516886047268659, 
            -0.07373667405129139, 
            0.4155865886839127, 
            1.0238248420996712, 
            -1.1768882314173343, 
            0.12520065062074073, 
            1.6482691487429078, 
            1.4248061876193412, 
            -0.3259528099887099, 
            0.40551951915794865, 
            -0.28187841295896426, 
            1.8322506061040746, 
            1.1867502870402684, 
            0.4710545999975486, 
            -0.6303897179983756, 
            -0.9862831026062828, 
            -1.5130602144798067, 
            -0.5663063330027048, 
            -0.24877221999728907, 
            -0.9130193976730999, 
            0.8878572172912995, 
            -1.1694683687249168, 
            0.63351383422499, 
            -1.3204509025924571, 
            -1.140894953193671, 
            1.1982185907294132, 
            0.031039189600639217, 
            2.0788148568676816, 
            0.8827479970115761, 
            0.36608961082381175, 
            -0.13406798741211218, 
            -0.7343202708503878, 
            0.3234707076041566, 
            -2.0388833316549233, 
            -1.0567866557149288, 
            0.21348985091544773, 
            0.48433076786527113, 
            0.24547421503356964, 
            -1.6207267743799691, 
            -0.4151816316678625, 
            -1.4708306798222701, 
            1.9266549582183397, 
            0.9274543528884397, 
            -0.13682901936326325, 
            1.6208922552237437, 
            -0.11109890743458803, 
            -1.4499298137263907, 
            -1.3488259139978516, 
            -0.9106809676270157, 
            -0.10069301932419336, 
            -0.8096728018109006, 
